tree
version=v4
num_class=1
num_tree_per_iteration=1
label_index=0
max_feature_idx=8
objective=regression
feature_names=Column_0 Column_1 Column_2 Column_3 Column_4 Column_5 Column_6 Column_7 Column_8
feature_infos=[-0.12645718455314636:5] [-0.12661352753639221:5] [-0.12640795111656189:5] [-0.12650862336158752:5] [-0.43318846821784973:5] [-4.0397491455078125:5] [-1.9808946847915649:5] [-5:5] [-0.11399253457784653:5]
tree_sizes=6208 6221 6234 6218 6174 6253 6209 6179 6135 6138 6229 6228 6199 6198 6142 6181 6178 6154 6204 6254 6133 6164 6136 6121 6075 6104 6196 6102 6168 6093 6134 6102 6143 6151 6199 6147 6099 6122 6185 6108 6152 6176 6165 6164 6110 6125 6101 6079 6179 6114 6135 6098 6164 6167 6187 6096 6159 6164 6113 6156 6166 6179 6163 6141 6148 6079 6066 6123 6122 6076 6111 6110 6101 6162 6112 6119 6154 6108 6140 6170 6081 6193 6131 6114 6211 6064 6137 6195 6119 6157 6150 6181 6138 6187 6155 6158 6136 6102 6136 6163 6162 6188 6080 6082 6150 6085 6072 6127 6125 6083 6137 6134 6124 6099 6129 6054 6075 6108 6064 6108 6079 6078 6083 6067 6098 6143 6072 6118 6076 6142 6139 6156 6096 6176 6134 6035 6134 6089 6050 6044 6110 6132 6136 6230 6108 6097 6137 6113 6088 6100 6116 6105 6087 6106 6130 6153 6107 6167 6104 6131 6151 6123 6147 6132 6184 6160 6149 6121 6136 6171 6123 6173 6153 6173 6177 6179 6099 6144 6130 6078 6090 6067 6078 6104 6105

Tree=0
num_leaves=64
num_cat=0
split_feature=7 8 4 8 8 6 7 6 3 6 7 8 3 6 4 6 4 4 3 0 4 4 7 8 8 6 7 6 0 1 8 4 7 4 8 1 0 6 7 0 8 6 0 7 4 7 8 4 4 7 0 0 0 0 4 8 1 1 3 4 4 8 4
split_gain=0.164892 0.0550937 0.0636321 0.0553211 0.0547579 0.0679274 0.0913641 0.0904864 0.0512458 0.0485482 0.0453983 0.0398392 0.0397556 0.0360015 0.0353244 0.0327642 0.036504 0.0303645 0.0297108 0.0620694 0.0434912 0.0363462 0.0362613 0.0355905 0.0305071 0.0287199 0.0608009 0.0281389 0.0270364 0.0274785 0.0572568 0.0744745 0.0404978 0.0393437 0.0565111 0.0501892 0.0458724 0.0450854 0.035714 0.0387009 0.0353015 0.0288304 0.0276327 0.0264147 0.0261253 0.0259223 0.0254317 0.0252247 0.0247339 0.0247256 0.0240113 0.0237939 0.0226526 0.0316329 0.0222797 0.0330383 0.0263024 0.0355826 0.0216988 0.0214887 0.0213977 0.021284 0.041744
threshold=1.2840424776077273 -0.11293687298893927 -0.37542247772216791 -0.068984109908342348 0.10991821065545083 0.074050806462764754 2.5144288539886479 -1.1325296759605405 -0.073956523090600954 -0.83156898617744435 0.092995453625917449 -0.094252478331327424 -0.098533947020769105 -1.4881756901741026 0.6921212673187257 -0.54001492261886586 0.11999697610735895 -0.12488283589482306 0.23644084483385089 0.13152004778385165 -0.4231495708227157 -0.39625434577465052 -0.20992151647806165 0.15209066867828372 0.17637221515178683 -1.4881756901741026 -2.8766720294952388 -0.6713123321533202 -0.041757661849260323 -0.12218898162245749 -0.1093601994216442 -0.28430084884166712 0.18065384775400165 -0.10700733959674834 -0.10353418067097662 -0.1153721511363983 -0.11904747784137724 -0.82170167565345753 -1.7033931612968443 -0.12438075616955756 -0.10747164115309714 0.50567990541458141 -0.11791244521737097 0.076484631747007384 -0.059580113738775246 3.4840608835220341 -0.098757747560739503 -0.39473100006580347 -0.15723478794097898 -2.3937333822250362 -0.084880389273166643 -0.12588030844926831 0.044341126456856735 -0.0038331883260980244 -0.22413715720176694 -0.11063656583428381 -0.12298736348748206 -0.12280695140361785 -0.12026472017168997 -0.39857368171215052 -0.41371101140975947 -0.093925584107637392 -0.29739785194396967
decision_type=2 2 2 2 2 2 2 2 2 2 2 2 2 2 2 2 2 2 2 2 2 2 2 2 2 2 2 2 2 2 2 2 2 2 2 2 2 2 2 2 2 2 2 2 2 2 2 2 2 2 2 2 2 2 2 2 2 2 2 2 2 2 2
left_child=1 44 8 25 5 6 9 45 43 -2 13 -9 17 -5 -15 -12 -17 -13 19 23 -20 -22 24 -10 -21 49 -27 -14 29 38 31 32 -31 42 -35 36 46 -38 39 -28 54 -42 58 -3 -1 48 -36 -26 -8 -4 -37 -46 53 -6 55 56 -40 -58 -32 60 -24 -11 -63
right_child=4 2 3 10 52 -7 7 11 18 61 15 12 27 14 -16 16 -18 -19 20 22 21 -23 59 -25 47 26 28 -29 -30 30 33 -33 -34 34 35 50 37 -39 40 -41 41 -43 -44 -45 51 -47 -48 -49 -50 -51 -52 -53 -54 -55 -56 -57 57 -59 -60 -61 -62 62 -64
leaf_value=-0.0016827567957789925 -0.0017255234525705397 -0.0016235724800632363 -0.00053814180017026599 -0.0008576613513875599 -0.0012499436279305191 -0.001691388293655164 -0.00069175280058917754 -0.0011293912576320689 -0.0015534392137354148 -0.0014829130930676415 -0.0012869373319646983 -0.00032350679841310136 -0.00013452805750772501 -0.0019266580808647311 -0.0032376395743585421 -0.0017109362307378285 -0.0030074776159691075 0.00091378323109019672 -0.0015955494338818 -0.0011766861369424282 -0.002173898800919157 -0.0014188855225476683 -0.0014516067696144349 -0.0019997422427292808 -5.9830181315794709e-05 -0.0025926318404870799 -0.0035139876596395536 -0.0013576545140048292 -0.0026788102656613135 -0.0016568393478070466 -0.0016198588927561156 -0.0014958652492964026 -0.0020307946870753843 -0.0016742107780988327 -0.0018473950585283692 -0.0020536254289830673 -0.002416166305495366 -0.001373276737755381 -0.0018736640237799267 -0.0019595678096587799 -0.0015684625922064231 -0.00070038129123080274 -0.0016535061385299999 -0.0017636538258708342 -0.0016687364089741745 -0.0023145042497580851 -0.0027495569737441923 -0.0013710779505201728 -0.001938977847248057 -0.0014722696628985468 -0.0014665861826269975 -0.0013179574530419818 -0.0011225066207260069 0.00029421970045307735 -0.0017308929269774205 -0.001487575134399955 -0.0031165908425360381 -0.0020937773643195921 -0.0019241150405874847 -0.0020298587798079221 -0.00074882072587346168 -0.0014438856472267934 -0.00079768961507016361
leaf_weight=1165 1111 6691 82 77 60 2026 84 193 13521 941 480 118 88 4695 51 1781 55 91 2670 368 685 207 589 461 142 186 57 101 68 2298 874 8376 1056 5159 229 3097 116 908 1069 131 335 133 23508 6769 630 95 118 50 74 488 184 2076 455 75 9343 364 107 408 1776 125 132 555 455
leaf_count=1165 1111 6691 82 77 60 2026 84 193 13521 941 480 118 88 4695 51 1781 55 91 2670 368 685 207 589 461 142 186 57 101 68 2298 874 8376 1056 5159 229 3097 116 908 1069 131 335 133 23508 6769 630 95 118 50 74 488 184 2076 455 75 9343 364 107 408 1776 125 132 555 455
internal_value=-0.00165455 -0.00166986 -0.00167702 -0.00170464 -0.0014107 -0.00145646 -0.00133463 -0.000874329 -0.00161942 -0.00146173 -0.00183626 -0.000536083 -0.000250414 -0.00192362 -0.00194108 -0.0016543 -0.00175049 0.000224889 -0.00156644 -0.00153632 -0.00169655 -0.00199862 -0.00121976 -0.00156818 -0.000907961 -0.00168909 -0.00169246 -0.000783146 -0.00168964 -0.00168849 -0.00167151 -0.00157558 -0.00177466 -0.00170279 -0.00178817 -0.00191452 -0.00166044 -0.00149204 -0.0017563 -0.00243819 -0.00174533 -0.00132025 -0.00167076 -0.00169402 -0.0014848 -0.00166576 -0.00215644 -0.000398056 -0.001274 -0.00133616 -0.00202066 -0.0013996 -0.00095167 -0.000384044 -0.00176298 -0.00191676 -0.00201543 -0.0023087 -0.00182379 -0.00142679 -0.00132186 -0.00131155 -0.00115222
internal_weight=110412 103890 100019 67609 6522 5932 3906 844 32410 3062 7139 591 398 4823 4746 2316 1836 209 18950 15388 3562 892 1406 13982 560 60470 59900 189 59714 59646 47699 11730 3354 35969 9811 4652 1371 1024 11947 188 11759 468 26158 13460 3871 253 347 192 158 570 3281 2706 590 135 11291 1948 1584 515 2650 846 721 1951 1010
internal_count=110412 103890 100019 67609 6522 5932 3906 844 32410 3062 7139 591 398 4823 4746 2316 1836 209 18950 15388 3562 892 1406 13982 560 60470 59900 189 59714 59646 47699 11730 3354 35969 9811 4652 1371 1024 11947 188 11759 468 26158 13460 3871 253 347 192 158 570 3281 2706 590 135 11291 1948 1584 515 2650 846 721 1951 1010
is_linear=0
shrinkage=1


Tree=1
num_leaves=64
num_cat=0
split_feature=7 5 6 7 6 8 4 5 8 4 7 0 2 4 8 8 2 0 5 7 5 0 5 0 8 2 2 2 4 4 8 7 8 8 5 4 8 5 6 8 7 0 6 6 8 5 5 7 5 8 6 5 2 4 4 7 0 6 8 6 6 8 5
split_gain=0.148914 0.127546 0.0982674 0.0797122 0.0661456 0.0497257 0.0574423 0.0535341 0.0454394 0.0734078 0.0828272 0.0529118 0.0446768 0.044236 0.0406506 0.0358008 0.0413117 0.0387407 0.0343514 0.0403597 0.0340617 0.0302002 0.0296605 0.0295808 0.0293046 0.0469886 0.0286693 0.0612291 0.0376653 0.0326721 0.0311463 0.028124 0.0468457 0.0358291 0.0290325 0.0274443 0.0369718 0.0265458 0.0261942 0.0255447 0.0392024 0.0389226 0.0417293 0.0410323 0.0322795 0.0250855 0.0250435 0.0257331 0.0244668 0.0377904 0.0244498 0.0240781 0.0238433 0.0235794 0.0231308 0.0250612 0.0416246 0.0313411 0.0239342 0.0227675 0.0223937 0.0217042 0.0216339
threshold=1.2840424776077273 -0.52006039023399342 0.33850912749767309 2.2682548761367802 -1.4881756901741026 -0.11293687298893927 -0.37542247772216791 2.487978577613831 -0.10353418067097662 0.16060553491115573 0.053232138976454742 -0.12082561478018759 -0.07252259179949759 1.4352250099182131 -0.058081481605768197 -0.093925584107637392 -0.098414421081542955 -0.048737268894910805 -3.2707502841949458 -2.3937333822250362 -0.050885237753391259 -0.102335337549448 2.2183740139007573 -0.099488038569688783 0.027395242825150493 -0.077950891107320772 0.23588193207979205 0.12850218266248706 -0.4231495708227157 -0.39625434577465052 0.12948579341173175 0.20549625158309939 -0.069996360689401613 -0.092893518507480607 -1.4499033093452451 -0.17642193287611005 -0.1093601994216442 -0.11081404611468314 -0.83156898617744435 -0.092893518507480607 -2.8766720294952388 -0.10677387192845343 0.19465658813714984 -1.1502245664596555 -0.085237588733434663 0.34444293379783636 3.6130065917968754 2.5144288539886479 -0.64830896258354176 -0.078505828976631151 -1.4881756901741026 2.487978577613831 -0.11327787116169928 -0.059580113738775246 -0.3111474066972732 -1.7033931612968443 -0.12438075616955756 -1.1502245664596555 -0.10769719630479811 1.6387104988098147 -1.3812497854232786 0.059373525902628906 -2.1394776105880733
decision_type=2 2 2 2 2 2 2 2 2 2 2 2 2 2 2 2 2 2 2 2 2 2 2 2 2 2 2 2 2 2 2 2 2 2 2 2 2 2 2 2 2 2 2 2 2 2 2 2 2 2 2 2 2 2 2 2 2 2 2 2 2 2 2
left_child=5 21 3 20 -5 53 12 8 11 18 24 50 37 48 23 51 22 46 19 -10 -3 -2 -17 -4 25 39 27 30 -28 -30 -14 32 -20 -33 -35 -13 -37 59 -22 40 -11 42 -41 -43 -45 -36 47 -18 -12 -50 -8 -6 -15 -1 58 56 -56 -58 -52 -7 -38 -19 -42
right_child=1 2 14 4 15 6 7 -9 9 10 13 35 26 52 -16 16 17 61 31 -21 38 -23 -24 -25 -26 -27 28 -29 29 -31 -32 33 -34 34 45 36 60 -39 -40 41 62 43 -44 44 -46 -47 -48 -49 49 -51 54 -53 -54 -55 55 -57 57 -59 -60 -61 -62 -63 -64
leaf_value=-2.5491755511131961e-05 0.0018129530455566222 0.0012616216246013731 -0.0002431610430285963 -0.00074622985824912959 -0.00018451250463547562 3.9304659015060853e-05 0.00058039470340519718 -0.0012929842115967363 0.0011644412418648313 -0.0016324815669514496 0.00091958579864224489 -6.6786153776137695e-06 9.8759005477218621e-05 0.001553662597741581 0.00019326484093738723 0.00057817078665877233 -0.0002550475768345807 0.00031674952049037694 -5.5883939487994975e-05 -0.0004710623406156499 -5.783559287725485e-05 0.00072639256593633877 0.0016156356763694559 -0.0010601755024912936 -0.0016669035262356583 0.0010373106265130143 4.9393996542702091e-05 0.00042824570234900687 -0.00049701727908359054 0.00022765579553128318 -0.00026528773724756439 -0.00011469864220002521 -0.00023857730726172129 0.001255713791522554 -4.5356879246452173e-05 0.00022473680956957136 0.00060819142180313388 -8.4777322183401734e-05 0.00024388844374206885 -0.0014980097824151559 -0.00098651842685371994 0.00073995688722017369 -0.00028776294619512133 0.00030412866889188689 -0.00086796743581357282 0.00018223458601891713 -0.00047165473577765273 0.00092303980465998487 -2.5826024509356672e-05 -0.0014167223160189612 -0.00032583654745995159 0.00061393072334222471 0.00019823483230235677 0.00024351534650638698 -0.0015347064103310307 -5.3443412283479705e-05 0.00091861230058723367 -0.00048667360213829086 0.00046150138238352573 0.00059527899958690498 6.0235642896775872e-06 0.0013908703602368514 -0.00023456899868784547
leaf_weight=1165 140 69 878 82 148 4504 140 85 116 57 57 12144 13180 72 533 98 69 66 12638 55 1060 121 244 126 51 50 2702 1411 668 202 614 3660 4857 52 2214 3904 158 8938 2235 234 104 65 103 74 276 2670 88 138 511 53 1365 258 59 2706 74 14955 50 178 103 191 5331 169 1094
leaf_count=1165 140 69 878 82 148 4504 140 85 116 57 57 12144 13180 72 533 98 69 66 12638 55 1060 121 244 126 51 50 2702 1411 668 202 614 3660 4857 52 2214 3904 158 8938 2235 234 104 65 103 74 276 2670 88 138 511 53 1365 258 59 2706 74 14955 50 178 103 191 5331 169 1094
internal_value=1.30936e-06 0.000233044 0.000187783 0.000300757 0.000623652 -1.32405e-05 -2.00464e-05 -4.62813e-05 -4.46928e-05 -9.1792e-05 -0.000332302 -8.97387e-06 3.46806e-05 0.00011809 -0.000159413 0.000712062 0.000892568 0.000614204 -6.55881e-05 0.000638722 0.00017007 0.00131392 0.0013209 -0.000346648 -0.000492953 -0.000463051 8.46999e-05 0.000114644 -4.27592e-05 -0.000328692 8.25365e-05 -7.02285e-05 -0.000106614 3.82973e-06 9.17229e-05 4.29615e-05 0.000107134 -3.42132e-05 0.000146836 -0.000500927 -0.000362358 -0.000731394 -0.00113006 -0.000405722 -0.000619992 7.90754e-05 0.000231324 0.000531006 -5.85047e-05 -0.000158807 -7.52952e-05 0.000323134 0.000949329 0.00016257 -8.08182e-05 -6.25684e-05 -0.000512767 -0.000175831 -0.000270318 6.20445e-05 2.34645e-05 0.00109182 -0.000300615
internal_weight=110412 6522 6261 4724 1360 103890 100019 67609 67524 29122 2860 38402 32410 752 1537 1278 872 530 26262 171 3364 261 342 1004 2108 2057 18777 15205 3572 870 13794 26091 17495 8596 4936 21537 9393 13633 3295 2007 1255 752 337 415 350 4884 295 207 621 564 16865 406 131 3871 16725 15257 302 228 1468 4695 5489 235 1198
internal_count=110412 6522 6261 4724 1360 103890 100019 67609 67524 29122 2860 38402 32410 752 1537 1278 872 530 26262 171 3364 261 342 1004 2108 2057 18777 15205 3572 870 13794 26091 17495 8596 4936 21537 9393 13633 3295 2007 1255 752 337 415 350 4884 295 207 621 564 16865 406 131 3871 16725 15257 302 228 1468 4695 5489 235 1198
is_linear=0
shrinkage=0.05


Tree=2
num_leaves=64
num_cat=0
split_feature=7 8 6 7 6 8 4 8 3 6 7 8 6 6 4 4 6 4 2 2 4 4 8 2 8 2 0 4 7 8 4 6 7 0 2 3 3 8 4 8 0 8 4 8 3 2 7 3 8 3 4 4 6 0 8 2 8 8 7 7 0 6 2
split_gain=0.134454 0.0465943 0.0579836 0.0759295 0.0784717 0.0448796 0.051846 0.0456294 0.0418413 0.0409707 0.0367802 0.0335761 0.0331147 0.031457 0.0308347 0.0297383 0.0292474 0.0308382 0.025974 0.055155 0.0339961 0.0294945 0.0281844 0.0248551 0.0363883 0.0292923 0.0300289 0.026113 0.0242376 0.0319582 0.0302453 0.0240519 0.0500538 0.0244601 0.02345 0.0232601 0.0230194 0.0337688 0.0530003 0.0396793 0.0395652 0.029588 0.0468757 0.0278281 0.0278995 0.0292459 0.0272838 0.0340065 0.030413 0.0300727 0.0264969 0.0260423 0.0374556 0.0310511 0.0258349 0.025562 0.0257226 0.0386403 0.0244144 0.0240764 0.0390411 0.023619 0.0230002
threshold=1.2840424776077273 0.10991821065545083 0.074050806462764754 2.5144288539886479 -1.1325296759605405 -0.11293687298893927 -0.37542247772216791 -0.068984109908342348 -0.073956523090600954 -0.89523100852966297 0.092995453625917449 -0.094252478331327424 -0.65437904000282276 -1.4881756901741026 0.6921212673187257 -0.3181412667036056 -0.54001492261886586 0.11999697610735895 0.23588193207979205 0.12850218266248706 -0.4231495708227157 -0.39625434577465052 0.12948579341173175 0.21564771234989169 0.54895153641700756 0.1591625511646271 0.10868235304951669 -0.4057308137416839 0.50976392626762401 -0.081836696714162813 -0.39700607955455774 -1.4881756901741026 -2.8766720294952388 -0.041757661849260323 -0.086029674857854829 0.044405797496438033 -0.089705787599086748 -0.10096815228462218 -0.10700733959674834 -0.071902930736541734 -0.12082561478018759 -0.1093601994216442 -0.28893756866455073 -0.087658889591693864 -0.10034904628992079 -0.098414421081542955 0.081998430192470564 -0.11565943434834479 -0.084747649729251848 -0.11819421127438544 -0.21701219677925107 0.13261412084102633 0.41307044029235845 -0.099114358425140367 -0.092530418187379823 -0.10233791172504424 -0.093588661402463899 -0.09551511704921721 0.3490584939718247 -1.7033931612968443 -0.12438075616955756 0.04080068692564965 -0.1203014627099037
decision_type=2 2 2 2 2 2 2 2 2 2 2 2 2 2 2 2 2 2 2 2 2 2 2 2 2 2 2 2 2 2 2 2 2 2 2 2 2 2 2 2 2 2 2 2 2 2 2 2 2 2 2 2 2 2 2 2 2 2 2 2 2 2 2
left_child=5 2 3 9 -5 -1 8 31 28 62 13 -6 -13 -9 -15 -14 -12 -18 19 22 -20 -22 -10 25 -25 26 27 -3 -7 30 -30 -8 -33 36 -31 -29 37 40 43 46 59 42 58 44 -39 -46 51 49 54 61 -47 -40 53 55 -49 56 57 -53 -42 60 -34 -48 -2
right_child=1 23 -4 4 11 6 7 10 18 -11 16 12 15 14 -16 -17 17 -19 20 -21 21 -23 -24 24 -26 -27 -28 35 29 34 -32 32 33 -35 -36 -37 -38 38 39 -41 41 -43 -44 -45 45 50 47 48 -50 -51 -52 52 -54 -55 -56 -57 -58 -59 -60 -61 -62 -63 -64
leaf_value=0.00015444469465658117 0.00040777286733013012 0.0001702621218490614 -3.7819622046054645e-05 -2.553983084242388e-05 0.00048173955957028417 -5.2484579338543983e-06 0.00029312142119259868 0.0007542427656377326 9.4159799996854153e-05 0.00029873597526389851 0.0003473593848976727 0.0017541833618526321 -0.00010954361612675712 -0.00024499191026447844 -0.0014697994667445668 0.0012201852916568269 -5.425197873117318e-05 -0.0012459390671990282 4.6925209979895812e-05 0.00040684858151389283 -0.00047220361012547285 0.00021632903784839209 -0.00025204494249830931 -0.00068588971744002023 0.00067867327259389437 0.0018003986943060429 -0.00041451263401403649 0.0017202914564852388 -0.00051503227023598009 0.0004937072738556154 -9.1871259171258878e-05 -0.00084968509070356107 -0.0016913494271836407 -0.00097123877828868212 -0.00024122913734465074 0.00050414409999961426 7.7080760945986832e-05 -2.6348994322036981e-05 -0.00015677077290082963 -0.0016153073446846314 -1.2680128165516961e-05 -1.4259811553024122e-05 0.00018064862823615003 8.6012196884108682e-05 -0.00054749675874885288 -8.9513431880943221e-05 0.00056296884278827879 -0.00014322770585126782 0.00046019250458596947 0.00087963122099194444 -0.00071743173800274717 -0.00061095917510094026 -1.3649029624442037e-05 -0.0017299195504291574 -0.00085046602884065168 0.00045926371822133664 -0.0010167181419475175 0.00058323641147765132 -0.00044589242521453506 -6.7805980705300963e-05 -0.00023165665228078904 -0.00079241255915643279 -0.00021580708456188483
leaf_weight=3871 182 83 2026 253 193 11316 570 77 13353 2110 480 195 59 4695 51 144 1781 55 2702 1411 668 202 614 73 143 71 52 103 784 260 915 186 57 68 185 65 4686 4545 932 54 2066 16797 5688 2706 569 1939 60 380 130 157 183 481 298 62 195 55 303 78 385 16553 220 67 770
leaf_count=3871 182 83 2026 253 193 11316 570 77 13353 2110 480 195 59 4695 51 144 1781 55 2702 1411 668 202 614 73 143 71 52 103 784 260 915 186 57 68 185 65 4686 4545 932 54 2066 16797 5688 2706 569 1939 60 380 130 157 183 481 298 62 195 55 303 78 385 16553 220 67 770
internal_value=1.24587e-06 0.000221443 0.000179227 0.000291787 0.000711414 -1.25796e-05 -1.90454e-05 -4.39695e-05 3.29474e-05 0.000175928 -0.000163508 0.0010264 0.00128866 -0.000242139 -0.00025846 0.00083507 2.72011e-07 -9.06095e-05 8.08254e-05 0.000109037 -4.06243e-05 -0.000312273 7.89234e-05 0.000644871 0.000216466 0.000891054 0.000672752 0.000898753 -3.44597e-05 -0.000188562 -0.000287326 -2.98544e-05 -3.29327e-05 -3.03744e-05 0.000188316 0.00125553 -2.92855e-05 -3.83558e-05 -0.000108084 -0.000283272 -1.63264e-05 2.36536e-05 0.00010189 -5.07577e-05 -0.00010191 -0.000229471 -0.000260281 -4.19567e-05 -0.000228011 0.000419083 -0.000143977 -0.000357965 -0.000504567 -0.000653832 -0.000384134 -0.00057927 -0.00064599 -0.000443583 -8.08827e-05 -7.55603e-05 -0.00053703 -0.000152679 -9.62905e-05
internal_weight=110412 6522 5932 3906 844 103890 100019 67609 32410 3062 7139 591 398 4823 4746 203 2316 1836 18950 15378 3572 870 13967 590 216 374 303 251 13460 2144 1699 60470 59900 59714 445 168 59646 54960 13194 3252 41766 24936 8139 9942 7236 2691 3198 989 705 284 2122 2209 1277 979 575 917 862 559 2451 16830 277 127 952
internal_count=110412 6522 5932 3906 844 103890 100019 67609 32410 3062 7139 591 398 4823 4746 203 2316 1836 18950 15378 3572 870 13967 590 216 374 303 251 13460 2144 1699 60470 59900 59714 445 168 59646 54960 13194 3252 41766 24936 8139 9942 7236 2691 3198 989 705 284 2122 2209 1277 979 575 917 862 559 2451 16830 277 127 952
is_linear=0
shrinkage=0.05


Tree=3
num_leaves=64
num_cat=0
split_feature=7 5 6 7 6 8 8 2 8 5 1 8 7 5 8 1 8 2 7 2 7 8 1 5 8 7 2 5 2 1 6 8 2 5 6 7 8 5 3 8 8 2 2 3 6 8 7 6 7 7 7 7 3 8 7 5 5 6 6 3 2 7 8
split_gain=0.121414 0.11621 0.0845198 0.0738344 0.0713521 0.0613772 0.0405076 0.043736 0.0484741 0.0386424 0.0349792 0.0537845 0.0366873 0.0310449 0.0297011 0.0323131 0.0288525 0.0315421 0.0288216 0.0280459 0.0280287 0.0276312 0.0264521 0.0264415 0.0260361 0.0247342 0.0522456 0.0707874 0.0282523 0.0536509 0.0245721 0.0243009 0.0334518 0.0236493 0.0231448 0.0229624 0.0219771 0.03766 0.0253129 0.0215587 0.0213903 0.0355097 0.0249822 0.0246117 0.0215584 0.0213686 0.0236217 0.0221508 0.0273433 0.0343004 0.021009 0.0206601 0.019437 0.019411 0.0193895 0.0200866 0.0193156 0.0254822 0.0233968 0.019171 0.0205504 0.0208784 0.0190104
threshold=1.2840424776077273 -0.52006039023399342 0.049307741224765785 2.2682548761367802 -1.1325296759605405 0.094610512256622328 -0.11293687298893927 -0.07252259179949759 -0.086208671331405626 1.6555976271629336 -0.0079819587990641577 -0.029977546073496338 -2.3937333822250362 0.21283020824193957 -0.10096815228462218 -0.12218898162245749 -0.094252478331327424 -0.098414421081542955 -0.81632745265960682 -0.10267628729343413 0.18065384775400165 -0.068984109908342348 -0.10545293986797331 3.6130065917968754 0.027395242825150493 -1.8182870149612425 -0.10710526630282401 -3.2707502841949458 -0.11878174170851706 -0.11450349166989325 -0.83156898617744435 -0.058081481605768197 -0.051276152953505509 1.4286201000213625 -1.4881756901741026 0.24921206384897235 0.015048563946038486 -1.0484389662742613 -0.02384944166988134 0.059373525902628906 -0.10578346624970435 -0.11990299820899962 -0.11965121701359747 -0.11941401287913321 -0.78086125850677479 -0.10702380910515784 -0.85325780510902394 -1.4881756901741026 -1.7033931612968443 -1.9555197954177854 -0.35783828794956202 2.8889265060424809 -0.044074427336454385 -0.09640952572226523 -1.8182870149612425 -1.8522752523422239 -0.29271826148033137 0.27960757911205297 1.3687713146209719 -0.075254078954458223 -0.08038634434342383 0.97903665900230419 -0.042097285389900201
decision_type=2 2 2 2 2 2 2 2 2 2 2 2 2 2 2 2 2 2 2 2 2 2 2 2 2 2 2 2 2 2 2 2 2 2 2 2 2 2 2 2 2 2 2 2 2 2 2 2 2 2 2 2 2 2 2 2 2 2 2 2 2 2 2
left_child=6 19 3 13 34 -4 -1 14 -9 10 12 -12 -10 -3 15 45 -6 21 36 -2 40 22 51 39 31 26 28 -28 -16 53 -15 32 -20 -13 -5 50 54 -38 -39 -19 -17 44 -43 -44 -42 47 -47 -8 49 -49 -26 -18 -34 -30 -14 -56 58 -58 -22 60 61 62 -27
right_child=1 2 5 4 16 -7 7 8 9 -11 11 33 18 30 25 20 17 23 24 -21 56 -23 -24 -25 35 59 27 -29 29 -31 -32 -33 52 -35 -36 -37 37 38 -40 -41 41 42 43 -45 -46 46 -48 48 -50 -51 -52 -53 -54 -55 55 -57 57 -59 -60 -61 -62 -63 -64
leaf_value=0.00014672446430297594 0.0017229407917505259 0.0012167951366042389 -0.00018486233456125269 -0.00071554862947065777 0.00042683925086200417 0.00070720739927965888 0.00065513410300650082 0.00023570426964029581 0.0009572057051425672 -0.00063444955560308474 0.00030731759249359985 2.2038826555570825e-05 0.00044775887610676209 -5.5846051824718955e-05 -0.0018468675370255086 6.9720586547292646e-05 0.00080257103987538291 0.00060779982773751461 -8.2633993281350257e-05 0.00067628962920547359 9.828778587882125e-05 0.0023534130335024408 0.00032972796250374596 -6.5428107045590881e-05 0.00067757259998596779 -7.945441818429221e-05 0.0011147784853944489 -0.00027220063340297482 0.00090302464629833906 -0.0010075118428041208 0.00024711960856838244 -0.00013650621318006081 0.000481644119997157 0.00082749952815230118 0.00024083121102023172 0.00080744184390776344 -0.0015265094992957591 0.00033758480560794557 -0.00099782001479373629 0.0015089792274790984 -0.0013343290842086975 0.0010950217615840409 -0.00097660513392563162 -6.5077120021303216e-06 -0.00033189492090239097 -0.00044469409110891147 0.00047969942895333974 -0.000199723234958177 -9.3879375027231749e-05 -0.0016208223940228699 -0.00031871015304852637 0.002119159401115974 0.00010697869850445669 -0.00032330422196537258 -0.00092483743529865213 -0.00017405439940350537 -1.7023521885884757e-05 -0.00017518978803924106 0.0010105473876770887 -0.00031834461977265174 0.00011665851027608818 0.00011464306183244221 -0.0003936444302841608
leaf_weight=3871 140 67 1869 82 271 214 96 2790 89 226 2122 9672 113 1058 50 17395 53 169 2457 121 640 66 65 79 82 20679 111 514 59 255 1819 3578 454 91 265 172 86 86 59 111 66 50 65 6973 275 88 310 120 11462 65 145 73 1451 69 96 1106 7839 3771 78 755 1498 1369 492
leaf_count=3871 140 67 1869 82 271 214 96 2790 89 226 2122 9672 113 1058 50 17395 53 169 2457 121 640 66 65 79 82 20679 111 514 59 255 1819 3578 454 91 265 172 86 86 59 111 66 50 65 6973 275 88 310 120 11462 65 145 73 1451 69 96 1106 7839 3771 78 755 1498 1369 492
internal_value=1.18197e-06 0.000210428 0.000167228 0.000296919 0.00062143 -9.29189e-05 -1.1956e-05 -1.80987e-05 3.93666e-05 1.45537e-05 2.12924e-05 7.92316e-05 -4.77488e-05 0.000160733 -3.71218e-05 -1.43568e-05 0.000859003 0.00104813 -5.68929e-05 0.00124214 8.78575e-06 0.00147131 0.00115583 0.000741937 -2.01193e-05 -8.05281e-05 -0.000317178 -2.44858e-05 -0.000738625 -0.000589513 0.000135725 -3.99432e-05 3.92773e-05 2.96304e-05 1.34212e-05 0.000373486 -0.000255106 -0.000703904 -0.000208899 0.000969152 3.93902e-05 -3.16282e-05 -7.61668e-06 -1.56046e-05 -0.000529249 -8.51691e-05 0.000274709 -9.73886e-05 -0.000103647 -0.000705058 4.25739e-05 0.00157604 0.000196475 0.000244575 -0.000175793 -0.000234736 -5.28384e-05 -6.84076e-05 0.000198659 -7.04171e-05 -6.26171e-05 -7.45363e-05 -8.67742e-05
internal_weight=110412 6522 6261 4178 1234 2083 103890 100019 24875 22085 21859 11885 9974 2944 75144 49293 887 616 9885 261 37152 257 191 359 8339 25851 1058 625 433 383 2877 7940 4362 9763 347 399 1546 231 145 280 24824 7429 7088 7038 341 12141 398 11743 11647 185 227 126 1905 128 1315 1202 12328 11610 718 24793 24038 22540 21171
internal_count=110412 6522 6261 4178 1234 2083 103890 100019 24875 22085 21859 11885 9974 2944 75144 49293 887 616 9885 261 37152 257 191 359 8339 25851 1058 625 433 383 2877 7940 4362 9763 347 399 1546 231 145 280 24824 7429 7088 7038 341 12141 398 11743 11647 185 227 126 1905 128 1315 1202 12328 11610 718 24793 24038 22540 21171
is_linear=0
shrinkage=0.05


Tree=4
num_leaves=64
num_cat=0
split_feature=7 5 5 8 5 7 1 8 8 7 5 2 0 5 7 1 5 2 8 3 8 0 5 5 8 1 5 0 1 3 8 3 8 0 8 8 7 5 5 1 8 8 5 7 7 8 2 1 8 1 5 5 5 5 1 2 8 1 2 7 0 1 3
split_gain=0.109673 0.104958 0.0485962 0.0421638 0.0396419 0.0382187 0.0355083 0.0405715 0.037828 0.0336624 0.0442277 0.0420744 0.0498599 0.0271316 0.0450636 0.0269635 0.0264546 0.0292897 0.0360356 0.0461426 0.0276003 0.0253284 0.0247769 0.0247368 0.0263917 0.0715763 0.0249231 0.0865473 0.0568377 0.0245111 0.0242069 0.0232365 0.0230166 0.0247037 0.0347952 0.0253121 0.0244351 0.0224683 0.0190283 0.0180134 0.0345117 0.0322074 0.0225845 0.0182359 0.0176244 0.0250486 0.01804 0.0160463 0.0157242 0.0151413 0.0149611 0.0144744 0.0270283 0.0197752 0.0139285 0.0138685 0.0138436 0.0364366 0.0196763 0.0199735 0.0220796 0.0159528 0.0171653
threshold=1.2840424776077273 -0.52006039023399342 2.0219815969467168 -0.059485664591193192 2.487978577613831 -0.76393797993659962 -0.07129251584410666 -0.11293687298893927 -0.082448754459619508 2.5144288539886479 3.6130065917968754 -0.097717180848121629 -0.073832433670759187 -0.89756068587303151 0.0058103022165596494 -0.12241235002875327 1.6555976271629336 -0.051276152953505509 -0.02685778588056564 -0.066275309771299348 0.094610512256622328 -0.102335337549448 2.863462090492249 -0.586857110261917 -0.10433572530746459 -0.12076414749026297 -3.2707502841949458 -0.10806911066174506 -0.089069914072751985 -0.085567709058523164 -0.093925584107637392 -0.12198036909103392 -0.058081481605768197 -0.010656906757503746 -0.029977546073496338 0.027395242825150493 0.24921206384897235 1.4286201000213625 1.2309941649436953 0.03113424684852362 0.094610512256622328 0.094610512256622328 -1.4499033093452451 -1.5420320630073545 1.8247377276420595 -0.089811593294143663 -0.11539182439446448 -0.12498313188552855 -0.084747649729251848 -0.013609223533421753 -0.75147515535354603 0.46810428798198706 0.046280572190880782 1.4930379390716555 -0.039303079247474663 -0.048735704272985451 0.12948579341173175 0.04480328597128392 0.044161088764667518 2.2682548761367802 -0.059813907369971268 -0.07129251584410666 -0.090758860111236558
decision_type=2 2 2 2 2 2 2 2 2 2 2 2 2 2 2 2 2 2 2 2 2 2 2 2 2 2 2 2 2 2 2 2 2 2 2 2 2 2 2 2 2 2 2 2 2 2 2 2 2 2 2 2 2 2 2 2 2 2 2 2 2 2 2
left_child=4 21 3 29 5 23 7 -7 -8 22 30 15 -13 14 -9 -12 17 18 -10 -20 54 48 -4 24 31 -26 27 -27 -29 44 -11 -1 55 35 -35 49 -37 -36 -31 40 -28 -41 43 -43 47 46 51 -3 -2 50 -34 52 -46 -53 -18 -19 58 -58 59 60 61 62 -5
right_child=1 2 9 56 -6 6 8 13 16 10 11 12 -14 -15 -16 -17 20 32 19 -21 -22 -23 -24 -25 25 26 39 28 -30 38 -32 -33 33 34 37 36 -38 -39 -40 41 -42 42 -44 -45 45 -47 -48 -49 -50 -51 -52 53 -54 -55 -56 -57 57 -59 -60 -61 -62 -63 -64
leaf_value=-0.00017855633549320553 0.0011871572070874187 0.00080200616419411031 0.00029326188842116173 0.0010158098603833333 -0.0010487955569735041 0.00014416534765657687 0.00021525670563777284 3.4705153363586432e-05 -0.00017158850584386823 0.00037083423807312421 -0.00026292151230717856 -0.0013380906812157124 0.00039476600779400975 -3.136032943257393e-05 0.00056594375361112583 0.00096369421182757704 0.00048589436007874477 0.00072654217458661356 0.0014580748941577775 6.755246277832832e-05 -0.0014328757921934175 0.0006427523111552382 -0.00032885460497345778 3.1389730345300869e-06 -0.0020360080786094143 -0.00094303869013900605 -0.00021750698746614847 0.00179799304685637 0.00015864179529047245 -0.0013814850189505549 0.0011197403889653087 0.0001205800261774778 -0.00053690754940922643 0.00031140518319377287 2.6492802214603167e-05 -5.9943170437449322e-05 0.00085007078248949721 0.00081250053114237516 -0.00016926941260074577 0.0004053293824188408 -0.0013277403639734423 -0.00093252262007285632 3.5779993234387495e-05 -9.9631916411213335e-05 -4.2880241749553043e-05 0.00017169856738888148 -0.00092865360552090489 4.6924130301776469e-05 0.0022996168860117904 -0.00064219548555849654 -7.9882033140539011e-05 0.00027744807506519588 -0.0015008671388945037 -0.00053090512030690281 -0.00056215821060976833 0.00018077676222778575 0.0016299644115585551 0.00032256303422258472 -0.0005858690760573627 -0.00016864064710073474 0.00013018365586780115 0.0013424791950630407 0.00018575883754734111
leaf_weight=1100 85 72 802 100 91 3763 3275 2215 2590 156 61 77 88 62544 486 164 52 122 75 278 60 121 199 5025 51 102 5182 87 133 57 359 1581 197 1339 7755 172 128 91 74 327 70 145 405 120 72 301 122 1952 55 150 1880 182 56 128 78 2221 65 281 72 204 381 72 164
leaf_count=1100 85 72 802 100 91 3763 3275 2215 2590 156 61 77 88 62544 486 164 52 122 75 278 60 121 199 5025 51 102 5182 87 133 57 359 1581 197 1339 7755 172 128 91 74 327 70 145 405 120 72 301 122 1952 55 150 1880 182 56 128 78 2221 65 281 72 204 381 72 164
internal_value=1.12682e-06 0.000199998 0.000158943 6.67543e-05 -1.13597e-05 -1.04401e-05 1.70147e-06 -1.54512e-05 5.95439e-05 0.000369438 0.000590286 0.000187907 -0.00041709 -2.46591e-05 0.000130467 0.000631453 2.98636e-05 3.64368e-05 -0.000106972 0.000366274 -0.000555306 0.0011805 0.00016938 -8.62529e-05 -0.000134533 -0.000188111 -0.000173461 0.000254949 0.000812133 -3.69231e-05 0.000894046 -2.17484e-06 6.64708e-05 3.78437e-05 7.5932e-05 -0.000100573 0.000329864 3.57115e-05 -0.000703192 -0.000195574 -0.000232554 -7.30511e-07 -0.000199221 -0.000557157 -6.43645e-06 -0.000195783 -0.000393258 7.41675e-05 0.0016374 -0.000158679 -0.000123468 -0.000242354 -0.000687439 -5.69574e-05 -0.000142428 0.000209493 0.000300133 0.000572163 0.000204868 0.000267253 0.000391334 0.000686196 0.000502819
internal_weight=110412 6522 6261 4355 103890 103799 89471 69008 20463 1906 905 390 165 65245 2701 225 17188 16998 2943 353 190 261 1001 14328 9303 6622 6571 322 220 3016 515 2681 14055 11712 9185 2527 300 7846 131 6249 5252 997 670 265 2885 861 560 2024 140 2227 2077 438 128 310 130 2343 1339 346 993 921 717 336 264
internal_count=110412 6522 6261 4355 103890 103799 89471 69008 20463 1906 905 390 165 65245 2701 225 17188 16998 2943 353 190 261 1001 14328 9303 6622 6571 322 220 3016 515 2681 14055 11712 9185 2527 300 7846 131 6249 5252 997 670 265 2885 861 560 2024 140 2227 2077 438 128 310 130 2343 1339 346 993 921 717 336 264
is_linear=0
shrinkage=0.05


Tree=5
num_leaves=64
num_cat=0
split_feature=0 8 8 5 6 0 8 1 5 6 8 6 5 5 8 5 3 2 8 0 3 6 6 2 1 0 8 8 8 3 1 8 2 1 5 8 8 1 8 2 8 8 8 0 5 5 6 5 6 5 6 1 1 8 5 2 8 1 8 5 6 8 3
split_gain=0.0669669 0.0589859 0.0357736 0.0377166 0.0735492 0.0451951 0.0728065 0.0319725 0.0306814 0.0333504 0.0302602 0.0301415 0.0893124 0.0610578 0.0257288 0.0262152 0.036686 0.0299987 0.0260216 0.0188146 0.0285833 0.0187592 0.0302284 0.0179748 0.0497685 0.0344859 0.0248896 0.0177959 0.0253666 0.0216628 0.0173762 0.0334936 0.0338005 0.0425145 0.0309359 0.0221009 0.0195416 0.0188069 0.0327778 0.0295974 0.0196601 0.019876 0.0202474 0.0220462 0.0186391 0.0176105 0.0194768 0.0173309 0.0168715 0.0200189 0.0259859 0.0168456 0.025246 0.0251035 0.016266 0.0157372 0.049544 0.0327757 0.0227766 0.0174554 0.0342448 0.0419334 0.0332144
threshold=-0.035950290039181702 0.12948579341173175 -0.11277454346418379 2.2183740139007573 0.62088653445243847 -0.096426952630281434 -0.094252478331327424 -0.073957160115241991 2.2183740139007573 -0.33895975351333613 -0.032604997977614396 1.2629011273384096 -0.76792219281196583 0.086500309407711043 -0.02685778588056564 -0.12019020691514014 -0.016977528110146519 -0.0037693878402933474 0.050387645140290267 -0.10607936233282088 -0.10133392363786696 -1.0508602857589719 -0.59718996286392201 0.23588193207979205 0.15930631011724475 0.26894924044609075 0.34764552116394049 0.050387645140290267 0.081243764609098448 -0.039524022489786141 -0.12218898162245749 -0.10926546528935431 -0.11942191049456595 -0.12208012118935584 0.30747872591018682 -0.099454652518033967 -0.10702380910515784 -0.12347591295838355 -0.11099234595894812 -0.12304437905550002 -0.1098642274737358 -0.11220847815275191 -0.11154202371835707 -0.12340448796749114 -0.59898328781127919 1.5689056515693667 -0.47706410288810724 3.6130065917968754 -0.95421105623245228 -0.59898328781127919 0.44697724282741552 -0.0038618586258962746 -0.032388621941208832 -0.058081481605768197 0.71916344761848461 -0.08038634434342383 -0.086208671331405626 -0.084166828542947755 -0.089811593294143663 0.89677780866622936 0.057745948433876045 -0.089811593294143663 -0.11548413708806037
decision_type=2 2 2 2 2 2 2 2 2 2 2 2 2 2 2 2 2 2 2 2 2 2 2 2 2 2 2 2 2 2 2 2 2 2 2 2 2 2 2 2 2 2 2 2 2 2 2 2 2 2 2 2 2 2 2 2 2 2 2 2 2 2 2
left_child=1 2 -1 11 5 6 -5 21 14 -10 -9 27 -13 -14 51 -16 18 -18 -17 47 -21 -7 -23 24 -19 -25 -26 29 -29 30 36 44 33 -33 35 -35 37 40 -39 -40 41 -4 43 -43 -32 46 -36 -8 -31 -50 -51 52 53 -2 -48 57 -57 59 -59 -34 61 62 -61
right_child=8 -3 3 4 -6 7 19 10 9 -11 -12 12 13 -15 15 16 17 23 -20 20 -22 22 -24 25 26 -27 -28 28 -30 48 31 32 55 34 45 -37 -38 38 39 -41 -42 42 -44 -45 -46 -47 54 -49 49 50 -52 -53 -54 -55 -56 56 -58 58 -60 60 -62 -63 -64
leaf_value=0.0001096007012240112 0.00098424956115002789 -0.0016857694944296528 -0.00014027102680104679 0.00012366133383848331 -0.0016338862078127396 -0.00097936152038912067 0.0017243666668694984 -0.0004216584104824506 0.00031412098666128906 0.0016224343348146667 0.0009865315120642711 0.0013299156960915688 0.00021064604276554511 -8.9162272864337961e-05 -4.4774506368610971e-05 0.00033400349947097031 -0.00039493689663399906 7.7110089318603158e-05 0.0012248956702533178 0.00024259365557501201 0.0014375908667170734 0.00058593030580117271 -0.00083882044028005991 -0.00057302463215262614 0.00041432575311680926 5.5332736404087128e-05 0.0012167298216254341 0.00091632893038563344 -0.00030789993265095878 0.00040328795577145439 0.00022464612908023991 0.00084940200576192129 -5.035580670726879e-05 -0.00029798690804684939 0.00049843510928728461 -0.00096653392847656505 0.00020597467725988846 -0.00029797622787190817 -0.0004119879100085743 8.8371225475831336e-05 -0.0003292903904347493 0.00014372280231448353 -6.8769904837538045e-05 0.00099641512164453153 2.5781553976567028e-05 -0.0005335324334529494 0.00015614782418773893 0.00065294851713055147 -0.0011199812201924102 5.4183798836521718e-05 -0.0011131395561726582 0.00028733115569649535 4.3825633017713512e-05 5.6080158148534787e-05 -0.00031829541281926024 0.00019400259850370201 -4.759615915454429e-05 7.5578143144698311e-05 -0.00037918980556731841 0.00032423731039251232 -0.00016261698169318226 0.00042356041071299369 -0.0001132220879367164
leaf_weight=5245 150 52 2068 563 50 108 122 63 218 62 94 137 3076 3789 5006 463 326 2857 99 135 79 75 72 244 548 2007 117 112 67 54 1320 93 36928 2012 204 131 508 2695 376 1367 572 1462 1527 79 10910 139 409 57 103 165 66 2059 2399 141 322 2955 7520 358 1187 625 1252 947 1413
leaf_count=5245 150 52 2068 563 50 108 122 63 218 62 94 137 3076 3789 5006 463 326 2857 99 135 79 75 72 244 548 2007 117 112 67 54 1320 93 36928 2012 204 131 508 2695 376 1367 572 1462 1527 79 10910 139 409 57 103 165 66 2059 2399 141 322 2955 7520 358 1187 625 1252 947 1413
internal_value=-1.75632e-06 -1.8201e-05 -1.72566e-05 -2.47875e-05 0.000230913 0.000300215 0.000488728 -0.000137335 9.04922e-05 0.000608562 0.000422369 -2.89602e-05 7.05071e-05 4.51839e-05 8.16192e-05 4.16758e-05 0.000106644 7.09823e-05 0.000492837 0.00101007 0.000688372 -0.000482241 -0.000112859 9.73565e-05 0.000167874 -1.30031e-05 0.000557116 -3.76727e-05 0.000458933 -3.87929e-05 -3.69683e-05 -2.77568e-05 -4.39973e-05 -0.000199 -0.000229563 -0.000339286 -9.63806e-05 -0.000111538 -0.00018873 -1.97406e-05 -5.14985e-05 -2.05025e-05 6.02474e-05 0.000188054 4.72619e-05 -1.05155e-05 6.77248e-05 0.00138871 -0.00041101 -0.000543474 -0.000282698 0.00017972 9.72748e-05 0.00053625 -5.29902e-05 -3.4347e-05 2.05709e-05 -4.78163e-05 -0.000273832 -3.9327e-05 5.67845e-05 0.000148832 2.10282e-05
internal_weight=110359 93663 93611 88366 1418 1368 956 412 16696 280 157 86948 7002 6865 16416 11667 6661 6099 562 393 214 255 147 5773 3522 2251 665 79946 179 79767 79379 68725 56495 3310 3217 2143 10654 10146 4438 1743 5708 5136 3068 1541 12230 1074 935 179 388 334 231 4749 2690 291 731 53185 10475 42710 1545 41165 4237 2985 2038
internal_count=110359 93663 93611 88366 1418 1368 956 412 16696 280 157 86948 7002 6865 16416 11667 6661 6099 562 393 214 255 147 5773 3522 2251 665 79946 179 79767 79379 68725 56495 3310 3217 2143 10654 10146 4438 1743 5708 5136 3068 1541 12230 1074 935 179 388 334 231 4749 2690 291 731 53185 10475 42710 1545 41165 4237 2985 2038
is_linear=0
shrinkage=0.05


Tree=6
num_leaves=64
num_cat=0
split_feature=7 5 6 7 2 6 5 4 5 5 6 7 4 2 4 1 5 4 2 5 5 6 4 7 6 4 6 4 2 5 5 1 2 7 0 4 2 1 1 7 6 6 7 4 5 1 5 7 4 5 6 5 7 6 5 6 4 6 7 6 7 5 5
split_gain=0.0817489 0.0658305 0.0729361 0.0525702 0.04732 0.0471311 0.0643908 0.0407397 0.039883 0.0393157 0.0363071 0.0516199 0.0532902 0.035236 0.0316156 0.0331847 0.0296006 0.0347535 0.0285318 0.0287728 0.0264463 0.0258364 0.0337849 0.0578814 0.0266681 0.0249644 0.023448 0.0224269 0.0232832 0.0222901 0.0271068 0.0220311 0.0428429 0.0374959 0.0319339 0.0284357 0.0219021 0.020722 0.0205824 0.0246017 0.0427177 0.0229429 0.0206635 0.0204314 0.0196462 0.0196462 0.0193762 0.0190199 0.0187036 0.0201805 0.0183595 0.0236681 0.018341 0.0251114 0.0248195 0.0416008 0.0321245 0.0225665 0.018775 0.0179501 0.0174763 0.0172392 0.0171806
threshold=1.3309140205383303 -0.57503089308738697 0.26088285446166998 -0.76393797993659962 -0.08038634434342383 1.3325538635253908 -0.54100027680397023 0.083438381552696242 2.487978577613831 -1.8522752523422239 -1.4881756901741026 2.2682548761367802 -0.41437008976936335 -0.11786001920700072 -0.017965827137231823 -0.085635732859373079 1.1919535398483279 0.84640246629714977 -0.12198958173394202 1.4930379390716555 2.487978577613831 -1.3812497854232786 0.84640246629714977 -1.5420320630073545 0.23229245841503146 -0.15723478794097898 0.91771182417869579 1.0400087237358095 -0.079217795282602296 0.39199861884117132 0.22570497542619708 0.23712169378995898 0.1591625511646271 -1.4768633246421812 0.38907566666603094 -0.40704908967018122 -0.12187742069363593 -0.11940869316458701 -0.10176339372992514 -1.9555197954177854 0.015872275456786159 -0.087827589362859712 -0.81632745265960682 -0.26449775695800776 0.16856110095977786 -0.11012727767229079 1.754292964935303 -0.56662932038307179 -0.28209981322288508 0.6898687779903413 1.2629011273384096 0.086500309407711043 0.17471547424793246 -0.2110948637127876 -0.45087178051471705 0.44697724282741552 -0.34754897654056544 0.41307044029235845 -0.43219701945781702 1.4068772196769717 -1.4161349534988401 -0.81937471032142628 1.6555976271629336
decision_type=2 2 2 2 2 2 2 2 2 2 2 2 2 2 2 2 2 2 2 2 2 2 2 2 2 2 2 2 2 2 2 2 2 2 2 2 2 2 2 2 2 2 2 2 2 2 2 2 2 2 2 2 2 2 2 2 2 2 2 2 2 2 2
left_child=3 -2 10 5 8 21 -7 62 9 47 25 44 -13 -14 36 16 -16 46 -19 -20 26 27 29 45 -25 -3 48 28 -1 30 31 32 35 34 -33 -23 -11 -29 39 40 -37 60 -43 -40 -12 -24 -18 -5 49 -4 52 -52 58 -54 55 56 -55 -56 -38 -53 -41 -58 -6
right_child=1 2 20 4 7 6 -8 -9 -10 14 11 12 13 -15 15 -17 17 18 19 -21 -22 22 23 24 -26 -27 -28 37 -30 -31 -32 33 -34 -35 -36 38 50 -39 43 41 -42 42 -44 -45 -46 -47 -48 -49 -50 -51 51 59 53 54 57 -57 61 -59 -60 -61 -62 -63 -64
leaf_value=-0.00013958231465733032 0.0010430794393405964 0.00017698560836184438 -0.00048823046217749059 0.0015888366338057333 7.2603607806735819e-05 0.0019245504773237002 0.00014325170863730604 -0.0011668333783745766 -0.001296869357169957 -0.00013189023288739357 0.00084449189775577744 -0.0010193388261821102 0.00016931591452819456 0.00078433417533952873 5.6199076526324931e-05 -0.0010260298146869452 -0.00016380960797687295 -0.00025409177770724676 -0.0005917859689412888 -0.0021401518605435508 -0.0012657606136510331 0.0002643090463540944 -0.00065888696806826652 -0.00026725572337527655 0.00031862715613163847 -0.0012675468874378847 6.6404530540203224e-05 0.00024447149369201539 0.00051018956780252568 -0.00047109704662948268 0.00044600824865370772 -0.0020307128235360545 0.00068205001862431597 -0.00016752767181587149 -0.00046898304874328184 -0.00019710119470142548 -9.5834733539901568e-05 0.0013935155086801387 -0.00011646236504517258 0.00017089831681567133 -0.0016641461033335267 0.00024113093820242308 -0.00038656613013266444 -0.00033080403286509262 0.00013778824029216479 -0.001673965891142253 0.00061433296091854578 0.00037429230206116403 -0.00057950376200668777 0.00031455330358215239 0.00022551785882867067 0.00026976235656251828 -3.3964107699815255e-06 0.0004523691394705705 -8.5738728218427831e-05 0.00063056939038982592 3.7459430690158689e-05 -0.00024585202428277519 1.3941986128518281e-05 -0.00011059440746313407 -0.0001514057268396119 -0.00092384784053193116 -0.00033542485551402807
leaf_weight=588 211 55 142 50 22556 53 843 66 60 5747 101 51 320 861 16810 72 399 157 70 53 50 493 533 896 247 64 848 115 179 410 225 57 175 365 77 289 4936 59 2942 515 59 1096 148 1788 2784 52 99 90 352 172 1574 386 6683 117 5535 277 72 3654 18452 1562 2276 131 260
leaf_count=588 211 55 142 50 22556 53 843 66 60 5747 101 51 320 861 16810 72 399 157 70 53 50 493 533 896 247 64 848 115 179 410 225 57 175 365 77 289 4936 59 2942 515 59 1096 148 1788 2784 52 99 90 352 172 1574 386 6683 117 5535 277 72 3654 18452 1562 2276 131 260
internal_value=-1.66565e-06 0.000177617 0.000145958 -1.19949e-05 2.25108e-06 -0.000100404 0.000250647 6.4327e-05 -1.89543e-05 -1.77893e-05 0.000253679 0.000278611 0.000549425 0.000617975 -1.95498e-05 3.78257e-05 4.22389e-05 -0.000259078 -0.000703671 -0.00127085 -0.000145777 -0.000123576 -0.00014239 -0.000347759 -0.00014048 -0.000603995 -0.000107978 0.000129076 1.25262e-05 -0.000109848 -9.57053e-05 -0.000107604 -9.10449e-05 -0.000431354 -0.00114342 -0.000105198 -4.01758e-05 0.000639826 -0.000125215 -4.7138e-05 -0.00044988 -1.23006e-05 0.000166203 -0.000197539 0.000162813 -0.000751819 -8.19749e-06 0.00081625 -0.000329781 -4.88865e-05 -2.80224e-05 8.13879e-05 -3.76923e-05 -7.81103e-05 -0.000129128 0.000183051 -0.00020509 -0.000149428 -9.22932e-06 -3.51262e-05 -9.18937e-05 -0.000584379 6.79394e-05
internal_weight=110359 6011 5800 104348 89868 14480 896 22882 66986 66926 4236 4117 1232 1181 66786 17660 17588 778 280 123 1564 13584 12643 1728 1143 119 1514 941 767 10915 10505 10280 9781 499 134 9606 49126 174 9113 4383 348 4035 1244 4730 2885 585 498 140 666 314 43379 3522 39857 16469 9786 597 320 9189 23388 1948 2791 203 22816
internal_count=110359 6011 5800 104348 89868 14480 896 22882 66986 66926 4236 4117 1232 1181 66786 17660 17588 778 280 123 1564 13584 12643 1728 1143 119 1514 941 767 10915 10505 10280 9781 499 134 9606 49126 174 9113 4383 348 4035 1244 4730 2885 585 498 140 666 314 43379 3522 39857 16469 9786 597 320 9189 23388 1948 2791 203 22816
is_linear=0
shrinkage=0.05


Tree=7
num_leaves=64
num_cat=0
split_feature=7 5 6 7 2 6 5 5 4 5 5 7 6 4 8 8 5 8 4 3 2 8 6 8 6 4 7 8 6 7 6 4 5 3 3 3 2 2 4 8 4 3 5 7 5 4 3 3 8 4 8 4 8 6 6 6 2 4 5 4 4 6 7
split_gain=0.0737736 0.0594489 0.066296 0.0474503 0.0427052 0.0425674 0.0582346 0.0379528 0.0368222 0.0360574 0.0355449 0.03348 0.0470009 0.0481194 0.0420029 0.0332035 0.0269596 0.0268873 0.025103 0.0327582 0.03228 0.0272472 0.0238729 0.0247956 0.0233412 0.0305035 0.0522742 0.0318494 0.0240748 0.0227217 0.0249093 0.0232364 0.0381947 0.0312967 0.0294824 0.0220148 0.0563438 0.0365323 0.0253414 0.0327427 0.035269 0.0403552 0.024693 0.0212769 0.0203935 0.0202705 0.0230062 0.0220587 0.0295542 0.0199518 0.0210326 0.0198438 0.019151 0.0387538 0.0191574 0.0327743 0.0295785 0.0261064 0.0277884 0.0254897 0.0322462 0.0191015 0.019043
threshold=1.3309140205383303 -0.57503089308738697 0.33850912749767309 -0.76393797993659962 -0.08038634434342383 1.3325538635253908 -0.54100027680397023 2.2183740139007573 0.083438381552696242 2.487978577613831 -1.8522752523422239 2.2682548761367802 -1.4881756901741026 -0.41437008976936335 -0.09989644959568976 -0.11305714398622511 -0.056258559226989739 -0.087658889591693864 -0.35128884017467493 -0.016977528110146519 -0.0037693878402933474 0.027395242825150493 0.86171290278434765 -0.053573269397020333 -1.3812497854232786 0.84640246629714977 -1.5420320630073545 -0.089426074177026735 0.23229245841503146 0.16318480670452121 -1.098300516605377 -0.27233643829822535 1.1528483033180239 -0.046324869617819779 -0.072562601417303071 0.23644084483385089 0.1591625511646271 0.39107771217823034 -0.40704908967018122 -0.077754281461238847 -0.28209981322288508 -0.10133392363786696 -1.1119530797004697 0.1163306161761284 -1.5162811279296873 1.0400087237358095 -0.11910326778888701 -0.094856392592191682 -0.095227990299463258 -0.32147526741027826 -0.09139701351523398 0.083438381552696242 0.12948579341173175 -0.50880354642868031 -0.50880354642868031 -0.89523100852966297 -0.12278616800904273 -0.24730602651834485 1.5689056515693667 0.13261412084102633 -0.13024112582206723 -0.50880354642868031 -1.8182870149612425
decision_type=2 2 2 2 2 2 2 2 2 2 2 2 2 2 2 2 2 2 2 2 2 2 2 2 2 2 2 2 2 2 2 2 2 2 2 2 2 2 2 2 2 2 2 2 2 2 2 2 2 2 2 2 2 2 2 2 2 2 2 2 2 2 2
left_child=3 -2 11 5 9 24 -7 22 17 10 -5 16 -13 -14 -15 -12 -3 49 44 21 -21 29 23 -4 45 35 27 -27 -28 30 -20 -31 33 34 -33 36 38 42 -26 61 -41 51 -37 -32 -19 47 -47 48 -1 -6 -51 -42 54 -54 55 -18 -57 -58 -59 60 -60 -40 -43
right_child=1 2 7 4 8 6 -8 -9 -10 -11 15 12 13 14 -16 -17 52 18 19 20 -22 -23 -24 -25 25 26 28 -29 -30 31 43 32 -34 -35 -36 37 -38 -39 39 40 41 62 -44 -45 -46 46 -48 -49 -50 50 -52 -53 53 -55 -56 56 57 58 59 -61 -62 -63 -64
leaf_value=-1.2255085209744722e-06 0.00099117148475790667 0.0011278554387792932 -0.00063778440986582462 0.0007761337416013703 0.00015766212628323163 0.0018301049236604874 0.00013609760656595752 -0.0014073409974712534 -0.0011093624681581869 -0.0012330888760978447 0.00014407379535840637 -0.00075691723995751324 -0.0009603503926213444 4.9206391005399089e-05 0.00074318661350030054 -2.6216150375851546e-05 -3.363304404713008e-05 0.00072157255327526357 -0.0012340400762664025 -0.0012836514852199027 -0.00019859844886796149 0.00062848955951192527 5.1663656475688592e-05 0.00010586331779640481 0.00023688647765765416 -0.00054983644181957143 -0.00025390783884467926 -0.0015487967929099494 0.00030276005324389368 -8.5648977447819031e-05 -0.00012067594777657935 0.00024913490163453394 -0.00043845475922723752 -0.00021815603641698545 0.0013638256706277998 -0.0016398382325998589 0.00077429713377158253 -9.9576946440879915e-05 -0.00013528770490737961 -0.00010504811217839604 -0.00066227542423030793 -6.7339076230092659e-05 -0.00049879681670965393 -0.0010485259233078419 6.1889353592813249e-05 0.00021308293779384257 0.001444340885843433 0.00035512245109277932 -0.00098644600752250929 0.00032018111288577885 0.00122823342366389 -0.0018920098829622721 -6.2349381075798632e-06 0.0014348452062817453 -6.382771531887279e-05 -0.00049548997783950891 0.00023237326332360328 0.0013380078004496235 9.0032547061676038e-05 -0.00039682471496422616 0.0016275569858351865 4.5234822302357744e-05 -0.00045591246581260344
leaf_weight=383 211 67 323 140 2857 53 843 57 66 60 2996 76 52 285 929 63790 757 117 56 106 192 145 899 171 517 490 896 95 247 708 1262 99 107 79 149 78 185 341 3029 2184 72 454 122 64 16558 119 55 290 94 229 88 62 110 80 1192 78 373 153 72 62 64 2837 1034
leaf_count=383 211 67 323 140 2857 53 843 57 66 60 2996 76 52 285 929 63790 757 117 56 106 192 145 899 171 517 490 896 95 247 708 1262 99 107 79 149 78 185 341 3029 2184 72 454 122 64 16558 119 55 290 94 229 88 62 110 80 1192 78 373 153 72 62 64 2837 1034
internal_value=-1.58585e-06 0.000168727 0.000138641 -1.13983e-05 2.13617e-06 -9.53924e-05 0.00023823 -0.000154075 6.11076e-05 -1.80087e-05 -1.6901e-05 0.000236226 0.000443824 0.000516447 0.000580442 -1.8575e-05 0.000143491 6.45419e-05 4.27175e-05 -9.12643e-05 -0.000587559 -3.56525e-05 -0.000101819 -0.000380674 -0.000117414 -0.000135296 -0.000330437 -0.000714427 -0.000133454 -7.40402e-05 -0.000210346 9.09507e-05 0.000378579 0.000646448 0.000921636 -0.000104375 -8.8135e-05 -0.000415045 -0.000103868 -0.000122106 -0.000236297 -0.000412847 -0.000949747 -0.000166215 6.6561e-05 0.000122729 0.000608303 1.1924e-05 -0.000197035 0.000199544 0.000575328 -0.00124106 0.00012069 0.000604871 8.70423e-05 0.000202363 0.000424883 0.000524585 0.000833571 0.000439013 0.000820172 -4.7988e-05 -0.000337481
internal_weight=110359 6011 5800 104348 89868 14480 896 1450 22882 66986 66926 4350 1342 1266 1214 66786 3008 22816 19642 2967 298 2669 1393 494 13584 12643 1728 585 1143 2524 1382 1142 434 327 248 10915 10374 541 10189 9672 3806 1622 200 1326 16675 941 174 767 477 3174 317 134 2941 190 2751 1559 802 724 351 198 136 5866 1488
internal_count=110359 6011 5800 104348 89868 14480 896 1450 22882 66986 66926 4350 1342 1266 1214 66786 3008 22816 19642 2967 298 2669 1393 494 13584 12643 1728 585 1143 2524 1382 1142 434 327 248 10915 10374 541 10189 9672 3806 1622 200 1326 16675 941 174 767 477 3174 317 134 2941 190 2751 1559 802 724 351 198 136 5866 1488
is_linear=0
shrinkage=0.05


Tree=8
num_leaves=64
num_cat=0
split_feature=0 4 8 8 4 3 2 8 1 5 2 5 0 8 0 8 5 8 3 8 0 0 4 5 1 8 4 8 3 4 4 3 2 8 1 5 3 8 5 3 5 5 5 8 8 3 8 1 8 4 0 2 4 8 5 5 5 8 5 3 8 8 5
split_gain=0.0531474 0.0774379 0.0533951 0.0301097 0.0298743 0.0295952 0.0591576 0.0584173 0.0510194 0.043376 0.0316699 0.028553 0.0451204 0.0473619 0.040485 0.0405435 0.0284825 0.024631 0.0239678 0.0227769 0.0198816 0.0219687 0.0244985 0.0196839 0.0237698 0.0218156 0.0215503 0.0208441 0.035121 0.0230161 0.0193353 0.0863834 0.0281115 0.0810915 0.0323255 0.0237402 0.0214745 0.03289 0.0270235 0.0221414 0.0215557 0.0193331 0.0175707 0.0172481 0.016787 0.0188544 0.028068 0.0165178 0.0265338 0.019825 0.0153347 0.0149326 0.0288533 0.0152831 0.0163439 0.0174035 0.014663 0.0141388 0.014048 0.0140399 0.015359 0.0138193 0.0135618
threshold=-0.035950290039181702 -0.17642193287611005 0.12948579341173175 -0.11277454346418379 0.36886358261108404 0.23644084483385089 0.39107771217823034 0.28821043670177465 0.15930631011724475 -1.1119530797004697 0.18824674934148791 2.2183740139007573 -0.096426952630281434 -0.098757747560739503 -0.069894779473543153 -0.032604997977614396 3.6130065917968754 0.050387645140290267 -0.029460154473781582 -0.065797649323940263 -0.098766069859266267 -0.10529982298612593 0.11999697610735895 1.1919535398483279 -0.032388621941208832 -0.060835408046841614 -0.35611212253570551 0.034492876380681999 0.052121683955192573 -0.39011031389236445 1.2175635099411013 -0.11002719402313231 -0.11771799623966216 -0.09551511704921721 -0.11830263957381247 -1.2992175817489622 -0.11910326778888701 -0.1061783730983734 -1.984644293785095 -0.12329375371336936 1.1186819076538088 -1.8522752523422239 0.20015455037355426 -0.11188133805990218 0.050387645140290267 -0.041838457807898514 1.0000000180025095e-35 0.15930631011724475 0.094610512256622328 -0.37242890894412989 -0.12588030844926831 0.51375004649162304 -0.39781287312507624 4.4531657695770273 0.53752043843269359 0.25898180902004247 -2.6787774562835689 0.10991821065545083 -0.62263441085815419 -0.016977528110146519 0.034492876380681999 0.081243764609098448 -1.0484389662742613
decision_type=2 2 2 2 2 2 2 2 2 2 2 2 2 2 2 2 2 2 2 2 2 2 2 2 2 2 2 2 2 2 2 2 2 2 2 2 2 2 2 2 2 2 2 2 2 2 2 2 2 2 2 2 2 2 2 2 2 2 2 2 2 2 2
left_child=2 5 3 4 -1 7 9 23 58 -7 -10 30 13 -13 16 -16 19 -11 -3 -14 21 22 -15 24 25 42 47 -25 57 -30 44 32 33 34 36 41 38 -38 56 -40 43 -34 -2 -41 45 -5 -47 48 -26 -50 -6 52 -8 -53 55 -55 -32 -29 -9 60 -28 -46 -49
right_child=1 18 -4 11 50 6 51 8 10 17 -12 12 14 20 15 -17 -18 -19 -20 -21 -22 -23 -24 27 26 -27 59 28 29 -31 31 -33 35 -35 -36 -37 37 -39 39 40 -42 -43 -44 -45 61 46 -48 62 49 -51 -52 53 -54 54 -56 -57 -58 -59 -60 -61 -62 -63 -64
leaf_value=5.1399848394641381e-06 0.00051568197941822115 -0.00013773719996866671 -0.0016027305760631723 -1.9200855420057311e-05 2.2224270264274172e-05 -0.0013639542074872903 0.0001638239149089779 -0.00065146348440298346 0.0020033426525687165 0.00050282960552937327 0.00078400482206374567 1.956285310617374e-05 -0.00091782381548258815 0.0011655115532641083 -0.00060874691903986143 0.0011101702279855989 -0.0013944778984669264 -0.00037038798434951749 -0.0014168709221816212 0.00016263700237050959 0.0016414147972682259 0.00013287211386229773 0.00022608047076127545 6.2721972225309358e-05 0.00010785364340088286 0.00019825942960804345 -7.4837903672545162e-05 0.00066007077964879595 0.00051210438178386547 -0.00057823787009729586 -0.00024653437362122599 -0.0017683871412396291 9.4074067584348526e-05 -0.0021180159680975175 -0.0010524930596464243 0.00033402862350440809 1.981832518508698e-05 0.0014350625954102725 3.9334954126538892e-05 -0.00077187819659409976 -0.00085266989574078126 -0.0010918081022627403 0.0016899835940960288 -0.0001192540936889875 0.00075882039330899724 -0.00015778577646977945 -0.0010982560534900045 0.0010087722805601227 -0.00021472808616353214 0.00059376404689562442 0.00033132746428337273 -2.6029857441414207e-05 0.0012606878605664761 0.00027768913504766789 0.00082633396899010154 -0.00072841085584870752 -0.0011204815943475458 0.001450324260529632 0.00030759570311745757 -0.0003149974828725549 0.00081327329786408007 -0.00010205477825365961 0.00024733981620150364
leaf_weight=3185 81 55 52 81742 546 101 361 50 73 91 200 471 80 207 55 88 77 666 110 122 51 162 105 357 8192 248 226 142 124 78 92 78 84 51 91 562 162 54 1453 110 129 57 53 1160 124 736 88 62 1012 81 1514 2127 71 273 109 50 101 97 151 549 61 74 845
leaf_count=3185 81 55 52 81742 546 101 361 50 73 91 200 471 80 207 55 88 77 666 110 122 51 162 105 357 8192 248 226 142 124 78 92 78 84 51 91 562 162 54 1453 110 129 57 53 1160 124 736 88 62 1012 81 1514 2127 71 273 109 50 101 97 151 549 61 74 845
internal_value=-1.50741e-06 8.06734e-05 -1.61573e-05 -1.52589e-05 0.000101123 9.14584e-05 -2.99727e-05 0.000128312 0.000672342 -0.000395706 0.00111618 -2.21679e-05 0.000200312 0.000383788 -0.000232608 0.000449412 -0.000582531 -0.000264892 -0.000993891 -0.000267682 0.000709891 0.000606419 0.000851089 0.000107136 9.03263e-05 0.000477576 7.68703e-05 0.00034707 0.000576593 9.03067e-05 -2.57985e-05 -0.000130653 -9.91189e-05 -0.000158581 -0.000128146 0.000188536 -0.000102037 0.000378612 -0.000136245 -9.73665e-05 -0.000239271 -0.000389638 0.000989222 -0.000176343 -2.04962e-05 -2.16015e-05 -0.000259434 9.68916e-05 7.69776e-05 -0.000154324 0.000249451 7.50391e-05 0.000346591 2.90793e-05 0.000299849 0.000120179 -0.000707303 0.000985508 6.69797e-05 -0.000167042 0.000116093 0.000438183 0.000300443
internal_weight=110359 16696 93663 93611 5245 16531 3849 12682 474 858 273 88366 1418 996 422 143 279 757 165 202 525 474 312 12208 11410 382 11028 798 441 202 86948 4184 4106 3403 3352 703 3261 216 3045 2852 1399 141 134 1270 82764 82566 824 10192 9285 1093 2060 2991 432 2559 432 323 193 239 201 836 287 198 907
internal_count=110359 16696 93663 93611 5245 16531 3849 12682 474 858 273 88366 1418 996 422 143 279 757 165 202 525 474 312 12208 11410 382 11028 798 441 202 86948 4184 4106 3403 3352 703 3261 216 3045 2852 1399 141 134 1270 82764 82566 824 10192 9285 1093 2060 2991 432 2559 432 323 193 239 201 836 287 198 907
is_linear=0
shrinkage=0.05


Tree=9
num_leaves=64
num_cat=0
split_feature=7 7 2 4 8 4 8 2 8 8 4 7 0 2 8 1 3 4 4 2 8 3 3 0 4 8 4 7 4 7 3 2 7 8 4 3 3 4 2 8 3 2 4 3 2 8 4 3 1 1 3 8 7 1 4 3 2 8 7 7 4 8 8
split_gain=0.0640056 0.0408596 0.0360232 0.0326569 0.0312766 0.0847815 0.0270055 0.0255488 0.0252947 0.0207152 0.042638 0.0256083 0.0253619 0.0250589 0.0292741 0.0242221 0.0363246 0.0658188 0.0286567 0.0361072 0.0311465 0.0221633 0.0220021 0.0309206 0.0206391 0.0270057 0.0366283 0.0258429 0.0199524 0.0339927 0.0356703 0.0474477 0.0323378 0.024633 0.0578847 0.0353217 0.0240181 0.0348143 0.0272368 0.030184 0.0374494 0.0237287 0.0296371 0.0206075 0.0199001 0.019577 0.0330511 0.0302909 0.019435 0.0283068 0.0186445 0.0182923 0.0181156 0.0176503 0.0169666 0.0297605 0.0271984 0.0244746 0.0204792 0.0199992 0.018257 0.0185026 0.0278772
threshold=1.3309140205383303 -0.76393797993659962 -0.08038634434342383 0.083438381552696242 0.20580481737852099 -0.4231495708227157 -0.11305714398622511 0.060813821852207191 -0.089811593294143663 -0.097215957939624772 -0.32635191082954401 2.0875880718231206 -0.10877578333020209 -0.051276152953505509 -0.060835408046841614 -0.097008842974901185 -0.10066491737961768 -0.14661288261413571 -0.18500208109617231 -0.1190984584391117 -0.06463113427162169 -0.1114566922187805 -0.1092146299779415 -0.10463641211390494 0.11999697610735895 -0.053573269397020333 -0.066963616758584962 2.0875880718231206 -0.37806485593318934 -2.3937333822250362 0.23644084483385089 0.1591625511646271 -1.4768633246421812 -0.10136471688747405 0.17552635818719867 -0.11910326778888701 -0.1150984689593315 1.5673580765724184 -0.11260132864117621 -0.085237588733434663 -0.077941149473190294 -0.10405233129858969 0.60723236203193676 -0.11387581005692481 -0.11755286902189253 -0.074641801416873918 -0.3537572175264358 -0.013673032633960245 -0.10857684537768363 -0.11064318940043448 -0.11226743832230567 -0.089811593294143663 2.8889265060424809 -0.098272230476140962 -0.35128884017467493 -0.016977528110146519 -0.0037693878402933474 0.059373525902628906 0.16318480670452121 0.1163306161761284 -0.27233643829822535 -0.023644533008337017 -0.070970166474580751
decision_type=2 2 2 2 2 2 2 2 2 2 2 2 2 2 2 2 2 2 2 2 2 2 2 2 2 2 2 2 2 2 2 2 2 2 2 2 2 2 2 2 2 2 2 2 2 2 2 2 2 2 2 2 2 2 2 2 2 2 2 2 2 2 2
left_child=1 28 6 8 5 -2 -3 -6 -4 12 11 45 -7 14 -13 16 18 -18 52 -20 21 51 -23 -24 25 27 -27 -17 29 -1 31 50 -32 -30 -35 -36 37 44 43 48 41 42 -41 -38 -37 -11 47 -47 49 -40 -31 -21 -12 -43 -10 57 -57 58 59 -56 61 62 -60
right_child=4 2 3 -5 7 9 -8 -9 54 10 15 13 -14 -15 -16 24 17 -19 19 20 -22 22 23 -25 -26 26 -28 -29 33 30 32 -33 -34 34 35 36 38 -39 39 40 -42 53 -44 -45 -46 46 -48 -49 -50 -51 -52 -53 -54 -55 55 56 -58 -59 60 -61 -62 -63 -64
leaf_value=0.0012273576062259471 -0.0019015107238802183 0.00013012979894985786 0.00020387540932192963 -0.0010461325356702028 0.0014793019144075088 5.1475219862960673e-05 -2.3386600177889059e-05 0.00040384328580624637 5.956591348621018e-05 -0.00040536743271250478 0.00055833912329142225 0.00059669532317944897 -0.0009377974082903465 0.00090897366804441578 -0.00042595090389638669 0.00015134293000112695 0.00044567642895559917 0.0026639306719001949 -0.00097921136009972544 0.00039830204454789826 -0.00085902808304857839 -0.00065106537515311033 0.0011003692492215715 -0.00023904891995092236 -0.00062631055635220783 0.00028368595805575793 0.0014198699236765285 -0.00085305612717706417 -2.7865815574252608e-05 0.0008456979711216105 -0.001118978495095772 0.00098478134204924581 -0.00014912704180166446 -0.00011233637942929868 -0.0014769320065550896 -0.0011732943451585565 -0.00046717551538474965 0.00094874119615628275 0.00024764397280705456 -0.0011455032517950908 0.00030377705321044259 -0.0020454570075825735 0.00055182675848929931 -0.0015996727209615831 -5.3861534856338753e-06 0.00047995282890203242 -0.0006557273511323755 -0.00027867225039233571 0.00041441780439211004 -0.0013252492056590902 6.9734318091837846e-06 0.0012968744960438351 0.0013791367298279726 -0.00095928078659198953 -0.00012199393425490996 -0.0011762958639775646 -0.00018325989578556212 0.00099935627789316905 0.0003135074435251543 -0.00097659531469010603 0.00035783172370235463 0.0005200273341064368 -0.00039142491585732815
leaf_weight=58 50 2998 2673 66 67 1961 63988 302 17098 373 339 137 66 134 141 250 92 52 59 132 50 68 82 89 73 434 84 85 4850 68 109 143 395 6057 85 52 71 70 63 50 77 50 51 95 117 367 136 204 140 51 1669 100 84 159 1406 107 192 57 212 71 468 122 410
leaf_count=58 50 2998 2673 66 67 1961 63988 302 17098 373 339 137 66 134 141 250 92 52 59 132 50 68 82 89 73 434 84 85 4850 68 109 143 395 6057 85 52 71 70 63 50 77 50 51 95 117 367 136 204 140 51 1669 100 84 159 1406 107 192 57 212 71 468 122 410
internal_value=-1.43178e-06 -1.05716e-05 1.98783e-06 5.61496e-05 0.000157206 0.000127975 -1.6514e-05 0.000602587 5.93839e-05 0.000146458 0.000219007 1.51528e-05 1.88175e-05 0.000350049 7.83474e-05 0.000365649 0.000519152 0.00125956 0.000411703 0.00018294 0.00031617 0.000442481 0.00010372 0.000405908 0.000175156 0.000244399 0.000470313 -0.000105285 -8.85144e-05 4.17845e-05 1.24383e-05 0.000112604 -0.000360677 -0.000114948 -0.000173693 -0.000501896 -0.000421327 1.89186e-05 -0.000551572 -0.000402594 -0.000679985 -0.00092453 -0.000291428 -0.00112099 -0.00036953 -0.00011281 4.18929e-05 0.000208907 2.10556e-05 -0.000461424 4.02755e-05 0.000789521 0.000724203 -0.00122763 4.02005e-05 -6.85223e-05 -0.000541364 -1.68583e-05 -3.8763e-05 -0.000163708 0.00011351 -4.04499e-05 -0.000151041
internal_weight=110359 104348 89868 22882 6011 5642 66986 369 22816 5592 3565 1492 2027 412 278 2073 1147 144 1003 580 521 471 239 171 926 853 518 335 14480 2442 2384 1880 504 12038 7188 1131 1046 239 807 641 387 310 101 166 169 1080 707 571 254 114 1737 232 423 209 20143 3045 299 2746 2689 1477 1212 744 622
internal_count=110359 104348 89868 22882 6011 5642 66986 369 22816 5592 3565 1492 2027 412 278 2073 1147 144 1003 580 521 471 239 171 926 853 518 335 14480 2442 2384 1880 504 12038 7188 1131 1046 239 807 641 387 310 101 166 169 1080 707 571 254 114 1737 232 423 209 20143 3045 299 2746 2689 1477 1212 744 622
is_linear=0
shrinkage=0.05


Tree=10
num_leaves=64
num_cat=0
split_feature=7 2 8 8 4 8 3 8 3 4 8 7 2 8 0 8 0 4 4 8 7 2 3 3 8 0 7 8 3 0 8 4 4 3 1 2 1 8 8 1 8 3 2 1 8 8 8 3 2 4 4 4 8 1 7 4 8 8 4 8 0 2 1
split_gain=0.0586067 0.0425471 0.0379254 0.0372783 0.0637661 0.0480736 0.0453759 0.0641085 0.0465959 0.047751 0.057834 0.0410096 0.033479 0.0299466 0.0285323 0.0280003 0.0335126 0.0481814 0.0418366 0.0278054 0.02423 0.0252617 0.0281413 0.0234098 0.0227197 0.0295576 0.0288209 0.0226955 0.0369516 0.0358026 0.0463429 0.0370768 0.0350208 0.0265256 0.0226297 0.0750798 0.0309752 0.0266121 0.0286743 0.022501 0.0221605 0.0218209 0.0449515 0.0417476 0.0408183 0.0379911 0.0354043 0.0357371 0.0236886 0.0266626 0.0220378 0.022132 0.0218095 0.0278905 0.027066 0.0290472 0.0256857 0.0415549 0.0231278 0.0213033 0.0523423 0.0405065 0.0258142
threshold=1.4313139915466311 -0.058236809447407716 0.20580481737852099 -0.098014205694198595 -0.07420675083994864 -0.092893518507480607 -0.09884533658623694 -0.071902930736541734 -0.096962235867977128 0.30018039047718054 -0.020190788432955738 -1.0625879764556883 0.21564771234989169 1.2500511407852175 -0.087216772139072404 -0.058081481605768197 -0.029283403418958184 -0.13024112582206723 -0.41564860939979548 -0.048373641446232789 -2.3937333822250362 -0.099088370800018297 -0.10390454158186911 -0.063413526862859712 -0.11262063682079314 -0.12082561478018759 0.33358843624591833 -0.097752582281827913 -0.090758860111236558 -0.069894779473543153 0.0096431146375834959 -0.21327346563339231 1.5673580765724184 -0.11626192927360533 -0.11556666344404219 -0.11771799623966216 -0.10857684537768363 -0.087658889591693864 -0.089426074177026735 -0.026590206660330292 0.034492876380681999 0.23644084483385089 0.39107771217823034 0.15930631011724475 0.17637221515178683 0.54895153641700756 0.094610512256622328 0.10845165699720384 0.51375004649162304 -0.42550247907638544 -0.40211899578571314 -0.40773306787014002 -0.016561770811676976 -0.051066705957055085 0.087736997753381743 0.029009079560637478 -0.0090779438614845259 0.0047482866793870935 -0.23423980176448819 -0.091808229684829698 -0.090667627751827226 -0.10160295665264128 -0.10757996886968611
decision_type=2 2 2 2 2 2 2 2 2 2 2 2 2 2 2 2 2 2 2 2 2 2 2 2 2 2 2 2 2 2 2 2 2 2 2 2 2 2 2 2 2 2 2 2 2 2 2 2 2 2 2 2 2 2 2 2 2 2 2 2 2 2 2
left_child=1 3 27 14 23 20 7 34 -8 10 -10 19 -4 -14 24 -3 18 41 -17 -11 -6 22 -22 59 26 -26 -1 33 32 30 31 -30 -29 -2 35 -7 37 38 -36 40 -31 43 44 46 -43 -45 -18 50 49 -44 51 -48 -20 58 55 56 -55 -58 -54 60 62 -61 -5
right_child=2 15 12 4 5 6 8 -9 9 11 -12 -13 13 -15 -16 16 17 -19 52 -21 21 -23 -24 -25 25 -27 -28 28 29 39 -32 -33 -34 -35 36 -37 -38 -39 -40 -41 -42 42 48 45 -46 -47 47 -49 -50 -51 -52 -53 53 54 -56 -57 57 -59 -60 61 -62 -63 -64
leaf_value=0.00012104432336492089 6.465592580667874e-05 0.00016250693804037368 0.001130109461745797 -8.8913150232074814e-06 -0.0010456928691151095 -0.0014287907250267878 0.00078043098500727315 -0.0015512692256232649 -0.00025195446012967187 0.00023215712226374308 0.0012900948340295634 -0.0020916225314916424 -0.00045171824015636489 0.00094418923693989534 0.00023200060880501899 -0.00074435385203780241 0.00010588855942703806 -0.0014656788727734238 -0.00018953184700787012 -0.0013268827231233725 5.4381369341977514e-05 -0.0008655389096185735 0.0010420981661445694 -0.00023901299962700583 -8.0127860679322897e-05 2.8820953323881976e-06 -0.00017755563751617562 0.00038743461043766263 -0.0004582171994257948 0.00024342021109981769 -0.0017123230006205322 0.0004622384691196694 -0.00094246979193378464 -0.0004668119960166894 -0.00094635428177289945 0.00084796292363569349 -0.00031726303559227948 -0.00044492146307252263 -0.0023003917645151232 -6.1673621023364099e-05 0.0010455772371950828 3.3279128826220807e-05 0.00014088033648004572 0.00031471471180913579 -0.00067592064558869654 0.0016850033251652144 -0.00010958951690045852 -0.00063804044571028713 -7.5876667716966508e-06 0.001033986225027685 0.00020956740032338538 -0.00096667008752875615 0.00029814457610531338 0.00045452671953514085 0.00044401190988597062 0.00086426193205018851 -0.0017007721873061898 -0.00028163363219856839 0.0016021758158785817 0.00018201769771886321 0.00012636405537301529 -3.8958087385674674e-05 -0.00026394054440411553
leaf_weight=5546 1401 4549 182 1380 50 54 114 160 657 63 66 59 91 65 1237 261 6873 51 1461 51 733 65 79 1500 15238 36193 945 1769 332 322 52 162 50 281 162 105 503 171 52 392 117 358 282 1145 467 52 464 316 2510 118 496 89 100 68 213 50 67 216 51 2510 1747 11911 3529
leaf_count=5546 1401 4549 182 1380 50 54 114 160 657 63 66 59 91 65 1237 261 6873 51 1461 51 733 65 79 1500 15238 36193 945 1769 332 322 52 162 50 281 162 105 503 171 52 392 117 358 282 1145 467 52 464 316 2510 118 496 89 100 68 213 50 67 216 51 2510 1747 11911 3529
internal_value=-3.70565e-06 -1.18223e-05 0.000159869 -2.73609e-05 -7.76126e-05 -0.000288543 -0.000414921 -0.000621736 -0.000167396 -0.000288726 -0.000109599 -0.0010324 0.000671293 0.000132219 -5.5117e-06 5.32852e-05 2.16465e-05 5.33236e-05 -0.000146704 -0.000470781 1.38231e-05 7.5351e-05 0.000151641 -4.82277e-05 -1.0588e-05 -2.17132e-05 7.75516e-05 0.000124302 0.000202522 7.09037e-06 -0.00030712 -0.000156043 0.000350381 -2.43573e-05 -0.000478343 7.06286e-05 -0.000576607 -0.000913738 -0.00128454 0.00021366 0.000459097 5.93167e-05 -4.29665e-05 9.98074e-05 -0.000368503 0.0003756 5.96935e-05 -0.000172814 4.94197e-05 0.000406268 -3.21947e-05 -0.000249024 -7.63263e-05 0.000139839 -1.02581e-05 -0.000252058 -0.000413081 -0.000622419 0.000746222 -3.46393e-05 -0.000108623 -4.86916e-07 -0.000192258
internal_weight=110353 105137 5216 84880 25721 3144 2217 1207 1010 896 723 173 338 156 59159 20257 15708 13221 2487 114 927 877 812 22577 57922 51431 6491 4878 3196 1377 546 494 1819 1682 1047 159 888 385 214 831 439 13170 3735 9435 825 1197 8238 1365 2910 400 1049 553 2226 765 614 401 351 283 151 21077 6656 14421 4909
internal_count=110353 105137 5216 84880 25721 3144 2217 1207 1010 896 723 173 338 156 59159 20257 15708 13221 2487 114 927 877 812 22577 57922 51431 6491 4878 3196 1377 546 494 1819 1682 1047 159 888 385 214 831 439 13170 3735 9435 825 1197 8238 1365 2910 400 1049 553 2226 765 614 401 351 283 151 21077 6656 14421 4909
is_linear=0
shrinkage=0.05


Tree=11
num_leaves=64
num_cat=0
split_feature=0 8 8 5 4 5 0 3 8 1 2 2 8 8 5 4 8 2 4 4 0 5 1 4 1 4 2 8 2 4 1 5 0 8 8 4 5 8 2 0 2 4 4 2 8 4 8 4 3 2 4 1 3 8 5 1 8 4 0 4 3 4 1
split_gain=0.0480243 0.0781975 0.024138 0.0286292 0.0238366 0.0251336 0.0236087 0.0218882 0.0737541 0.0464754 0.0512339 0.040701 0.0354478 0.0341883 0.0207581 0.0263067 0.0263652 0.0190504 0.0275893 0.0194968 0.0181226 0.017949 0.0203123 0.0229964 0.0240676 0.0207562 0.0166809 0.0391045 0.0478892 0.0363455 0.0471735 0.041005 0.031581 0.0486873 0.0425134 0.0296305 0.043259 0.028387 0.0757677 0.0282087 0.0265473 0.0277154 0.0255702 0.0249546 0.0256967 0.0237724 0.0281896 0.0376531 0.0253223 0.034911 0.0300242 0.0226756 0.0427037 0.0274629 0.0273717 0.0264238 0.0387625 0.0225444 0.0222501 0.0219566 0.0245847 0.0274781 0.021763
threshold=-0.069894779473543153 0.034492876380681999 -0.11262063682079314 0.54874286055564891 -0.35611212253570551 -0.73505392670631398 -0.067186668515205369 0.23644084483385089 0.28821043670177465 0.15930631011724475 0.18824674934148791 0.39107771217823034 0.34764552116394049 0.17637221515178683 -1.3915764093399046 -0.009024200960993765 -0.059485664591193192 0.51375004649162304 -0.39625434577465052 -0.42162923514842982 -0.051103891804814332 2.0219815969467168 -0.090812951326370225 1.5673580765724184 -0.12116352841258048 -0.1976094767451286 -0.12187742069363593 -0.10433572530746459 -0.12125053256750105 -0.07420675083994864 -0.1153721511363983 -3.2707502841949458 -0.11775539070367812 -0.094252478331327424 -0.095227990299463258 1.9014301896095278 -1.6609755158424375 -0.08059805259108542 -0.091549959033727632 -0.11727088317275046 -0.10806591808795928 -0.1938279718160629 0.53744626045227062 -0.11520281061530112 -0.093253485858440385 -0.16224416345357892 -0.10926546528935431 3.8094378709793095 -0.11002719402313231 -0.11238062009215354 -0.30732914805412287 -0.09891371056437491 -0.096962235867977128 -0.076304893940687166 -0.91935390233993519 -0.10857684537768363 -0.087658889591693864 -0.035706728696823113 -0.081348143517971025 -0.30157354474067682 -0.075254078954458223 -0.40773306787014002 -0.10246066376566886
decision_type=2 2 2 2 2 2 2 2 2 2 2 2 2 2 2 2 2 2 2 2 2 2 2 2 2 2 2 2 2 2 2 2 2 2 2 2 2 2 2 2 2 2 2 2 2 2 2 2 2 2 2 2 2 2 2 2 2 2 2 2 2 2 2
left_child=1 2 3 -1 7 14 -7 8 -2 12 -11 13 -10 -9 15 16 -6 18 -13 -19 -18 26 23 -23 -25 -24 -4 45 -29 31 32 -30 33 35 39 36 -31 -33 40 42 41 -39 -34 -32 57 48 -47 -48 49 -28 -51 53 -53 55 -55 56 -46 -45 -40 60 61 -60 -57
right_child=4 -3 21 -5 5 6 -8 11 9 10 -12 17 -14 -15 -16 -17 20 19 -20 -21 -22 22 25 24 -26 -27 27 28 29 30 43 37 34 -35 -36 -37 -38 38 58 -41 -42 -43 -44 44 51 46 47 -49 -50 50 -52 52 -54 54 -56 62 -58 -59 59 -61 -62 -63 -64
leaf_value=0.00010531678284567721 8.7318720059237381e-05 -0.0014706776518705151 -8.7715362275691701e-05 -0.00026247792406586316 0.00076208607195809056 0.00049513959790715946 -1.182878441659953e-05 3.2372993877156431e-05 0.00093559038635785102 0.0024973490603864275 0.00079331445406520388 0.0002055284742273548 -0.00048051944288411458 -0.0006148223688995575 -0.00044127524947813209 0.00085955483567612314 -0.0008336674318630494 5.6292701178011204e-05 0.0013740820739165708 -0.0003768496857071142 -0.00010988761263272604 0.00028250557401313889 -0.00071047532041370513 9.508220052036146e-05 -0.0012039640702476556 0.00025243691592809875 -2.1855622007719311e-05 -0.0010178855642490902 0.0010287491609163295 -0.0014117021086609127 -0.0011875410983318742 -6.0448610145302461e-05 0.0012153943851485516 -0.0012904289150769315 0.00087503119722126804 0.00078325190217119018 -3.403815023263715e-05 0.0012002600201127022 -0.00018204094092344838 -8.499306759465175e-05 0.00022101537990194283 -0.000130913634149527 -0.00018552623313063612 -0.00064906282363802036 -0.0011103565398472776 0.00016059265513042735 1.9229514543352416e-05 -0.00090684324159805586 8.5304824348028012e-05 -0.00047081743380412641 1.7746217460080514e-05 0.00066444542594474014 -0.00031824178460279043 -0.001686947086166716 -0.00059377729888695173 9.1803273909779205e-05 -9.1711856402980639e-05 -4.9990809475669661e-05 -0.00046345149317306329 -0.00020558748733839877 -6.0146809743471903e-05 0.00047617843998620351 -0.00065296222981747374
leaf_weight=5927 16515 92 11151 580 68 246 3267 357 77 57 192 355 101 475 623 72 113 2292 58 292 360 1224 130 101 54 97 12044 128 90 62 71 23447 88 87 207 93 597 139 2274 595 2438 54 51 173 226 5429 5491 111 4767 849 499 126 855 88 166 327 159 1614 88 601 677 627 139
leaf_count=5927 16515 92 11151 580 68 246 3267 357 77 57 192 355 101 475 623 72 113 2292 58 292 360 1224 130 101 54 97 12044 128 90 62 71 23447 88 87 207 93 597 139 2274 595 2438 54 51 173 226 5429 5491 111 4767 849 499 126 855 88 166 327 159 1614 88 601 677 627 139
internal_value=-3.52386e-06 -2.16151e-05 -2.00246e-05 7.24982e-05 5.6613e-05 -4.44398e-05 2.38028e-05 7.97184e-05 0.000104118 0.000752147 0.00119182 -2.82414e-05 0.000133872 -0.000337414 -0.000238263 -3.15571e-05 -0.00015152 5.76722e-05 0.000372558 7.21942e-06 -0.000284193 -2.77208e-05 0.000137658 0.000209819 -0.000362305 -0.000299708 -3.11887e-05 -2.15607e-05 -5.62162e-05 -5.27839e-05 -0.000168364 -3.10416e-05 4.52831e-05 -0.000177648 0.000244027 -4.73657e-05 -0.000165594 -3.42187e-05 5.49354e-05 6.5125e-05 0.000265917 0.000829052 0.000703734 -0.000264774 -0.000247555 2.1521e-05 7.94108e-05 7.21408e-07 -1.36475e-05 -4.88742e-05 -0.000290083 -0.000366726 -0.000191477 -0.000521996 -0.000977644 -0.000385009 -0.000690997 -0.000108318 -7.51859e-05 4.67651e-05 0.000155788 0.000360046 -0.00013127
internal_weight=110353 84833 84741 6507 25520 4749 3513 20771 16942 427 249 3829 178 832 1236 613 541 2997 413 2584 473 78234 1606 1379 155 227 76628 65477 36287 36159 5724 30435 1780 839 941 752 659 30345 6898 734 2631 193 139 3944 3873 29190 11031 5602 18159 13392 1348 2086 981 1105 254 851 385 1787 4267 1993 1392 715 466
internal_count=110353 84833 84741 6507 25520 4749 3513 20771 16942 427 249 3829 178 832 1236 613 541 2997 413 2584 473 78234 1606 1379 155 227 76628 65477 36287 36159 5724 30435 1780 839 941 752 659 30345 6898 734 2631 193 139 3944 3873 29190 11031 5602 18159 13392 1348 2086 981 1105 254 851 385 1787 4267 1993 1392 715 466
is_linear=0
shrinkage=0.05


Tree=12
num_leaves=64
num_cat=0
split_feature=7 5 6 2 5 6 8 0 8 4 5 2 8 0 0 2 8 7 8 2 4 8 8 0 5 5 8 0 4 4 2 2 5 6 7 5 8 4 0 4 6 5 6 5 5 2 8 7 0 8 0 7 8 4 6 8 4 4 8 6 6 8 8
split_gain=0.0516753 0.0388715 0.0502377 0.0348193 0.0395651 0.0324177 0.0419636 0.0298264 0.0297056 0.04352 0.047488 0.0359726 0.0417127 0.0353506 0.0383073 0.0359345 0.0391354 0.0315479 0.0288152 0.0420232 0.0414163 0.0268621 0.0256431 0.0255462 0.025505 0.025321 0.0249225 0.0293193 0.0440651 0.0383548 0.023383 0.023049 0.0211347 0.0388477 0.0207932 0.0276104 0.0204645 0.0195386 0.0254354 0.0344109 0.0424922 0.0194991 0.0279355 0.0256963 0.0198539 0.0189762 0.0195558 0.0188422 0.0188194 0.0186849 0.025079 0.0249604 0.0195617 0.026263 0.0185137 0.0181674 0.0179574 0.0177171 0.0172947 0.0178102 0.0171536 0.017077 0.0247265
threshold=1.4313139915466311 -0.56385499238967884 0.26088285446166998 -0.058236809447407716 2.487978577613831 -1.0066078305244444 -0.093925584107637392 -0.11503177508711813 -0.098014205694198595 -0.07420675083994864 -3.2707502841949458 -0.1190984584391117 -0.092893518507480607 -0.068430151790380464 -0.11559491232037543 -0.099502161145210252 -0.071902930736541734 -0.079081293195486055 -0.089426074177026735 -0.096873551607131944 0.36886358261108404 -0.099454652518033967 0.20580481737852099 -0.087216772139072404 -0.21198270469903943 -1.2583333253860471 -0.058081481605768197 -0.029283403418958184 -0.16717077791690824 -0.41564860939979548 -0.10877215117216109 -0.099088370800018297 0.058108082041144378 2.4566316604614262 -1.4161349534988401 0.19375208020210269 -0.087658889591693864 -0.26188623905181879 -0.039394855499267571 -0.1938279718160629 -0.2876130193471908 0.70408299565315258 1.0934108495712282 -0.70255416631698597 -1.5857063531875608 -0.062137303873896592 -0.069996360689401613 1.6355105638504031 -0.102335337549448 -0.11262063682079314 -0.12082561478018759 0.19284837692976001 -0.11124917864799498 -0.32315079867839808 0.91771182417869579 -0.042097285389900201 -0.080989956855773912 0.53744626045227062 0.094610512256622328 1.4914961457252505 -0.38447555899620051 -0.086208671331405626 -0.076304893940687166
decision_type=2 2 2 2 2 2 2 2 2 2 2 2 2 2 2 2 2 2 2 2 2 2 2 2 2 2 2 2 2 2 2 2 2 2 2 2 2 2 2 2 2 2 2 2 2 2 2 2 2 2 2 2 2 2 2 2 2 2 2 2 2 2 2
left_child=3 48 5 4 8 -3 7 21 23 10 -10 -11 31 14 17 16 30 -14 -17 24 61 -7 32 49 -20 -22 -5 29 58 -28 36 41 -4 54 60 37 -16 -36 39 -39 -41 42 43 44 -13 -12 -47 -9 -2 51 -51 -1 53 -52 -34 -37 -53 -32 -29 -60 -31 -21 -63
right_child=1 2 22 26 -6 6 -8 47 9 11 45 12 13 -15 15 18 -18 -19 19 20 25 -23 -24 -25 -26 -27 27 28 -30 34 57 -33 33 -35 35 55 -38 38 -40 40 -42 -43 -44 -45 -46 46 -48 -49 -50 50 52 56 -54 -55 -56 -57 -58 -59 59 -61 -62 62 -64
leaf_value=0.00012768891626359875 0.0014057861371420796 -2.1823622214883059e-05 0.0001467307190573498 0.00015097201312365183 -0.0010846737514260563 0.00010808524169377608 0.00047489944802854794 0.00012340235498770343 0.0011015964061435726 -0.0011971197626735376 -3.8637872626472359e-05 -0.00011281937770622451 -0.00017685512617497486 0.0008015278569568616 -0.0011225589147715949 -0.0011927169305261701 -0.0013728494790376132 0.00135344066844222 9.1573031462949554e-05 0.00070298503624606815 -0.00029040484080741286 0.0009801862676083893 0.00058887249032155966 0.00022030748759025245 0.0014960283715800759 -0.0017674191770188986 -0.00071162748761930089 0.00010157670517699696 -0.0011945875053307122 -1.2304495699936525e-05 -0.00013820003986995827 -0.00081444764607636682 -0.00042898776097909401 -0.001383640529410257 -0.00015883724508663049 -0.0002210307825944757 -0.00037464815920402268 -0.0010590553969868778 -0.001508063434448559 -0.00070090613671709441 0.0011596251199203465 0.00071026298197890512 0.0011035596566854797 -0.00032446078948749306 0.00079215397658952537 -6.7316924751351101e-05 -0.00048659459377130575 -0.00075659621828483639 0.00036020773498173436 -7.3159621982564271e-05 -0.00012126909706928263 -0.00033215179531767862 -7.7035514508490507e-06 0.00021474321122566054 3.3561992565761955e-05 0.00030196400903586591 1.8914639240405698e-05 -0.00094761813072384224 -3.6395759578238266e-05 0.00038190034806321048 0.00086296738953416368 -0.00076291622964150447 -2.5884294302351904e-06
leaf_weight=4851 86 989 336 4549 87 705 1600 101 89 95 21326 120 84 66 210 67 150 55 75 58 52 100 113 1237 56 66 261 7843 70 124 412 65 474 77 986 253 164 99 63 63 58 132 56 356 121 644 489 151 87 15227 790 545 33190 2197 397 479 1094 80 5041 267 101 141 433
leaf_count=4851 86 989 336 4549 87 705 1600 101 89 95 21326 120 84 66 210 67 150 55 75 58 52 100 113 1237 56 66 261 7843 70 124 412 65 474 77 986 253 164 99 63 63 58 132 56 356 121 644 489 151 87 15227 790 545 33190 2197 397 479 1094 80 5041 267 101 141 433
internal_value=-3.34939e-06 0.000150248 0.00012487 -1.0971e-05 -2.50278e-05 0.000222539 0.000313471 6.88955e-05 -2.39278e-05 -6.885e-05 -4.46466e-05 -0.000244032 -0.000213654 -0.000329959 -0.000365833 -0.000422632 -0.000629116 0.000434 -0.000200908 -0.000124214 -0.000268695 0.000217502 -0.000130011 -4.4314e-06 0.000698736 -0.00112444 4.79278e-05 1.80787e-05 4.77079e-05 -0.000139387 -0.000498859 8.31651e-05 -0.000193687 -0.000314368 -7.2002e-05 -0.000123293 -0.000796472 -0.000264279 -0.000629795 -0.000372605 0.000193114 0.000158431 4.59664e-05 -5.49178e-05 0.000342941 -4.92378e-05 -0.000248546 -0.000404805 0.000885067 -9.23704e-06 -1.93304e-05 7.06984e-05 3.3278e-06 0.000125864 -0.000218362 0.000121147 -9.79533e-05 -0.000271468 5.44107e-05 -1.52869e-05 0.000382675 -0.000107396 -0.000190361
internal_weight=110353 5216 5043 105137 84880 3646 2657 1057 84793 25662 22548 3114 3019 2169 2103 1964 1016 139 948 881 750 805 1397 59131 131 118 20257 15708 13221 2487 866 850 1284 948 2226 2001 374 1269 283 220 121 785 653 597 241 22459 1133 252 173 57894 51404 6490 36177 2987 871 732 1639 492 13151 5308 225 632 574
internal_count=110353 5216 5043 105137 84880 3646 2657 1057 84793 25662 22548 3114 3019 2169 2103 1964 1016 139 948 881 750 805 1397 59131 131 118 20257 15708 13221 2487 866 850 1284 948 2226 2001 374 1269 283 220 121 785 653 597 241 22459 1133 252 173 57894 51404 6490 36177 2987 871 732 1639 492 13151 5308 225 632 574
is_linear=0
shrinkage=0.05


Tree=13
num_leaves=64
num_cat=0
split_feature=7 2 5 5 6 5 6 7 7 3 4 3 5 4 4 4 0 5 2 4 0 3 0 5 2 2 4 0 4 3 4 0 0 2 2 4 6 6 5 2 4 2 6 3 4 7 2 3 0 7 4 3 7 5 5 4 4 4 5 0 0 6 0
split_gain=0.0471085 0.032 0.02837 0.024479 0.0365216 0.0787229 0.0324911 0.0268291 0.0225416 0.0220572 0.0341569 0.0342364 0.0308795 0.0219006 0.0214025 0.0209906 0.0367803 0.0205 0.0198714 0.0446812 0.019534 0.0184931 0.0260079 0.0172324 0.0168156 0.0164738 0.0271465 0.0522743 0.0168185 0.0164513 0.0416386 0.0344191 0.0312319 0.0191234 0.0164178 0.0162156 0.0226678 0.0159961 0.0157593 0.0156659 0.0185558 0.0765669 0.0184352 0.0156076 0.0219319 0.015262 0.0151989 0.0150765 0.0338872 0.0185704 0.0217093 0.0165166 0.0149805 0.0148064 0.0164689 0.0147341 0.0146276 0.0154831 0.0186672 0.0141664 0.03359 0.0196685 0.0194235
threshold=1.5660933256149294 -0.071191776543855653 2.487978577613831 -0.56385499238967884 0.057745948433876045 2.863462090492249 -1.0066078305244444 2.2682548761367802 -0.44033831357955927 -0.1135430373251438 -0.07420675083994864 -0.11174802482128142 -3.2707502841949458 -0.40911400318145746 -0.36074310541152949 -0.28893756866455073 -0.11220059543848036 1.0560173988342287 -0.11135854572057723 -0.35001333057880396 -0.12082561478018759 -0.1247350051999092 -0.12454810738563536 3.6130065917968754 -0.12557969242334363 -0.020137953571975228 -0.07420675083994864 -0.046261442825198167 -0.4130993634462356 -0.086156014353036867 0.3431259840726853 -0.089039176702499376 -0.084880389273166643 -0.090630169957876192 -0.059720087796449654 -0.37896937131881708 -0.91812279820442189 -1.4881756901741026 -1.4499033093452451 -0.064137198030948625 -0.12488283589482306 -0.046410677954554551 -0.52426025271415699 -0.12443266436457633 -0.059580113738775246 -2.8766720294952388 -0.095138534903526292 0.23644084483385089 0.1592274680733681 -0.89409160614013661 -0.40841670334339136 0.26932714879512792 -1.0346861481666563 -0.18818158656358716 0.40821425616741186 0.32127496600151068 -0.35128884017467493 -0.38341510295867914 0.068782322108745589 -0.093977764248847948 -0.069894779473543153 -1.2325316071510313 -0.11680563911795615
decision_type=2 2 2 2 2 2 2 2 2 2 2 2 2 2 2 2 2 2 2 2 2 2 2 2 2 2 2 2 2 2 2 2 2 2 2 2 2 2 2 2 2 2 2 2 2 2 2 2 2 2 2 2 2 2 2 2 2 2 2 2 2 2 2
left_child=1 2 9 -2 6 14 37 13 25 20 11 15 -13 -8 -6 16 52 46 19 -14 21 24 -23 -9 55 26 28 34 -3 31 32 33 -31 -12 -28 47 -37 -5 -10 42 -41 -42 -40 44 -24 -22 -15 48 -27 50 -50 -49 -11 -38 -55 -1 57 -30 -59 62 61 -61 -39
right_child=3 8 -4 4 5 -7 7 23 38 10 29 12 18 17 -16 -17 -18 -19 -20 -21 45 22 43 -25 -26 35 27 -29 56 30 -32 -33 -34 -35 -36 36 53 59 39 40 41 -43 -44 -45 -46 -47 -48 51 49 -51 -52 -53 -54 54 -56 -57 -58 58 -60 60 -62 -63 -64
leaf_value=-0.0003010605662320998 0.00081601141464223499 -0.0005518418506928976 -0.00088409960984184494 -0.00056874378446341981 0.00032858326014096229 -0.0019628223477651911 0.0010282631777380105 0.00071644727931101469 0.00072551686048077848 0.0006346459386315054 -0.00016790813823193963 0.00098587483440305259 -0.00060783235271739575 0.000292132756847887 -0.00012020873796394821 -6.3572223967730999e-06 -0.00079096702481820105 4.6592792030828107e-05 -2.7146104025960732e-05 0.00076663659950018702 -0.00062708939109853978 -0.00043617576226642372 -0.00020913620206313983 0.00013277766853553083 0.00016273188184966634 8.0427318566292792e-05 0.00030436794040724637 -0.00057611580268712714 -0.00016272311401479983 -0.0011824534010022609 -0.0017732104513032193 0.00072300910829249513 -3.2537884818113415e-05 -0.0010685810892997931 0.0014148173548603846 0.00024440761974547058 -0.00045950352291056185 -0.00012225271211505295 0.0004877714005224041 5.4742641251525931e-05 0.00084931298960158131 -0.0015204062845980474 0.00011682257891059787 -5.1017386474085444e-05 0.00055963682987224229 3.6493331254105232e-05 0.0011975849738727058 -0.00056595019050780058 0.0004800196196551302 0.00034067808284631983 0.0019098377774495912 6.0880518005543507e-06 -0.00022975008508467336 0.00047169983321856263 -0.00055096519201816552 5.5480706685032091e-05 -0.00024674526214370782 9.2980596566350038e-05 0.0010308352868014482 -0.00015082991594681517 0.00024837767524268412 -0.0014217137820995767 0.00051517365834012206
leaf_weight=442 136 260 95 111 364 52 75 584 90 51 3455 75 81 140 975 876 319 899 30633 212 86 432 149 162 2067 1906 55 85 665 75 54 107 265 59 86 249 473 212 433 15904 58 80 1472 17343 243 21596 69 148 55 166 52 824 1430 104 62 837 1280 461 59 57 171 65 272
leaf_count=442 136 260 95 111 364 52 75 584 90 51 3455 75 81 140 975 876 319 899 30633 212 86 432 149 162 2067 1906 55 85 665 75 54 107 265 59 86 249 473 212 433 15904 58 80 1472 17343 243 21596 69 148 55 166 52 824 1430 104 62 837 1280 461 59 57 171 65 272
internal_value=-3.18423e-06 -9.7979e-06 -2.50695e-05 0.000158178 0.000136728 -7.28595e-05 0.00024021 0.000355372 3.96166e-05 -2.40496e-05 -5.20001e-05 -3.55624e-05 -2.07476e-05 0.000207013 1.94714e-06 -0.000207118 -0.000304764 0.000150546 -2.32206e-05 0.000385889 3.40623e-07 -3.34143e-05 -5.33096e-05 0.000590046 7.45899e-05 -3.66054e-05 -0.000126386 0.000399065 -0.000170095 -0.000189833 -0.000496324 -0.000156356 -0.000288919 -0.00018333 0.000986857 2.90053e-05 -0.000159601 -1.00754e-05 6.91558e-05 6.58241e-05 4.97188e-05 -0.000525492 0.00020135 -4.39594e-05 0.000267636 3.38325e-05 0.000595341 8.21912e-05 0.000155216 0.000675167 0.00118613 -8.15046e-05 -0.000199575 -0.000317167 8.87286e-05 -6.78727e-05 -0.000129622 -3.00712e-06 0.000201165 7.03628e-05 -0.000203606 -0.000833994 0.000236294
internal_weight=110353 106009 80982 4344 4208 1391 2817 1929 25027 80887 37692 33677 31001 1183 1339 2676 1800 1108 30926 293 43195 21513 18167 746 3346 6990 2951 226 2725 4015 394 3621 340 3514 141 4039 888 888 18037 17947 16042 138 1905 17735 392 21682 209 3151 2179 273 107 972 1481 639 166 1279 2465 1185 520 777 293 122 484
internal_count=110353 106009 80982 4344 4208 1391 2817 1929 25027 80887 37692 33677 31001 1183 1339 2676 1800 1108 30926 293 43195 21513 18167 746 3346 6990 2951 226 2725 4015 394 3621 340 3514 141 4039 888 888 18037 17947 16042 138 1905 17735 392 21682 209 3151 2179 273 107 972 1481 639 166 1279 2465 1185 520 777 293 122 484
is_linear=0
shrinkage=0.05


Tree=14
num_leaves=64
num_cat=0
split_feature=2 8 4 3 4 4 5 8 5 4 8 8 0 8 4 5 0 8 4 8 2 8 0 5 8 2 8 5 6 6 6 5 4 6 8 6 5 5 6 5 4 0 2 8 8 8 3 6 0 8 5 8 8 6 2 3 6 8 3 4 4 2 8
split_gain=0.0363433 0.052501 0.0209773 0.0410752 0.0493214 0.0285827 0.0279272 0.0211818 0.0197172 0.0342843 0.0245352 0.0213525 0.0270519 0.0192298 0.0227866 0.0243383 0.0212782 0.0166069 0.0290693 0.0233482 0.0164074 0.0400645 0.0184726 0.0229001 0.0203934 0.0175639 0.01926 0.0163522 0.0578044 0.0231785 0.026327 0.0201908 0.0163425 0.020913 0.017695 0.0162291 0.0739967 0.0279103 0.0177539 0.0224583 0.0841949 0.0222961 0.0175491 0.0197568 0.0206972 0.016442 0.0222699 0.0226141 0.0205262 0.021275 0.022207 0.0199002 0.0180655 0.016374 0.0160822 0.0179692 0.0153807 0.0153253 0.0192937 0.0194462 0.0170854 0.015847 0.0207168
threshold=-0.058236809447407716 0.081243764609098448 -0.26188623905181879 -0.044074427336454385 0.019138588570058349 -0.17642193287611005 -0.037912214174866669 -0.023644533008337017 0.75075951218605053 -0.30732914805412287 0.0047482866793870935 -0.058081481605768197 -0.035950290039181702 -0.11272234842181204 0.019138588570058349 0.6898687779903413 -0.12588030844926831 0.059373525902628906 0.039729652926325805 -0.0045045879669487468 0.21564771234989169 0.042335348203778274 0.38907566666603094 1.6555976271629336 0.17637221515178683 -0.013564611319452522 0.20580481737852099 2.0219815969467168 0.82561999559402477 -1.311321437358856 -0.096058484166860567 2.863462090492249 -0.41371101140975947 0.89912256598472606 -0.016561770811676976 1.2629011273384096 -0.29996371269226069 -0.76792219281196583 -1.2325316071510313 -1.984644293785095 -0.32477170228958124 -0.12386271357536315 -0.076644845306873308 -0.063350372016429887 -0.075521118938922868 -0.092174258083105073 -0.09884533658623694 -1.5698100328445432 -0.10773567110300063 -0.10801409184932707 -2.3571836948394771 -0.11092335730791091 -0.09551511704921721 -0.80105569958686818 0.051861936226487167 0.016336252912878994 -0.24179268628358838 -0.02685778588056564 -0.010712507646530865 -0.40974333882331843 -0.29739785194396967 -0.023851569741964337 0.021032922901213173
decision_type=2 2 2 2 2 2 2 2 2 2 2 2 2 2 2 2 2 2 2 2 2 2 2 2 2 2 2 2 2 2 2 2 2 2 2 2 2 2 2 2 2 2 2 2 2 2 2 2 2 2 2 2 2 2 2 2 2 2 2 2 2 2 2
left_child=1 13 8 4 6 -5 -4 -8 11 20 -11 -2 32 14 15 -1 -16 18 19 -7 21 -10 24 -24 -22 -23 54 35 29 -29 -31 -32 -13 -34 -35 38 37 -37 45 40 -40 -42 43 44 -43 48 -47 -48 49 50 -15 -52 -50 -45 55 -27 -28 58 -14 -60 61 62 -59
right_child=2 -3 3 5 -6 17 7 -9 9 10 -12 12 57 27 16 -17 -18 -19 -20 -21 22 25 23 -25 -26 26 56 28 -30 30 31 -33 33 34 -36 36 -38 -39 39 -41 41 42 -44 53 -46 46 47 -49 52 -51 51 -53 -54 -55 -56 -57 -58 60 59 -61 -62 -63 -64
leaf_value=-1.3587331396935175e-05 0.00014794960446557498 -0.0014715105336489938 -0.00038422393306623587 -0.00012079149381128035 0.0013372565962766348 -5.531381206023262e-05 1.1469983936487032e-05 0.0010368709604600681 4.1887151655757458e-05 0.00043956514121458424 0.001799827876702865 -0.00061046495574929992 -4.2566432920398632e-05 0.001048946960897772 -0.0001043887269495497 -0.00081133047520415855 0.0002171451566433905 -0.00010008236229975497 -0.0020669122642192842 -0.0012803770226633383 0.00032660730898648833 0.0012247559743312499 0.00032945801030216578 -0.00069057480864432664 -0.00081585873157146273 -5.9703351346090331e-05 0.0012650178281154358 -0.00026978782125297585 -0.0014781477257201914 0.00035276831660379157 6.2291614615378723e-05 -0.0010121354580229719 -0.00022050790009168911 3.648523244266518e-05 0.0011325230096459833 0.0012457907461794094 -1.0190341643820958e-05 0.00038867299952360842 0.0014753688154996781 -3.3303633439315184e-05 -0.0013785345325066541 -0.00028138023889851584 -0.001084896453620685 -0.00039376414405476113 -0.0011677074820424121 -0.0007832997498996053 0.00088646776294187899 -0.00013751947376793025 0.00028566954981511645 -0.00016399006216037438 -7.2770548764808073e-05 0.00038705642736539968 0.0010363305213545435 0.00069994080040487467 1.9202633290397865e-05 0.00091485256423843664 0.00038000985241152955 6.4966651516290436e-05 0.00013235543974374038 0.00051345920799540895 -0.00065425954129559138 6.840889697460095e-06 0.00085210279111936336
leaf_weight=2179 4077 61 259 309 75 75 139 78 1282 91 52 205 790 72 634 99 2718 61 51 80 54 74 271 68 136 71 101 239 53 1193 148 61 888 116 53 111 5823 640 63 71501 54 553 71 56 74 110 62 373 429 614 500 443 98 85 300 140 97 238 977 509 94 9297 128
leaf_count=2179 4077 61 259 309 75 75 139 78 1282 91 52 205 790 72 634 99 2718 61 51 80 54 74 271 68 136 71 101 239 53 1193 148 61 888 116 53 111 5823 640 63 71501 54 553 71 56 74 110 62 373 429 614 500 443 98 85 300 140 97 238 977 509 94 9297 128
internal_value=-3.02479e-06 -1.70319e-05 5.57542e-05 -0.000154071 0.000154442 -0.00044895 -3.43388e-05 0.000383113 6.75209e-05 0.000192232 0.00094327 4.78624e-05 1.71612e-05 -1.60191e-05 7.3411e-05 -4.85974e-05 0.000156317 -0.000826862 -0.00104055 -0.000691759 0.000150482 0.000214108 -9.78233e-05 0.00012342 -0.000491148 0.00049567 0.000417955 -2.20551e-05 0.000131661 0.000184522 0.000262106 -0.000254624 -0.000202979 -0.000123447 0.000384853 -2.52427e-05 5.00866e-05 0.000516846 -3.18322e-05 -3.65246e-05 -0.000277138 -0.000402287 -0.000337887 -0.000267506 -0.000387679 9.4011e-05 -0.000151156 1.01266e-05 0.000156026 6.81683e-05 0.00020863 0.000143427 0.00042696 0.000265848 0.000254835 0.000588187 0.000835542 4.02641e-05 0.000157065 0.000263153 1.30047e-05 1.95628e-05 0.000341821
internal_weight=110353 89117 21236 1127 551 576 476 217 20109 2737 143 17372 13295 89056 5630 2278 3352 267 206 155 2594 2065 529 339 190 783 709 83426 1694 1641 1402 209 1262 1057 169 81732 6574 751 75158 72457 956 893 839 768 627 2701 545 435 2156 1629 1015 943 527 141 511 211 198 12033 2276 1486 9757 9663 366
internal_count=110353 89117 21236 1127 551 576 476 217 20109 2737 143 17372 13295 89056 5630 2278 3352 267 206 155 2594 2065 529 339 190 783 709 83426 1694 1641 1402 209 1262 1057 169 81732 6574 751 75158 72457 956 893 839 768 627 2701 545 435 2156 1629 1015 943 527 141 511 211 198 12033 2276 1486 9757 9663 366
is_linear=0
shrinkage=0.05


Tree=15
num_leaves=64
num_cat=0
split_feature=7 6 7 6 7 6 6 6 4 7 7 4 3 4 1 6 7 2 6 2 6 6 1 4 6 6 3 6 3 6 3 7 2 7 6 6 4 4 2 0 1 4 6 4 7 4 4 4 0 7 4 6 4 3 4 1 1 2 6 4 3 7 4
split_gain=0.0670381 0.0348173 0.0307023 0.0361273 0.0222933 0.0298577 0.0291635 0.0273738 0.0378594 0.0393872 0.0249854 0.0292243 0.0234661 0.0228207 0.0780529 0.0249125 0.021387 0.0211181 0.0210418 0.02256 0.020629 0.0201115 0.0199097 0.0645918 0.0311806 0.0330497 0.0307473 0.0243121 0.0237305 0.025465 0.024241 0.0193917 0.0241448 0.0187931 0.0201559 0.025036 0.0198079 0.0187358 0.0181318 0.031036 0.0255151 0.0214912 0.0179047 0.0317358 0.0191909 0.0169488 0.0163017 0.0170999 0.0219034 0.0157798 0.0196598 0.0157601 0.0156746 0.0154061 0.0356585 0.0362468 0.0148909 0.0262183 0.0145832 0.0142743 0.0161279 0.0142416 0.0174504
threshold=1.2387639880180361 -1.4881756901741026 2.2682548761367802 2.1235990524291997 -0.43219701945781702 -1.4881756901741026 0.13270275294780734 -1.0358030200004575 0.57132899761199962 -1.6178538203239439 -2.3937333822250362 0.06170907802879811 -0.0712606906890869 0.095202345401048674 -0.10140521451830863 1.5383496880531313 -2.8766720294952388 -0.11343487724661826 -1.0358030200004575 -0.12479508668184279 -0.98009124398231495 -0.57232624292373646 -0.057112675160169595 -0.38430707156658167 -0.31670118868350977 -1.1325296759605405 -0.091209694743156419 -1.2325316071510313 -0.10886725038290022 1.2950839996337893 -0.10034904628992079 0.48824393749237066 -0.064137198030948625 0.081998430192470564 0.13270275294780734 1.3325538635253908 -0.28893756866455073 4.9991202354431161 -0.10710526630282401 -0.11710949614644049 -0.089069914072751985 -0.14661288261413571 -0.73367604613304127 -0.39242358505725855 1.6355105638504031 -0.09406432136893271 0.84640246629714977 2.3614407777786259 -0.12354970723390578 1.4926137924194338 -0.080989956855773912 0.50567990541458141 -0.39322833716869349 -0.11910326778888701 0.06170907802879811 -0.12261848524212836 -0.081426203250884996 -0.10964091867208479 -1.098300516605377 -0.39011031389236445 0.089405752718448653 -0.56662932038307179 -0.20136320590972898
decision_type=2 2 2 2 2 2 2 2 2 2 2 2 2 2 2 2 2 2 2 2 2 2 2 2 2 2 2 2 2 2 2 2 2 2 2 2 2 2 2 2 2 2 2 2 2 2 2 2 2 2 2 2 2 2 2 2 2 2 2 2 2 2 2
left_child=4 -2 18 22 5 38 7 16 61 46 11 -8 13 33 15 -15 -7 -18 58 -20 -11 42 23 -4 25 27 28 -25 29 51 -30 32 -14 -6 -35 36 -36 -12 39 -1 41 -40 49 -44 -45 -34 -10 -48 -49 -21 52 -26 -51 54 -27 -56 57 -54 -3 -19 -61 62 -9
right_child=1 2 3 -5 12 6 10 8 9 20 37 -13 31 14 -16 -17 17 59 19 21 -22 -23 -24 24 26 53 -28 -29 30 -31 -32 -33 45 34 35 -37 -38 -39 40 -41 -42 -43 43 44 -46 -47 47 48 -50 50 -52 -53 56 -55 55 -57 -58 -59 -60 60 -62 -63 -64
leaf_value=0.00042091037175338549 -0.00067454358273636664 -3.2910925287004441e-05 -0.0014222806103834256 -0.00096030771822495139 8.2721819612893332e-06 -0.00068799074954138358 0.0015822984872449358 -1.103398972848941e-05 1.9871138131499969e-05 0.00049519492931339253 3.9119338307952893e-06 -8.6270984891099014e-05 0.00027562858008119899 8.2509061816486451e-05 -0.0010314241921062094 -0.00029517659809473798 0.00017590006914468539 0.00020394184671304597 0.00083527381444072123 -0.00012603527939532915 -0.00026503684904260214 5.9229416336672276e-05 0.00074713664221492785 0.00044487070070597565 4.9874788203320453e-05 0.0013844927140131144 -0.00085646616442222471 -0.00069043410248186042 0.0013621151239388016 0.00097707567426065598 6.562742131316792e-05 -4.2052715683017295e-05 6.4211571453521221e-05 -1.6384274132829508e-05 -0.00019154168531320816 6.4880005027435393e-05 -4.6493802433944951e-05 0.00087645468945171862 0.00055951136873773073 -0.00055947155950259635 0.00013206538558608436 0.0018646492554344825 -0.00060865021374445624 0.00099205471855274771 0.00029277899348805527 -0.00074543940933206334 -0.0012889335956424476 -0.001405223539617475 -0.00017810810525789147 0.00089050337932944942 0.00092237648287338931 -0.00081393872043430222 -0.0004627144998555784 0.00095155985646017864 0.00070357652262568343 -0.0011392796190122288 -0.0006434776880113142 0.00069570676314786243 -0.00060561711805938705 -8.6537435159933575e-05 -0.00085956293549056036 -0.00018768660296002287 -0.00015642557155375254
leaf_weight=212 125 447 51 50 21032 103 54 5887 54 94 8002 50 1454 10823 163 454 1646 429 113 309 1492 3301 317 129 148 55 75 73 76 50 68 4008 11758 14956 6076 1852 3843 61 79 129 144 53 52 231 172 64 159 52 117 57 108 81 84 388 55 50 69 114 147 1885 69 3000 3177
leaf_count=212 125 447 51 50 21032 103 54 5887 54 94 8002 50 1454 10823 163 454 1646 429 113 309 1492 3301 317 129 148 55 75 73 76 50 68 4008 11758 14956 6076 1852 3843 61 79 129 144 53 52 231 172 64 159 52 117 57 108 81 84 388 55 50 69 114 147 1885 69 3000 3177
internal_value=-5.73174e-07 0.000149221 0.000164305 0.000351062 -1.0705e-05 -4.98108e-05 -5.78717e-05 -9.31544e-05 -0.000126461 -0.000329754 2.06016e-05 0.00078692 3.07398e-06 -1.1891e-05 5.15356e-05 6.7279e-05 1.99546e-05 3.82192e-05 0.000104461 0.000140554 -0.000219695 0.000122916 0.000392205 0.000305082 0.000376754 0.000580195 6.98175e-05 3.32072e-05 0.000235685 -3.38599e-05 0.00075456 5.43281e-05 8.34262e-05 -2.70848e-05 -5.49071e-05 -0.000103848 -0.000135355 1.0621e-05 0.000293728 4.94813e-05 0.000594229 0.00109362 0.000298495 0.000545064 0.000695068 5.97657e-05 -0.000784935 -0.000917091 -0.000561727 0.000146563 0.000341386 -0.000257877 0.000145481 0.000781394 0.000365395 -0.000176443 -1.62981e-05 0.0002044 -0.000175421 -5.69144e-05 -0.00011426 -9.32728e-05 -6.20065e-05
