tree
version=v4
num_class=1
num_tree_per_iteration=1
label_index=0
max_feature_idx=8
objective=regression
feature_names=Column_0 Column_1 Column_2 Column_3 Column_4 Column_5 Column_6 Column_7 Column_8
feature_infos=[-0.12627379596233368:5] [-0.12642952799797058:5] [-0.12623484432697296:5] [-0.12632845342159271:5] [-0.43321773409843445:5] [-4.0267271995544434:5] [-1.9954947233200073:5] [-5:5] [-0.11399253457784653:5]
tree_sizes=6065 6194 6230 6204 6207 6212

Tree=0
num_leaves=64
num_cat=0
split_feature=7 3 7 4 8 4 8 6 7 6 6 8 0 8 6 6 7 6 7 6 7 7 4 3 8 4 8 7 8 3 4 8 6 6 8 0 7 1 4 0 6 0 8 6 6 6 8 8 1 8 4 7 4 6 3 8 8 6 4 8 8 6 4
split_gain=0.181011 0.108997 0.0735395 0.0661633 0.0794015 0.114194 0.0704351 0.0615759 0.0599484 0.0551046 0.0611602 0.0731197 0.0423883 0.0353062 0.0345119 0.0349739 0.0302627 0.0301691 0.0572887 0.0353024 0.0289155 0.0261501 0.0404825 0.0410494 0.0314577 0.0230658 0.022413 0.0272714 0.0429127 0.0547702 0.0348666 0.0285505 0.0255796 0.0345779 0.0336044 0.0275384 0.0219517 0.0217669 0.0343631 0.0212367 0.0196732 0.0193837 0.0241389 0.0225 0.022081 0.0183652 0.0182998 0.0182185 0.0582368 0.0335842 0.0556293 0.021415 0.0350165 0.0229725 0.0180455 0.0281191 0.0227643 0.0501188 0.0211239 0.0176452 0.0167983 0.0182449 0.0165701
threshold=-0.43043346703052515 -0.073518868535757051 2.2655960321426396 -0.38037201762199396 -0.10860339179635047 0.77398696541786205 -0.058019610121846192 -1.3306277990341184 -2.4402524232864375 -0.13774637877941129 -1.1349164247512815 -0.08548670262098311 -0.095032945275306688 -0.079036500304937349 1.9585601687431338 -1.444228410720825 3.1943644285202031 -0.066046647727489458 -0.73537594079971302 -0.25571024417877192 -1.8253759145736692 0.85789790749549877 -0.12521679699420926 -0.046342970803380006 -0.051715804263949387 -0.35563224554061884 -0.11305529251694678 0.32932481169700628 -0.084514468908309923 -0.08799759671092032 -0.22627464681863782 -0.046041114255785935 0.016317059285938743 1.2336805462837221 -0.091434136033058153 -0.11315343528985976 -1.6167480349540708 -0.075933713465929017 -0.38393549621105189 -0.078408148139715181 -0.86702281236648548 -0.1103452332317829 -0.080355223268270479 -0.2935898751020431 -0.35533536970615381 -0.81561735272407521 -0.053328543901443475 1.0000000180025095e-35 -0.038527039811015122 0.047962632030248649 -0.11941747739911078 -2.4402524232864375 -0.26796977221965784 -0.55471783876419056 0.052598498761653907 0.50401747226715099 0.039255753159523017 0.48050209879875189 -0.42005012929439539 -0.03410630673170089 -0.091434136033058153 -0.60595634579658497 -0.087488226592540727
decision_type=2 2 2 2 2 2 2 2 2 2 2 2 2 2 2 2 2 2 2 2 2 2 2 2 2 2 2 2 2 2 2 2 2 2 2 2 2 2 2 2 2 2 2 2 2 2 2 2 2 2 2 2 2 2 2 2 2 2 2 2 2 2 2
left_child=3 2 26 8 -5 13 7 -7 -1 10 16 -12 62 -6 15 46 -4 19 -19 20 60 22 -3 -24 -23 36 -2 37 32 41 -31 -32 40 34 -34 -36 -17 39 -39 59 -29 42 -30 44 -43 -22 -15 -27 49 50 -49 -50 53 -53 56 -56 -26 -58 -57 -28 61 -9 -13
right_child=1 21 9 4 5 6 -8 17 -10 -11 11 12 -14 14 -16 25 -18 18 -20 -21 45 24 23 -25 54 47 27 28 29 30 31 -33 33 -35 35 -37 -38 38 -40 -41 -42 43 -44 -45 -46 -47 -48 48 51 -51 -52 52 -54 -55 55 58 57 -59 -60 -61 -62 -63 -64
leaf_value=0.0028385989270644611 0.001211112887164748 0.0012078135078087198 0.0015815558343601111 0.001093276722572939 0.00097067777198278865 0.0016421658609437739 -0.0013209108908233879 -0.00016723064251536988 0.0011153472814930993 0.0010375377124553901 0.0015375723609124751 0.0028557656479063767 0.0019300944462037584 0.00098959623744697043 0.0018775419656266341 0.00024883059401657 0.00026632277968744258 0.0010669766143992212 -0.00025171178999999592 -0.000608125695272097 0.00024212809911843436 0.00098315157977543408 0.0011449887656262226 -0.00056561299816641156 0.0014459421514881167 0.00065462457463869982 0.0010496216844476517 0.0010006468409626448 0.0013412916039151153 0.0011511068086823011 0.00084331314694656814 -0.00036570149167462849 0.0010110967043222116 0.0012219123299697914 -0.00034514229780477444 0.00074474742809659379 0.0010611373602232611 0.0011716718184877168 0.00019147369026858475 0.0014365622794710383 0.0011777020474305626 0.0015518984860964655 0.0027306872167867586 0.001287688622520715 0.0025239997993434229 0.00084767201011445522 0.002093066751871135 0.0012077977590164378 0.0014395736164071623 0.00066473361205696135 0.0031467881132596844 0.00028745576505435 -0.00029918003939579003 0.0011825893616747218 0.0010523106779943318 0.0013709368682901905 0.0023327065516494496 0.0010088601708392725 0.0024311470207399885 0.00031536541520191242 -0.00090229503380317294 0.00095684122633255193 0.0041195802164716222
leaf_weight=50 3089 16425 97 5526 9746 112 53 131 4852 391 263 68 84 75 73 91 78 347 107 105 222 417 76 64 936 2991 38096 1951 62 1004 158 70 6029 1762 63 631 867 171 186 354 7997 536 63 1267 65 288 74 88 68 64 63 132 104 155 495 134 232 103 72 81 50 50 50
leaf_count=50 3089 16425 97 5526 9746 112 53 131 4852 391 263 68 84 75 73 91 78 347 107 105 222 417 76 64 936 2991 38096 1951 62 1004 158 70 6029 1762 63 631 867 171 186 354 7997 536 63 1267 65 288 74 88 68 64 63 132 104 155 495 134 232 103 72 81 50 50 50
internal_value=0.00108138 0.00111746 0.00108655 0.000967466 0.000929803 0.000873543 0.00045286 0.000521089 0.00113328 0.00150525 0.0017906 0.00208991 0.00280321 0.000915821 0.000805518 0.000788954 0.000994069 0.000424143 0.00075395 0.000247743 0.000371126 0.0012229 0.00120058 0.000356903 0.00137753 0.000764628 0.00107976 0.00107306 0.00111802 0.00128626 0.0010242 0.00046745 0.00108858 0.00102481 0.000973134 0.000643907 0.000983195 0.00104802 0.000659936 0.00105162 0.00114297 0.0014482 0.00204912 0.00140749 0.00165927 0.000582966 0.00154076 0.000707538 0.000942627 0.00162011 0.00202508 0.000624792 0.000482525 0.000769582 0.00146093 0.0012569 0.00157322 0.00192669 0.00174625 0.00104804 -9.24328e-05 0.000140926 0.00341236
internal_weight=110104 83620 64666 26484 21582 16056 1465 1412 4902 1031 640 465 202 14591 4845 4772 175 1300 454 846 741 18954 16565 140 2389 4623 63635 60546 21658 3225 1232 228 18433 8485 6723 694 958 38888 357 38531 9948 1993 125 1868 601 510 149 3665 674 215 151 459 391 287 1972 701 1271 335 206 38177 231 181 118
internal_count=110104 83620 64666 26484 21582 16056 1465 1412 4902 1031 640 465 202 14591 4845 4772 175 1300 454 846 741 18954 16565 140 2389 4623 63635 60546 21658 3225 1232 228 18433 8485 6723 694 958 38888 357 38531 9948 1993 125 1868 601 510 149 3665 674 215 151 459 391 287 1972 701 1271 335 206 38177 231 181 118
is_linear=0
shrinkage=1


Tree=1
num_leaves=64
num_cat=0
split_feature=7 0 7 4 8 4 8 6 7 6 6 8 5 6 5 5 6 5 8 8 2 6 6 5 8 5 6 4 2 7 7 5 2 0 6 7 8 5 6 8 4 7 5 6 0 8 2 4 6 5 2 4 4 8 7 6 5 4 4 8 6 5 4
split_gain=0.163402 0.0981461 0.064964 0.0597363 0.0716788 0.103209 0.06379 0.0557431 0.0542177 0.0493644 0.0551218 0.0684448 0.0491503 0.0696457 0.0438678 0.0399294 0.0500272 0.0352153 0.0338184 0.0318613 0.031726 0.0311798 0.0315916 0.0311114 0.0300197 0.0287937 0.0359618 0.0295513 0.0302119 0.0281376 0.0273511 0.0268025 0.026712 0.0263832 0.0307334 0.0254677 0.0275732 0.0252053 0.0244589 0.0233412 0.0227503 0.0246487 0.0227285 0.0917261 0.0224738 0.02516 0.0287876 0.0290476 0.0229969 0.0222658 0.0322341 0.0214935 0.0208106 0.0205709 0.0198345 0.0191506 0.0190369 0.018664 0.0178823 0.017815 0.0176534 0.0175885 0.017325
threshold=-0.43043346703052515 -0.073433667421340929 2.2655960321426396 -0.38037201762199396 -0.10860339179635047 0.77398696541786205 -0.056517148390412324 -1.3306277990341184 -2.4402524232864375 -0.13774637877941129 -1.1349164247512815 -0.090693876147270189 -0.84785616397857655 0.94891539216041576 0.55996528267860424 0.54853600263595592 0.26857508718967443 -1.6356810331344602 0.039255753159523017 -0.079036500304937349 -0.091845788061618791 1.9585601687431338 -1.444228410720825 -3.3715296983718868 -0.11305529251694678 -0.48940038681030268 0.78584977984428417 -0.37588907778263086 -0.055409541353583329 0.63101235032081615 3.1943644285202031 2.3010838031768803 0.044540971517562873 0.062328839674592025 0.63475996255874645 -0.54423436522483815 -0.092885151505470262 2.0488946437835698 -0.70108911395072926 -0.031519461423158639 -0.35905142128467554 1.0830894112586977 -0.31630603969097132 0.44628372788429266 -0.075893897563219057 -0.084514468908309923 -0.088493876159191118 -0.16724459826946256 -0.86702281236648548 2.3010838031768803 -0.11682375892996787 -0.22627464681863782 -0.35563224554061884 -0.097211748361587511 -1.6167480349540708 0.11920352652668954 -0.88908049464225758 -0.24246145039796826 -0.094007901847362504 -0.066979587078094469 1.6745126843452456 0.069764930754899993 -0.41097719967365259
decision_type=2 2 2 2 2 2 2 2 2 2 2 2 2 2 2 2 2 2 2 2 2 2 2 2 2 2 2 2 2 2 2 2 2 2 2 2 2 2 2 2 2 2 2 2 2 2 2 2 2 2 2 2 2 2 2 2 2 2 2 2 2 2 2
left_child=3 2 12 8 -5 19 7 -7 -1 10 30 -12 13 20 25 24 44 -9 58 23 38 22 -21 -6 -14 26 29 32 40 39 -4 -13 -27 34 51 36 53 -18 -2 56 -29 -42 43 59 45 48 -47 -48 -17 -50 -51 -20 54 -19 -24 -38 -3 -22 -16 -26 -45 -11 -44
right_child=1 14 9 4 5 6 -8 17 -10 61 11 31 15 -15 18 16 37 35 33 21 57 -23 52 -25 42 27 -28 28 -30 -31 -32 -33 -34 -35 -36 -37 55 -39 -40 -41 41 -43 62 60 -46 46 47 -49 49 50 -52 -53 -54 -55 -56 -57 -58 -59 -60 -61 -62 -63 -64
leaf_value=0.0016762833769533637 -5.272588167328298e-05 0.00097886586628293209 0.00048362098738656756 1.6499308657633719e-05 0.00079576143392235592 0.00053819432560780979 -0.0023136159684816865 -0.0010657234963635193 3.7466555377696221e-05 0.00067598530481582583 0.00033272956294370942 0.00065937394265347393 0.00013444703503421467 0.0017647208796372613 0.00020749188488549915 -5.1965987333826352e-05 -6.2970966648886223e-05 -0.00035787542126406379 0.001206334848088941 0.00044191480707619733 -7.9634366577790519e-05 0.00076209275394904666 -0.0007861741849805896 -0.00010886909912259352 -2.6045946305423835e-05 0.00016784844940592985 0.0009299569084252311 -0.00025972766901853948 -0.00031091606010851403 0.0012522450485830047 -0.00076961949595863216 0.0018774142404201965 9.1367746145826824e-06 0.00035175865712569758 -0.00028672116873517203 -0.0012852233829212258 -0.0015816352992163352 -0.00093959334200397794 0.00047571488870501829 -4.0705644359279961e-05 0.00015278097895912219 0.0012914904785872091 0.00012322175537165031 0.00031367557349430957 -0.00054853106084920002 0.00055021418755350174 0.00023391688917486885 -0.00077745840616719154 0.00017164753038616319 0.00037650680842489238 -0.0011351820122365121 7.6171681718608633e-05 -0.00034995718501349923 0.0005253850771050441 -1.4034107984795396e-05 -0.00031083552707523087 0.00025571004642926297 -0.0011985802944799813 -0.00049776114652969787 -0.00051122851886947708 0.00079786534698299836 -0.00019343611655933264 -5.5355809784878714e-05
leaf_weight=50 309 107 96 5526 95 112 51 331 4852 70 222 63 2850 76 2742 1664 3457 689 269 149 139 73 91 9651 6365 6832 196 345 929 61 78 173 4332 972 51 86 74 83 749 699 705 50 1409 1412 117 749 406 85 6089 63 78 50 3665 72 867 50 588 50 92 194 217 321 37016
leaf_count=50 309 107 96 5526 95 112 51 331 4852 70 222 63 2850 76 2742 1664 3457 689 269 149 139 73 91 9651 6365 6832 196 345 929 61 78 173 4332 972 51 86 74 83 749 699 705 50 1409 1412 117 749 406 85 6089 63 78 50 3665 72 867 50 588 50 92 194 217 321 37016
internal_value=5.19687e-06 3.94764e-05 1.00829e-05 -0.000103034 -0.000138821 -0.000192275 -0.000592212 -0.000528533 5.45208e-05 0.000405165 0.000678009 0.000965291 3.71949e-06 0.000305172 0.000139304 -2.69168e-06 7.60494e-05 -0.000620638 0.000282453 -0.000152082 0.000214876 -0.000256866 -0.00027261 -9.99704e-05 -2.3055e-05 9.90156e-05 0.00029581 7.43679e-05 -0.000101127 0.000209805 -7.9364e-05 0.00155641 0.000106269 0.000489164 0.000848209 -0.000467974 -0.000387197 -8.37841e-05 0.000321474 0.000163324 7.61704e-05 0.000229801 -3.26877e-05 4.2943e-05 0.000137214 0.000146057 0.000355361 5.76072e-05 0.000113138 0.000157238 -0.000461852 0.00102998 -0.000295729 -0.000273728 -8.81227e-05 -0.0010758 0.000368291 -0.000380402 0.00018443 -4.04723e-05 0.000378625 -3.64578e-05 -4.88045e-05
internal_weight=110104 83620 64600 26484 21582 16056 1465 1414 4902 1023 632 458 63577 1323 19020 62254 12791 1302 4176 14591 1247 4845 4772 9746 49463 14844 1651 13193 2029 1455 174 236 11164 1342 370 971 885 3540 1058 1394 1100 755 46613 8188 9251 9134 1240 491 7894 6230 141 319 4623 761 958 124 695 189 2834 6559 1629 391 38425
internal_count=110104 83620 64600 26484 21582 16056 1465 1414 4902 1023 632 458 63577 1323 19020 62254 12791 1302 4176 14591 1247 4845 4772 9746 49463 14844 1651 13193 2029 1455 174 236 11164 1342 370 971 885 3540 1058 1394 1100 755 46613 8188 9251 9134 1240 491 7894 6230 141 319 4623 761 958 124 695 189 2834 6559 1629 391 38425
is_linear=0
shrinkage=0.05


Tree=2
num_leaves=64
num_cat=0
split_feature=7 3 7 4 8 4 8 6 6 6 8 0 4 0 8 0 8 0 6 4 4 2 8 7 6 7 6 7 4 7 8 6 4 8 6 4 8 3 2 2 8 8 7 4 0 4 4 8 8 8 7 8 2 4 8 3 8 2 7 3 4 3 0
split_gain=0.147495 0.0888577 0.0601375 0.05474 0.0526547 0.101653 0.0577134 0.0503443 0.0450305 0.0504024 0.0562717 0.037068 0.026002 0.0578134 0.0332983 0.0337978 0.0321787 0.0283872 0.029285 0.0292691 0.0339334 0.0363523 0.0274446 0.028255 0.0259202 0.0501249 0.0325372 0.0252056 0.0233108 0.0228495 0.0295977 0.0219522 0.0217304 0.0206532 0.0201952 0.0393095 0.02204 0.0424812 0.0199753 0.0198044 0.0241661 0.0235894 0.0195043 0.0194711 0.0302987 0.040129 0.0194445 0.0191975 0.0190778 0.0185359 0.0227367 0.0371084 0.0477906 0.0398531 0.0248832 0.0228028 0.0254547 0.0301535 0.0230832 0.0253708 0.0199309 0.0317707 0.0187851
threshold=-0.43043346703052515 -0.073518868535757051 2.2655960321426396 -0.40265583992004389 -0.10860339179635047 0.77398696541786205 -0.056517148390412324 -1.3306277990341184 -0.13774637877941129 -1.1182833909988401 -0.08548670262098311 -0.095032945275306688 -0.30880270898342127 -0.11495506018400191 -0.077592067420482622 -0.1098676025867462 -0.1037781275808811 -0.10267680510878562 0.1910846680402756 -0.094007901847362504 -0.035436755046248429 -0.089038908481597887 -0.10093429312109946 -1.5376252532005308 -0.066046647727489458 -0.73537594079971302 -0.25571024417877192 -1.8253759145736692 0.096491906791925444 0.85789790749549877 -0.051715804263949387 -0.40236651897430414 0.061771484091877944 -0.089525453746318803 -0.84636655449867237 0.13407219201326373 1.0000000180025095e-35 -0.038605794310569756 -0.10364918783307074 0.044540971517562873 0.097943268716335311 0.68517020344734203 -1.8253759145736692 -0.37495754659175867 -0.041399145498871796 -0.20856405794620511 -0.051714045926928513 -0.09390487894415854 -0.053328543901443475 -0.11294539645314215 0.32932481169700628 -0.084514468908309923 -0.090920105576515184 0.096491906791925444 -0.031519461423158639 -0.10841951146721839 -0.10619931295514105 -0.11551034078001975 1.473644018173218 -0.11414819210767745 -0.4041286408901214 -0.075906861573457704 -0.10632891580462454
decision_type=2 2 2 2 2 2 2 2 2 2 2 2 2 2 2 2 2 2 2 2 2 2 2 2 2 2 2 2 2 2 2 2 2 2 2 2 2 2 2 2 2 2 2 2 2 2 2 2 2 2 2 2 2 2 2 2 2 2 2 2 2 2 2
left_child=3 2 49 -1 -5 12 7 -7 9 -4 -11 38 13 16 15 22 -6 32 34 -20 -21 -22 23 31 26 -26 27 -9 29 43 -31 -14 -16 47 35 42 46 -38 -12 40 -32 -41 -19 -3 -45 -46 -36 -24 -48 -2 60 55 54 -54 62 56 -52 -58 -59 -60 -51 -62 -53
right_child=1 28 8 4 5 6 -8 24 -10 10 11 -13 14 -15 17 -17 -18 18 19 20 21 -23 33 -25 25 -27 -28 -29 -30 30 39 -33 -34 -35 36 -37 37 -39 -40 41 -42 -43 -44 44 45 -47 48 -49 -50 50 51 52 53 -55 -56 -57 57 58 59 -61 61 -63 -64
leaf_value=0.00011278915513371724 0.00010930483986298131 0.00014035594272663912 -4.7020932561767738e-05 1.2364623767727282e-05 0.00029217518124828953 0.0005115228220130177 -0.0022001598473602476 -0.0010651779571030329 -3.457337648908332e-05 0.00044389588294087355 0.0014585394800330203 0.00072978505121693482 3.2766719378582587e-05 -8.3858328147435666e-05 -0.0005007860897394764 -1.0962470064289386e-05 0.0014775066586437226 6.2827095870020324e-05 -0.00020484046804469835 0.0016156218622479805 0.0010370759990889513 -0.0006776386578364865 -0.00042637395807291236 -0.00020251470905593099 8.7664057806752443e-06 -0.001224670867264245 -0.0015744686486937527 -0.00043659690569352889 -0.00081269151334149338 -0.00010145210549082479 0.00041321362718816143 0.00099341447443463088 -0.0016828545929792411 0.0001324449747223228 -0.00049889507293852009 0.00079802141621864104 0.00064637858342274888 -0.00070845114403507783 0.0028238349334794312 1.5828995064975277e-05 0.0011546391216165277 0.00070204725451267734 -0.0005634884069704207 8.8711775637999492e-05 -0.00017847705976069804 -0.0015974011580477021 -0.00061221001096854483 -0.0010218247735054534 -0.0015356329843388477 0.00010757052953964076 -5.2178325198286406e-06 0.00071914399411940582 4.5065035690293626e-05 -0.0013622667721042842 0.0013142128935188352 -7.7216219332911887e-05 0.00029643070251016113 9.0400562077189346e-05 -0.0010194707685441246 -7.2934657032792393e-05 -3.1926594329417616e-05 -0.00054695535578286206 0.00026278337177569518
leaf_weight=2761 3883 13605 186 5551 182 112 51 233 391 259 59 80 193 6784 100 3372 83 197 508 51 55 68 684 2415 347 107 105 510 64 415 1071 85 64 129 684 89 106 125 56 590 122 158 335 2225 651 53 126 169 103 2581 8495 273 1542 51 68 5307 1854 2315 99 243 35332 301 1291
leaf_count=2761 3883 13605 186 5551 182 112 51 233 391 259 59 80 193 6784 100 3372 83 197 508 51 55 68 684 2415 347 107 105 510 64 415 1071 85 64 129 684 89 106 125 56 590 122 158 335 2225 651 53 126 169 103 2581 8495 273 1542 51 68 5307 1854 2315 99 243 35332 301 1291
internal_value=4.93915e-06 3.75074e-05 9.60218e-06 -9.78888e-05 -0.000122412 -0.000163581 -0.000562801 -0.000502232 0.000388228 0.000646183 0.000929663 0.0015693 -0.000128543 -5.55178e-05 -0.000181829 -0.000125287 0.000667589 -0.00033433 -0.000291383 -1.3078e-05 0.000544752 9.12838e-05 -0.000230153 -0.000147545 -0.000589762 -0.000283986 -0.00075294 -0.000634883 0.000132707 0.000135953 0.000281613 0.000328998 -0.000969485 -0.000456316 -0.000398852 -0.000168923 -0.000523408 -8.6648e-05 0.00214199 0.000363525 0.000489938 0.000161523 -0.000331881 0.000115182 -1.75914e-06 -0.000287414 -0.000633698 -0.000545406 -0.00103242 3.46177e-06 -3.41819e-06 3.76642e-05 0.00019403 -8.17141e-07 0.000384104 1.01184e-05 4.57579e-05 0.000141734 3.37188e-05 -0.000349105 -2.65732e-05 -3.62924e-05 0.000342851
internal_weight=110104 83620 64666 26484 23723 18172 1465 1414 1031 640 454 195 16707 7049 9658 7047 265 2611 2447 682 174 123 3675 2693 1302 454 848 743 18954 18890 2356 278 164 982 1765 621 1144 231 115 1941 1193 748 532 16534 2929 704 913 853 229 63635 59752 21538 3225 1593 1632 18313 13006 4511 2657 342 38214 35633 1564
internal_count=110104 83620 64666 26484 23723 18172 1465 1414 1031 640 454 195 16707 7049 9658 7047 265 2611 2447 682 174 123 3675 2693 1302 454 848 743 18954 18890 2356 278 164 982 1765 621 1144 231 115 1941 1193 748 532 16534 2929 704 913 853 229 63635 59752 21538 3225 1593 1632 18313 13006 4511 2657 342 38214 35633 1564
is_linear=0
shrinkage=0.05


Tree=3
num_leaves=64
num_cat=0
split_feature=7 5 6 5 6 8 6 6 7 7 2 7 6 6 1 5 6 5 2 8 5 5 6 7 8 8 6 8 3 8 1 2 8 6 5 1 8 3 8 8 1 5 5 5 2 7 8 7 7 1 6 8 6 3 7 6 6 7 2 5 7 6 1
split_gain=0.13315 0.0818607 0.0676452 0.0633822 0.132319 0.0614116 0.0410972 0.0456916 0.0517673 0.0401392 0.0375594 0.0374471 0.0395012 0.0413336 0.0564503 0.0353577 0.0298147 0.0282319 0.0286637 0.0259989 0.0242445 0.023286 0.0382874 0.0348085 0.0357206 0.0235609 0.0229121 0.0227461 0.0216616 0.0215671 0.028828 0.020718 0.0203576 0.0197671 0.0196349 0.0195596 0.0325251 0.0244552 0.0184893 0.0215316 0.0414056 0.0195798 0.0184132 0.0233458 0.0267891 0.0173079 0.0172284 0.0189511 0.0199265 0.0185914 0.0171092 0.0168507 0.0238675 0.0214469 0.0314379 0.0307989 0.0171102 0.0168046 0.0166591 0.0165963 0.0190696 0.0179157 0.0161851
threshold=-0.43043346703052515 0.54853600263595592 0.64816269278526317 -0.45041666924953455 0.35892905294895178 -0.086922194808721528 0.23963607847690585 -1.1349164247512815 -0.94181290268897999 0.44323495030403143 -0.08079261332750319 2.2655960321426396 -1.3621054887771604 -0.13774637877941129 -0.094789680093526826 -1.6356810331344602 -0.44172906875610346 -3.3715296983718868 -0.10701829195022582 -0.11294539645314215 -0.58600118756294239 -2.3604378700256343 -0.25571024417877192 -1.4056073427200315 -0.028684280812740322 -0.10227521881461142 -0.86702281236648548 -0.025361382402479645 -0.11264334246516226 0.039255753159523017 0.11099215596914293 -0.11371277272701262 -0.093237955123186098 -1.444228410720825 0.3978994488716126 -0.049107676371932023 -0.10279256850481032 -0.10676844790577887 -0.10913773998618125 -0.060873484238982194 -0.096301857382059083 -0.59830707311630238 -0.41607190668582911 -0.57425385713577259 -0.099594108760356889 -0.24701505899429319 -0.089903257787227617 -2.4402524232864375 -2.1583940982818599 -0.019570301286876198 -0.62294292449951161 -0.06480133160948752 -0.4902812242507934 -0.08799759671092032 -1.4682521224021909 -0.00892029609531164 -0.30889721214771265 -0.5545172095298766 -0.10364918783307074 -1.2695440649986265 -1.2515127062797544 -0.27116554975509638 -0.12421784177422522
decision_type=2 2 2 2 2 2 2 2 2 2 2 2 2 2 2 2 2 2 2 2 2 2 2 2 2 2 2 2 2 2 2 2 2 2 2 2 2 2 2 2 2 2 2 2 2 2 2 2 2 2 2 2 2 2 2 2 2 2 2 2 2 2 2
left_child=6 3 5 4 16 26 7 17 21 62 19 29 -13 14 58 -8 -2 18 -1 -5 -11 22 23 24 25 -9 -3 -15 31 -7 -31 59 -12 -20 -10 36 -19 -38 -17 42 -41 -42 43 44 -40 -28 -30 -48 -49 51 -27 53 -53 55 -55 -50 -56 -36 -14 61 -61 -23 -6
right_child=1 2 -4 10 9 11 15 8 34 20 32 12 13 27 -16 38 -18 35 33 -21 -22 28 -24 -25 -26 50 45 -29 46 30 -32 -33 -34 -35 57 -37 37 -39 39 40 41 -43 -44 -45 -46 -47 47 48 49 -51 -52 52 -54 54 56 -57 -58 -59 -60 60 -62 -63 -64
leaf_value=-5.9488475602909417e-06 -6.1335002195310836e-05 -6.5026259578084624e-05 -9.8825898465937245e-05 0.00010182676945575146 0.0011716352474130482 0.00020425634506778816 0.001320222503158684 -0.00043137496969263472 -8.9984209805753728e-05 0.0010888414849762908 0.00023159802624771143 -0.00049007633601969719 0.0012939433230775618 -0.00063294036685185729 0.00059457686170629278 0.00018239170568343178 0.00015539634819169515 7.3600205689223534e-05 0.0017256617727861205 -4.2589007569167008e-05 0.00044573030242742227 -0.00049022400623617156 0.000681654677050663 0.00044101620914484816 -0.00019466729587539874 -0.0012268831592964784 -0.00051874324173947783 0.00069529967399181009 2.5799155986153791e-05 0.00078617043952917585 0.00024686917680487579 -0.0010996060504976863 4.1165330382676935e-05 0.00042664461153913563 -0.00016220950052810309 0.00024766569408753489 -0.00068635428715564423 -0.00014583529750678901 0.00019869681814710814 0.0014700419512034084 -0.00042398752035079155 0.00012025196388038624 -0.00014237920437034092 0.0005199419590130942 -0.00070145751751918024 0.00014027215635427167 0.00030911413531204497 -0.00094398891890671601 -0.00026851494028734302 -4.9993411921164185e-05 -0.0022946639113866213 -0.00022689847261756019 -0.00080312836747285028 0.0010377888444874233 -0.00035178353278457215 -0.0015185831449343824 0.00053541405561393024 -0.0010424891259696446 0.0023566948536190221 6.7694106631031247e-06 -0.00041923500085245093 -0.0014539058084698843 0.00029565499098929102
leaf_weight=117 3444 1835 2730 3377 55 4042 50 69 9452 401 1581 65 86 65 265 1154 2941 1823 60 40264 234 485 50 52 117 154 100 62 747 409 630 100 12439 58 118 599 259 1077 247 53 183 1623 3574 254 123 7573 144 107 417 783 52 348 373 70 221 55 71 100 72 439 653 53 950
leaf_count=117 3444 1835 2730 3377 55 4042 50 69 9452 401 1581 65 86 65 265 1154 2941 1823 60 40264 234 485 50 52 117 154 100 62 747 409 630 100 12439 58 118 599 259 1077 247 53 183 1623 3574 254 123 7573 144 107 417 783 52 348 373 70 221 55 71 100 72 439 653 53 950
internal_value=4.69107e-06 3.56351e-05 0.00013031 9.78468e-06 0.00014143 0.000171457 -9.30085e-05 -0.000131287 -0.000170755 0.000541889 -8.53926e-06 0.000301276 0.000669568 0.000807258 0.00104427 8.33478e-06 3.85025e-05 1.92587e-05 0.000549726 -3.14118e-05 0.000852926 -0.000292314 -0.000619824 -0.000767589 -0.000928629 -0.00123906 9.36628e-05 1.58579e-05 -0.000260262 0.000256575 0.000459716 -0.000403825 6.26549e-05 0.00109611 -0.000100839 -1.40506e-05 -6.37392e-05 -0.000251057 -9.43456e-07 -3.58974e-05 0.00010573 6.49007e-05 -9.86245e-05 0.00015181 -0.000101628 0.000131617 -0.000185714 -0.000246728 -0.000279577 -0.00024878 -0.0015062 -0.000348779 -0.000525703 -0.000195381 9.4041e-05 -0.000417082 -0.00013497 -0.000568924 0.00179001 -0.000360491 -0.000248125 -0.00058768 0.000344711
internal_weight=110104 83620 17934 65686 8025 15204 26484 19223 15230 1640 57661 5696 615 550 423 7261 6385 3993 235 43641 635 5560 494 444 392 275 9508 127 5066 5081 1039 1730 14020 118 9670 3758 3159 1336 7211 6057 1859 1806 4198 624 370 7673 3336 2589 2445 2338 206 1555 721 834 362 472 292 218 158 1630 1092 538 1005
internal_count=110104 83620 17934 65686 8025 15204 26484 19223 15230 1640 57661 5696 615 550 423 7261 6385 3993 235 43641 635 5560 494 444 392 275 9508 127 5066 5081 1039 1730 14020 118 9670 3758 3159 1336 7211 6057 1859 1806 4198 624 370 7673 3336 2589 2445 2338 206 1555 721 834 362 472 292 218 158 1630 1092 538 1005
is_linear=0
shrinkage=0.05


Tree=4
num_leaves=64
num_cat=0
split_feature=7 3 7 5 7 5 2 8 7 1 3 5 8 2 5 5 8 2 8 8 0 3 0 5 8 2 0 5 5 1 7 8 8 2 2 7 7 5 5 5 1 2 7 8 5 7 8 5 2 3 2 8 8 1 5 3 5 7 0 7 5 8 8
split_gain=0.120199 0.0739384 0.0498322 0.0396753 0.0536644 0.035366 0.0449866 0.0391283 0.0372287 0.0357822 0.0749722 0.0345556 0.0324099 0.0473629 0.0323346 0.0298509 0.0296212 0.0387506 0.0304734 0.0288204 0.0287046 0.0270154 0.0260194 0.0253933 0.0232082 0.0231971 0.0227765 0.022111 0.0214271 0.021057 0.032992 0.0209247 0.019907 0.0195634 0.0193974 0.0191493 0.0188936 0.0182964 0.0263493 0.0182282 0.0163666 0.0361361 0.0158066 0.017628 0.0156433 0.0285743 0.0165815 0.0285094 0.0155834 0.0265615 0.0251039 0.045245 0.0299081 0.0152322 0.0140105 0.0138438 0.0136158 0.013606 0.0152703 0.0135423 0.0154494 0.0134006 0.0133515
threshold=-0.43043346703052515 -0.073518868535757051 2.2655960321426396 -0.84785616397857655 0.33650726079940801 -3.3715296983718868 -0.10734726861119269 -0.10394302383065222 -2.9244879484176631 -0.092870637774467454 -0.072203382849693284 0.55996528267860424 -0.092538308352231965 -0.098504584282636629 0.54853600263595592 -1.4150245785713194 -0.10860339179635047 -0.11779087409377097 -0.1003088168799877 0.039255753159523017 -0.096186622977256761 -0.10404878109693526 -0.079561695456504808 -0.80867591500282276 -0.11305529251694678 -0.019589727744460102 0.062328839674592025 -1.0146437287330625 2.666130900382996 -0.11631716787815093 -0.99063158035278309 -0.069107513874769197 -0.086922194808721528 -0.11959480121731757 -0.01330747129395604 1.7529536485671999 -0.20838540792465207 2.3010838031768803 1.1288804411888125 -0.31630603969097132 -0.084922686219215379 -0.090455975383520112 -0.24098517000675199 -0.066979587078094469 -0.48940038681030268 1.0176483988761904 -0.021734436973929402 -1.1489353179931638 -0.11188184097409247 -0.112208504229784 -0.099594108760356889 -0.065911926329135881 -0.082221072167158113 -0.12242442369461058 0.7636239528656007 -0.12302789837121962 -0.55091172456741322 -0.83703655004501332 -0.10397867113351821 -0.87792494893074025 -0.95908880233764637 -0.11151527985930441 -0.089525453746318803
decision_type=2 2 2 2 2 2 2 2 2 2 2 2 2 2 2 2 2 2 2 2 2 2 2 2 2 2 2 2 2 2 2 2 2 2 2 2 2 2 2 2 2 2 2 2 2 2 2 2 2 2 2 2 2 2 2 2 2 2 2 2 2 2 2
left_child=5 2 3 4 20 6 7 -1 22 -8 -11 15 -4 21 24 -3 -10 18 27 -13 61 37 -7 59 -5 29 54 53 36 30 -25 -23 -17 -20 -27 -30 62 38 -14 42 41 -15 43 55 45 46 -34 -48 49 -31 51 52 57 -18 -21 -26 -29 58 -50 60 -19 -2 -16
right_child=1 11 12 14 -6 8 9 -9 16 10 -12 19 13 40 28 32 17 23 33 26 -22 31 -24 25 39 34 -28 56 35 48 -32 -33 44 -35 -36 -37 -38 -39 -40 -41 -42 -43 -44 -45 -46 -47 47 -49 50 -51 -52 -53 -54 -55 -56 -57 -58 -59 -60 -61 -62 -63 -64
leaf_value=0.00077948126479785785 0.00078970733188590651 0.0012272406398040946 2.0152910745220741e-05 0.00011719934738395321 0.00093213272029970542 -0.0011484778292443869 0.0018166578095427694 -0.00073876667752110657 1.2314283789099577e-05 -0.00098610183728130231 0.001305631514117923 0.00015680185489411045 0.00090204301907807207 0.00028158783358587657 -0.00044959229520199746 0.00021091357293701835 -0.0012896436891848377 -0.00018782911572803366 -0.0017062463514594128 0.00011206329452680118 -0.00040014173698605 0.00092832135213778688 9.453188203686475e-05 0.00087865715209282816 -0.00039584721821556168 0.0006449408451255688 0.00031189703326497633 0.00011686098045964205 -0.0011469879867614841 -0.00021191232557003439 -2.9027815259666042e-05 0.0022563002721749637 0.00033074744462695802 -0.00056730649541741429 5.3074126935529389e-05 -9.3368683658246447e-05 8.6560586717544243e-05 0.0010344966380106406 -0.00061247185388180832 -4.4174913295950241e-05 0.00062397602161604775 -0.0013080857325500498 8.6039820063055705e-05 -0.00094840983405116612 3.4196066629047985e-05 0.0012169711253129697 -0.0010647669923886404 8.3806214475862218e-05 0.00013091143413730458 -0.001249602466973906 -0.00014065838317444825 0.0015269602863483278 -0.00051925122947406907 -0.0004414693597997636 0.00091783510027561841 -5.7654297422717947e-06 -0.00025920507868471671 -5.6596861132610337e-07 0.00069199046332038441 -7.2048871273522214e-05 -0.0004705767028614432 0.00017594537191694889 0.000196697585990892
leaf_weight=65 100 56 428 2850 250 139 67 118 5533 57 92 2770 58 105 280 2450 59 4068 59 66 212 67 60 140 251 147 972 340 65 1227 345 56 704 106 2146 125 12271 131 55 38440 78 53 5536 54 10870 66 58 640 485 64 5039 50 230 479 302 2335 819 1582 161 2259 548 755 111
leaf_count=65 100 56 428 2850 250 139 67 118 5533 57 92 2770 58 105 280 2450 59 4068 59 66 212 67 60 140 251 147 972 340 65 1227 345 56 704 106 2146 125 12271 131 55 38440 78 53 5536 54 10870 66 58 640 485 64 5039 50 230 479 302 2335 819 1582 161 2259 548 755 111
internal_value=4.45746e-06 3.38581e-05 8.40303e-06 2.81345e-06 0.000274287 -8.83691e-05 0.000378238 -0.000198193 -9.55206e-05 0.000865265 0.000428199 0.000120699 0.000353064 0.000588934 -2.92806e-06 8.5164e-05 -9.02666e-05 -0.000118153 -0.000335512 0.000248987 0.000119424 0.000943507 -0.000775102 -9.6248e-05 -2.12864e-05 -5.11634e-05 0.00043929 -0.000272074 6.77274e-05 -8.6204e-05 0.000234253 0.00154625 8.07565e-05 -0.000982389 9.12822e-05 -0.000457935 7.56508e-05 0.000634595 0.000165983 -2.97554e-05 3.58894e-05 -0.00025653 3.80358e-05 -6.26218e-05 5.48957e-05 0.000208041 0.000159712 -1.30207e-05 -0.000103814 -0.000264282 -7.63329e-05 5.29125e-05 2.2319e-05 -0.000536705 0.000774017 -4.37656e-05 -0.000148878 7.8434e-05 0.0002716 -0.000172405 -0.000221491 0.000248569 -0.000266085
internal_weight=110104 83620 64666 63635 1317 26484 399 183 26085 216 149 18954 1031 603 62318 14844 25886 20353 1862 4110 1067 367 199 18491 49466 11616 1340 1697 12852 9323 485 123 14788 165 2293 190 12662 244 113 46616 236 158 8176 2640 12338 1468 1402 698 8838 1291 7547 2508 2458 538 368 2586 1159 2228 646 6875 4616 855 391
internal_count=110104 83620 64666 63635 1317 26484 399 183 26085 216 149 18954 1031 603 62318 14844 25886 20353 1862 4110 1067 367 199 18491 49466 11616 1340 1697 12852 9323 485 123 14788 165 2293 190 12662 244 113 46616 236 158 8176 2640 12338 1468 1402 698 8838 1291 7547 2508 2458 538 368 2586 1159 2228 646 6875 4616 855 391
is_linear=0
shrinkage=0.05


Tree=5
num_leaves=64
num_cat=0
split_feature=2 5 5 6 8 6 5 8 2 8 2 5 6 0 5 6 5 0 5 8 1 5 3 3 5 8 6 6 8 6 2 5 6 6 8 5 6 5 8 6 3 6 6 6 0 6 5 8 1 3 1 8 5 1 8 5 0 0 6 3 6 5 8
split_gain=0.0729484 0.0440579 0.03915 0.0537536 0.0517396 0.0464198 0.117386 0.0458562 0.0394265 0.0227521 0.0228333 0.0221373 0.0283293 0.0562587 0.0245922 0.0216428 0.0312335 0.0222298 0.019744 0.0193883 0.0268638 0.0269887 0.025791 0.0241317 0.0191865 0.0191133 0.0207643 0.0182626 0.0236926 0.0216645 0.0187814 0.0172527 0.0549466 0.026901 0.0235517 0.0171588 0.0168554 0.0274558 0.0167802 0.040771 0.0473433 0.0482261 0.0283294 0.022179 0.0209977 0.01778 0.0167242 0.0162196 0.0160975 0.0208161 0.0190646 0.0178817 0.0159334 0.0165789 0.0167936 0.018601 0.0171285 0.0169245 0.0155197 0.0234409 0.0154579 0.0196588 0.0145552
threshold=-0.058045614510774605 0.52561536431312572 0.5830669403076173 0.51595747470855724 -0.11283906921744345 0.72431659698486339 -0.35861770808696741 -0.090693876147270189 -0.089977070689201341 -0.10723895207047461 -0.11551034078001975 -3.3715296983718868 -1.3977541923522947 -0.097089294344186769 -0.44181755185127253 1.4826681017875674 -0.77506810426712025 -0.11615223065018652 2.0488946437835698 -0.10913773998618125 -0.11180271208286284 -1.0146437287330625 -0.11367757618427275 -0.12196956202387808 -0.10810411348938941 -0.097211748361587511 -0.54670017957687367 0.067263983190059676 -0.10210049152374266 -1.3306277990341184 -0.11879580095410346 -0.72352898120880116 1.1267722845077517 -1.1349164247512815 -0.077592067420482622 -1.7213619947433469 -0.24056247621774671 1.8626695275306704 -0.086922194808721528 -0.3013091087341308 -0.085479337722063051 -0.40236651897430414 -1.3306277990341184 -0.64847975969314564 -0.10592268407344817 -0.56297940015792836 1.0915335416793825 -0.1053924150764942 -0.12147635221481322 -0.1218782030045986 -0.12322675809264182 -0.10830135270953177 0.62134215235710155 -0.10005952790379523 -0.094849523156881319 1.7347468137741091 -0.1019366793334484 -0.1019366793334484 -1.0421621799468992 -0.11789352074265479 0.41243374347686773 1.617749094963074 -0.021734436973929402
decision_type=2 2 2 2 2 2 2 2 2 2 2 2 2 2 2 2 2 2 2 2 2 2 2 2 2 2 2 2 2 2 2 2 2 2 2 2 2 2 2 2 2 2 2 2 2 2 2 2 2 2 2 2 2 2 2 2 2 2 2 2 2 2 2
left_child=2 31 4 9 -1 7 15 8 19 -4 36 12 -9 -14 -13 -7 -17 -18 -5 23 21 27 25 -6 -8 48 -27 28 29 -21 -31 32 33 -2 -35 -25 58 -38 52 40 41 42 -40 44 -44 -45 -43 -24 49 50 51 -23 -12 54 55 57 -56 -54 59 -11 -3 -62 -16
right_child=1 60 3 18 5 6 24 11 -10 10 38 14 13 -15 62 16 17 -19 -20 20 -22 22 47 35 -26 26 -28 -29 -30 30 -32 -33 -34 34 -36 -37 37 -39 39 -41 -42 46 43 45 -46 -47 -48 -49 -50 -51 -52 -53 53 -55 56 -57 -58 -59 -60 -61 61 -63 -64
leaf_value=0.00012196790333284854 0.00019525306245430751 0.00029341980876897888 -9.3399956857641153e-07 -0.00011269312610682222 -9.4599641359689932e-05 0.00034313937131021159 0.00010747349562864019 0.0013163878378691153 0.0001165409641764477 -0.00047451658727688166 0.00042076801213250103 -0.00025627859935491696 -0.0010531075076869456 0.0011169633923210703 -0.00011792088357884393 0.0017293133577791005 0.0010880744734429754 0.00023399834966712112 -0.00088169155420727359 0.00014836835924260866 -3.6725512290222543e-05 -0.0010462015443610856 -0.00012510329549857705 0.00089922039728013007 -4.6831086993910854e-05 0.0012190885370588289 0.00013255157066901626 0.0003761342250752253 -0.00066548047512437081 -0.00058290327911609001 -0.00015766148880146897 7.2840007128442355e-05 0.0015061912368136375 0.00066873862102331686 -0.0001994529625160182 2.1823955954518894e-05 0.00026060799543282633 -0.00080760228464487889 -0.00053276712860004236 -1.3625063360315298e-05 4.9414754785189595e-05 0.00093090771854174555 0.0016391573871245427 -0.0004593940255014483 0.0006387998364138323 0.00045802402329584325 0.0022138891796722811 -0.00041392939321578838 -5.7067151943324148e-05 -0.00064778755130485966 6.9348338846158991e-05 -0.00011765179332864901 3.1669805058537878e-05 -0.00013609329351448629 0.00047148869662958019 -0.00038821991188797261 -0.00029429778981218332 0.00059913261820148712 0.00059068059050980772 0.00084048037603713091 0.00011148613871772345 -0.00090093631080497862 0.00029767555592649983
leaf_weight=4871 649 2901 3528 2871 6507 1067 2550 56 3524 90 261 4469 63 55 6325 70 124 197 85 277 12960 89 964 55 9579 51 287 90 447 470 581 13404 54 80 2222 11304 469 68 63 1170 636 51 60 74 406 178 55 982 6596 271 423 123 1402 1178 435 239 87 144 650 53 801 50 217
leaf_count=4871 649 2901 3528 2871 6507 1067 2550 56 3524 90 261 4469 63 55 6325 70 124 197 85 277 12960 89 964 55 9579 51 287 90 447 470 581 13404 54 80 2222 11304 469 68 63 1170 636 51 60 74 406 178 55 982 6596 271 423 123 1402 1178 435 239 87 144 650 53 801 50 217
internal_value=-2.03841e-06 8.39167e-05 -2.13161e-05 5.4696e-05 -3.5639e-05 -4.64879e-05 3.65851e-05 -6.62258e-05 -4.41459e-05 0.000104365 0.000152177 -0.000157023 0.000401058 -4.07473e-05 -0.000165877 0.000460312 0.000778373 0.000566276 -0.000135096 -5.74794e-05 -8.62599e-05 -0.000141352 -0.000108109 -1.78305e-05 -1.43839e-05 -6.76503e-05 0.000299609 -0.000315631 -0.000350898 -0.00024459 -0.0003482 4.85655e-05 -5.9701e-05 -8.88556e-05 -0.000169004 2.61511e-05 0.000340721 0.000124091 0.000113185 0.00020836 0.000378791 0.000614639 0.000477513 0.000566776 0.000770835 0.000187873 0.00161107 -0.00027099 -8.42348e-05 -0.000281744 -0.000124754 -0.000510549 4.47271e-05 1.64518e-05 9.43696e-05 2.13517e-05 0.000343539 8.48785e-05 0.000487076 1.5312e-05 0.000238467 5.10142e-05 -0.000104092
internal_weight=110058 20161 89897 14253 75644 70773 13587 57186 46001 11297 7769 11185 174 118 11011 1458 391 321 2956 42477 24611 11651 9786 17866 12129 7840 338 1865 1775 1328 1051 16409 3005 2951 2302 11359 1330 537 6439 2693 1523 887 781 718 466 252 106 1946 7502 906 635 212 3746 3485 2307 1785 522 1546 793 143 3752 851 6542
internal_count=110058 20161 89897 14253 75644 70773 13587 57186 46001 11297 7769 11185 174 118 11011 1458 391 321 2956 42477 24611 11651 9786 17866 12129 7840 338 1865 1775 1328 1051 16409 3005 2951 2302 11359 1330 537 6439 2693 1523 887 781 718 466 252 106 1946 7502 906 635 212 3746 3485 2307 1785 522 1546 793 143 3752 851 6542
is_linear=0
shrinkage=0.05


end of trees

feature_importances:
Column_8=83
Column_6=70
Column_5=55
Column_7=49
Column_4=33
Column_2=28
Column_0=22
Column_3=22
Column_1=16

parameters:
[boosting: gbdt]
[objective: regression]
[metric: l2]
[tree_learner: serial]
[device_type: cpu]
[data_sample_strategy: bagging]
[data: ]
[valid: ]
[num_iterations: 1200]
[learning_rate: 0.05]
[num_leaves: 64]
[num_threads: 0]
[seed: 0]
[deterministic: 0]
[force_col_wise: 0]
[force_row_wise: 0]
[histogram_pool_size: -1]
[max_depth: -1]
[min_data_in_leaf: 50]
[min_sum_hessian_in_leaf: 0.001]
[bagging_fraction: 0.8]
[pos_bagging_fraction: 1]
[neg_bagging_fraction: 1]
[bagging_freq: 5]
[bagging_seed: 3]
[bagging_by_query: 0]
[feature_fraction: 0.8]
[feature_fraction_bynode: 1]
[feature_fraction_seed: 2]
[extra_trees: 0]
[extra_seed: 6]
[early_stopping_round: 0]
[early_stopping_min_delta: 0]
[first_metric_only: 0]
[max_delta_step: 0]
[lambda_l1: 0]
[lambda_l2: 1]
[linear_lambda: 0]
[min_gain_to_split: 0]
[drop_rate: 0.1]
[max_drop: 50]
[skip_drop: 0.5]
[xgboost_dart_mode: 0]
[uniform_drop: 0]
[drop_seed: 4]
[top_rate: 0.2]
[other_rate: 0.1]
[min_data_per_group: 100]
[max_cat_threshold: 32]
[cat_l2: 10]
[cat_smooth: 10]
[max_cat_to_onehot: 4]
[top_k: 20]
[monotone_constraints: ]
[monotone_constraints_method: basic]
[monotone_penalty: 0]
[feature_contri: ]
[forcedsplits_filename: ]
[refit_decay_rate: 0.9]
[cegb_tradeoff: 1]
[cegb_penalty_split: 0]
[cegb_penalty_feature_lazy: ]
[cegb_penalty_feature_coupled: ]
[path_smooth: 0]
[interaction_constraints: ]
[verbosity: -1]
[saved_feature_importance_type: 0]
[use_quantized_grad: 0]
[num_grad_quant_bins: 4]
[quant_train_renew_leaf: 0]
[stochastic_rounding: 1]
[linear_tree: 0]
[max_bin: 255]
[max_bin_by_feature: ]
[min_data_in_bin: 3]
[bin_construct_sample_cnt: 200000]
[data_random_seed: 1]
[is_enable_sparse: 1]
[enable_bundle: 1]
[use_missing: 1]
[zero_as_missing: 0]
[feature_pre_filter: 1]
[pre_partition: 0]
[two_round: 0]
[header: 0]
[label_column: ]
[weight_column: ]
[group_column: ]
[ignore_column: ]
[categorical_feature: ]
[forcedbins_filename: ]
[precise_float_parser: 0]
[parser_config_file: ]
[objective_seed: 5]
[num_class: 1]
[is_unbalance: 0]
[scale_pos_weight: 1]
[sigmoid: 1]
[boost_from_average: 1]
[reg_sqrt: 0]
[alpha: 0.9]
[fair_c: 1]
[poisson_max_delta_step: 0.7]
[tweedie_variance_power: 1.5]
[lambdarank_truncation_level: 30]
[lambdarank_norm: 1]
[label_gain: ]
[lambdarank_position_bias_regularization: 0]
[eval_at: ]
[multi_error_top_k: 1]
[auc_mu_weights: ]
[num_machines: 1]
[local_listen_port: 12400]
[time_out: 120]
[machine_list_filename: ]
[machines: ]
[gpu_platform_id: -1]
[gpu_device_id: -1]
[gpu_use_dp: 0]
[num_gpu: 1]

end of parameters

pandas_categorical:null
