tree
version=v4
num_class=1
num_tree_per_iteration=1
label_index=0
max_feature_idx=8
objective=regression
feature_names=Column_0 Column_1 Column_2 Column_3 Column_4 Column_5 Column_6 Column_7 Column_8
feature_infos=[-0.12627379596233368:5] [-0.12642952799797058:5] [-0.12623484432697296:5] [-0.12632845342159271:5] [-0.43321773409843445:5] [-4.0267271995544434:5] [-1.9954947233200073:5] [-5:5] [-0.11399253457784653:5]
tree_sizes=6047 6202 6211 6231 6204 6230 6230 6211 6235 6169 6197 6172 6137 6187

Tree=0
num_leaves=64
num_cat=0
split_feature=7 0 4 8 4 0 7 6 6 7 4 6 8 8 0 1 1 4 8 4 0 4 1 8 1 1 4 4 6 6 7 4 6 6 4 7 6 4 6 6 7 8 7 0 4 1 3 8 4 1 8 0 4 7 6 3 6 6 7 4 7 1 1
split_gain=0.181561 0.131781 0.0823287 0.0902673 0.107593 0.0578167 0.0526427 0.0465562 0.052009 0.0400392 0.0493895 0.0356972 0.0343111 0.0285184 0.0260646 0.0330069 0.0276466 0.0271703 0.0249742 0.0371922 0.0297622 0.0299228 0.0350838 0.0454204 0.0622927 0.0607242 0.0270711 0.0240676 0.0236635 0.0289713 0.0496363 0.0350332 0.0228994 0.0211465 0.0236384 0.0197106 0.0186382 0.0230145 0.018496 0.0172794 0.0172383 0.0241611 0.017226 0.017017 0.0168534 0.0167546 0.0298152 0.0259397 0.0166164 0.0163977 0.01632 0.0536417 0.0652067 0.0350122 0.0297882 0.0390014 0.0247208 0.0236994 0.0233349 0.0189961 0.0366662 0.0241034 0.0165285
threshold=-0.2989464253187179 -0.073433667421340929 -0.37677225470542902 -0.1053924150764942 0.77398696541786205 -0.10304529219865798 2.5852888822555546 0.15500409901142123 -1.1349164247512815 2.2655960321426396 0.08497097343206407 -1.3621054887771604 -0.082807227969169603 -0.1128941662609577 -0.11922774836421011 -0.11529673635959624 -0.11617958173155783 4.9991202354431161 -0.077592067420482622 -0.34042592346668238 -0.10267680510878562 -0.10063224658370017 -0.04378655552864074 -0.062186054885387414 -0.092452865093946443 -0.066448219120502458 0.14815340191125873 0.13407219201326373 -0.017070432193577286 -0.98655185103416432 -0.83703655004501332 1.728294372558594 0.10169097781181337 -0.80503705143928517 0.061771484091877944 -2.4402524232864375 1.8008947372436526 -0.20056299120187757 0.14536301791667941 -0.99959143996238697 -2.1583940982818599 -0.046041114255785935 -2.1583940982818599 -0.11443309113383292 -0.33618469536304468 -0.12392722815275191 -0.12273429706692694 -0.11151527985930441 -0.080663211643695817 -0.12044973671436308 -0.083961050957441316 -0.098540522158145891 0.22438212484121325 0.20174559205770495 -0.2935898751020431 -0.095818039029836641 -0.40236651897430414 0.32740473747253424 0.46208891272544866 -0.10686297714710234 0.28660087287426 -0.10501663014292716 -0.097173959016799913
decision_type=2 2 2 2 2 2 2 2 2 2 2 2 2 2 2 2 2 2 2 2 2 2 2 2 2 2 2 2 2 2 2 2 2 2 2 2 2 2 2 2 2 2 2 2 2 2 2 2 2 2 2 2 2 2 2 2 2 2 2 2 2 2 2
left_child=2 6 42 28 18 11 13 8 48 10 -3 -6 -10 -2 17 16 32 -13 27 -20 26 36 23 33 -25 40 38 35 29 -4 31 -31 -16 -23 -35 -5 37 44 -21 -29 -26 -42 -1 -17 -22 47 -47 -33 -8 -37 -15 59 53 57 56 58 -55 -53 -56 -52 -61 -62 -60
right_child=1 9 3 4 5 -7 7 -9 12 -11 -12 14 -14 50 15 43 -18 -19 19 20 21 22 -24 24 25 -27 -28 39 -30 30 -32 45 -34 34 -36 49 -38 -39 -40 -41 41 -43 -44 -45 -46 46 -48 -49 -50 -51 51 52 -54 54 55 -57 -58 -59 62 60 61 -63 -64
leaf_value=0.0018609234644718633 0.0011989390801498247 0.0012252440878121832 0.0011158237199842898 0.0017143161566982581 0.0016732224119748735 -0.001170801725169146 0.0014487870613167858 0.00080902630619127244 0.0016306215020598061 0.0018014574468119551 -0.00033321301273248299 -0.00050306810843962204 0.0026169234502240613 0.0010500403364211925 0.0002650575326048339 -0.0003977313012464487 0.0018417524001606025 0.00080768279114561722 0.0010147233313140876 0.0010888206059372985 0.00011265153040043317 0.0011568648969727607 0.00011015363133309169 0.0026170484183097595 0.0012298146110584893 0.0019785218257037272 -0.00081499183678015227 0.0011090592365897028 0.0011389463609340954 0.00079181555858980697 0.00099873339638382953 0.00040947043413343135 0.0013991909655272352 0.00080860785514053134 -0.00036722063763925381 0.0017839346016598951 0.0015178488502443489 0.00032720948283242472 -0.00016748112092868431 0.00061788101518131522 0.0010268546011771562 -0.00019084791449465823 0.0011091462664151121 0.00040263312966377441 0.00074536593959714922 0.0012058090790621494 -6.3594159621620542e-05 -0.001104047164643109 0.00028100762370406604 0.0009471725394784241 0.0014925060076555019 0.00071629037107385943 -0.00047642260093717199 0.0012949991356771564 0.0011982882198001052 0.0011491687966180099 0.0019908149895703263 0.0011594188723601519 0.00055542223297045301 0.00017311382082228657 0.0018921006983183461 0.00080106448309677936 -0.00053581117649507785
leaf_weight=76 3912 16858 2703 85 54 59 61 169 199 301 50 144 160 49025 129 87 64 55 1354 64 111 107 98 86 91 138 57 223 3720 797 3719 61 67 93 79 58 60 496 53 905 76 87 7345 290 1842 78 112 54 59 8042 1158 889 68 689 66 1579 156 456 79 85 112 91 63
leaf_count=76 3912 16858 2703 85 54 59 61 169 199 301 50 144 160 49025 129 87 64 55 1354 64 111 107 98 86 91 138 57 223 3720 797 3719 61 67 93 79 58 60 496 53 905 76 87 7345 290 1842 78 112 54 59 8042 1158 889 68 689 66 1579 156 456 79 85 112 91 63
internal_value=0.00106625 0.001109 0.000969818 0.000928457 0.000848818 0.00033362 0.00107353 0.00152136 0.00177272 0.00123075 0.00122055 0.000435761 0.00207326 0.00106855 0.000355212 0.000512819 0.000946991 -0.000143953 0.000883286 0.00079181 0.000706542 0.000739738 0.000995309 0.00111102 0.0014067 0.00113792 7.03315e-05 0.000931363 0.0010358 0.000984801 0.000911347 0.000616775 0.000652419 0.000605075 0.000263327 0.000961231 0.000652713 0.000631346 0.000514012 0.000714928 0.000679468 0.000373154 0.00111695 0.000214524 0.000708931 0.000161796 0.000455481 -0.000313891 0.000872805 0.000953251 0.0010592 0.00114093 0.00104748 0.00107392 0.00117996 0.00106425 0.00142439 0.000866476 0.00042237 0.0014022 0.0010389 0.00140407 6.33983e-05
internal_weight=110104 76285 33819 26398 15154 949 59076 648 479 17209 16908 890 359 58428 836 637 260 199 14205 4892 3538 3364 855 757 478 392 174 9313 11244 7524 4821 1102 196 279 172 8185 2509 2449 117 1128 254 163 7421 377 1953 305 190 115 120 8100 54516 5491 4045 3977 2632 1787 845 1345 208 1446 288 203 142
internal_count=110104 76285 33819 26398 15154 949 59076 648 479 17209 16908 890 359 58428 836 637 260 199 14205 4892 3538 3364 855 757 478 392 174 9313 11244 7524 4821 1102 196 279 172 8185 2509 2449 117 1128 254 163 7421 377 1953 305 190 115 120 8100 54516 5491 4045 3977 2632 1787 845 1345 208 1446 288 203 142
is_linear=0
shrinkage=1


Tree=1
num_leaves=64
num_cat=0
split_feature=4 7 7 8 4 8 6 5 7 5 5 6 6 8 4 8 4 8 6 5 0 4 8 5 2 8 0 2 2 6 0 6 7 8 4 8 2 2 7 7 5 8 5 6 8 6 4 4 6 5 6 2 8 8 2 0 4 8 4 4 8 8 6
split_gain=0.165947 0.141083 0.078788 0.0601329 0.116522 0.0699412 0.0680961 0.057908 0.0753988 0.067322 0.0516415 0.0451018 0.0509335 0.0415643 0.0387652 0.0577063 0.0384887 0.0385093 0.0351831 0.0335167 0.0315574 0.0330151 0.0299322 0.0293905 0.0287767 0.0594595 0.0285644 0.0273774 0.0267769 0.0264238 0.0259026 0.0257655 0.025388 0.0282054 0.0238759 0.043973 0.0541705 0.0260561 0.0237831 0.0235942 0.0230982 0.0335224 0.0230285 0.0223381 0.0267793 0.019891 0.0198747 0.0197301 0.0193952 0.0193876 0.0192067 0.0202441 0.0190712 0.019055 0.0200604 0.0304677 0.0302709 0.0185393 0.0229986 0.0229286 0.0394215 0.0254356 0.0192787
threshold=-0.40194995701313013 -0.19551452249288556 2.5852888822555546 -0.10913773998618125 0.77398696541786205 -0.058019610121846192 -1.3306277990341184 -0.66299766302108754 1.0830894112586977 0.5830669403076173 -1.4810222387313841 0.21928589791059497 -1.1182833909988401 -0.11283906921744345 -0.35328243672847742 -0.077592067420482622 0.87661176919937145 0.039255753159523017 -0.33214652538299555 0.57092395424842846 -0.10267680510878562 -0.13078413158655164 -0.083961050957441316 1.1727151274681094 -0.11454875394701956 -0.1044192463159561 -0.1228741519153118 -0.12186468020081519 0.044540971517562873 1.4024975895881655 -0.089546043425798402 -0.41758328676223749 -0.766981542110443 -0.086922194808721528 0.13407219201326373 -0.060873484238982194 -0.090455975383520112 -0.075870290398597703 1.0830894112586977 0.38218224048614508 -1.5550993680953977 -0.028684280812740322 0.4859179556369782 -0.27900278568267817 -0.080355223268270479 -0.10703490674495696 -0.059209009632468217 -0.22627464681863782 0.17237184941768649 0.074675381183624281 -0.090500876307487474 -0.11814471706748007 -0.092538308352231965 -0.10114470124244689 -0.10799795389175414 -0.099961191415786729 0.08497097343206407 0.06888850033283235 -0.42320740222930903 -0.40901307761669153 0.16509317606687549 0.68517020344734203 0.21928589791059497
decision_type=2 2 2 2 2 2 2 2 2 2 2 2 2 2 2 2 2 2 2 2 2 2 2 2 2 2 2 2 2 2 2 2 2 2 2 2 2 2 2 2 2 2 2 2 2 2 2 2 2 2 2 2 2 2 2 2 2 2 2 2 2 2 2
left_child=42 3 7 48 14 6 -6 8 45 13 -8 12 46 -9 24 30 17 18 31 -13 21 -17 -14 -18 25 -5 -12 -28 -19 34 43 -11 33 50 -22 -36 -37 -38 -25 -33 41 -26 57 53 -45 52 -4 -46 49 -2 -29 -52 -3 -16 -55 -56 -57 -1 -59 61 -61 -60 -62
right_child=1 2 11 4 5 -7 10 9 -10 16 26 19 22 -15 15 20 23 28 -20 -21 29 -23 -24 38 40 -27 27 32 -30 -31 -32 39 -34 -35 35 36 37 -39 -40 -41 -42 -43 -44 44 47 -47 -48 -49 -50 -51 51 -53 -54 54 55 56 -58 58 59 60 62 -63 -64
leaf_value=0.0001347095066253521 -3.6743140640444668e-05 0.00022135161642035801 0.0004184272459394013 2.4609754233914281e-05 0.00060126957191228444 -0.0023538423207075821 -0.0010699453117040052 0.00013033282363475264 0.001378269738620163 0.00015386228705494822 -0.0011084547728166924 0.00068478533665516548 0.00051312989555299285 -5.171437954092595e-05 -0.00012788331067111039 -6.3014203898500708e-05 3.6234105585001624e-05 0.0010628698957673827 1.9686209054661875e-05 -0.00070089363816178184 -0.00036319897727924084 -0.0014310337946679083 0.0013399644726062926 -0.00086735916961974539 0.0010056279685348272 0.0017343483098583032 0.00039476610689810041 -0.00036594898748828786 0.00026441606395508397 0.00030834744264021267 9.291945193366601e-05 0.001233292346405897 -0.00072283062188778112 -0.0012802685615261671 -0.00075277513596941315 0.0018906968568873435 -0.00072830323273172758 0.00057368854784030224 -0.00016789356340521388 0.00036495452803882628 -6.8258641251585668e-05 -2.7509870826934448e-05 0.00026756242516325329 -8.2403243043009807e-05 4.7197050749239123e-05 0.0003710654295061995 -0.00069169704920436813 0.0012900856831918411 0.00010316694735993016 -0.00047856996287348101 -0.00021533742167919535 0.00072349613574574354 -0.00027324550122968593 -0.00052589692409918572 -3.5512860109269442e-06 -0.00034681637016741848 -0.0016009144879895829 9.1943608792856334e-05 -0.0002227588997267074 -0.00036923308389001858 0.00030369642371279673 -0.0011935541097143967 0.0016416417159024815
leaf_weight=12211 6607 467 96 186 131 51 403 3426 145 5173 131 69 194 36852 3384 68 641 171 6419 115 3481 125 256 217 124 69 116 264 272 171 1349 92 393 53 102 52 64 93 276 505 6582 211 2573 5251 66 772 68 61 2780 257 113 115 333 751 862 886 50 2282 777 119 57 73 51
leaf_count=12211 6607 467 96 186 131 51 403 3426 145 5173 131 69 194 36852 3384 68 641 171 6419 115 3481 125 256 217 124 69 116 264 272 171 1349 92 393 53 102 52 64 93 276 505 6582 211 2573 5251 66 772 68 61 2780 257 113 115 333 751 862 886 50 2282 777 119 57 73 51
internal_value=-9.18513e-06 -3.64505e-05 1.25466e-05 -0.000114727 -0.0001546 -0.00054599 -0.000491016 5.48246e-06 0.000291263 -3.60212e-06 -0.000581445 0.000505535 0.000711043 -3.62268e-05 -0.000125699 -0.000167207 9.18503e-05 0.000116903 0.000100232 -0.000180371 -0.000328848 -0.000951847 0.000985435 -0.000187074 -2.83659e-05 0.000492213 -0.000414551 -0.000327338 0.000574323 -0.000298276 -0.000114121 0.000189819 -0.000416964 -0.000195483 -0.000325705 9.3776e-05 0.000508543 4.169e-05 -0.000476904 0.000500607 -4.76258e-05 0.00035676 0.000129008 -0.00013882 -6.49999e-05 0.000190186 -4.32706e-05 0.00064959 -8.22835e-06 -5.33532e-05 -7.62665e-05 0.000259289 1.53915e-05 -0.000205712 -0.000308946 -0.000218086 -0.000415446 0.000106096 2.06834e-06 -0.000188272 0.000257332 -0.000307438 0.000944768
internal_weight=110104 91961 56559 35402 25758 1770 1719 55761 1717 54044 1588 798 614 40278 23988 16816 13766 12632 12189 184 4156 193 450 1134 7172 255 1185 1054 443 3963 12660 5770 938 545 3792 311 209 157 493 597 6917 335 18143 11311 5378 1572 164 127 9644 6864 492 228 800 5933 2549 1798 936 15570 3359 1077 227 850 108
internal_count=110104 91961 56559 35402 25758 1770 1719 55761 1717 54044 1588 798 614 40278 23988 16816 13766 12632 12189 184 4156 193 450 1134 7172 255 1185 1054 443 3963 12660 5770 938 545 3792 311 209 157 493 597 6917 335 18143 11311 5378 1572 164 127 9644 6864 492 228 800 5933 2549 1798 936 15570 3359 1077 227 850 108
is_linear=0
shrinkage=0.05


Tree=2
num_leaves=64
num_cat=0
split_feature=4 7 7 8 4 8 6 6 7 6 6 4 8 0 4 8 7 7 2 4 7 8 3 8 8 4 3 6 3 6 0 0 0 7 4 8 2 3 8 6 8 4 4 6 6 8 2 3 4 7 0 8 0 7 3 4 6 6 0 0 7 6 6
split_gain=0.14977 0.127352 0.0711344 0.0542752 0.105243 0.0632774 0.0614942 0.0413548 0.0426916 0.0407172 0.0459947 0.0349983 0.0520809 0.028517 0.0300785 0.0282205 0.0444674 0.0296413 0.0288485 0.0285734 0.027448 0.0270227 0.0265044 0.0511256 0.0258597 0.0256031 0.0464625 0.0265875 0.0252738 0.0238539 0.0234269 0.0335764 0.0233791 0.0230894 0.0215642 0.0397373 0.048991 0.0349536 0.0214233 0.0201703 0.0242047 0.0179613 0.0178368 0.01768 0.0175055 0.0172065 0.0181021 0.0292791 0.0240709 0.0179252 0.0217442 0.0171539 0.0318617 0.0230637 0.0189658 0.0236129 0.0180744 0.0164437 0.0161322 0.0459385 0.0159532 0.0155946 0.0150529
threshold=-0.40194995701313013 -0.19551452249288556 2.5852888822555546 -0.10913773998618125 0.77398696541786205 -0.058019610121846192 -1.3306277990341184 -0.017070432193577286 -1.6167480349540708 0.21928589791059497 -1.1182833909988401 -0.35328243672847742 -0.077592067420482622 -0.10267680510878562 0.14815340191125873 -0.078291643410921083 0.3222519606351853 0.35843579471111303 -0.10701829195022582 -0.051714045926928513 -0.75036185979843129 -0.083961050957441316 -0.11432715132832526 -0.10263096168637274 -0.11283906921744345 0.12093693763017656 -0.088554829359054552 -0.65708667039871205 -0.091477170586585985 1.4024975895881655 -0.097505059093236909 -0.11476258561015128 -0.089546043425798402 -0.40487453341484064 0.13407219201326373 -0.060873484238982194 -0.090455975383520112 -0.077197875827550874 -0.058019610121846192 -0.27900278568267817 -0.080355223268270479 -0.059209009632468217 -0.22627464681863782 -0.64847975969314564 0.17237184941768649 -0.10114470124244689 -0.10799795389175414 -0.099657099694013582 0.08497097343206407 -1.3537257909774778 -0.11191478744149207 -0.0935784876346588 -0.1087052784860134 -1.8253759145736692 -0.10274306684732436 -0.24869520217180249 -0.22484232485294339 -0.057983174920082085 0.037026459351181991 0.099616415798664107 -1.5376252532005308 0.44628372788429266 -0.82570716738700856
decision_type=2 2 2 2 2 2 2 2 2 2 2 2 2 2 2 2 2 2 2 2 2 2 2 2 2 2 2 2 2 2 2 2 2 2 2 2 2 2 2 2 2 2 2 2 2 2 2 2 2 2 2 2 2 2 2 2 2 2 2 2 2 2 2
left_child=-1 3 15 44 11 6 -6 8 -8 10 41 22 32 14 -14 24 19 -18 -19 28 -9 -12 23 -5 -3 27 -27 62 -17 34 31 -11 39 -22 58 43 -37 -38 -21 45 51 -4 -42 -36 -2 49 -47 -48 -49 -13 -51 53 60 -41 55 -54 -55 -26 -15 -60 -53 -56 -20
right_child=1 2 9 4 5 -7 7 20 -10 30 21 12 13 29 -16 16 17 18 25 38 33 -23 -24 -25 57 26 -28 -29 -30 -31 -32 -33 -34 -35 35 36 37 -39 -40 40 42 -43 -44 -45 -46 46 47 48 -50 50 -52 52 54 56 61 -57 -58 -59 59 -61 -62 -63 -64
leaf_value=0.00012255973637055744 -5.068928808620691e-05 0.00011688861739149919 0.00039772156248836461 0.00010343315969238209 0.0005714338521515442 -0.0022384134253325802 -0.0011938708358994617 7.4855968573859708e-05 -0.00051219647590733592 -0.00047304086415543925 0.00048760499035079897 0.00022406957697601351 -0.00047875833849651996 -0.00037068654484695104 -0.0018253510421166793 0.00034377948801753318 0.00078435670025881876 0.00092847786694344426 0.00025472028682540121 -7.9867092130895143e-05 -0.0010696591513770391 0.0012732269579478076 -4.6508648287457993e-05 0.0017560470063965453 1.1698504997955495e-05 0.00029702447737052821 -0.0016870969006976219 9.7948215321991077e-05 -8.8776033810480232e-05 0.00029301969473974256 -0.00094537844270234936 0.0011997897359763627 8.8276905952187489e-05 4.5643469107941399e-05 -4.024156101057124e-05 0.0017979456589530874 -0.00091296878080659853 0.00061644501190378587 -0.0013807610644393468 0.00094019165427501627 4.4872434273202089e-05 -0.00065761342987610523 0.0012266218142148349 -0.0013517804760134445 9.801045177620113e-05 -0.00049963705309021456 1.1676734351745735e-05 -0.00033298094781581062 -0.0014301778098462889 -0.00026857365767783773 4.1448441380851331e-06 -0.0015673928694853274 -0.00036065404996372551 0.00040593306643236095 -0.00055583457844623964 0.00059389604037191198 -7.1237617873791122e-05 -4.9346352310715559e-05 0.00096794678048942896 -0.0005991093533688959 -0.00055428748210477178 -3.0061359267559464e-05 0.00068706267368968824
leaf_weight=18143 6864 3749 96 227 131 51 342 342 705 70 194 337 133 3294 60 392 197 118 595 58 126 256 6887 58 21331 66 52 3584 2399 171 63 51 1349 73 50 52 59 98 69 59 66 68 61 52 2780 751 826 920 52 1831 1216 51 105 208 272 166 3935 22846 84 103 163 292 305
leaf_count=18143 6864 3749 96 227 131 51 342 342 705 70 194 337 133 3294 60 392 197 118 595 58 126 256 6887 58 21331 66 52 3584 2399 171 63 51 1349 73 50 52 59 98 69 59 66 68 61 52 2780 751 826 920 52 1831 1216 51 105 208 272 166 3935 22846 84 103 163 292 305
internal_value=-8.72536e-06 -3.46277e-05 1.19241e-05 -0.000108998 -0.000146878 -0.000518843 -0.000466554 -0.000552487 -0.00073579 0.000480357 0.000675619 -0.000119412 -0.000158852 -0.000312413 -0.000904639 5.21181e-06 9.31792e-05 0.000184928 0.000159748 -6.14329e-05 -0.000197036 0.000936369 -2.6929e-05 0.000444719 -9.17085e-06 0.00013984 -0.000584164 0.000159019 -2.79216e-05 -0.00028335 -0.000171357 0.000236092 -0.00010842 -0.000662345 -0.000309412 8.92448e-05 0.000483529 3.95565e-05 -0.000791917 -0.000131885 -6.17382e-05 -4.11899e-05 0.000617633 -0.000715502 -7.81907e-06 -0.000195449 -0.000293547 -0.000207236 -0.000393088 -0.000121491 -0.000159771 -7.82839e-05 -0.000259054 -3.31049e-05 -0.000119138 0.000224086 -4.7189e-05 -1.98711e-05 -0.000345044 0.000106213 -0.000801896 -0.000284161 0.000401836
internal_weight=110104 91961 56559 35402 25758 1770 1719 1588 1047 798 614 23988 16816 4156 193 55761 7835 4917 4720 2918 541 450 7172 285 47926 4602 118 4484 2791 3963 184 121 12660 199 3792 311 209 157 127 11311 5378 164 127 102 9644 5933 2549 1798 972 3384 3047 5251 1049 4202 835 271 4143 44177 3481 187 214 564 900
internal_count=110104 91961 56559 35402 25758 1770 1719 1588 1047 798 614 23988 16816 4156 193 55761 7835 4917 4720 2918 541 450 7172 285 47926 4602 118 4484 2791 3963 184 121 12660 199 3792 311 209 157 127 11311 5378 164 127 102 9644 5933 2549 1798 972 3384 3047 5251 1049 4202 835 271 4143 44177 3481 187 214 564 900
is_linear=0
shrinkage=0.05


Tree=3
num_leaves=64
num_cat=0
split_feature=7 3 7 6 7 6 5 7 6 6 8 1 5 5 8 3 5 8 5 8 2 2 6 5 6 2 8 6 6 6 5 5 6 7 5 5 8 8 5 5 7 6 8 6 6 2 6 5 8 3 8 7 6 1 5 8 8 1 5 8 3 5 6
split_gain=0.134865 0.105089 0.0385171 0.0434265 0.0360391 0.0570241 0.0347844 0.0568191 0.0343939 0.0343166 0.0375296 0.033132 0.0323261 0.0312405 0.0324382 0.0366465 0.0310653 0.0305535 0.0300124 0.0307632 0.0279187 0.0328098 0.0269999 0.0285117 0.0266246 0.0247349 0.0404165 0.0228207 0.0219661 0.0216964 0.0211291 0.0207442 0.039876 0.0301761 0.0249372 0.0221711 0.0248159 0.0205959 0.020373 0.020886 0.0201518 0.0194499 0.0194225 0.0193552 0.0172646 0.0214467 0.0234403 0.0206789 0.0197539 0.019704 0.0293302 0.0169951 0.0166376 0.0214035 0.0187743 0.0175625 0.0170816 0.0187443 0.0167262 0.0189035 0.0250829 0.0159608 0.0739109
threshold=-0.2989464253187179 -0.073518868535757051 2.2655960321426396 0.15500409901142123 -1.171312093734741 1.3669759631156924 -0.67600819468498219 0.32932479679584509 -1.1349164247512815 -1.3306277990341184 -0.091075181961059556 -0.12385145574808119 -0.1844709441065788 0.5152229666709901 0.039255753159523017 0.044488156214356429 -0.058671128004789345 -0.092885151505470262 0.5830669403076173 -0.11283906921744345 -0.097488306462764726 -0.11454875394701956 0.26857508718967443 2.0488946437835698 0.43510951101779943 -0.03548444248735904 -0.10913773998618125 -0.70108911395072926 0.21928589791059497 -0.86702281236648548 0.37353591620922094 -0.48940038681030268 0.78584977984428417 -0.2531962096691131 -0.84785616397857655 -0.17942860722541806 -0.068021439015865312 -0.086922194808721528 0.52561536431312572 0.22918806225061419 1.0830894112586977 0.27810600399971014 -0.031519461423158639 -0.54670017957687367 -0.62294292449951161 -0.12263393029570578 -0.37082733213901514 -0.77506810426712025 0.16509317606687549 -0.077197875827550874 -0.071870226413011537 0.20174559205770495 -0.13012550026178357 -0.11749485880136488 -1.0768570899963377 -0.08548670262098311 -0.089525453746318803 -0.099313408136367784 0.026437036693096164 -0.077592067420482622 -0.10069091990590094 -0.31630603969097132 0.48050209879875189
decision_type=2 2 2 2 2 2 2 2 2 2 2 2 2 2 2 2 2 2 2 2 2 2 2 2 2 2 2 2 2 2 2 2 2 2 2 2 2 2 2 2 2 2 2 2 2 2 2 2 2 2 2 2 2 2 2 2 2 2 2 2 2 2 2
left_child=4 2 6 9 5 8 7 17 -1 -4 -11 -10 -7 31 -15 24 -5 27 19 -8 21 -18 29 -24 -16 26 -6 -2 44 -20 52 32 -3 35 -34 -33 -37 -35 39 41 -9 -30 -27 -12 47 -46 48 -13 -47 50 -48 -29 53 -28 -54 56 -56 -58 59 -55 -61 62 -21
right_child=1 13 3 16 25 12 18 40 11 10 43 28 -14 14 15 -17 20 -19 22 61 -22 -23 23 -25 -26 42 30 51 38 -31 -32 33 34 37 -36 36 -38 -39 -40 -41 -42 -43 -44 -45 45 46 49 -49 -50 -51 -52 -53 54 58 55 -57 57 -59 -60 60 -62 -63 -64
leaf_value=-2.980803108495474e-05 -0.00023174351697386383 0.0001688944856300177 -0.00041338820152597548 0.00085543853258838824 1.6271573960124915e-05 0.0013593433959520041 0.00010016024590341104 0.00049425960559181881 -0.00099682804814996986 0.00022720749606174856 0.0013136687625756524 -0.00025503211569631839 0.00016708332268535744 0.0001585747292281695 0.0011399599797869088 0.00031560982194389067 -0.00072605532391376243 -0.00032758754034990681 -5.1010887573454662e-05 -6.8135797253403781e-05 -0.0014537035989633297 0.00061496366795352848 -4.4950130592982393e-05 -0.00094327999606401067 -0.00011923459545976262 0.00021776836083688426 -0.00037546028188857318 0.00041971426442071608 0.00076854663296566854 0.00014122891403325083 -0.00032086922576600793 2.1115872174656641e-05 0.0019025355164308613 0.00020459194840506892 0.00060787600807339789 0.00012406403966895419 0.0010202705821698919 2.7123116471144738e-05 -0.00068133894009188528 0.00080276851237469696 0.0012615386902546997 -0.00013167489674153433 -2.1449241071462987e-05 0.00052298736033641721 0.00041897622868418698 -0.00061925840554042473 -0.00030915293175101796 0.00058505475755808148 -0.0015674790270391809 -2.5528890166862372e-05 -0.0010918515763067901 -0.00036737201124952814 0.00050867254070487817 -0.00010635500185892215 -4.0581221543624398e-05 -0.00020272046937527393 0.00092137057861117148 0.00010229377563464233 0.00026965375531432857 0.00070916228175057073 -0.00036469226365836815 -5.9156306584995253e-05 0.0003739875148219843
leaf_weight=1605 234 1019 86 55 6755 77 3893 346 163 285 203 1532 211 2985 255 1117 107 392 1864 4105 53 78 3013 90 50 1173 990 642 64 6895 1320 194 50 1997 144 122 211 8997 120 75 114 780 3060 128 69 612 544 76 60 357 153 76 146 6265 4075 1644 94 265 254 56 1224 35258 1227
leaf_count=1605 234 1019 86 55 6755 77 3893 346 163 285 203 1532 211 2985 255 1117 107 392 1864 4105 53 78 3013 90 50 1173 990 642 64 6895 1320 194 50 1997 144 122 211 8997 120 75 114 780 3060 128 69 612 544 76 60 357 153 76 146 6265 4075 1644 94 265 254 56 1224 35258 1227
internal_value=-8.2913e-06 2.85537e-05 -3.04e-06 0.000305264 -9.14005e-05 -0.00019723 -8.32062e-06 0.000207741 -0.000229149 0.00051845 0.000649003 -0.000298605 0.000489448 0.00013756 0.000252292 0.000448771 -0.000205535 4.34104e-05 -1.52418e-05 -3.40859e-05 -0.000453271 -0.000160386 5.54212e-05 -7.1301e-05 0.00093382 -6.62239e-05 -8.65941e-05 0.000196358 -0.000272765 0.000100317 -0.000129136 9.78364e-05 0.000294435 7.71136e-05 0.000949597 0.000446354 0.000693285 5.9375e-05 -7.14559e-05 8.83461e-06 0.000686735 -6.25829e-05 4.48758e-05 0.0010104 -0.00033419 -0.000440794 -0.000475388 -0.000214988 -0.000706124 -0.000327747 -0.000482283 0.000336006 -0.000112258 -0.000156549 -4.96978e-05 -6.3192e-05 -1.14247e-05 0.000318723 -0.000128716 -0.000142161 -0.000317194 -4.69636e-05 3.36567e-05
internal_weight=110104 76285 59144 995 33819 6498 58149 1804 6210 702 616 4605 288 17141 4407 1422 293 1344 56345 44483 238 185 11862 3103 305 27321 23088 952 4442 8759 16333 12734 1213 11521 194 527 333 10994 1039 919 460 844 4233 331 3403 1795 1726 1608 672 1054 697 718 15013 8789 6224 6078 4434 359 7799 7545 1280 40590 5332
internal_count=110104 76285 59144 995 33819 6498 58149 1804 6210 702 616 4605 288 17141 4407 1422 293 1344 56345 44483 238 185 11862 3103 305 27321 23088 952 4442 8759 16333 12734 1213 11521 194 527 333 10994 1039 919 460 844 4233 331 3403 1795 1726 1608 672 1054 697 718 15013 8789 6224 6078 4434 359 7799 7545 1280 40590 5332
is_linear=0
shrinkage=0.05


Tree=4
num_leaves=64
num_cat=0
split_feature=7 0 7 7 5 7 7 5 8 5 2 8 1 1 3 0 2 8 5 8 0 8 5 5 5 7 5 1 8 7 7 7 8 5 7 8 2 8 8 0 1 5 8 8 2 7 7 8 8 2 7 7 3 8 1 1 5 8 2 8 5 8 8
split_gain=0.121726 0.0948774 0.0353425 0.032533 0.0319838 0.0418544 0.0297525 0.0273257 0.0279246 0.0256254 0.0375743 0.0419599 0.0372646 0.0448793 0.0252083 0.0524659 0.0223232 0.0364741 0.0202406 0.0201463 0.0282334 0.0216879 0.0194929 0.0194481 0.0184335 0.0177548 0.0230073 0.0227753 0.018677 0.0177057 0.0175924 0.0175408 0.0175303 0.0170915 0.0182111 0.0160327 0.0282103 0.0159375 0.015194 0.0375639 0.0321175 0.0151746 0.0151738 0.0149163 0.0148592 0.0259328 0.0146441 0.0143394 0.0133904 0.0207997 0.0144702 0.0133808 0.0230526 0.013128 0.027158 0.0253933 0.0462084 0.0156509 0.0394314 0.0254215 0.0246079 0.0225611 0.0150072
threshold=-0.2989464253187179 -0.073433667421340929 2.5852888822555546 -1.171312093734741 -0.75676184892654408 1.0830894112586977 2.2655960321426396 0.5830669403076173 -0.1128941662609577 -3.3715296983718868 -0.10734726861119269 -0.095468569546937929 -0.092870637774467454 -0.073549151420593248 -0.11397910118103026 -0.096640970557928071 -0.03548444248735904 -0.10913773998618125 3.3025124073028569 0.11669719219207765 0.044383265078067786 -0.017821770161390301 0.82063075900077831 0.5152229666709901 -0.31630603969097132 -0.26628445088863367 -0.48940038681030268 0.053233254700899131 0.06888850033283235 -2.9244879484176631 -2.4402524232864375 -2.9244879484176631 -0.031519461423158639 0.60824498534202587 -0.22095391899347303 0.039255753159523017 0.044540971517562873 -0.11151527985930441 -0.1013372056186199 -0.11914040520787238 -0.12322675809264182 -2.3604378700256343 -0.03410630673170089 0.039255753159523017 0.027278679423034195 -0.75036185979843129 0.32932479679584509 -0.10210049152374266 -0.092885151505470262 -0.11163106560707091 -0.095967847853898988 0.64553460478782665 -0.010333512444049118 -0.087820917367935167 -0.10005952790379523 -0.086105056107044206 1.8626695275306704 -0.10619931295514105 -0.11551034078001975 -0.09694464877247809 1.617749094963074 -0.10093429312109946 -0.10329117998480795
decision_type=2 2 2 2 2 2 2 2 2 2 2 2 2 2 2 2 2 2 2 2 2 2 2 2 2 2 2 2 2 2 2 2 2 2 2 2 2 2 2 2 2 2 2 2 2 2 2 2 2 2 2 2 2 2 2 2 2 2 2 2 2 2 2
left_child=3 2 4 9 5 37 23 8 -6 10 11 31 -12 -14 -4 -16 17 -5 33 21 -21 29 -19 25 -10 27 -27 -3 -28 -11 -23 -1 42 -9 -35 -25 51 -2 40 -40 -31 -22 -18 -29 -34 -46 48 -42 49 -39 -51 -37 -53 54 57 -55 -57 -36 59 -59 -60 62 -62
right_child=1 6 14 16 7 -7 -8 18 24 19 12 -13 13 -15 15 -17 32 22 -20 20 41 30 -24 35 -26 26 28 43 -30 38 -32 -33 44 34 53 36 -38 46 39 -41 47 -43 -44 -45 45 -47 -48 -49 -50 50 -52 52 -54 55 -56 56 -58 58 60 -61 61 -63 -64
leaf_value=-0.00036750343305439777 0.00084894985835163445 0.00015797010688264944 2.3596056999001431e-05 1.5458107946472091e-05 0.00010271363551668191 0.0012415393062534955 0.00062239835966429631 0.00031828012145510985 3.9977691644270279e-05 -0.00077045334765999643 0.0015841490367575447 -0.0014263941851144627 -0.00099896692196265444 0.00082184994116499927 0.0011824859126795674 -4.7300972553123509e-05 0.00016285512298403891 -0.00011466765621144715 -0.00083273106720298533 -0.0014201328513032373 -0.0011344108592972837 0.00077178995911535934 -0.00049567800522194749 0.00015095513078026079 -5.5745773755605177e-05 0.00029634310215821344 8.8457027217244067e-05 0.0015209325044027841 -7.8387442067254785e-05 -0.00049670313351882255 -1.7653841764664467e-05 0.00081945851043663861 -0.00021123173841046725 -0.0005216395351772008 -1.7033015463690603e-06 0.00040703302659766423 0.00025172335006007997 -6.7375209697691704e-05 -0.001557418610276987 -0.00024984294299552499 -1.7021716957730715e-05 -0.00024248404977588904 0.00094366064374546777 0.00047979701147757146 0.00028002202978217038 -7.5944465637276651e-05 0.00044365533744894492 0.00061469335593484207 -0.00025639192080541533 0.0002294416191428205 0.0010861421665589361 0.00033934028195709779 0.0016950004643495914 0.00027521815689445227 -0.00018945385979280289 5.7390195534428572e-05 -0.0012409341136495082 0.00033818118138288279 0.00010485811088224882 0.0012668300967269728 -0.00028558223970052228 -7.945064624072984e-05 -0.0014339039238938501
leaf_weight=65 77 317 296 6755 3613 95 301 602 5857 143 70 58 51 96 199 153 1108 15991 63 73 54 78 342 2952 35563 1109 9071 59 2057 371 661 58 764 139 4422 96 1029 383 55 2987 1215 367 65 84 768 1528 255 96 301 133 78 51 83 1509 1260 564 77 842 2126 80 53 274 62
leaf_count=65 77 317 296 6755 3613 95 301 602 5857 143 70 58 51 96 199 153 1108 15991 63 73 54 78 342 2952 35563 1109 9071 59 2057 371 661 58 764 139 4422 96 1029 383 55 2987 1215 367 65 84 768 1528 255 96 301 133 78 51 83 1509 1260 564 77 842 2126 80 53 274 62
internal_value=-7.87359e-06 2.71308e-05 -2.96551e-06 -8.68309e-05 -7.04127e-06 0.000236001 0.000130441 -1.26717e-05 -3.05801e-05 -0.000187381 0.000200961 -0.000330024 0.000643338 0.000187657 0.000363977 0.000649328 -6.29103e-05 -8.2262e-05 5.41248e-05 -0.000212747 -0.000518619 -0.000185706 -0.000122676 0.000121647 -4.22093e-05 9.07525e-05 7.92696e-05 0.000395387 5.76117e-05 -0.000224022 6.66008e-05 0.000194297 4.26343e-05 5.88458e-05 4.51288e-05 0.000214756 0.000364113 0.0001572 -0.000207321 -0.000273988 -8.66588e-05 -0.000359305 0.000206889 0.000916935 -2.03771e-05 4.31945e-05 0.000110186 2.96699e-05 1.47857e-05 0.000152401 0.000549766 0.000863671 0.00118538 5.21654e-05 2.59531e-05 0.000163278 -0.000100261 6.0508e-05 0.000140526 0.000420043 3.7928e-05 -0.000327196 -0.000911702
internal_weight=110104 76285 59076 33819 58428 1322 17209 57106 45033 6498 398 181 217 147 648 352 27321 23088 12073 6100 494 5606 16333 16908 41420 12697 12237 460 11128 4867 739 123 4233 12010 11408 4211 1259 1227 4724 3042 1682 421 1173 143 3060 2296 1150 1311 895 594 211 230 134 11269 9119 2150 641 7859 3437 922 2515 389 115
internal_count=110104 76285 59076 33819 58428 1322 17209 57106 45033 6498 398 181 217 147 648 352 27321 23088 12073 6100 494 5606 16333 16908 41420 12697 12237 460 11128 4867 739 123 4233 12010 11408 4211 1259 1227 4724 3042 1682 421 1173 143 3060 2296 1150 1311 895 594 211 230 134 11269 9119 2150 641 7859 3437 922 2515 389 115
is_linear=0
shrinkage=0.05


Tree=5
num_leaves=64
num_cat=0
split_feature=5 6 6 5 5 6 5 6 6 5 8 8 0 8 1 5 5 5 6 3 8 1 8 0 8 8 0 3 2 8 6 8 8 1 8 5 8 3 3 1 6 8 6 8 2 6 8 3 6 5 5 3 2 6 6 5 8 1 6 6 5 1 8
split_gain=0.0795191 0.0621343 0.0602072 0.155788 0.0490358 0.0423941 0.0410924 0.0402766 0.0380599 0.0370933 0.0471403 0.0369219 0.0321497 0.0381702 0.0303062 0.0278105 0.027798 0.027595 0.0269652 0.0413833 0.026713 0.0251228 0.0245886 0.0242528 0.0238176 0.0368051 0.0372659 0.0340788 0.0249248 0.0267694 0.022506 0.0231642 0.0221261 0.0216141 0.0357099 0.0283454 0.0210639 0.0202412 0.0190395 0.0188818 0.0180314 0.0202424 0.0179021 0.0166528 0.045412 0.0172881 0.0281825 0.0164883 0.0163241 0.0163101 0.0162793 0.0159305 0.0157558 0.0156856 0.0258144 0.0158172 0.0155542 0.015518 0.0153535 0.0151806 0.0175896 0.0143746 0.0291944
threshold=0.55996528267860424 0.55376732349395763 0.76942721009254467 -0.40715213119983668 -0.80867591500282276 -0.081952624022960649 -0.13950881361961362 -1.5847653746604917 -0.90168979763984669 -0.77506810426712025 -0.048097135499119752 -0.087820917367935167 -0.046358032152056687 -0.11305529251694678 -0.049107676371932023 1.3200211524963381 -2.3604378700256343 -2.1349705457687373 -0.2935898751020431 -0.085479337722063051 -0.11089047789573668 -0.051532687619328492 0.38674119114875799 -0.11629403010010718 -0.069107513874769197 -0.028684280812740322 -0.07216260582208632 -0.062270717695355408 -0.085908319801092134 -0.087820917367935167 -1.2532120943069456 -0.066979587078094469 -0.097745213657617555 -0.11587537080049513 -0.10568077862262724 1.617749094963074 0.06888850033283235 -0.046342970803380006 -0.083512123674154268 -0.058375382795929902 -0.73714688420295704 -0.06480133160948752 1.100535035133362 -0.10808961838483809 -0.11858800053596495 -1.5847653746604917 -0.076164282858371721 -0.075906861573457704 -0.83568301796913136 -0.84785616397857655 0.15054315328598025 -0.059710387140512459 -0.11889896541833876 -0.75558739900588978 -0.40994182229042048 1.8626695275306704 -0.1044192463159561 -0.10570213198661803 1.3669759631156924 -0.21715314686298368 1.7347468137741091 -0.087081693112850175 -0.05490037985146045
decision_type=2 2 2 2 2 2 2 2 2 2 2 2 2 2 2 2 2 2 2 2 2 2 2 2 2 2 2 2 2 2 2 2 2 2 2 2 2 2 2 2 2 2 2 2 2 2 2 2 2 2 2 2 2 2 2 2 2 2 2 2 2 2 2
left_child=2 7 4 9 5 8 58 -2 43 10 23 33 13 -6 24 22 -10 -7 19 30 -19 -20 -3 -4 28 40 50 -28 32 -30 -13 53 -15 34 -9 48 -14 -8 -21 -29 41 -26 -25 -1 56 46 -46 49 -35 -22 -27 -31 -34 57 55 -55 -45 -32 -5 -36 -61 62 -42
right_child=1 15 3 6 12 17 37 11 16 -11 -12 18 36 14 -16 -17 -18 20 21 38 47 -23 -24 42 25 26 27 39 29 51 31 -33 52 35 59 -37 -38 -39 -40 -41 61 -43 -44 44 45 -47 -48 -49 -50 -51 -52 -53 -54 54 -56 -57 -58 -59 -60 60 -62 -63 -64
leaf_value=6.9566688829792906e-05 -0.0010928767568740031 -5.8805992042320148e-05 0.0013676915790104736 9.7000884481481748e-05 0.00014925272628749984 0.0011985694407485427 -4.9064202181102687e-05 9.239431910018933e-05 -0.00072317684619628358 0.00043242525169548689 0.0019730980897293194 -0.00021222786277863442 0.00011101686202148846 -3.192588037237214e-05 -0.00068794815876070149 -0.0004624655293735989 -0.0002346519989179669 0.001076601833740894 -1.3386900805464215e-05 -0.0004585860898761003 0.00024960332428270766 0.00030031360806796184 0.00094669330836979733 -0.00048151762705485996 0.0010531782047930357 -0.00061829401978078142 0.0013602623604886807 -0.00059388254389718727 0.00016569950006327104 -0.00011592254751448296 0.0015999816465718708 0.0011329476087989447 -0.00095728075715861025 -0.00017514320217424238 0.00064441678288922792 -0.00032699357297834948 -5.0375002390150542e-05 0.0001290420011079722 0.00025433808407425559 0.00052672811265614241 -0.00033557640759017274 -9.6528669647258619e-05 0.00068878757967950259 -0.00053567927027688709 -2.2170881312376877e-05 -0.00010857157195322733 0.0012321714430072461 -0.00024772933116212932 9.8408416969560968e-05 -0.00043733056530008343 0.00037615606881445272 0.00020060592774515706 -0.00012240603066194684 0.00027624336909980776 0.00095489755344872187 -0.00061788251305607944 -0.0014274133291495893 0.00063941973451799819 0.00033505679114404006 0.00035446387656944958 -0.00064213284125659044 -0.00038072392875112724 0.00038684399660968876
leaf_weight=1464 65 3147 71 1731 2641 58 10140 3751 310 1143 95 75 6790 35454 182 441 4645 64 1463 97 682 1131 61 53 50 131 95 53 3006 2052 52 219 56 658 465 568 2878 1892 2160 123 426 153 82 199 149 3726 63 355 3163 98 59 492 6939 206 115 64 65 221 1113 299 51 1601 207
leaf_count=1464 65 3147 71 1731 2641 58 10140 3751 310 1143 95 75 6790 35454 182 441 4645 64 1463 97 682 1131 61 53 50 131 95 53 3006 2052 52 219 56 658 465 568 2878 1892 2160 123 426 153 82 199 149 3726 63 355 3163 98 59 492 6939 206 115 64 65 221 1113 299 51 1601 207
internal_value=-4.66372e-07 9.41659e-05 -1.95536e-05 6.75037e-05 -3.8431e-05 -0.000131657 1.93571e-05 0.000139663 -0.000164154 0.000563151 0.00105649 0.000145165 -2.09599e-05 -3.60662e-05 -4.56507e-05 -9.064e-05 -0.000265355 0.000142835 0.000243401 0.000340293 9.0809e-05 0.000123451 -3.93974e-05 0.000626286 -4.33405e-05 -0.000182517 0.000226806 0.000602315 -3.49339e-05 6.47033e-05 0.00061664 0.000687684 -4.79622e-05 8.14868e-05 0.000157633 2.25183e-06 6.2973e-05 -2.10491e-05 0.000223509 0.000187823 -0.000260008 0.000190425 0.000229172 -7.56208e-05 -0.000126209 -8.35524e-05 0.000354617 3.43237e-05 5.12676e-05 0.000162847 -0.000309138 -5.46524e-05 -0.000129226 0.000537994 0.000331057 6.28045e-05 -0.000759793 0.000827556 0.000190249 0.00045741 0.00020783 -0.000301006 -9.90971e-05
internal_weight=110058 18472 91586 16320 75266 11878 14876 14823 10621 1444 301 14758 63388 53720 51079 3649 4955 1257 5803 3209 1199 2594 3208 206 50897 2898 461 271 47999 5550 952 877 42449 8955 4566 4389 9668 12032 2257 176 2437 203 135 5666 4202 3938 212 1135 3821 780 190 2544 6995 658 385 270 264 273 2844 815 350 2234 633
internal_count=110058 18472 91586 16320 75266 11878 14876 14823 10621 1444 301 14758 63388 53720 51079 3649 4955 1257 5803 3209 1199 2594 3208 206 50897 2898 461 271 47999 5550 952 877 42449 8955 4566 4389 9668 12032 2257 176 2437 203 135 5666 4202 3938 212 1135 3821 780 190 2544 6995 658 385 270 264 273 2844 815 350 2234 633
is_linear=0
shrinkage=0.05


Tree=6
num_leaves=64
num_cat=0
split_feature=7 0 4 5 6 6 4 7 0 0 5 6 5 5 6 5 7 0 0 5 4 4 2 5 2 4 1 4 0 4 1 4 4 6 5 5 7 2 6 6 7 4 4 6 7 6 6 5 7 5 4 6 6 7 5 7 0 5 4 4 6 2 6
split_gain=0.109298 0.0631969 0.058408 0.0347584 0.0323949 0.0392566 0.046937 0.0515422 0.047329 0.0306629 0.0284947 0.0463095 0.0366174 0.030697 0.0961318 0.0330028 0.0434288 0.0294478 0.0278793 0.0273243 0.0266814 0.0231538 0.0217645 0.0214903 0.0272078 0.0214291 0.0210364 0.0223839 0.0209597 0.0196995 0.0207069 0.0304031 0.0207029 0.0193036 0.0234186 0.0190521 0.0187662 0.0182774 0.0181885 0.0177959 0.0176567 0.0176273 0.0174208 0.0173922 0.016979 0.0186918 0.0161216 0.0196002 0.0160065 0.0209387 0.0178793 0.0171094 0.0153866 0.0152681 0.0151888 0.0151287 0.0264477 0.0452653 0.0167024 0.0234204 0.0151754 0.0273956 0.0151025
threshold=-0.43901200592517847 -0.073433667421340929 -0.38037201762199396 -2.3604378700256343 0.23963607847690585 -0.99959143996238697 0.08497097343206407 -1.6167480349540708 -0.099199663847684846 -0.1238637827336788 0.5830669403076173 0.2591263353824616 2.0488946437835698 -0.18937882035970685 0.48050209879875189 -0.58600118756294239 0.47125744819641119 -0.075893897563219057 -0.099961191415786729 0.55996528267860424 -0.080663211643695817 0.72395047545433056 -0.11551034078001975 -0.53044629096984852 -0.12177162989974021 -0.37588907778263086 -0.046193776652216904 -0.20056299120187757 0.044383265078067786 -0.33046659827232355 -0.093989972025156007 -0.11941747739911078 -0.18463582545518872 -0.27116554975509638 -0.84785616397857655 0.37353591620922094 -0.99063158035278309 -0.11970711871981619 -0.84636655449867237 -0.050099253654479974 3.1943644285202031 -0.20856405794620511 -0.16244542598724362 -0.041308609768748276 -0.044100904837250703 0.024639643728733066 1.5706884860992434 1.2179979085922243 -0.62400773167610157 -0.11258145049214362 1.8980552554130556 -0.62294292449951161 -0.67393457889556874 0.21303400397300723 0.26722796261310583 -1.4056073427200315 -0.07216260582208632 -0.44181755185127253 -0.21217221021652219 -0.27300144731998438 0.51595747470855724 -0.10668920725584029 -0.74564886093139637
decision_type=2 2 2 2 2 2 2 2 2 2 2 2 2 2 2 2 2 2 2 2 2 2 2 2 2 2 2 2 2 2 2 2 2 2 2 2 2 2 2 2 2 2 2 2 2 2 2 2 2 2 2 2 2 2 2 2 2 2 2 2 2 2 2
left_child=2 10 3 -1 5 -4 18 9 35 -8 13 17 46 14 33 16 -16 21 -7 25 -14 38 23 24 -6 28 27 -27 -3 -20 31 32 36 -2 37 43 -31 -35 -12 42 62 -28 54 48 45 -39 47 -13 51 50 -50 52 -9 -49 -15 56 58 -58 59 -24 -60 -62 -40
right_child=1 19 4 -5 22 6 7 8 -10 -11 11 12 20 39 15 -17 -18 -19 29 -21 -22 -23 55 -25 -26 26 41 -29 -30 30 -32 -33 -34 34 -36 -37 -38 44 40 -41 -42 -43 -44 -45 -46 -47 -48 53 49 -51 -52 -53 -54 -55 -56 -57 57 -59 60 -61 61 -63 -64
leaf_value=0.0012246948234860612 -6.5907992754808404e-05 0.00015534444361202412 -4.6157628531204749e-05 5.1648282546730151e-05 -0.00014845839826113107 -4.6312637334892293e-05 -0.0019040365894960071 -0.00025445883659755631 -0.001125166027791678 -0.00066442019898647398 3.359818692969942e-05 4.3226052368464494e-05 -5.6660168835757457e-05 -8.0203270985692264e-05 0.00025423935505364102 0.00022103223110891951 0.0011331164252897357 -0.00068847459189299014 -9.5141606691198489e-05 0.00022112254076888261 -0.0015233489605598152 -7.1750406948833663e-05 -7.778196105439412e-06 5.1226677431088629e-05 0.0010327647278823551 -1.7182547888670761e-05 -0.00018957642010184337 0.00063871041953552136 2.1156552495639325e-05 -0.0011988307615740947 -0.00025717952144632016 0.00020057839522513114 -0.0016069355269510326 0.0010253183491916692 2.8737941024926327e-05 -0.00098212590414788539 -0.00035735760493199202 0.00029466224032848216 0.00044301583170699315 -6.5328230550039897e-05 0.00088315042444264691 -0.0009251106526286829 7.5785895588217336e-05 0.00012853925538873354 0.00056799896424973063 -0.00084823428688203864 -0.00036668494982019704 -0.00088069361716856863 -6.6181860226539424e-05 -0.00082103179318857239 0.00068722232167455063 -0.00049195161015736161 0.00040373406785504119 -0.00016791798499401592 5.596656570477345e-05 -0.00014596317339982942 -0.00038182005056504363 0.0014491139257125027 -0.00042225357273296607 -0.0013144443171094519 -0.00037157650365204106 0.00097760846206302178 0.00017373864599778044
leaf_weight=63 7335 7498 5008 4769 78 3676 54 646 154 584 1915 2422 53 6335 318 2405 252 108 1395 4149 74 1148 94 1960 128 1679 618 140 4756 101 1746 87 70 95 4485 80 193 90 575 22174 95 93 5521 343 177 58 366 92 513 77 92 855 102 395 3025 2842 55 85 68 53 60 98 5483
leaf_count=63 7335 7498 5008 4769 78 3676 54 646 154 584 1915 2422 53 6335 318 2405 252 108 1395 4149 74 1148 94 1960 128 1679 618 140 4756 101 1746 87 70 95 4485 80 193 90 575 22174 95 93 5521 343 177 58 366 92 513 77 92 855 102 395 3025 2842 55 85 68 53 60 98 5483
internal_value=-4.39349e-07 2.73624e-05 -8.97389e-05 6.71928e-05 -0.000125346 -0.000161825 -0.00021561 -0.000366024 -0.000275251 -0.000772156 3.94498e-06 7.10367e-05 -8.68491e-05 -1.23907e-05 4.74043e-05 0.00030228 0.000644099 0.000128647 -0.000143135 0.000107749 -0.000916491 0.000138296 -2.11001e-05 0.000102425 0.000586949 7.59184e-05 -5.65455e-05 3.36217e-05 0.00010327 -0.000242182 -0.000335461 -0.000637278 -0.000837536 -1.45642e-05 6.22139e-05 -0.00022652 -0.000649519 0.000418772 0.000168189 -3.69435e-05 0.000210065 -0.00028695 5.35389e-06 -0.000203153 0.000238872 -0.000155917 -5.44068e-05 -1.50046e-05 -0.000252978 -4.99946e-05 4.93304e-05 -0.000339252 -0.000164286 -0.000304098 -3.61941e-05 -0.000100855 0.000148841 0.000732212 -7.14902e-05 -0.000484587 0.000198157 0.000466145 0.000199366
internal_weight=110058 83929 26129 4832 21297 15776 10768 3500 2862 638 64996 12726 3402 52270 15215 2975 570 9324 7268 18933 127 9216 5521 2166 206 14784 2530 1819 12254 3592 2197 451 364 12240 4905 2708 294 420 8068 37055 6153 711 14881 2628 325 148 3275 2909 2285 682 605 1603 748 487 9360 3355 513 140 373 147 226 158 6058
internal_count=110058 83929 26129 4832 21297 15776 10768 3500 2862 638 64996 12726 3402 52270 15215 2975 570 9324 7268 18933 127 9216 5521 2166 206 14784 2530 1819 12254 3592 2197 451 364 12240 4905 2708 294 420 8068 37055 6153 711 14881 2628 325 148 3275 2909 2285 682 605 1603 748 487 9360 3355 513 140 373 147 226 158 6058
is_linear=0
shrinkage=0.05


Tree=7
num_leaves=64
num_cat=0
split_feature=7 4 8 4 5 6 5 8 6 6 3 7 6 4 6 8 4 2 3 6 6 7 7 5 4 5 4 5 7 8 8 2 8 6 6 7 5 7 8 2 2 7 6 8 8 3 5 4 2 6 7 2 2 4 3 8 8 2 5 5 6 5 5
split_gain=0.0991867 0.0746869 0.0733566 0.0986479 0.0522201 0.0607707 0.0591319 0.0478908 0.0567916 0.0455484 0.0373355 0.033739 0.0323696 0.0322015 0.032152 0.0307529 0.0384465 0.0317501 0.0399072 0.0328873 0.0314871 0.0276333 0.025957 0.0249486 0.0277596 0.0232769 0.0228127 0.0216325 0.0208997 0.0262512 0.0204398 0.019632 0.0191038 0.0189536 0.0188039 0.0210642 0.0437608 0.0274564 0.0240568 0.0320295 0.0283359 0.0269233 0.0223978 0.0220778 0.0182001 0.0191665 0.0188093 0.0183065 0.0180925 0.0180767 0.0180629 0.0180001 0.0178875 0.0256154 0.0245142 0.0257415 0.0208371 0.0230462 0.0202924 0.0174754 0.0172063 0.0168129 0.0189962
threshold=-0.073328748345375047 -0.40265583992004389 -0.10913773998618125 0.77398696541786205 -0.58600118756294239 1.2964880466461184 0.4859179556369782 -0.056517148390412324 -1.3306277990341184 -0.081952624022960649 -0.055494559928774827 1.2903438210487368 -0.25571024417877192 -0.40555933117866511 0.2591263353824616 -0.085009403526782976 -0.35563224554061884 -0.10593634843826293 -0.11144049093127249 -1.5847653746604917 0.75436502695083629 -1.4682521224021909 -1.8253759145736692 2.0488946437835698 -0.080663211643695817 -2.1349705457687373 3.808212518692017 -0.49874164164066309 -0.14780332148075101 -0.041698316112160676 -0.11300246044993399 -0.12153136357665061 0.11669719219207765 1.0533831119537356 -1.5847653746604917 2.2655960321426396 2.666130900382996 1.7529536485671999 -0.091434136033058153 -0.098504584282636629 -0.10364918783307074 3.1943644285202031 -0.54670017957687367 -0.046041114255785935 -0.085969883948564516 -0.097557328641414628 -2.700176358222961 0.039734601974487312 -0.12160973250865935 -0.74564886093139637 3.1943644285202031 0.87324443459510814 -0.089977070689201341 -0.33902598917484278 -0.09196810424327849 -0.092174850404262529 -0.089903257787227617 -0.067062254995107637 -2.3604378700256343 -0.058671128004789345 -0.27900278568267817 -0.53044629096984852 -0.69051977992057789
decision_type=2 2 2 2 2 2 2 2 2 2 2 2 2 2 2 2 2 2 2 2 2 2 2 2 2 2 2 2 2 2 2 2 2 2 2 2 2 2 2 2 2 2 2 2 2 2 2 2 2 2 2 2 2 2 2 2 2 2 2 2 2 2 2
left_child=1 51 -3 15 5 11 13 8 -5 12 14 49 21 -6 34 44 25 18 -18 -19 28 -10 -22 -16 -25 32 27 -11 61 -30 -15 -28 -17 59 -8 36 -36 -38 41 40 42 48 -40 -41 46 -46 47 -4 -37 -2 -12 -1 54 56 58 -56 -54 -58 -48 -24 -60 62 -21
right_child=4 2 3 7 6 -7 10 -9 9 26 50 -13 -14 30 23 16 17 19 -20 20 22 -23 33 24 -26 -27 31 -29 29 -31 -32 -33 -34 -35 35 38 37 -39 39 43 -42 -43 -44 -45 45 -47 52 -49 -50 -51 -52 -53 53 -55 55 -57 57 -59 60 -61 -62 -63 -64
leaf_value=0.00012294484343121747 -0.00038619346039897237 2.2124840412383443e-05 0.0011795140505902533 0.0005237915313899003 9.2516658696427121e-05 0.0011604494219010003 -0.00084169818814296051 -0.0019816130796885666 -0.00094750739801483712 0.00055219721353920654 0.00024398016440623445 0.0010676504751432375 -0.0014662999925771148 0.00013625555983250558 -2.5043058566770059e-05 0.0013695213042620499 0.00043525782665320936 0.00090485018150161529 -0.0010594345640297454 -0.00028661996529890277 0.0010000914936006042 -0.00038958888641555138 0.00085778307091322374 0.00010154109813324145 -0.0013931390380119565 -6.6738413691958589e-05 -0.00015824882578396914 -0.00021245794416933689 -0.00044586547152833259 -0.0016889695208062352 -3.305657178672933e-05 -0.0015560341467076512 6.9697975870404469e-07 -0.00022749962015359114 0.00011591419238398853 0.00094062726342732594 -0.0016077776124108244 -0.00025413743164487342 0.0011331681778349722 -0.00039267981533206483 0.0018328689177954068 -0.00065905264325707286 -0.00015916398107427605 0.00065415707258084286 0.00083511684933271907 3.0348012137008756e-05 -0.00077801338352886875 4.3253777613345949e-05 8.9517059273526276e-06 0.00020133492564163838 0.0011584013315587072 -0.00016191660118251847 3.6470075738629149e-05 0.00027246470417672321 -0.00025782658936640665 -0.0011901234081109424 -0.00068003380592551168 0.00014854437272157341 -0.00013101841914730792 8.7028742397836007e-06 -2.2686976461967208e-05 -0.00014036885069321835 -0.00067989621921328677
leaf_weight=6434 142 12948 58 144 7462 183 50 50 364 117 3252 106 124 1895 3902 51 55 63 226 2402 66 573 92 55 70 3850 50 427 181 55 29794 50 50 448 10714 81 54 119 84 92 75 93 55 109 113 211 102 89 143 1558 54 606 1193 876 353 93 241 128 6928 174 7783 1796 352
leaf_count=6434 142 12948 58 144 7462 183 50 50 364 117 3252 106 124 1895 3902 51 55 63 226 2402 66 573 92 55 70 3850 50 427 181 55 29794 50 50 448 10714 81 54 119 84 92 75 93 55 109 113 211 102 89 143 1558 54 606 1193 876 353 93 241 128 6928 174 7783 1796 352
internal_value=-4.20189e-07 -5.25217e-05 -7.73047e-05 -0.000120321 4.28226e-05 0.000294682 3.42034e-05 -0.000468982 -0.000427029 -0.000507593 0.000106572 0.000206361 -0.000708806 -9.22767e-07 7.43971e-05 -9.66829e-05 -0.000167769 -0.000248482 -0.000766373 -0.000222497 -0.000235417 -0.000607105 5.90981e-05 -4.74105e-05 -0.000739893 -4.70038e-05 -0.000175506 -4.72894e-05 -0.000283418 -0.000741476 -2.29277e-05 -0.000865628 0.000698536 -2.91615e-05 0.000116434 0.000120629 0.00010315 -0.000683473 0.000380098 0.00063015 0.00105444 5.1791e-05 0.000624329 0.000175436 -5.80928e-05 0.00031273 -6.48431e-05 0.000496515 0.000348535 0.000152061 0.000259262 9.84046e-05 -6.95338e-05 5.62078e-05 -8.96265e-05 -0.000454457 -6.517e-05 -0.000392989 -7.8612e-05 0.000304483 -7.371e-05 -0.000259502 -0.000337115
internal_weight=110058 49916 42876 29928 60142 1989 58153 1899 1849 1705 19002 1806 1061 39151 15696 28029 9861 5910 281 5629 5566 937 780 4027 125 3951 644 544 4786 236 31689 100 101 714 11669 11619 10887 173 732 415 214 317 139 201 18168 324 17844 147 224 1700 3306 7040 17697 2438 15259 446 1562 369 14813 266 14711 4550 2754
internal_count=110058 49916 42876 29928 60142 1989 58153 1899 1849 1705 19002 1806 1061 39151 15696 28029 9861 5910 281 5629 5566 937 780 4027 125 3951 644 544 4786 236 31689 100 101 714 11669 11619 10887 173 732 415 214 317 139 201 18168 324 17844 147 224 1700 3306 7040 17697 2438 15259 446 1562 369 14813 266 14711 4550 2754
is_linear=0
shrinkage=0.05


Tree=8
num_leaves=64
num_cat=0
split_feature=4 5 8 4 8 2 3 4 1 4 5 8 5 8 8 4 8 2 3 0 1 8 1 4 3 4 8 8 0 5 4 3 8 5 3 4 8 8 5 4 8 0 5 4 8 0 2 8 1 5 5 0 3 0 4 4 4 0 4 0 8 4 1
split_gain=0.0853726 0.0559596 0.0453911 0.0322865 0.0696369 0.0343165 0.041708 0.0288039 0.0499239 0.0318605 0.020488 0.0210529 0.0197343 0.0199403 0.0192277 0.0385816 0.0251021 0.0216229 0.0273376 0.0198244 0.0229583 0.0210117 0.0251353 0.0186839 0.0296188 0.0484268 0.0290992 0.0265559 0.0232419 0.0184448 0.0168437 0.0239375 0.028769 0.0168314 0.0163639 0.0782344 0.0181908 0.025756 0.0163456 0.015852 0.0157349 0.0153117 0.0162507 0.0168502 0.0184444 0.0146346 0.0161828 0.0143141 0.034516 0.0189888 0.0300447 0.0549178 0.0169824 0.0197145 0.0254026 0.0198479 0.018644 0.0165416 0.0529205 0.0209515 0.0529592 0.0283077 0.0275296
threshold=-0.40555933117866511 0.5830669403076173 -0.11305529251694678 0.77398696541786205 -0.10525806993246077 -0.11779087409377097 -0.11634834110736846 0.19294833391904834 -0.095567930489778505 0.34531787037849432 -0.56243667006492604 -0.10410146787762641 1.1727151274681094 -0.083961050957441316 -0.10152594000101088 -0.33340498805046076 0.68517020344734203 -0.11491709947586058 -0.11578038707375525 -0.11629403010010718 -0.11492156237363814 -0.09694464877247809 -0.11749485880136488 0.99663940072059642 -0.11016343906521796 1.4510607123374941 -0.089903257787227617 -0.099625449627637849 -0.10938992351293562 -0.012664337176829575 1.0677539110183718 -0.12196956202387808 -0.10723895207047461 -0.98537489771842945 -0.041443029418587678 -0.017776896245777603 1.0000000180025095e-35 0.023341441527009014 -0.18937882035970685 -0.28247204422950739 -0.10594914108514784 0.22233889251947406 0.55996528267860424 -0.42320740222930903 0.68517020344734203 -0.093441631644964204 -0.11610979586839675 -0.076894480735063539 -0.089663494378328309 -0.090148225426673875 -0.17942860722541806 -0.092341423034667955 -0.09926524385809897 -0.1087052784860134 0.20798964798450473 0.2431379705667496 0.07312029600143434 -0.10397867113351821 0.029552642256021503 -0.088491138070821748 -0.059511044993996613 0.096491906791925444 -0.091131724417209611
decision_type=2 2 2 2 2 2 2 2 2 2 2 2 2 2 2 2 2 2 2 2 2 2 2 2 2 2 2 2 2 2 2 2 2 2 2 2 2 2 2 2 2 2 2 2 2 2 2 2 2 2 2 2 2 2 2 2 2 2 2 2 2 2 2
left_child=41 2 -2 14 -5 10 -7 -3 12 -10 11 -6 -9 30 38 16 17 18 -16 21 -21 33 -23 28 26 -26 27 -25 -8 34 -14 32 -32 -17 36 -36 47 -38 -4 -35 -33 45 43 -43 -45 46 -1 48 52 50 57 -52 53 54 -22 -55 -54 58 -49 60 62 -62 -59
right_child=1 7 3 4 5 6 23 8 9 -11 -12 -13 13 -15 15 19 -18 -19 -20 20 29 22 -24 24 25 -27 -28 -29 -30 -31 31 40 -34 39 35 -37 37 -39 -40 -41 -42 42 -44 44 -46 -47 -48 49 -50 -51 51 -53 56 55 -56 -57 -58 59 -60 -61 61 -63 -64
leaf_value=0.00062769415120601487 0.00014637635247368436 0.00010022967547817504 3.2418450151813991e-05 -6.7848210452220122e-05 -0.00036048153766764788 0.00049121631069711468 -0.0013585734155740368 7.6665995671497208e-05 -0.00017237271542068234 -0.0018191757495962801 -0.0005092518996485635 -0.0015384061630860793 -5.8137716762021246e-05 0.00059078008720788583 9.7403227714601707e-05 -0.00069426131868590931 0.0010087802001604966 -2.1875130245992949e-05 0.001387763921205779 -0.00052288980783196171 -0.00016841424139159224 0.00014409862615138991 0.0014074241138587241 -0.00029637710179422302 -0.00012623314233018365 -0.0020985750676217408 -0.00084726400435807144 0.00065638684744867635 -0.00011749682805927123 -3.709656182857738e-05 -0.00036728596971952361 -0.0014316374649714731 0.00092550363417383513 0.00088874978183801955 -0.00022383379248160713 -0.0021159183219663005 0.00085450179242427661 -0.000178685616259973 -3.5536716037500559e-05 -1.7064941922936588e-05 -0.00054000451726792951 1.302886460616162e-05 0.00027824533455548752 -0.00017045821875007804 -0.0010410184335054701 0.00015441373583204663 -2.4725807705284391e-05 -5.2470581343456356e-05 0.00012789524577339786 -0.00080344433611162763 0.0017708228672675503 -0.00015288417249953803 -0.00027485533965715658 -5.169428587128061e-05 -0.00079297767180003655 0.00060586104154344497 -0.0010354203075706231 -0.00056070055749975667 -0.0020446222214542224 -0.00034584121796963968 0.00027098637330874971 0.0015237602990390243 0.00027917955054335971
leaf_weight=99 3268 12771 13918 4530 52 135 108 1791 54 64 195 147 620 77 126 77 59 16382 60 374 1047 103 63 156 72 54 97 136 58 4044 249 72 51 55 527 60 107 136 24293 351 161 2449 483 308 75 10708 1918 90 1163 148 51 129 1323 1712 192 122 85 360 52 1483 219 56 133
leaf_count=99 3268 12771 13918 4530 52 135 108 1791 54 64 195 147 620 77 126 77 59 16382 60 374 1047 103 63 156 72 54 97 136 58 4044 249 72 51 55 527 60 107 136 24293 351 161 2449 483 308 75 10708 1918 90 1163 148 51 129 1323 1712 192 122 85 360 52 1483 219 56 133
internal_value=-4.00583e-07 -1.85902e-05 -3.59998e-05 -4.39654e-05 -0.000157901 -0.000494706 -0.000309041 6.68772e-05 -6.88056e-05 -0.00107334 -0.000877476 -0.00123395 -2.92266e-05 -0.000183354 -3.44989e-05 -6.38333e-05 -1.20778e-05 -1.57738e-05 0.000518844 -0.000124166 -0.000137039 0.000145649 0.00062911 -0.000468169 -0.000318362 -0.000981391 -0.000101636 0.000148102 -0.000928244 -0.0001261 -0.000235519 -0.000441359 -0.000145167 -2.14654e-05 -0.000165236 -0.000420502 -0.000147782 0.000277895 -1.07845e-05 0.000107526 -0.000820471 0.000106212 1.04953e-05 -3.52518e-05 -0.0003432 0.000131144 7.59197e-06 -0.00016018 -0.000114731 -0.000254374 -0.000222491 0.000398938 -0.000177717 -0.000111768 -0.00026576 -7.64654e-06 -0.000321472 -0.000269382 -0.000791187 -0.000236128 -2.40982e-05 0.000530693 -0.000334014
internal_weight=110058 94018 78108 74840 5740 1210 816 15910 3139 118 394 199 3021 1230 69100 30889 16627 16568 186 14262 13613 649 166 681 515 126 389 292 166 13239 1153 533 300 483 9195 587 8608 243 38211 406 233 16040 3315 2832 383 12725 2017 8365 5644 2721 2573 180 4481 3073 1239 1834 1408 2393 142 2251 768 275 493
internal_count=110058 94018 78108 74840 5740 1210 816 15910 3139 118 394 199 3021 1230 69100 30889 16627 16568 186 14262 13613 649 166 681 515 126 389 292 166 13239 1153 533 300 483 9195 587 8608 243 38211 406 233 16040 3315 2832 383 12725 2017 8365 5644 2721 2573 180 4481 3073 1239 1834 1408 2393 142 2251 768 275 493
is_linear=0
shrinkage=0.05


Tree=9
num_leaves=64
num_cat=0
split_feature=7 4 8 4 8 8 2 4 7 4 0 4 4 8 1 1 4 3 4 8 8 8 8 3 8 4 3 4 1 1 8 4 7 4 3 8 7 7 4 7 3 2 0 8 1 7 7 1 3 8 8 4 1 2 8 3 2 3 3 7 3 1 1
split_gain=0.0854015 0.0616093 0.0662292 0.082016 0.0425316 0.042096 0.0526423 0.0642971 0.0505618 0.0385628 0.0343373 0.0306028 0.0298033 0.026202 0.030845 0.0325232 0.0271745 0.024618 0.0228965 0.0252132 0.0285261 0.0215498 0.0400928 0.0212745 0.0238012 0.0303634 0.0222207 0.032565 0.026716 0.0188861 0.0317508 0.025432 0.0187942 0.0204622 0.0291127 0.0266921 0.0241686 0.02223 0.0381172 0.0319121 0.0199166 0.0751786 0.0319115 0.0176122 0.0178981 0.0174305 0.0173119 0.0172397 0.0168114 0.0239121 0.0319228 0.0369584 0.0162162 0.0155964 0.0293475 0.0286538 0.0179389 0.0265975 0.0196137 0.0162738 0.0150079 0.0149268 0.0209758
threshold=-0.0673566199839115 -0.39523324370384211 -0.10913773998618125 0.77398696541786205 -0.056517148390412324 -0.077592067420482622 -0.090920105576515184 0.10899829864501955 1.5570151805877688 0.39578649401664739 -0.1238637827336788 -0.035436755046248429 0.10899829864501955 -0.085009403526782976 -0.10501663014292716 -0.1115235462784767 0.019493159838020805 -0.056974356994032853 -0.37495754659175867 -0.070964582264423356 -0.028684280812740322 -0.080355223268270479 -0.092885151505470262 -0.10775453224778174 -0.046041114255785935 -0.27059835195541376 -0.10345254465937613 -0.18463582545518872 -0.097627174109220491 0.037537444382905967 0.039255753159523017 -0.38307952880859369 -2.4402524232864375 -0.29938386380672449 -0.097952611744403825 -0.041698316112160676 -1.3537257909774778 -0.32045826315879816 -0.18046166747808454 -0.46564412117004389 -0.089095920324325548 -0.097488306462764726 -0.079561695456504808 -0.085969883948564516 -0.09801494330167769 0.79419046640396129 1.1158862113952639 0.019167956896126274 -0.013372507877647875 1.0000000180025095e-35 0.047962632030248649 -0.11941747739911078 0.87590816617012035 -0.11763750389218329 -0.10093429312109946 -0.11382279917597769 -0.11583115160465239 -0.11649953946471213 -0.11501913890242575 -1.1358469128608701 -0.058197205886244767 -0.051532687619328492 -0.022863364778459069
decision_type=2 2 2 2 2 2 2 2 2 2 2 2 2 2 2 2 2 2 2 2 2 2 2 2 2 2 2 2 2 2 2 2 2 2 2 2 2 2 2 2 2 2 2 2 2 2 2 2 2 2 2 2 2 2 2 2 2 2 2 2 2 2 2
left_child=1 52 -3 13 10 17 9 11 -9 12 -5 18 23 43 15 -15 -17 -2 -8 60 61 22 53 -7 26 -26 -25 -28 -29 32 31 -31 40 34 -34 -35 -36 39 -39 48 41 -16 -42 -4 -45 -22 -13 -38 49 -37 51 -51 -1 54 -12 56 57 59 -58 -55 -20 -21 -63
right_child=5 2 3 4 -6 6 7 8 -10 -11 21 46 -14 14 29 16 -18 -19 19 20 45 -23 -24 24 25 -27 27 28 -30 30 -32 -33 33 35 36 37 47 38 -40 -41 42 -43 -44 44 -46 -47 -48 -49 -50 50 -52 -53 -54 55 -56 -57 58 -59 -60 -61 -62 62 -64
leaf_value=9.0049093708756051e-05 1.1167733603093998e-05 1.9545188716633791e-05 -6.4820268072415509e-05 -0.0015517523322599912 -0.0018589826188034231 0.0010644167760383916 0.00012714914855660364 -0.0020817553040525707 5.051780409793047e-05 0.0016728092412992277 -0.00032827510465977455 0.00027041729461389893 -0.00059942605730611831 0.00045475454456409665 -0.00030948629183082007 -0.00051570459547231043 -0.0015657850119986394 0.00026007713072619202 0.00039066813760378551 -0.00027519506449461689 -9.4222183816041117e-05 0.00054116978095127986 -0.0010917360080117927 -0.00024297749077570362 0.0015071446083627805 0.00017718751425003045 0.00022130527171416748 0.00033882392780880817 0.0016887435587705113 -2.3992725735095321e-05 -7.136781558608979e-05 0.0012210501992496537 0.00041768824847845156 -0.00019151733172147913 0.00019817741732459874 -0.00065032242048674031 -0.00017204034534366224 -0.00032476940029864051 -0.0021833428819138813 0.00067124629451662324 -0.00095727231060259833 0.0021752373612138865 0.00033201247865690677 0.00083241244799931694 3.1520356230127315e-05 0.00029494084656980112 0.0014036040192449411 -0.00089711570946660469 -0.0013082687330783392 -0.00030373227037489416 -0.00080184262924376526 0.001333809787684004 -0.00017675379086626682 0.00093758629990811897 -0.001202461143677485 -0.00048467613528391311 0.0013540553773820744 -0.0010538996532526448 0.00017389576121089743 -0.00030301754178373879 -0.0004989188666376373 0.00027810682909493211 -0.00075314715531324817
leaf_weight=8219 44601 13022 17230 61 50 110 8914 60 51 56 883 68 78 58 75 206 88 1015 459 1453 540 64 180 186 91 81 740 72 75 71 693 96 242 2311 453 436 3528 61 50 61 71 50 143 108 194 614 67 83 60 74 79 63 611 52 107 254 56 52 93 52 52 276 59
leaf_count=8219 44601 13022 17230 61 50 110 8914 60 51 56 883 68 78 58 75 206 88 1015 459 1453 540 64 180 186 91 81 740 72 75 71 693 96 242 2311 453 436 3528 61 50 61 71 50 143 108 194 614 67 83 60 74 79 63 611 52 107 254 56 52 93 52 52 276 59
internal_value=-3.84467e-07 -4.8356e-05 -7.38676e-05 -0.000116566 -0.000433488 4.00538e-05 0.000115552 8.23427e-05 -0.00111036 0.000396618 -0.000394063 9.30201e-05 0.000345615 -9.38522e-05 -0.000162932 -0.000621176 -0.000834257 1.67118e-05 8.48097e-05 -2.44956e-05 -8.08265e-05 -0.000353834 -0.000387257 0.000400417 0.000340944 0.000885472 0.000252913 0.000357056 0.00103432 -0.000144322 7.80315e-05 0.000694729 -0.00016872 -0.000185182 -0.000114004 -0.000281044 -0.00014576 -0.000514608 -0.00117398 -0.000418529 0.000195007 0.000693779 -9.82038e-05 -5.81782e-05 0.000319734 0.000112913 0.000838999 -0.00018895 -0.000512705 -0.000437602 -7.20509e-06 0.000453507 7.15695e-05 -0.000304742 -0.000423876 -9.33743e-05 0.000233016 -0.000141558 0.000623516 0.000320306 0.000299345 -0.000205862 9.4782e-05
internal_weight=110058 50340 41510 28488 1904 59718 14102 12613 111 1489 1854 12502 1433 26584 9052 352 294 45616 12367 3453 2942 1793 1729 1355 1245 172 1073 887 147 8700 860 167 7840 7501 4306 3195 4064 884 111 773 339 125 214 17532 302 1154 135 3611 712 652 216 137 8830 1549 990 559 305 156 149 104 511 1788 335
internal_count=110058 50340 41510 28488 1904 59718 14102 12613 111 1489 1854 12502 1433 26584 9052 352 294 45616 12367 3453 2942 1793 1729 1355 1245 172 1073 887 147 8700 860 167 7840 7501 4306 3195 4064 884 111 773 339 125 214 17532 302 1154 135 3611 712 652 216 137 8830 1549 990 559 305 156 149 104 511 1788 335
is_linear=0
shrinkage=0.05


Tree=10
num_leaves=64
num_cat=0
split_feature=4 7 7 4 8 2 3 4 4 8 0 4 8 3 1 0 8 7 2 1 2 0 3 8 7 3 4 7 4 3 0 0 1 8 0 8 7 7 8 4 3 8 3 4 2 8 3 0 1 0 4 3 2 2 2 0 4 0 8 1 8 1 0
split_gain=0.0716775 0.0811397 0.0372555 0.035929 0.0279762 0.0380481 0.0250349 0.0239866 0.0272916 0.0235504 0.0212845 0.0206543 0.0205389 0.0533465 0.0232559 0.0200294 0.0271325 0.0343044 0.033878 0.0262647 0.0231531 0.0226387 0.0236471 0.0342757 0.0224756 0.0199845 0.0332706 0.0217759 0.0217824 0.0200683 0.0185975 0.0184652 0.0212859 0.0184282 0.0191676 0.0175701 0.0165194 0.0187647 0.0420204 0.0685124 0.0302793 0.0229172 0.021054 0.0297086 0.026705 0.0229188 0.0233118 0.0322723 0.0204628 0.0371901 0.0202354 0.0178315 0.0164211 0.01901 0.0161084 0.0184927 0.0160773 0.0332375 0.0156606 0.0154632 0.0408558 0.0192348 0.0241442
threshold=-0.40555933117866511 1.1537747383117678 -0.766981542110443 -0.31940431892871851 -0.083961050957441316 -0.090455975383520112 -0.11449314281344412 0.13407219201326373 -0.051714045926928513 -0.11305529251694678 -0.086966812610626207 0.30163083970546728 -0.10152594000101088 -0.11918431147933005 -0.11001724004745482 -0.10938992351293562 -0.077592067420482622 -2.4402524232864375 -0.07720268145203589 -0.11049866303801535 -0.11254216730594634 -0.10267680510878562 -0.041443029418587678 1.0000000180025095e-35 -1.4056073427200315 -0.11397910118103026 0.10899829864501955 -1.171312093734741 0.56776005029678356 -0.11620564758777617 -0.11215702816843985 -0.099961191415786729 -0.092870637774467454 -0.051715804263949387 -0.097089294344186769 -0.10606922581791876 1.1158862113952639 0.32932479679584509 -0.092885151505470262 -0.066605705767869935 -0.11305021122097968 -0.08548670262098311 -0.10039420425891875 -0.28247204422950739 -0.082668032497167573 -0.10778528079390524 -0.116072129458189 -0.11752712726593016 -0.049107676371932023 -0.077150955796241746 -0.39448289573192591 -0.1169241890311241 -0.12197621539235114 -0.12282167747616766 -0.11730744317173956 -0.11629403010010718 0.08497097343206407 -0.098858956247568117 -0.097480759024620042 -0.085557274520397172 -0.065911926329135881 -0.10381726548075675 -0.10704391822218894
decision_type=2 2 2 2 2 2 2 2 2 2 2 2 2 2 2 2 2 2 2 2 2 2 2 2 2 2 2 2 2 2 2 2 2 2 2 2 2 2 2 2 2 2 2 2 2 2 2 2 2 2 2 2 2 2 2 2 2 2 2 2 2 2 2
left_child=-1 2 3 6 -3 11 35 8 10 -4 -7 -6 14 -14 -5 19 31 18 33 20 25 -19 23 -23 -25 27 -27 54 29 -29 -22 -17 -33 34 -18 -2 37 38 -11 40 -40 42 45 -44 -45 -39 47 52 49 59 -42 -49 53 -47 -15 -56 -43 -58 -54 60 61 62 -41
right_child=1 4 9 12 5 7 -8 -9 -10 36 -12 -13 13 15 -16 16 17 21 -20 -21 30 22 -24 24 -26 26 -28 28 -30 -31 -32 32 -34 -35 -36 -37 -38 41 39 48 50 56 43 44 -46 46 -48 51 -50 -51 -52 -53 58 -55 55 -57 57 -59 -60 -61 -62 -63 -64
leaf_value=9.7079016746022236e-05 8.8595319553575131e-05 6.8472435458116307e-05 0.00011362149267354668 -9.9180691129275333e-05 0.00045847848904551351 -0.00050661519425539451 1.4480754864519122e-05 -0.00082158241716642235 0.001097780704233293 -1.0956500936540395e-05 0.00018395511463229793 0.0012557731556525041 -0.0013805034922642308 -0.001000352539715375 0.00043407583508375206 0.00014811330509939045 -0.00036013877926586524 -0.0010909130037968376 0.00084112569438871132 -0.00090173708262382987 0.00090568845013059857 -0.00029016373442367711 -0.00070865432388386869 0.0012647285710134712 -0.00013361945071003654 -0.00016564430934699136 -0.0014104854913424341 0.00050455630029318851 0.0010633906099918441 -0.00076383329605540405 -9.51139024261774e-05 -0.00040399587522301774 7.377639184982679e-05 -0.00069475447744105296 0.00091805386140053592 0.0013595729909260021 -0.00034365749727683839 -4.5689008288757751e-05 0.0009882398846485349 -0.00071772514662640156 4.7537832488116097e-05 0.00014036614753153498 -6.3087429689464905e-05 -0.00070165057345650272 0.00041272904927609489 -9.6462290948404684e-06 2.7961954978099602e-05 0.00092468674820423498 -0.0015433650099197999 0.00055604889477965322 -0.00012627225443702118 0.00032989844845267215 -1.2303105618513539e-05 0.0011924717610236257 0.00037070077014504936 -0.0005535786134281634 0.00032333727393081785 -0.0014085235215972325 0.00080063228490452913 -0.0014135758392027735 0.00046619252923839322 -0.0011612130969380773 0.00046659206564072522
leaf_weight=16161 50 3464 3370 4176 882 121 2964 62 75 40152 1310 89 96 103 214 963 62 95 128 198 58 1446 300 60 54 102 113 59 51 64 217 463 468 96 54 59 395 6366 64 215 2054 4162 2147 344 63 62 4246 213 52 71 9053 311 993 69 79 167 60 50 62 59 81 173 53
leaf_count=16161 50 3464 3370 4176 882 121 2964 62 75 40152 1310 89 96 103 214 963 62 95 128 198 58 1446 300 60 54 102 113 59 51 64 217 463 468 96 54 59 395 6366 64 215 2054 4162 2147 344 63 62 4246 213 52 71 9053 311 993 69 79 167 60 50 62 59 81 173 53
internal_value=-1.7982e-07 -1.69194e-05 -2.90663e-05 -0.000107342 0.000160917 0.000286963 4.1974e-05 0.0001345 0.000174379 -1.55292e-05 0.00012525 0.000532774 -0.000153755 -0.00021816 -7.3093e-05 -0.000197244 -0.000145407 -0.000260968 0.000202106 -0.00037629 -0.000272798 -0.000341564 -0.000302726 -0.000224259 0.000606951 -0.000418563 -0.000823411 -0.00025088 0.00020526 -0.000156256 0.000118481 -5.3149e-06 -0.000164005 -0.000185854 0.000237643 0.000782661 -2.1612e-05 -1.982e-05 -3.53947e-05 -0.000118018 -8.78395e-05 2.24976e-05 -6.8177e-06 -0.000137443 -0.000528566 2.02661e-05 9.07574e-05 0.000246573 -0.000596076 -0.000518277 -9.41284e-05 0.000572974 0.000102002 0.000627768 -0.000478234 -0.000256458 0.000124557 -0.00046947 3.61842e-05 -0.000650293 -0.000561484 -0.000750868 -0.000482649
internal_weight=110063 93902 87899 12959 6003 2539 3073 1568 1506 74940 1431 971 9886 5496 4390 5400 4189 2295 340 1211 1013 1955 1860 1560 114 738 215 523 174 123 275 1894 931 212 116 109 71570 71175 52027 11875 11171 19148 14876 2554 407 12322 5956 1710 704 652 11107 524 1186 131 349 246 4272 110 1055 581 522 441 268
internal_count=110063 93902 87899 12959 6003 2539 3073 1568 1506 74940 1431 971 9886 5496 4390 5400 4189 2295 340 1211 1013 1955 1860 1560 114 738 215 523 174 123 275 1894 931 212 116 109 71570 71175 52027 11875 11171 19148 14876 2554 407 12322 5956 1710 704 652 11107 524 1186 131 349 246 4272 110 1055 581 522 441 268
is_linear=0
shrinkage=0.05


Tree=11
num_leaves=64
num_cat=0
split_feature=4 5 8 5 8 4 5 8 4 8 4 5 0 5 8 3 8 0 8 0 8 8 8 5 4 5 5 5 1 4 8 0 8 8 5 4 0 5 5 8 8 8 4 0 2 0 8 5 5 8 8 4 8 4 5 3 5 4 5 5 3 1 4
split_gain=0.06469 0.0447898 0.0293457 0.0234454 0.0288327 0.0358328 0.136468 0.0484758 0.0375176 0.0324697 0.0233188 0.0311928 0.0217846 0.0214295 0.0212169 0.0201461 0.0340997 0.0185537 0.0342259 0.0318293 0.0245593 0.0210898 0.018579 0.0168258 0.0282178 0.0166767 0.0153438 0.0144149 0.020191 0.0245092 0.0182457 0.0424093 0.0215745 0.0165974 0.0151321 0.0235851 0.0141228 0.0139805 0.0139345 0.0138182 0.0235125 0.0138648 0.031749 0.0137711 0.0281345 0.0200595 0.0271223 0.0234975 0.0196996 0.0167863 0.0156246 0.014147 0.0137293 0.0135333 0.0130164 0.019518 0.0128994 0.0128318 0.0127224 0.0123464 0.0155166 0.0295662 0.0132338
threshold=-0.40555933117866511 0.5830669403076173 -0.11305529251694678 -1.0146437287330625 0.1982485502958298 -0.22627464681863782 -3.3715296983718868 -0.10888170078396796 1.1500102877616885 -0.087349191308021532 0.87661176919937145 0.82063075900077831 -0.10063208267092703 -0.31630603969097132 -0.080355223268270479 -0.035331381484866135 -0.031519461423158639 -0.11108050122857092 -0.1003088168799877 -0.12238243222236632 -0.10713008791208266 -0.10947994887828826 -0.10484620183706282 -1.5550993680953977 0.096491906791925444 -2.700176358222961 1.7347468137741091 0.90587988495826732 -0.11549453064799307 -0.0088460901752114279 -0.083961050957441316 -0.098858956247568117 -0.081630401313304887 -0.070964582264423356 1.0557252168655398 -0.28903122246265406 -0.12510075420141217 -0.82826346158981312 0.71215590834617626 0.1982485502958298 0.14026114344596866 -0.070964582264423356 -0.36023730039596552 -0.088491138070821748 -0.08079261332750319 -0.10704391822218894 -0.10227521881461142 -3.3715296983718868 -2.3604378700256343 -0.098241727799177156 -0.091075181961059556 -0.14184485375881192 -0.085009403526782976 -0.36023730039596552 0.55996528267860424 -0.09926524385809897 1.8626695275306704 4.9991202354431161 -1.0146437287330625 -1.5550993680953977 -0.1146457903087139 -0.10316901654005049 -0.32884779572486872
decision_type=2 2 2 2 2 2 2 2 2 2 2 2 2 2 2 2 2 2 2 2 2 2 2 2 2 2 2 2 2 2 2 2 2 2 2 2 2 2 2 2 2 2 2 2 2 2 2 2 2 2 2 2 2 2 2 2 2 2 2 2 2 2 2
left_child=54 2 37 4 5 6 -4 -7 15 25 27 38 14 36 59 16 43 18 19 21 -21 -13 -22 24 -18 -10 -23 -3 -29 30 -30 32 -32 -34 35 53 -5 58 -12 40 41 -38 -43 45 -45 46 -9 -47 -48 -50 -51 -46 -52 -33 -1 -56 -57 -27 -2 60 -8 -62 -61
right_child=1 10 3 13 -6 7 12 8 9 -11 11 17 -14 -15 -16 -17 23 -19 -20 20 22 26 -24 -25 -26 57 -28 28 29 -31 31 34 33 -35 -36 -37 39 -39 -40 -41 -42 42 -44 44 51 47 48 -49 49 50 52 -53 -54 -55 55 56 -58 -59 -60 62 61 -63 -64
leaf_value=7.6184675896699992e-05 9.4623847278098598e-05 2.4867761860106134e-05 0.002497528469010087 -0.0003985286122481892 -0.00073149402379588905 9.8432258354860368e-05 0.0011985620163064803 -0.0001167147146792982 -3.4912913225782224e-06 -0.0018231977306506317 3.5021037828249151e-06 -0.00027264024366070125 -0.00010468306894987717 -4.6021687455074907e-05 0.0010835876126938889 -0.001133774808238678 0.00014864878920932477 -0.0012036495432017973 0.00048886243258089554 -0.0011784345446104927 0.00030515865352451026 -4.3510346762504373e-05 -0.00073098115064250467 -0.00023680534151096185 0.0015955062037774999 -0.0008228329872457963 0.0010850696494214521 0.0002532110738143498 8.7431685058324623e-06 -0.00020539256462379055 0.0015799064684415499 0.00044015711553990956 0.00023312906490548726 0.0011229819841867084 7.0112538534174322e-05 0.001018869596867132 3.927545530977608e-05 9.5666449264879505e-05 0.00060009628492714616 0.00051848125039338528 -0.00094621759292042246 9.3489547128735749e-05 -0.00025673900623937612 -0.0010256652481035395 -0.00060422208902162662 0.00097813640165616547 -0.0010211962782217066 -7.1652021400897504e-05 -0.00069827334321060979 0.00021063816837868805 -0.0010969573294805114 0.00019201256076257779 2.7149804429007842e-05 -0.00017543365613754765 -0.00042522932397512885 0.00029413676831834597 -0.00027583967207904622 -9.0922165351609393e-05 0.001169323628222998 -0.00032285980310395768 -0.00029554634751512274 0.0011817313882513155 0.00017120534539058366
leaf_weight=14332 52 6600 54 201 187 1103 52 841 116 53 245 410 2075 48290 61 57 83 50 143 157 71 65 108 64 56 319 55 2210 2272 684 63 218 154 79 1962 111 15514 3149 162 138 62 1264 1324 158 98 56 163 821 229 154 57 127 51 150 110 1614 105 74 58 198 100 50 424
leaf_count=14332 52 6600 54 201 187 1103 52 841 116 53 245 410 2075 48290 61 57 83 50 143 157 71 65 108 64 56 319 55 2210 2272 684 63 218 154 79 1962 111 15514 3149 162 138 62 1264 1324 158 98 56 163 821 229 154 57 127 51 150 110 1614 105 74 58 198 100 50 424
internal_value=-1.71283e-07 -1.6074e-05 -3.17056e-05 -3.81158e-05 -0.000119673 -0.00010471 2.97445e-05 -0.000191288 -0.000280629 -0.000655394 6.02093e-05 -0.000129771 -1.61042e-05 -2.84911e-05 0.000191464 -0.000210578 -0.000192411 -0.00027269 -0.000225411 -0.000343784 -0.000723733 -0.000102002 -0.000320586 0.000431559 0.000738788 -0.000530459 0.000478448 7.94206e-05 0.00012497 7.51519e-05 0.000113495 0.000200415 0.000764605 0.000538349 0.000131715 0.000383369 1.7261e-05 0.000115139 0.000241856 2.18489e-05 1.80475e-05 2.14022e-05 -8.57145e-05 -0.000238527 -0.000516461 -0.000193451 -0.000304756 -3.58108e-06 -0.000546018 -0.000386516 -0.000112406 -0.000155931 -0.00057075 0.000189442 9.22254e-05 0.00021781 0.000259181 -0.000685598 0.000666713 0.000124188 0.000462768 0.000201445 1.36648e-05
internal_weight=110063 93902 77933 74674 7881 7694 3014 4680 3577 562 15969 1466 2960 66793 885 3015 2958 1059 1009 866 336 530 179 203 139 509 120 14503 7903 5693 5009 2737 296 233 2441 479 18503 3259 407 18302 18164 18102 2588 2755 383 2372 1495 877 654 491 262 225 108 368 16161 1829 1719 393 110 824 202 150 622
internal_count=110063 93902 77933 74674 7881 7694 3014 4680 3577 562 15969 1466 2960 66793 885 3015 2958 1059 1009 866 336 530 179 203 139 509 120 14503 7903 5693 5009 2737 296 233 2441 479 18503 3259 407 18302 18164 18102 2588 2755 383 2372 1495 877 654 491 262 225 108 368 16161 1829 1719 393 110 824 202 150 622
is_linear=0
shrinkage=0.05


Tree=12
num_leaves=64
num_cat=0
split_feature=4 7 5 6 6 5 5 5 7 2 4 5 7 6 5 8 5 6 8 5 8 4 5 4 6 7 4 5 4 6 7 7 5 7 2 8 4 2 8 5 5 2 6 6 8 0 8 5 0 8 0 8 8 7 4 4 5 4 7 8 7 8 8
split_gain=0.0586933 0.0726216 0.0764625 0.0386583 0.0395166 0.0407686 0.0371512 0.0323527 0.0349752 0.0312112 0.0403691 0.0301588 0.0286773 0.0271488 0.0271222 0.0300859 0.027119 0.0311528 0.0317215 0.0297111 0.0270151 0.0537491 0.0360583 0.0265632 0.0248693 0.0252467 0.0239406 0.0237927 0.0237283 0.0227582 0.0200383 0.0200313 0.0239113 0.0236503 0.0453564 0.0272066 0.0307954 0.0209451 0.0277239 0.0234532 0.0195917 0.0192107 0.0218484 0.0252669 0.0189269 0.0254654 0.0192858 0.0262388 0.0255817 0.0174338 0.0452218 0.0192458 0.0172995 0.0166922 0.0192061 0.0235102 0.0169872 0.0241652 0.0163954 0.0163234 0.0217467 0.0162611 0.0160838
threshold=-0.40194995701313013 1.1537747383117678 -0.58600118756294239 -0.3013091087341308 -0.38620573282241816 1.7347468137741091 0.037876673042774207 1.617749094963074 -0.43901200592517847 -0.12197621539235114 0.72395047545433056 1.1727151274681094 1.0487844944000246 2.5051405429840092 0.82063075900077831 0.38674119114875799 -0.84785616397857655 -0.58874717354774464 -0.11032455787062644 -1.0453696250915525 -0.10525806993246077 0.77398696541786205 0.72843876481056224 1.2364971637725832 -1.5847653746604917 1.7529536485671999 -0.23296745121479032 2.3010838031768803 -0.18463582545518872 1.6205741167068484 -0.3721583485603332 -0.57649645209312428 -0.80867591500282276 -2.9244879484176631 -0.096627470105886445 -0.077592067420482622 0.2431379705667496 -0.10799795389175414 -0.10410146787762641 -2.700176358222961 1.0557252168655398 -0.11438805982470511 0.41243374347686773 0.033548859879374511 -0.091075181961059556 -0.12016540020704268 -0.1003088168799877 -1.4810222387313841 -0.11572665348649024 -0.097996678203344331 -0.105184618383646 -0.092538308352231965 -0.091821823269128786 0.11311613768339158 -0.24869520217180249 -0.35204716026782984 -1.4150245785713194 -0.2230584844946861 -2.1583940982818599 -0.021734436973929402 1.473644018173218 -0.09607424214482306 -0.049896065145730965
decision_type=2 2 2 2 2 2 2 2 2 2 2 2 2 2 2 2 2 2 2 2 2 2 2 2 2 2 2 2 2 2 2 2 2 2 2 2 2 2 2 2 2 2 2 2 2 2 2 2 2 2 2 2 2 2 2 2 2 2 2 2 2 2 2
left_child=-1 7 -3 4 24 52 -5 8 11 -9 12 20 41 26 15 16 17 30 -19 53 22 31 29 -16 -4 27 59 -26 40 -2 -10 32 33 34 -22 37 -37 38 -35 -39 -28 -11 43 -43 45 -23 48 -48 -47 -27 51 -51 -6 54 55 -20 -55 -58 -46 -8 -61 -56 -52
right_child=1 2 3 6 5 -7 13 9 14 10 -12 -13 -14 -15 23 -17 -18 18 19 -21 21 44 -24 -25 25 49 28 -29 -30 -31 -32 -33 -34 35 -36 36 -38 39 -40 -41 -42 42 -44 -45 58 46 47 -49 -50 50 62 -53 -54 56 61 -57 57 -59 -60 60 -62 -63 -64
leaf_value=8.1547180191006847e-05 -3.0428049739926398e-05 0.0011477690185252129 -0.00084780324128327532 0.00035049217038411951 -0.00016206042583527885 0.0018094095069197164 5.3980970845315844e-06 0.000499545371712884 0.00033974930416106166 0.00063271527432666593 -0.0016863229720250027 -0.0010018457292145205 -0.0011220858001601153 -0.0010771529270298915 0.00013323612986866832 -0.0010594103711427771 -2.0395229445566822e-05 0.0012695644141703351 -0.00052145237890986859 0.00057645128488906965 -0.00042577666131870097 -0.00097493143498536159 0.00099429551647820815 -0.00031896785526494092 0.000135770090206719 0.00010567651408920306 -0.00030615942456155786 -0.00063242276979892285 -0.00014417134333536739 0.00037473849774030113 -0.00032242407608399097 -0.0002170571790828137 5.401845120306309e-06 0.00034079478686372137 0.0009451792280663002 -0.00025152636480079099 -0.0011903603920702833 0.0010156239606537081 -0.00035780399847062179 1.0431675364227627e-05 -0.0014848090687792138 -0.00039994974750221619 -0.0010202329329682053 0.00075469060728650995 -0.0013376239027880201 -3.7833353606601284e-05 -0.00054245423457905425 0.00048057309616394506 -0.0010001682253266953 0.00054622168549233016 3.6804044409750463e-05 0.0015024326492264798 0.00091079632912647538 0.001076052393282539 -0.00015655270664345674 0.00063861031926385446 0.00070760834441898626 -0.00069522556416706143 -0.00046942079738389867 0.0012829960988564116 0.00015175420287555195 -0.0013812378250467763 0.00056825652102802525
leaf_weight=18319 7664 186 55 570 72 77 902 85 166 62 65 87 98 68 4872 68 55234 87 83 420 107 133 89 347 1340 367 80 108 973 362 361 2552 6123 170 136 2235 90 59 841 1767 63 167 82 65 106 145 99 167 131 89 304 134 77 57 55 90 63 58 114 61 136 53 267
leaf_count=18319 7664 186 55 570 72 77 902 85 166 62 65 87 98 68 4872 68 55234 87 83 420 107 133 89 347 1340 367 80 108 973 362 361 2552 6123 170 136 2235 90 59 841 1767 63 167 82 65 106 145 99 167 131 89 304 134 77 57 55 90 63 58 114 61 136 53 267
internal_value=-1.6152e-07 -1.64774e-05 0.000152749 0.000120328 0.000249186 0.00088258 -1.02423e-05 -2.8171e-05 -2.55411e-05 -0.000386597 -0.000527008 -7.79443e-05 -0.000364814 -0.000100421 -5.9551e-06 -1.59794e-05 -1.47099e-05 0.000195492 0.000364059 0.000273095 -7.44199e-05 -0.00011423 -9.50509e-07 0.000103115 0.000195141 0.000217444 -6.99635e-05 7.8077e-05 -0.00023299 -1.21092e-05 -0.000113597 -9.03281e-05 -6.22572e-05 -0.000138891 0.000342236 -0.000161602 -0.000288364 -5.76513e-05 -0.000240114 4.34486e-05 -0.00083213 -0.000164987 -0.000324004 -7.46008e-05 -0.000489738 -0.000357538 -0.000204521 9.92167e-05 -0.000496556 0.000391046 0.000522649 0.00112495 0.000394745 -5.13607e-06 -0.000244831 8.22502e-05 0.000372512 3.49887e-05 -0.000891897 9.5646e-05 0.000506748 -0.000764714 0.000285871
internal_weight=110063 91744 5929 5743 2890 226 2853 85815 85191 624 539 23177 474 2283 62014 56795 56727 1493 966 879 23090 14975 8115 5219 2664 2609 2215 1448 1116 8026 527 14080 11528 5405 243 5162 2325 2837 1011 1826 143 376 314 232 895 675 542 266 276 1161 794 223 149 459 281 173 178 121 220 1099 197 108 571
internal_count=110063 91744 5929 5743 2890 226 2853 85815 85191 624 539 23177 474 2283 62014 56795 56727 1493 966 879 23090 14975 8115 5219 2664 2609 2215 1448 1116 8026 527 14080 11528 5405 243 5162 2325 2837 1011 1826 143 376 314 232 895 675 542 266 276 1161 794 223 149 459 281 173 178 121 220 1099 197 108 571
is_linear=0
shrinkage=0.05


Tree=13
num_leaves=64
num_cat=0
split_feature=4 7 5 6 6 5 5 5 7 2 4 5 7 5 5 6 7 6 6 5 6 7 5 5 4 6 5 4 7 4 5 4 2 6 6 4 5 6 6 7 4 6 6 7 6 4 5 7 4 6 4 5 0 2 5 4 7 2 4 7 4 6 4
split_gain=0.0530731 0.063451 0.0693768 0.0347017 0.0335719 0.0331624 0.0324272 0.031674 0.0323101 0.0289097 0.0356847 0.027328 0.0265843 0.0257223 0.0271779 0.0883751 0.0248924 0.0245931 0.0232917 0.0263297 0.0224084 0.0228169 0.028421 0.0215152 0.0755882 0.0365383 0.0300151 0.0212992 0.0203404 0.0193996 0.0202714 0.0190651 0.0179382 0.0208153 0.0220555 0.0175965 0.0168349 0.016508 0.0186364 0.0164195 0.0284281 0.0378189 0.0241676 0.0277055 0.0258011 0.0212911 0.0209976 0.045148 0.0336211 0.0154876 0.0150376 0.0146932 0.0150259 0.0146252 0.0306823 0.0243969 0.015413 0.0145835 0.0145582 0.0141559 0.014092 0.0173125 0.0202655
threshold=-0.40555933117866511 1.1537747383117678 -0.58600118756294239 -0.3013091087341308 -0.38620573282241816 1.7347468137741091 -0.053870564326643937 1.617749094963074 -0.43901200592517847 -0.12197621539235114 0.72395047545433056 1.1727151274681094 1.0487844944000246 0.78114542365074169 -0.31630603969097132 -0.13012550026178357 -0.2853566706180572 2.5051405429840092 -0.057983174920082085 0.1982410475611687 -1.5847653746604917 2.2655960321426396 2.666130900382996 -3.3715296983718868 -0.24246145039796826 -0.80503705143928517 -0.86834743618965138 -0.23296745121479032 0.19555909931659701 -0.18463582545518872 1.0557252168655398 2.1035922765731816 -0.11438805982470511 0.41243374347686773 0.033548859879374511 0.42050166428089147 0.19226264953613284 -0.51412394642829884 -1.3306277990341184 -1.5376252532005308 0.77398696541786205 -1.3306277990341184 -0.025338046252727505 -1.4682521224021909 -0.48227298259735102 -0.35204716026782984 -1.5550993680953977 -0.78352576494216908 -0.10063224658370017 -1.444228410720825 -0.0088460901752114279 0.49507948756217962 -0.094649817794561372 -0.10481398925185202 -0.82826346158981312 0.2431379705667496 -0.34983968734741205 -0.097841288894414888 -0.15741814672946927 -0.85794422030448902 0.44800479710102087 -0.66595703363418568 -0.19691821187734601
decision_type=2 2 2 2 2 2 2 2 2 2 2 2 2 2 2 2 2 2 2 2 2 2 2 2 2 2 2 2 2 2 2 2 2 2 2 2 2 2 2 2 2 2 2 2 2 2 2 2 2 2 2 2 2 2 2 2 2 2 2 2 2 2 2
left_child=-1 7 -3 4 20 -6 -5 8 11 -9 12 23 32 14 15 -10 -15 27 19 58 -4 22 -22 24 -2 31 39 -8 -21 30 -29 35 -11 34 -34 -26 -20 38 -23 40 -25 -42 43 -41 46 -44 47 -45 -49 -48 51 -31 -53 54 -17 56 -56 -52 -16 -46 61 -51 -63
right_child=1 2 3 6 5 -7 17 9 13 10 -12 -13 -14 16 18 53 -18 -19 36 28 21 37 -24 26 25 -27 -28 29 -30 50 -32 -33 33 -35 -36 -37 -38 -39 -40 42 41 -43 45 44 59 -47 49 48 -50 60 57 52 -54 -55 55 -57 -58 -59 -60 -61 -62 62 -64
leaf_value=8.3535966337925348e-05 0.0018132290673640778 0.0010906874604859668 -0.00080617003165701006 0.00037361162491570174 0.0003744751514198892 0.001635689902541344 9.4070348415242132e-05 0.00047485852467849161 -5.6692452296288617e-05 0.00060158164412155569 -0.00160328437182629 -0.0009523226704914123 -0.0010870027953965291 -0.00055945826249408635 -7.7980838904210403e-05 0.00079618571230531004 0.00011062534660758656 -0.00093992608991008892 -2.809527808089299e-05 0.00020770771753926675 0.00017132126113196029 -0.00016021582158850281 -0.00058800437289557362 -0.00016942318457731831 0.00015058085799850575 -0.00096409530841554407 -3.333915919097737e-05 -0.00023023341309030807 3.0716354630926427e-05 0.00076215904434987663 -0.0014117286158125354 -0.00055861848264208275 -0.00038263649654896547 -0.0009975750518996004 0.00068855277381432527 0.0011393610134421449 -0.0001090946998185988 -0.00034420530822083903 0.00065479081369587829 0.00038659155654497638 0.0003176789522106621 -0.00079241963002984876 -0.00043107482346628478 -4.8256439763981469e-05 -0.00066504413292613239 0.00052987313997999378 0.00018172639379902684 0.0015277612551323919 -7.1949226548895243e-05 -0.00030175308703582482 -0.00018711379641720924 -0.00024470861712325132 0.00063551415585152429 0.00012676530975816357 -0.00022428780041458408 -9.2700814324042337e-05 0.00037334569960695264 -0.00097027495951007244 3.6504675200942915e-05 -0.00017352010885369963 -9.7244004570916743e-07 0.00035264976826928322 -0.00041493273674063033
leaf_weight=16161 67 186 55 461 152 79 1197 85 6623 62 65 87 99 141 7951 292 5814 80 15295 2196 1860 81 131 1683 127 77 14839 85 6218 74 63 53 169 83 66 69 11049 57 506 244 93 425 74 938 358 250 282 85 53 2417 609 199 63 1759 115 417 1607 65 4266 249 691 230 136
leaf_count=16161 67 186 55 461 152 79 1197 85 6623 62 65 87 99 141 7951 292 5814 80 15295 2196 1860 81 131 1683 127 77 14839 85 6218 74 63 53 169 83 66 69 11049 57 506 244 93 425 74 938 358 250 282 85 53 2417 609 199 63 1759 115 417 1607 65 4266 249 691 230 136
internal_value=-1.54246e-07 -1.45585e-05 0.000142703 0.000112209 0.000233776 0.000810991 -1.04468e-05 -2.53e-05 -2.27496e-05 -0.000378557 -0.00051253 -7.28254e-05 -0.000361484 -4.26622e-06 -1.44628e-05 5.70032e-05 9.46681e-05 -8.32812e-05 -3.09141e-05 8.87072e-06 0.000183926 0.00020489 0.000121091 -6.95206e-05 0.000296864 -1.93737e-05 -7.57808e-05 -5.37941e-05 7.69292e-05 -0.000206588 -0.000739266 0.000275457 -0.00017011 -0.00032198 -8.0149e-05 0.000502688 -6.20703e-05 0.000463376 0.000542247 -0.000152496 -0.000269309 -0.000592888 -0.000109658 -0.00013362 -0.000157024 0.000309746 -0.000118369 7.63133e-05 0.000917282 -0.000174146 -0.000127878 0.000145083 -3.14404e-05 0.000236689 0.000316141 0.000250268 0.000333327 -0.000263967 -3.80044e-05 -0.000464031 -0.000203078 -0.000253241 6.70744e-05
internal_weight=110063 93902 6003 5817 2921 231 2896 87899 87270 629 544 23527 479 63743 57788 10813 5955 2435 46975 20631 2690 2635 1991 23440 393 326 23047 2355 8414 1158 148 249 380 318 235 196 26344 644 587 8208 2201 518 6007 5683 5439 324 4832 1076 138 3756 1010 336 262 4190 2431 2139 1722 674 12217 607 3474 2783 366
internal_count=110063 93902 6003 5817 2921 231 2896 87899 87270 629 544 23527 479 63743 57788 10813 5955 2435 46975 20631 2690 2635 1991 23440 393 326 23047 2355 8414 1158 148 249 380 318 235 196 26344 644 587 8208 2201 518 6007 5683 5439 324 4832 1076 138 3756 1010 336 262 4190 2431 2139 1722 674 12217 607 3474 2783 366
is_linear=0
shrinkage=0.05


end of trees

feature_importances:
Column_8=172
Column_4=137
Column_5=131
Column_6=118
Column_7=102
Column_0=64
Column_2=58
Column_3=52
Column_1=48

parameters:
[boosting: gbdt]
[objective: regression]
[metric: l2]
[tree_learner: serial]
[device_type: cpu]
[data_sample_strategy: bagging]
[data: ]
[valid: ]
[num_iterations: 1200]
[learning_rate: 0.05]
[num_leaves: 64]
[num_threads: 0]
[seed: 0]
[deterministic: 0]
[force_col_wise: 0]
[force_row_wise: 0]
[histogram_pool_size: -1]
[max_depth: -1]
[min_data_in_leaf: 50]
[min_sum_hessian_in_leaf: 0.001]
[bagging_fraction: 0.8]
[pos_bagging_fraction: 1]
[neg_bagging_fraction: 1]
[bagging_freq: 5]
[bagging_seed: 3]
[bagging_by_query: 0]
[feature_fraction: 0.8]
[feature_fraction_bynode: 1]
[feature_fraction_seed: 2]
[extra_trees: 0]
[extra_seed: 6]
[early_stopping_round: 0]
[early_stopping_min_delta: 0]
[first_metric_only: 0]
[max_delta_step: 0]
[lambda_l1: 0]
[lambda_l2: 1]
[linear_lambda: 0]
[min_gain_to_split: 0]
[drop_rate: 0.1]
[max_drop: 50]
[skip_drop: 0.5]
[xgboost_dart_mode: 0]
[uniform_drop: 0]
[drop_seed: 4]
[top_rate: 0.2]
[other_rate: 0.1]
[min_data_per_group: 100]
[max_cat_threshold: 32]
[cat_l2: 10]
[cat_smooth: 10]
[max_cat_to_onehot: 4]
[top_k: 20]
[monotone_constraints: ]
[monotone_constraints_method: basic]
[monotone_penalty: 0]
[feature_contri: ]
[forcedsplits_filename: ]
[refit_decay_rate: 0.9]
[cegb_tradeoff: 1]
[cegb_penalty_split: 0]
[cegb_penalty_feature_lazy: ]
[cegb_penalty_feature_coupled: ]
[path_smooth: 0]
[interaction_constraints: ]
[verbosity: -1]
[saved_feature_importance_type: 0]
[use_quantized_grad: 0]
[num_grad_quant_bins: 4]
[quant_train_renew_leaf: 0]
[stochastic_rounding: 1]
[linear_tree: 0]
[max_bin: 255]
[max_bin_by_feature: ]
[min_data_in_bin: 3]
[bin_construct_sample_cnt: 200000]
[data_random_seed: 1]
[is_enable_sparse: 1]
[enable_bundle: 1]
[use_missing: 1]
[zero_as_missing: 0]
[feature_pre_filter: 1]
[pre_partition: 0]
[two_round: 0]
[header: 0]
[label_column: ]
[weight_column: ]
[group_column: ]
[ignore_column: ]
[categorical_feature: ]
[forcedbins_filename: ]
[precise_float_parser: 0]
[parser_config_file: ]
[objective_seed: 5]
[num_class: 1]
[is_unbalance: 0]
[scale_pos_weight: 1]
[sigmoid: 1]
[boost_from_average: 1]
[reg_sqrt: 0]
[alpha: 0.9]
[fair_c: 1]
[poisson_max_delta_step: 0.7]
[tweedie_variance_power: 1.5]
[lambdarank_truncation_level: 30]
[lambdarank_norm: 1]
[label_gain: ]
[lambdarank_position_bias_regularization: 0]
[eval_at: ]
[multi_error_top_k: 1]
[auc_mu_weights: ]
[num_machines: 1]
[local_listen_port: 12400]
[time_out: 120]
[machine_list_filename: ]
[machines: ]
[gpu_platform_id: -1]
[gpu_device_id: -1]
[gpu_use_dp: 0]
[num_gpu: 1]

end of parameters

pandas_categorical:null
