tree
version=v4
num_class=1
num_tree_per_iteration=1
label_index=0
max_feature_idx=8
objective=regression
feature_names=Column_0 Column_1 Column_2 Column_3 Column_4 Column_5 Column_6 Column_7 Column_8
feature_infos=[-0.1262245774269104:5] [-0.12638005614280701:5] [-0.12618394196033478:5] [-0.12627923488616943:5] [-0.43322253227233887:5] [-5:5] [-1.9980217218399048:5] [-5:5] [-0.11399253457784653:5]
tree_sizes=6104 6154 6162 6169 6214

Tree=0
num_leaves=64
num_cat=0
split_feature=4 8 4 6 7 7 6 4 3 3 0 6 7 0 3 3 8 6 1 8 3 1 0 8 6 6 7 0 4 3 7 0 7 6 7 4 0 7 7 7 1 0 8 7 0 4 8 4 6 7 6 7 3 4 0 4 1 0 0 8 3 6 8
split_gain=0.256122 0.228129 0.268592 0.125974 0.264485 0.112274 0.220371 0.0785075 0.073963 0.0673097 0.0629549 0.0625333 0.0648989 0.0595832 0.0579139 0.0629634 0.0686394 0.0544073 0.0528583 0.0515058 0.0487167 0.0454445 0.0449168 0.0472525 0.0430467 0.0600717 0.0667217 0.091959 0.0601516 0.0650182 0.0616837 0.0550225 0.0415092 0.0380853 0.0406051 0.0355506 0.045615 0.0346427 0.0345169 0.0337927 0.0305607 0.0463646 0.0299873 0.0538038 0.0344722 0.0287739 0.033394 0.0385959 0.0280956 0.142987 0.075967 0.033331 0.0280805 0.0263954 0.0258013 0.025398 0.0480143 0.0509565 0.0441603 0.0356689 0.0384426 0.0461665 0.0498783
threshold=-0.37706935405731196 -0.10572595521807669 -0.17467168718576428 -1.4651319980621336 -0.20301890373229978 -0.30229189991950983 -1.4651319980621336 0.89688143134117138 -0.12314379587769507 -0.10674751549959181 -0.11790679395198821 -1.5278682112693784 -2.0420684814453121 -0.1055789217352867 -0.02936791721731424 -0.058662189170718186 -0.070899721235036836 3.7127611637115483 -0.11504634842276572 -0.11282208189368247 -0.052344307303428643 -0.11616704240441321 -0.11954965442419051 -0.099721617996692644 -0.91076558828353871 0.41925553977489477 0.19816229492425921 -0.099901497364044176 0.060959441587328918 -0.10408026725053786 1.9042341709136965 -0.075000852346420274 -0.28860141336917872 2.6109715700149541 2.2368776798248295 1.1691052317619326 -0.12518054991960523 2.2368776798248295 -1.569784343242645 0.49232022464275366 -0.10247382149100302 -0.096032135188579545 -0.069110006093978868 -1.7551982998847959 -0.052308406680822365 -0.40557284653186793 0.054497202858328826 -0.41890786588191981 -0.59139314293861378 2.8129826784133916 -0.84376987814903248 3.8229299783706669 -0.11697741597890852 0.20257437974214557 -0.092949271202087388 0.20257437974214557 -0.12117261067032813 -0.12185754999518393 -0.12041088193655013 -0.07738910615444182 -0.11928949877619742 1.1131222844123843 -0.099950574338436113
decision_type=2 2 2 2 2 2 2 2 2 2 2 2 2 2 2 2 2 2 2 2 2 2 2 2 2 2 2 2 2 2 2 2 2 2 2 2 2 2 2 2 2 2 2 2 2 2 2 2 2 2 2 2 2 2 2 2 2 2 2 2 2 2 2
left_child=11 19 5 4 13 42 -7 14 -9 10 32 -1 -13 -4 15 16 55 45 52 -2 -17 -6 23 -8 53 26 27 -26 29 -28 -31 -29 -10 39 -35 -21 -37 -19 -20 -24 -27 -42 43 -3 -44 46 54 -48 49 -41 -51 -50 -12 -18 -14 56 57 -5 -58 60 -57 -62 -63
right_child=1 2 3 7 21 6 22 8 9 -11 18 12 17 -15 -16 20 24 37 38 35 -22 -23 33 -25 25 40 28 31 -30 30 -32 -33 -34 34 -36 36 -38 -39 -40 48 41 -43 44 -45 -46 -47 47 -49 51 50 -52 -53 -54 -55 -56 59 58 -59 -60 -61 61 62 -64
leaf_value=-0.00024809532784040222 0.001194242360624681 0.0016441224722720457 -1.8916482296821302e-05 0.00086591868446272762 -0.0032910860893263748 -0.0010282370990355465 0.0013568586961474937 -0.0012332380285508678 -0.00025753431377694845 -0.001022534100030304 0.00067046066510522469 0.0023524979213368426 0.0010529497433089448 0.0015792848210111035 -0.00081824568545156811 0.0024495303393930468 0.00075617858430548001 0.00079603891328609692 -0.00040413918889218442 0.0010391209593813163 0.0010504528773469888 -0.0012757781485756698 0.00098586588172834316 0.003080651440959703 -0.0016258220977749635 -0.00019461121208705248 0.0016804474126509094 0.00036273323332506561 0.0013735749590002419 0.00040642566557743537 -0.0014724972976226721 -0.0010201228253063769 0.00063259272931531448 0.00082528122580196575 -0.00080705262388191461 0.00030531266614117702 0.00092793726716280792 -0.0006057959184972725 0.00076453414627034337 0.0010804692929898062 0.0021804966834524371 0.00071365268367846102 0.00052305955333003704 0.00084925839305460501 0.00087621520507779097 0.0010854161531633293 0.0011442835680941245 0.00077253025771467003 0.0011703952474366132 0.00040251537903446537 -0.0021178622644136289 0.002135986402675922 0.0018736632567159612 0.0020705264132164034 0.001263064959127562 0.00023460164437096574 -0.00019328261824159781 0.0024049833224706577 0.00083793899968762704 -0.00036289732570359543 0.0007213162003514358 0.00073205162472394646 0.0029071436592951697
leaf_weight=81 4980 219 122 116 50 128 183 71 305 75 71 108 1738 110 58 88 143 123 80 29903 207 74 10102 50 101 55 50 326 150 111 72 92 231 120 55 325 3017 68 290 1604 71 213 1550 6619 1248 14490 3113 899 5105 70 52 90 149 51 9184 382 105 99 5122 84 1475 53 51
leaf_count=81 4980 219 122 116 50 128 183 71 305 75 71 108 1738 110 58 88 143 123 80 29903 207 74 10102 50 101 55 50 326 150 111 72 92 231 120 55 325 3017 68 290 1604 71 213 1550 6619 1248 14490 3113 899 5105 70 52 90 149 51 9184 382 105 99 5122 84 1475 53 51
internal_value=0.00100654 0.000958001 0.000871415 0.000661756 -0.000262125 0.00095548 0.00103074 0.000693058 0.000324793 0.000418688 0.0005164 0.00113084 0.00113464 0.000738051 0.000743631 0.000753657 0.00072988 0.00113015 0.000873169 0.0010443 0.00147127 -0.00211629 0.00104598 0.00173405 0.000413188 0.000304989 9.19169e-05 -0.00027713 0.000594053 9.27963e-05 -0.000342286 5.42588e-05 0.000124671 0.00103661 0.000304865 0.00102183 0.000867197 0.000291151 0.000508723 0.00104418 0.000872951 0.00108319 0.000818349 0.000874805 0.000680475 0.00113562 0.00118432 0.00106094 0.00112928 0.000954528 -0.000688423 0.00118734 0.00148559 0.00110538 0.00122964 0.000790651 0.000847154 0.00157779 0.000816998 0.00064044 0.000684095 0.000793259 0.00180661
internal_weight=106127 76323 38098 10903 356 27195 17559 10547 1272 1201 1126 29804 29723 232 9275 9217 8922 29615 590 38225 295 124 17431 233 1435 1241 902 519 383 233 183 418 536 17198 175 33245 3342 191 370 17023 339 284 9636 6838 2798 29424 14934 4012 6921 1726 122 5195 220 194 10922 7487 5442 215 5227 2045 1961 1579 104
internal_count=106127 76323 38098 10903 356 27195 17559 10547 1272 1201 1126 29804 29723 232 9275 9217 8922 29615 590 38225 295 124 17431 233 1435 1241 902 519 383 233 183 418 536 17198 175 33245 3342 191 370 17023 339 284 9636 6838 2798 29424 14934 4012 6921 1726 122 5195 220 194 10922 7487 5442 215 5227 2045 1961 1579 104
is_linear=0
shrinkage=1


Tree=1
num_leaves=64
num_cat=0
split_feature=5 5 7 6 5 4 8 5 7 6 7 5 5 2 7 7 6 8 0 4 6 5 5 7 6 7 8 2 8 8 5 4 4 5 8 6 6 5 8 6 6 7 0 4 8 4 6 5 7 8 4 6 7 6 4 7 4 8 8 5 6 0 5
split_gain=0.551815 0.342935 0.244851 0.243928 0.186508 0.166408 0.178974 0.145574 0.235414 0.340006 0.149705 0.145254 0.142624 0.134437 0.100119 0.0918531 0.275191 0.0856045 0.13528 0.084971 0.0740488 0.116684 0.0681786 0.0776488 0.150579 0.0759034 0.0670055 0.124828 0.0687941 0.0637523 0.0593431 0.0547103 0.05312 0.0521256 0.0428628 0.0417845 0.0408052 0.0387786 0.0378379 0.0374407 0.0371864 0.0428385 0.0361701 0.042922 0.0434076 0.0349637 0.0332328 0.0318827 0.0312172 0.0302184 0.0292534 0.0284394 0.0273189 0.0342679 0.0270788 0.0283919 0.0260318 0.0409426 0.0259233 0.0254525 0.0334057 0.0252136 0.0274763
threshold=4.4925839900970468 -0.57139781117439259 0.86555236577987682 -1.3415913581848142 -1.6945070028305051 -0.36183524131774897 -0.10813541337847708 0.3703062385320664 1.9042341709136965 -0.23142354935407636 -0.19078898429870603 -2.8653697967529292 1.716167747974396 -0.1199800707399845 1.2590397596359255 3.2335256338119511 -0.18378166854381559 -0.082018557935953126 -0.10999534651637076 -0.39889401197433466 0.23563478142023089 -1.033377945423126 3.5068846940994267 2.8129826784133916 0.0079203806817531603 3.8229299783706669 -0.10038590058684348 -0.10730355232954024 -0.065978199243545518 -0.11121069267392157 -0.97763815522193898 0.11839387938380243 -0.24097456037998197 -0.86330381035804737 -0.10624677315354346 -0.91076558828353871 -1.5278682112693784 -2.4669424295425411 -0.084277968853712068 0.19723841547966006 0.37574326992034918 2.2368776798248295 -0.096460167318582521 -0.14010602235794065 -0.091573994606733308 -0.33808882534503931 -0.82264301180839527 -0.012664334848523138 1.213202238082886 -0.070899721235036836 -0.25581246614456171 -0.17667622864246366 0.86555236577987682 -0.97171834111213673 4.9997203350067148 -2.2443618774414058 -0.42040073871612543 0.13157404959201816 -0.094289388507604585 -1.4750826358795164 -0.55711498856544484 -0.11707941442728041 -1.9010591506958006
decision_type=2 2 2 2 2 2 2 2 2 2 2 2 2 2 2 2 2 2 2 2 2 2 2 2 2 2 2 2 2 2 2 2 2 2 2 2 2 2 2 2 2 2 2 2 2 2 2 2 2 2 2 2 2 2 2 2 2 2 2 2 2 2 2
left_child=1 2 5 -4 -5 11 54 8 19 -10 39 -1 15 34 51 17 -17 48 -19 -3 30 -22 23 40 46 -26 -15 33 37 -21 -6 52 -11 45 59 -30 -31 -29 -34 50 -16 -42 43 -2 -45 -28 -25 -38 -12 61 -9 -14 -20 -54 55 -7 -13 -58 -35 -8 -61 62 -47
right_child=42 7 3 4 20 6 13 10 9 32 12 56 14 26 22 16 -18 18 31 29 21 -23 -24 24 25 -27 27 28 35 36 -32 -33 38 58 -36 -37 47 -39 -40 -41 41 -43 -44 44 -46 49 -48 -49 -50 -51 -52 -53 53 -55 -56 -57 57 -59 -60 60 -62 -63 -64
leaf_value=0.0026504137442056423 -0.00084109783629313691 0.00012524036393977373 -0.0040643922431627287 0.0019238369653943332 0.00037089617540394626 0.0011431000378893184 -0.0011575868129607683 -0.0001396821924374696 -0.0041447548523407289 0.0002808013709110321 0.00015044690081633869 0.0003870832882866189 -0.00032412068360215265 -9.4535384106551065e-05 6.787285264611924e-05 -0.0038463857323782023 0.0011889673689821443 0.0024685667665042461 0.00031225583713602142 7.9618209128115089e-05 -0.0036816589236453486 -0.0011220211101115438 -0.00057901082715038652 -0.0011050446369489165 0.0011544188950210811 0.0035659394358759223 -0.0022602631562097255 0.00059313158117271542 -0.00015480209182318176 -0.001439837389117658 -0.0012678091848591488 -0.0010494769310210345 -0.00030834513141599019 7.7734754656819997e-05 -0.0013739170994179247 -0.00065343048121481939 -9.4419569871559628e-05 -0.00016897855082381974 -0.0021374690329486671 -0.00010984187778630399 -0.0014064082591001817 0.00039841275965776666 -0.002512778261900946 -0.0028666970221092928 -0.00097271459145793846 -0.00062069067057953886 0.00033967605943899167 1.4588838946608362e-06 0.00039067863257309112 -0.0019111812762378283 -0.00086534417365979996 -0.0010063991765158096 -0.00011146081884362502 0.00061561928673188474 -0.00057563609974576626 5.5555643046438844e-05 8.6250892980506511e-05 -0.00052469021902652464 -0.00074982415846830538 0.00059210241767698778 -0.00077392357857759169 -0.00071595323520214202 -0.0019358623474675239
leaf_weight=55 129 12936 65 54 104 60 113 238 80 131 13539 612 274 2739 1363 51 56 77 3854 12090 59 179 402 56 89 52 50 176 604 52 116 66 59 210 388 1385 19327 2937 54 2177 93 50 139 79 51 69 131 15725 1502 70 334 348 179 1683 167 3723 3192 299 171 76 106 785 97
leaf_count=55 129 12936 65 54 104 60 113 238 80 131 13539 612 274 2739 1363 51 56 77 3854 12090 59 179 402 56 89 52 50 176 604 52 116 66 59 210 388 1385 19327 2937 54 2177 93 50 139 79 51 69 131 15725 1502 70 334 348 179 1683 167 3723 3192 299 171 76 106 785 97
internal_value=-1.33151e-06 5.67235e-06 -0.000188831 -0.00120189 -0.000831271 -0.000156443 -0.000239317 4.73614e-05 4.46393e-06 -0.0013376 0.0001448 0.00012111 0.000185048 -0.000352098 -0.0001463 0.000230132 -0.00122445 0.000237637 0.000399764 1.17175e-05 -0.00115959 -0.0017693 9.87755e-06 0.000139203 0.000835083 0.00206262 -0.000302265 -0.00038905 -0.000272543 -1.94013e-05 -0.000494975 0.000371792 -0.000404064 -0.000797961 -0.00102871 -0.000502166 -5.35055e-05 -0.000125714 -0.00119352 -0.000204549 -1.28101e-05 -0.000776968 -0.00185726 -0.00149715 -0.00213677 -0.000976557 -9.65442e-05 -5.14078e-05 0.000174461 -0.000911542 -0.000564179 -0.000706848 0.000388383 0.0005457 4.55357e-05 7.31021e-05 8.65678e-05 3.37892e-05 -0.00029468 -0.000571564 -0.000203377 -0.000836032 -0.00139618
internal_weight=106127 105729 18661 577 512 18084 13926 87068 60454 324 26614 4158 23865 9976 2858 21007 107 20900 5859 60130 458 238 2236 1834 328 141 9293 6554 5102 47194 220 5782 244 1452 683 1989 35104 3113 113 2749 1506 143 398 259 130 1071 187 35052 15041 1021 572 622 5716 1862 3950 3783 4103 3491 381 295 182 951 166
internal_count=106127 105729 18661 577 512 18084 13926 87068 60454 324 26614 4158 23865 9976 2858 21007 107 20900 5859 60130 458 238 2236 1834 328 141 9293 6554 5102 47194 220 5782 244 1452 683 1989 35104 3113 113 2749 1506 143 398 259 130 1071 187 35052 15041 1021 572 622 5716 1862 3950 3783 4103 3491 381 295 182 951 166
is_linear=0
shrinkage=0.05


Tree=2
num_leaves=64
num_cat=0
split_feature=4 8 4 6 7 7 6 4 3 8 6 7 2 3 8 0 6 8 3 2 7 0 8 6 7 0 3 6 3 7 3 3 8 7 0 6 7 4 2 7 4 3 6 7 2 7 6 7 6 7 7 6 8 7 0 2 4 6 8 3 0 0 4
split_gain=0.211977 0.189667 0.227827 0.106057 0.223935 0.0939499 0.185015 0.0679033 0.0780326 0.0537393 0.0534164 0.0554901 0.052787 0.0829154 0.0641245 0.0518218 0.0460179 0.0447346 0.044706 0.0439883 0.05725 0.0415979 0.05204 0.0399084 0.0423974 0.0833916 0.0620246 0.0530293 0.03674 0.0474563 0.0440545 0.0366815 0.0356825 0.0341719 0.0318995 0.0318772 0.0332008 0.0310736 0.0452013 0.0306503 0.029193 0.0323795 0.0300739 0.0290105 0.0285161 0.0255457 0.0251382 0.117646 0.0680262 0.0292991 0.0248098 0.0946956 0.0578916 0.0295898 0.0324697 0.0809235 0.0407939 0.0304249 0.0286522 0.0669609 0.0258752 0.0370157 0.0253768
threshold=-0.37706935405731196 -0.10572595521807669 -0.17467168718576428 -1.4651319980621336 -0.20301890373229978 -0.41046839952468867 -1.4651319980621336 1.2608333230018618 -0.12331829592585562 0.10969888791441919 -1.5278682112693784 -2.0420684814453121 -0.058634849265217774 -0.044420639052987092 -0.070899721235036836 -0.1055789217352867 3.7127611637115483 -0.11282208189368247 -0.1100524142384529 -0.11721237003803252 0.32831589877605444 -0.11923532932996748 -0.099721617996692644 -0.91076558828353871 -0.0052485875785350791 -0.10064872726798056 -0.087838698178529726 -0.049826264381408684 -0.10738598182797431 2.8129826784133916 -0.099521487951278673 -0.11620393767952918 -0.051003113389015191 -2.2443618774414058 -0.12028981745243071 2.6109715700149541 0.49232022464275366 1.0931625962257387 -0.12513903528451917 2.2368776798248295 0.060959441587328918 -0.090402796864509569 0.58561694622039806 2.2368776798248295 -0.1252750679850578 -3.0382127761840816 -0.59139314293861378 2.8129826784133916 -0.84376987814903248 3.8229299783706669 2.8129826784133916 -0.09812131896615027 -0.089680753648281084 0.25198993086814886 -0.12109289690852164 -0.1199800707399845 0.33483935892581945 0.35425621271133428 -0.093330856412649141 -0.10868631675839423 -0.11095168069005011 -0.099449690431356416 0.095086738467216506
decision_type=2 2 2 2 2 2 2 2 2 2 2 2 2 2 2 2 2 2 2 2 2 2 2 2 2 2 2 2 2 2 2 2 2 2 2 2 2 2 2 2 2 2 2 2 2 2 2 2 2 2 2 2 2 2 2 2 2 2 2 2 2 2 2
left_child=10 17 5 4 15 45 -7 9 -9 12 -1 -12 14 32 50 -4 -13 -2 19 20 -10 22 -8 -16 25 -25 27 -27 -26 30 -30 -6 -14 -28 -22 36 -23 -19 44 -37 42 -42 -32 -18 -39 -3 47 -38 -49 -48 53 52 -52 54 56 -56 -5 -55 60 -60 -57 -62 -61
right_child=1 2 3 7 31 6 21 8 18 -11 11 16 13 -15 23 -17 43 37 -20 -21 34 35 -24 24 28 26 33 -29 29 -31 40 -33 -34 -35 -36 39 46 38 -40 -41 41 -43 -44 -45 -46 -47 49 48 -50 -51 51 -53 -54 57 55 58 -58 -59 59 62 61 -63 -64
leaf_value=-0.0011626533272380874 0.00017299031255306075 0.00074394123376768134 -0.00095085339710387082 0.0011066820559480744 -0.0039106363918668093 -0.0018368368961417408 0.00024514459979013941 -0.0025698876153086841 -0.0011598468142975736 -0.0016724979989124801 0.0012414356893881166 0.00011619464262265999 0.00014733600986854045 -0.00066080950012162385 8.320082548397675e-05 0.00053960675381408243 -0.00019837416642208301 2.916079284953174e-05 -0.0018931823135658978 -2.1501577357176848e-05 0.00075793434407872464 -2.7434740655785057e-05 0.0018076188673980403 -0.0020999858889932514 0.00063473899208474913 -0.00080491464913705455 -2.094969157561926e-05 0.00059675364785729667 -0.0012973174647263747 -0.0015993137670861817 -0.00072608619263885531 -0.0021021599161866944 0.0015876794609061631 -0.0013945345627834772 -0.00073174698264810495 -0.00021438254547778178 6.0582155553864139e-05 -0.00046474731287009642 -6.8880471128406406e-05 -0.001624512967060913 0.001500191596075059 -0.00019027107845107885 0.00062818761304827479 -0.0014812552364436788 -0.0016844833948135634 -0.00019580826988027948 0.00015063876375475972 -0.00051278368481574258 -0.0028964788368507728 0.0010559784567014284 -0.0021381864136786207 0.0005128496128343293 -0.00015273667621496032 5.9376571394409444e-05 -0.0013672305282907693 -0.00025631028941285272 -0.00055536389661968129 -0.00031473509544397945 -0.00094837948905478707 -8.1176858488530464e-05 0.00020957002773633348 -0.00052941972190320632 -0.00061196926350966783
leaf_weight=81 4980 72 122 93 51 133 225 52 322 65 108 29424 68 111 205 110 123 29645 60 308 74 11420 69 124 81 136 55 132 84 82 153 73 117 256 68 130 1600 285 3258 54 54 58 55 68 57 8198 5082 70 52 90 103 101 57 1835 165 2027 60 771 429 870 799 214 303
leaf_count=81 4980 72 122 93 51 133 225 52 322 65 108 29424 68 111 205 110 123 29645 60 308 74 11420 69 124 81 136 55 132 84 82 153 73 117 256 68 130 1600 285 3258 54 54 58 55 68 57 8198 5082 70 52 90 103 101 57 1835 165 2027 60 771 429 870 799 214 303
internal_value=-1.27938e-06 -4.54376e-05 -0.000124388 -0.000317482 -0.00116519 -4.69638e-05 1.4472e-05 -0.000288761 -0.000708032 -0.000250335 0.0001118 0.000115312 -0.000240531 0.000415831 -0.000261459 -0.000244887 0.000111164 3.32514e-05 -0.00058872 -0.000485019 -0.000791991 2.76717e-05 0.000616732 -0.000563789 -0.000668208 -0.000927517 -0.00067323 -0.000114889 -0.000345635 -0.000509998 -0.000285497 -0.0028713 0.00106189 -0.00115246 4.44373e-05 1.82765e-05 2.48719e-05 1.23143e-05 -0.000126381 -0.000634769 -1.66798e-05 0.000630837 -0.000366693 -0.000660443 -0.000672355 -0.000187538 0.00011151 -5.39344e-05 -0.00154407 0.000166594 -0.00020442 -0.000682899 -0.00143621 -0.000187826 -0.000259489 -0.000282336 0.000455525 -5.13848e-05 -0.000243488 -0.000414564 -0.000153228 5.30876e-05 -0.000218691
internal_weight=106127 76323 38098 10903 356 27195 18925 10547 884 9663 29804 29723 9598 296 9302 232 29615 38225 832 772 464 18792 294 1475 1270 703 579 268 567 486 404 124 185 311 142 18498 18314 33245 3600 184 320 112 208 191 342 8270 6894 1722 122 5172 7827 261 160 7566 4960 4807 153 2606 4642 1602 3040 1013 1173
internal_count=106127 76323 38098 10903 356 27195 18925 10547 884 9663 29804 29723 9598 296 9302 232 29615 38225 832 772 464 18792 294 1475 1270 703 579 268 567 486 404 124 185 311 142 18498 18314 33245 3600 184 320 112 208 191 342 8270 6894 1722 122 5172 7827 261 160 7566 4960 4807 153 2606 4642 1602 3040 1013 1173
is_linear=0
shrinkage=0.05


Tree=3
num_leaves=64
num_cat=0
split_feature=5 5 7 6 5 5 7 6 7 5 7 7 6 8 3 8 2 6 5 2 8 2 2 8 5 7 6 7 5 5 1 8 8 7 7 8 1 5 8 5 6 7 6 1 8 6 6 6 5 6 3 7 6 5 7 6 7 6 6 8 5 6 2
split_gain=0.480136 0.293217 0.218513 0.204626 0.167574 0.132959 0.208079 0.300023 0.129384 0.12377 0.0911804 0.079424 0.24184 0.0758337 0.104602 0.0710875 0.158731 0.0669035 0.104989 0.0651184 0.077233 0.0629902 0.0614099 0.12208 0.0583795 0.0726565 0.130438 0.0671588 0.0533908 0.0515087 0.0483311 0.0475509 0.047137 0.04352 0.0549602 0.0370249 0.0401928 0.0364822 0.0363305 0.0345406 0.0333457 0.0392534 0.0329785 0.0325971 0.0352726 0.0373202 0.0733074 0.0321146 0.031565 0.0294941 0.0290579 0.0280323 0.0255253 0.0255072 0.0251651 0.0324953 0.0247059 0.0263047 0.0252299 0.0246653 0.0382226 0.0285861 0.0281845
threshold=4.4925839900970468 -0.57139781117439259 0.86555236577987682 -1.3415913581848142 -1.6945070028305051 0.3703062385320664 1.9042341709136965 -0.23142354935407636 -0.19078898429870603 1.716167747974396 1.2590397596359255 3.2335256338119511 -0.18378166854381559 -0.082018557935953126 -0.11028353497385977 -0.10855071246623992 -0.1199800707399845 0.23563478142023089 -1.033377945423126 -0.052375847473740571 -0.07738910615444182 -0.10061454772949217 -0.10762640833854674 -0.099497754126787172 3.5068846940994267 2.8129826784133916 0.0079203806817531603 3.8229299783706669 -0.97763815522193898 -0.35350039601325983 -0.047286817803978913 -0.11304770037531851 -0.10624677315354346 0.3134238868951798 -2.5376826524734493 -0.063729051500558839 -0.085994426161050783 -3.7794172763824458 -0.087152697145938859 -0.16159166395664212 0.37574326992034918 2.2368776798248295 0.19723841547966006 -0.096972949802875505 -0.059925792738795274 1.7659184336662295 -0.73322579264640797 -1.3415913581848142 -1.0043250322341917 -0.82264301180839527 -0.086866699159145341 1.213202238082886 -0.17667622864246366 -3.7794172763824458 0.86555236577987682 -1.1037635207176206 -1.2738935351371763 0.73191124200820934 1.0881320238113406 -0.051003113389015191 -1.1278053522109983 -0.88726896047592152 -0.078634183853864656
decision_type=2 2 2 2 2 2 2 2 2 2 2 2 2 2 2 2 2 2 2 2 2 2 2 2 2 2 2 2 2 2 2 2 2 2 2 2 2 2 2 2 2 2 2 2 2 2 2 2 2 2 2 2 2 2 2 2 2 2 2 2 2 2 2
left_child=1 2 15 -4 -5 6 30 -8 42 11 52 13 -13 51 -15 -1 32 28 -19 20 22 33 23 -18 25 40 49 -28 -6 -9 31 -3 48 34 -22 36 38 -21 -33 -37 -12 -42 -7 44 45 46 -2 -25 -17 -27 -41 -10 -11 -23 -16 -56 -39 -58 -59 61 62 -55 -61
right_child=43 5 3 4 17 8 7 29 9 10 24 12 -14 14 54 16 19 18 -20 37 21 53 -24 47 -26 26 27 -29 -30 -31 -32 35 -34 -35 -36 39 -38 56 -40 50 41 -43 -44 -45 -46 -47 -48 -49 -50 -51 -52 -53 -54 59 55 -57 57 58 -60 60 -62 -63 -64
leaf_value=4.8976475864329529e-05 -0.00059979122832597219 0.00019661207052871582 -0.0037534714969241936 0.0018195005018391054 0.00034981276607140902 -0.00052531921873074337 -0.0038958300814107292 -0.0017786507003340656 0.0001411506568138028 -0.00030663415467609991 6.3786855118890806e-05 -0.0035941853644684534 0.0011260855913350131 0.0021719857327843783 0.00027824998964697038 -0.00084518403836032503 -8.2690660023342251e-05 -0.0034968184168883455 -0.0010687718448995536 0.0011957336992760356 1.3107515405863525e-05 0.00043162116291932764 5.0454581683534873e-07 -0.0016500218627919735 -0.00053017091473028875 -0.0010098909711814487 0.0010956087340794815 0.003364219151015552 -0.0012045488842816737 -5.6035174584957136e-06 0.00011649297648455146 -1.6353878422824335e-05 -0.001276679109798398 0.00032315764002109355 -0.0015813890813847432 -0.00046254547840473762 0.00011279498179948332 -0.00023310321065612603 -0.00021368203617553366 0.00035968571355394341 -0.0013387816443548915 0.00038877237579892573 -9.8918962685926327e-05 -0.0023544062286055124 -0.0001932239824193804 -0.00051646096899865502 -0.0028682349566692984 -0.00062253765182893929 7.7731485244968059e-05 0.00035109704202692564 -0.00019002872135632658 0.00036879708995784567 -0.00095300916842112253 9.7789701689135312e-05 -0.0004226262560693143 0.000547311387118473 5.8002924095079813e-05 0.0015932505975277827 0.00010344432326530944 -0.0013170110328292769 -0.00020711431913774246 -0.00040774356893299708 -0.00053152823684028227
leaf_weight=3777 56 2661 65 54 104 572 80 51 13539 274 1363 51 56 79 3892 246 2513 59 179 66 68 99 3963 81 402 56 89 52 116 193 9003 38030 389 50 262 883 5750 753 2484 315 93 50 2177 139 50 53 100 1140 148 131 1004 1502 348 404 90 1798 2296 55 58 216 349 905 246
leaf_count=3777 56 2661 65 54 104 572 80 51 13539 274 1363 51 56 79 3892 246 2513 59 179 66 68 99 3963 81 402 56 89 52 116 193 9003 38030 389 50 262 883 5750 753 2484 315 93 50 2177 139 50 53 100 1140 148 131 1004 1502 348 404 90 1798 2296 55 58 216 349 905 246
internal_value=-1.22914e-06 5.30402e-06 -0.000174548 -0.00113157 -0.000792042 4.38528e-05 2.85611e-06 -0.00125889 0.000136974 0.000174391 -0.00013428 0.00021639 -0.00113621 0.000223368 0.000375963 -0.000143952 -0.000194885 -0.00110325 -0.0016828 -0.000154775 -0.000216203 -0.000451822 -0.000136594 -0.000282062 1.47598e-05 0.000134429 0.000807567 0.00195006 -0.000471502 -0.000381947 9.67563e-06 -9.13584e-06 -0.000886586 -0.00104598 -0.00125378 -2.04361e-05 -1.08996e-05 4.11621e-05 -2.84575e-05 -0.000220703 -1.26163e-05 -0.000736237 -0.000187801 -0.00173243 -0.00139086 -0.00167509 -0.00206293 -0.000691994 -0.000499186 -5.96754e-05 -5.85744e-05 0.000163907 -0.000669221 -0.000349648 0.000351043 0.000500876 1.66924e-05 9.48373e-05 0.000836186 -0.000386318 -0.000602917 -0.000251764 -0.000900818
internal_weight=106127 105729 18661 577 512 87068 60454 324 26614 23865 2858 21007 107 20900 5859 18084 14307 458 238 13524 10296 2599 7697 3734 2236 1834 328 141 220 244 60130 51127 783 380 330 48466 46264 3228 40514 2202 1506 143 2749 398 259 209 156 1221 394 187 1319 15041 622 2219 5780 1888 3162 2409 113 2120 811 1309 462
internal_count=106127 105729 18661 577 512 87068 60454 324 26614 23865 2858 21007 107 20900 5859 18084 14307 458 238 13524 10296 2599 7697 3734 2236 1834 328 141 220 244 60130 51127 783 380 330 48466 46264 3228 40514 2202 1506 143 2749 398 259 209 156 1221 394 187 1319 15041 622 2219 5780 1888 3162 2409 113 2120 811 1309 462
is_linear=0
shrinkage=0.05


Tree=4
num_leaves=64
num_cat=0
split_feature=5 5 5 7 7 5 7 7 7 5 7 7 8 0 8 2 8 5 2 5 7 1 8 8 5 8 2 8 5 5 7 2 8 2 7 5 0 8 7 8 2 8 0 0 7 3 7 1 2 7 7 8 7 5 7 3 8 5 5 7 7 7 0
split_gain=0.433748 0.265794 0.141371 0.212297 0.116779 0.11169 0.106565 0.0823294 0.0718079 0.071588 0.0889284 0.0714584 0.0684537 0.11187 0.0648482 0.126948 0.11722 0.0890159 0.0716578 0.0527118 0.0656748 0.0504409 0.0541007 0.045474 0.0424348 0.0531731 0.043507 0.0572875 0.0386119 0.0361796 0.0357118 0.0347727 0.031343 0.0314668 0.0315111 0.0310608 0.0294203 0.0318678 0.0267626 0.0263812 0.0323655 0.032833 0.0315104 0.0299772 0.0283258 0.0260084 0.0253019 0.0251427 0.0352913 0.0247048 0.0240488 0.0236352 0.0232135 0.0221762 0.0216493 0.0214895 0.0210392 0.0204639 0.0204189 0.0200496 0.0197106 0.0193124 0.0190245
threshold=4.4925839900970468 -0.86330381035804737 0.3703062385320664 1.9042341709136965 -0.19078898429870603 1.716167747974396 -0.12465810775756835 1.2590397596359255 3.2335256338119511 -1.6945070028305051 0.76408430933952343 0.60965135693550121 -0.082018557935953126 -0.10999534651637076 -0.10813541337847708 -0.10730355232954024 -0.099497754126787172 -3.7794172763824458 -0.12036574259400366 3.5068846940994267 2.8129826784133916 -0.047286817803978913 -0.11121069267392157 0.016371148638427261 -0.012664334848523138 -0.064911972731351839 -0.090330731123685823 -0.093976654112339006 1.2665103077888491 -1.3652476668357847 1.0309659242630007 -0.11755715683102606 -0.070899721235036836 -0.11928585171699523 -1.7551982998847959 0.22375526279211047 -0.096460167318582521 -0.059925792738795274 -1.5002144575119016 -0.09266363829374312 -0.079597324132919298 -0.051003113389015191 -0.075000852346420274 -0.066509798169136033 -1.3281030058860777 -0.10707229748368262 1.213202238082886 -0.093061566352844224 -0.068864434957504259 3.2335256338119511 -0.78306263685226429 -0.10729523748159407 0.86555236577987682 1.2183986902236941 3.8229299783706669 -0.087334729731082902 -0.090446986258029924 0.78094372153282177 2.4635013341903691 0.63436645269393932 0.62167906761169445 0.39069549739360815 -0.11692105606198309
decision_type=2 2 2 2 2 2 2 2 2 2 2 2 2 2 2 2 2 2 2 2 2 2 2 2 2 2 2 2 2 2 2 2 2 2 2 2 2 2 2 2 2 2 2 2 2 2 2 2 2 2 2 2 2 2 2 2 2 2 2 2 2 2 2
left_child=1 6 3 21 53 8 14 58 12 11 60 -8 46 -14 50 16 18 47 -16 20 -9 22 61 29 25 26 27 31 -10 -12 -23 38 33 -18 -35 -5 37 49 -24 -19 41 -41 -42 44 -44 59 -6 -17 -49 -2 -1 -40 -15 -4 -21 -43 -51 -48 -7 -29 62 -3 -11
right_child=36 2 4 35 5 7 9 19 28 10 23 -13 13 52 15 17 32 39 -20 54 -22 30 24 -25 -26 -27 -28 45 -30 -31 -32 -33 -34 34 -36 -37 -38 -39 51 40 42 55 43 -45 -46 -47 57 48 -50 56 -52 -53 -54 -55 -56 -57 -58 -59 -60 -61 -62 -63 -64
leaf_value=-4.9563252623245192e-05 -0.00069878412952244099 8.8008800879031402e-05 -0.0001354662264748257 -0.0013642798795688844 0.00013409363826211848 -0.00051164925602903996 -0.00068790374233180455 -1.2014918535650031e-05 -0.0020437355881407506 -0.0009875810268827731 -0.00016911342348565437 0.0013466113506457264 0.0022384701967194608 0.00026181471265037201 -0.00092128462179992369 0.0016943231843678016 -0.002003225612217469 0.00010554788908473812 -0.00011948750887875369 -0.00067332997553980439 0.00076776599351786954 0.00011607350980637837 0.00062041014310828895 -0.0028480390863950128 1.5048806938918972e-05 -0.00034759537559918941 6.749038093912045e-05 -0.0004165144347444569 -0.00014965430269252725 -0.0015631573338177986 -0.0005723748524208834 -1.1993673653593791e-05 -0.0021879159895630152 -0.00042423281816249638 -0.0010713698384880589 -5.8585176722974412e-05 -0.0022375267708308198 -0.00018375221909224697 -0.00012222019737808841 -0.00027052887846231761 0.00051220442408241354 -0.00049566718786190364 -0.0012007999537981037 -6.3308768302068854e-05 -0.00020370847817173274 -0.00021679379162869848 3.6969141864077402e-05 -0.0004245362113077386 0.0011895188874715553 -0.002465774119454658 0.00030975753048919432 -0.00036748587279816563 0.000475550808941638 -0.00064848515127076411 0.00028532102688687803 -0.001477416496152505 -0.0012467567864603 0.00045901551931761317 -0.0013041463083486775 -0.0010381643396912671 0.00041516239536302341 -0.00015822466497480221 -0.00041943099380509002
leaf_weight=1225 58 12202 2520 327 13539 526 89 1506 52 209 61 82 77 3892 346 69 60 941 1417 331 328 10022 105 53 18043 1790 4920 561 55 199 191 11061 50 311 483 53 139 50 4027 1403 207 133 117 2136 181 2180 387 57 81 83 750 1299 1890 229 71 97 68 1115 96 169 52 851 505
leaf_count=1225 58 12202 2520 327 13539 526 89 1506 52 209 61 82 77 3892 346 69 60 941 1417 331 328 10022 105 53 18043 1790 4920 561 55 199 191 11061 50 311 483 53 139 50 4027 1403 207 133 117 2136 181 2180 387 57 81 83 750 1299 1890 229 71 97 68 1115 96 169 52 851 505
internal_value=-1.17869e-06 5.03086e-06 3.24747e-05 -5.85821e-06 0.000130127 0.000165675 -0.00022397 -0.000127546 0.000205572 -0.000659212 -0.000809751 0.000289869 0.000212207 0.000357186 -0.00016985 -0.00023256 -0.000514919 -9.36021e-05 -0.000277278 1.40751e-05 0.000127787 7.92751e-07 -1.74808e-05 -0.00151882 -4.39176e-05 -8.46615e-05 -6.52971e-05 -9.89714e-05 -0.00108054 -0.00123799 0.000103144 -6.28718e-05 -0.000977552 -0.000904211 -0.000818747 -0.0011828 -0.00164663 -0.00132212 -0.000166471 -0.000134035 -0.000186795 -0.000361707 -7.85472e-05 -0.000128977 -0.000597891 -0.000303468 0.000155713 0.00092077 0.000524586 -0.00159228 8.69754e-05 -0.000182098 0.00033175 -0.000178423 -0.000503728 -0.000914313 -0.00192863 0.000350369 -0.000635861 -0.000561654 -0.00051841 7.19445e-05 -0.000586887
internal_weight=106127 105729 94415 67801 26614 23865 11314 2858 21007 1250 1079 171 20900 5859 10064 8089 2667 5422 1763 2236 1834 67421 57208 313 44155 26112 24322 19402 107 260 10213 16492 904 854 794 380 398 259 5431 5215 4274 1633 2641 2434 298 2910 15041 207 138 209 1975 5326 5782 2749 402 230 151 1502 622 730 766 13053 714
internal_count=106127 105729 94415 67801 26614 23865 11314 2858 21007 1250 1079 171 20900 5859 10064 8089 2667 5422 1763 2236 1834 67421 57208 313 44155 26112 24322 19402 107 260 10213 16492 904 854 794 380 398 259 5431 5215 4274 1633 2641 2434 298 2910 15041 207 138 209 1975 5326 5782 2749 402 230 151 1502 622 730 766 13053 714
is_linear=0
shrinkage=0.05


end of trees

feature_importances:
Column_7=72
Column_6=51
Column_8=50
Column_5=42
Column_0=26
Column_4=25
Column_3=21
Column_2=19
Column_1=9

parameters:
[boosting: gbdt]
[objective: regression]
[metric: l2]
[tree_learner: serial]
[device_type: cpu]
[data_sample_strategy: bagging]
[data: ]
[valid: ]
[num_iterations: 1200]
[learning_rate: 0.05]
[num_leaves: 64]
[num_threads: 0]
[seed: 0]
[deterministic: 0]
[force_col_wise: 0]
[force_row_wise: 0]
[histogram_pool_size: -1]
[max_depth: -1]
[min_data_in_leaf: 50]
[min_sum_hessian_in_leaf: 0.001]
[bagging_fraction: 0.8]
[pos_bagging_fraction: 1]
[neg_bagging_fraction: 1]
[bagging_freq: 5]
[bagging_seed: 3]
[bagging_by_query: 0]
[feature_fraction: 0.8]
[feature_fraction_bynode: 1]
[feature_fraction_seed: 2]
[extra_trees: 0]
[extra_seed: 6]
[early_stopping_round: 0]
[early_stopping_min_delta: 0]
[first_metric_only: 0]
[max_delta_step: 0]
[lambda_l1: 0]
[lambda_l2: 1]
[linear_lambda: 0]
[min_gain_to_split: 0]
[drop_rate: 0.1]
[max_drop: 50]
[skip_drop: 0.5]
[xgboost_dart_mode: 0]
[uniform_drop: 0]
[drop_seed: 4]
[top_rate: 0.2]
[other_rate: 0.1]
[min_data_per_group: 100]
[max_cat_threshold: 32]
[cat_l2: 10]
[cat_smooth: 10]
[max_cat_to_onehot: 4]
[top_k: 20]
[monotone_constraints: ]
[monotone_constraints_method: basic]
[monotone_penalty: 0]
[feature_contri: ]
[forcedsplits_filename: ]
[refit_decay_rate: 0.9]
[cegb_tradeoff: 1]
[cegb_penalty_split: 0]
[cegb_penalty_feature_lazy: ]
[cegb_penalty_feature_coupled: ]
[path_smooth: 0]
[interaction_constraints: ]
[verbosity: -1]
[saved_feature_importance_type: 0]
[use_quantized_grad: 0]
[num_grad_quant_bins: 4]
[quant_train_renew_leaf: 0]
[stochastic_rounding: 1]
[linear_tree: 0]
[max_bin: 255]
[max_bin_by_feature: ]
[min_data_in_bin: 3]
[bin_construct_sample_cnt: 200000]
[data_random_seed: 1]
[is_enable_sparse: 1]
[enable_bundle: 1]
[use_missing: 1]
[zero_as_missing: 0]
[feature_pre_filter: 1]
[pre_partition: 0]
[two_round: 0]
[header: 0]
[label_column: ]
[weight_column: ]
[group_column: ]
[ignore_column: ]
[categorical_feature: ]
[forcedbins_filename: ]
[precise_float_parser: 0]
[parser_config_file: ]
[objective_seed: 5]
[num_class: 1]
[is_unbalance: 0]
[scale_pos_weight: 1]
[sigmoid: 1]
[boost_from_average: 1]
[reg_sqrt: 0]
[alpha: 0.9]
[fair_c: 1]
[poisson_max_delta_step: 0.7]
[tweedie_variance_power: 1.5]
[lambdarank_truncation_level: 30]
[lambdarank_norm: 1]
[label_gain: ]
[lambdarank_position_bias_regularization: 0]
[eval_at: ]
[multi_error_top_k: 1]
[auc_mu_weights: ]
[num_machines: 1]
[local_listen_port: 12400]
[time_out: 120]
[machine_list_filename: ]
[machines: ]
[gpu_platform_id: -1]
[gpu_device_id: -1]
[gpu_use_dp: 0]
[num_gpu: 1]

end of parameters

pandas_categorical:null
