tree
version=v4
num_class=1
num_tree_per_iteration=1
label_index=0
max_feature_idx=8
objective=regression
feature_names=Column_0 Column_1 Column_2 Column_3 Column_4 Column_5 Column_6 Column_7 Column_8
feature_infos=[-0.1262245774269104:5] [-0.12638005614280701:5] [-0.12617084383964539:5] [-0.12627093493938446:5] [-0.43321773409843445:5] [-5:5] [-1.9954947233200073:5] [-5:5] [-0.11399253457784653:5]
tree_sizes=6008 6197 6170 6186 6186 6198 6201 6208 6182 6219 6190 6178 6159 6167 6186 6192 6212 6163 6156 6194 6144 6171 6203 6178 6192 6163 6182 6171 6138 6188 6167 6149 6206 6210 6152 6175 6155 6178 6199 6139 6125 6198 6100 6138 6206 6149 6169 6082 6097 6166 6134 6126 6110 6098 6169 6156 6180 6096 6133 6144 6084 6073 6144 6090 6139 6129 6144 6158 6086 6136 6101 6051 6041 6088 6073

Tree=0
num_leaves=64
num_cat=0
split_feature=7 4 8 7 7 3 1 6 7 6 4 7 0 8 7 1 0 6 4 8 3 8 4 0 8 3 4 8 1 8 7 1 6 4 6 1 4 6 7 8 3 4 7 4 0 0 0 8 3 4 4 7 4 7 4 3 7 6 8 3 3 6 0
split_gain=0.243237 0.140744 0.141967 0.0910105 0.0899525 0.0788973 0.0644247 0.0579205 0.0527216 0.0450256 0.0360123 0.03541 0.0352675 0.0608335 0.031534 0.0342439 0.0338359 0.0507406 0.0428492 0.0386835 0.0370268 0.0340519 0.038073 0.0310939 0.0303008 0.0346704 0.0828082 0.0295333 0.0635898 0.0286447 0.0282699 0.027534 0.0263585 0.0258661 0.0251139 0.0235693 0.0233246 0.0229717 0.0285074 0.0225245 0.0294523 0.0263869 0.0219674 0.0388529 0.0206946 0.0201826 0.0299353 0.0279937 0.0197116 0.0249099 0.0233603 0.0194797 0.0188339 0.0184424 0.0210687 0.0184366 0.0264517 0.0286614 0.0197879 0.0184865 0.028236 0.0183929 0.0182432
threshold=-0.14062581211328504 -0.38031551241874689 -0.10178048908710478 1.1572310328483584 -2.275550007820129 -0.11918209865689276 -0.080601211637258516 -0.88005182147026051 -2.275550007820129 0.76441428065299999 1.0000000180025095e-35 -0.79286697506904591 -0.091679383069276796 -0.073472287505865083 -0.43275663256645197 -0.11849167943000792 -0.10756428539752959 -1.5032567977905271 0.90261012315750133 -0.093339268118143068 -0.088771060109138475 -0.078903071582317338 -0.34946577250957483 -0.1232408508658409 -0.10924002900719641 -0.12354725971817969 1.7541608214378359 -0.08720893412828444 -0.099479917436838136 -0.028911932371556755 -1.3522902727127073 0.0390442293137312 0.21762424707412723 2.3871642351150517 -0.85801446437835682 -0.099896736443042741 0.072046268731355681 0.25773701071739202 0.3769544661045075 -0.083836957812309251 -0.10665386542677878 -0.079733226448297487 0.20172424614429477 -0.093412693589925752 -0.08771080523729323 0.038495451211929328 0.095763571560382857 0.10205626487731935 -0.11589760705828665 0.14514461159706118 0.33698551356792456 -1.5978924036025999 -0.31759452819824213 -1.5978924036025999 -0.16630624234676358 -0.12291715294122695 -1.6845112442970274 -0.074419282376766191 -0.10729410871863364 -0.11156760901212691 -0.11070249974727629 1.9698666334152224 -0.12016232684254645
decision_type=2 2 2 2 2 2 2 2 2 2 2 2 2 2 2 2 2 2 2 2 2 2 2 2 2 2 2 2 2 2 2 2 2 2 2 2 2 2 2 2 2 2 2 2 2 2 2 2 2 2 2 2 2 2 2 2 2 2 2 2 2 2 2
left_child=1 4 24 6 -1 8 23 27 -4 -9 12 -6 13 -11 15 -7 19 20 21 -17 -18 30 34 -2 61 26 -26 -5 -29 -14 32 -16 -19 48 -23 -15 -10 38 -25 -40 -41 44 43 -8 -42 47 -47 52 -21 53 -51 -36 -24 54 -50 58 57 -57 -27 -58 -61 -3 -38
right_child=3 2 5 7 11 14 42 9 36 10 -12 -13 29 35 31 16 17 18 -20 33 -22 22 45 37 25 55 -28 28 -30 -31 -32 -33 -34 -35 51 -37 62 -39 39 40 41 -43 -44 -45 -46 46 -48 -49 49 50 -52 -53 -54 -55 -56 56 59 -59 -60 60 -62 -63 -64
leaf_value=0.0041573395602757688 0.0026446409015248203 0.0025379361576025905 4.7596206030279219e-05 0.0022349181279467533 0.0027843024845409362 0.003309403336533517 0.0025978467779651944 0.0029532977667273154 0.0025463043915406013 0.0027206743425729259 0.0019961524913148288 0.0025350753846178314 0.0017764922997150624 0.0048267833445632862 0.0023849242220628105 0.0022131412148362144 0.0037954857978798637 0.0025741028746748178 0.00087549043950744913 0.0026979683044069951 0.0024807230187613126 0.0028400703556265335 0.0018439513501460596 0.0025055311827652405 0.0042501410826355094 0.0013659472477646009 0.0019579533499190145 0.0043510176886661601 0.0025479029993100318 0.002696135648195905 0.0023207231948071615 0.0033060820765198379 0.0036098849045477039 0.00069612410621180195 0.0016408388061424622 0.0032983418317210915 0.00075624517401889219 0.0024648237925441016 0.0025923584070601737 0.00391182715921799 0.0030656473517731465 0.0019566755843388956 0.0027133825062190388 0.0012253046011571013 0.0024976464148539191 0.0035104694843362491 0.0020475198280216428 0.0011968823810903971 0.003142575732332798 0.00044743280301140368 0.0016451385595793438 0.002376988839396077 0.0021480077590625901 0.0017964492102624627 0.0018493083857020259 0.0026034913501441523 0.002323036430702757 0.0037328631668808719 0.002578066750927518 0.0030219843591613926 0.0024348649890055482 0.0021678259210795667 0.0020232239985321049
leaf_weight=90 5349 10291 57 645 1722 73 6129 3226 65 479 209 8247 141 50 3613 1410 90 419 55 63 130 272 637 15339 80 88 76 54 441 209 3472 82 71 51 101 53 59 13908 7376 61 486 86 7568 51 239 60 81 90 63 55 162 761 2573 349 61 349 5384 66 54 222 2506 346 56
leaf_count=90 5349 10291 57 645 1722 73 6129 3226 65 479 209 8247 141 50 3613 1410 90 419 55 63 130 272 637 15339 80 88 76 54 441 209 3472 82 71 51 101 53 59 13908 7376 61 486 86 7568 51 239 60 81 90 63 55 162 761 2573 349 61 349 5384 66 54 222 2506 346 56
internal_value=0.00251703 0.00242788 0.00237989 0.00258098 0.00259244 0.00226447 0.0025621 0.00277501 0.00136122 0.00285784 0.0025878 0.00257815 0.00272089 0.00295913 0.00227902 0.0022369 0.00222973 0.00227368 0.00225446 0.00205497 0.00302194 0.00226354 0.00217061 0.00253188 0.00246904 0.00240055 0.003137 0.00245767 0.00274791 0.0023246 0.0023709 0.00240558 0.00272611 0.0017783 0.00242197 0.0040554 0.00178853 0.00251579 0.00254584 0.00262079 0.00286097 0.0027803 0.00265627 0.00258631 0.00287864 0.00208783 0.00267268 0.0020628 0.00185391 0.00177669 0.00133348 0.00228982 0.00208748 0.00198209 0.00250614 0.00238723 0.00239668 0.0027856 0.00182411 0.00237676 0.00248281 0.00252587 0.00136365
internal_weight=106651 44552 34493 62099 10059 15031 56592 5507 237 4367 1141 9969 932 582 14794 11099 11026 8812 8592 2214 220 8537 4575 42844 19462 8825 156 1140 495 350 3962 3695 490 804 1134 103 180 37495 23587 8248 872 811 13748 6180 725 3441 141 3300 753 690 217 862 3210 473 124 8669 8527 415 142 8112 2728 10637 115
internal_count=106651 44552 34493 62099 10059 15031 56592 5507 237 4367 1141 9969 932 582 14794 11099 11026 8812 8592 2214 220 8537 4575 42844 19462 8825 156 1140 495 350 3962 3695 490 804 1134 103 180 37495 23587 8248 872 811 13748 6180 725 3441 141 3300 753 690 217 862 3210 473 124 8669 8527 415 142 8112 2728 10637 115
is_linear=0
shrinkage=1


Tree=1
num_leaves=64
num_cat=0
split_feature=5 4 7 8 5 7 5 6 7 6 5 4 5 4 2 5 6 4 2 8 7 0 0 7 4 5 7 6 4 8 7 6 0 4 5 0 8 4 8 8 6 4 6 8 2 5 8 2 2 8 5 0 8 8 4 6 6 6 0 2 8 5 8
split_gain=0.250076 0.122138 0.115219 0.103379 0.0973512 0.0890734 0.102984 0.0703967 0.0575491 0.0606521 0.0548905 0.0446029 0.0430278 0.0652867 0.0426468 0.0382313 0.0394256 0.037611 0.0364285 0.0571591 0.0351628 0.033283 0.0302567 0.0427258 0.0321828 0.0294368 0.0371406 0.0291007 0.0290381 0.0329685 0.0295415 0.028867 0.0406976 0.0279688 0.0323685 0.0288623 0.0261203 0.0257389 0.0486562 0.0244787 0.0242734 0.022707 0.0226637 0.0225625 0.0444162 0.0213763 0.020697 0.0478784 0.0289841 0.0425201 0.0256152 0.0204594 0.0337802 0.028339 0.0356854 0.0268309 0.0253704 0.0336022 0.023697 0.0294675 0.0219108 0.0201896 0.019705
threshold=0.48775646090507513 -0.38390399515628809 -0.22564193606376645 -0.10504899919033049 -2.433063149452209 -0.31000295281410212 -1.5079573988914488 -0.85801446437835682 1.7343105077743532 0.67387387156486522 2.442458033561707 0.15841958671808246 -3.6445941925048824 -0.2389666214585304 -0.12344593554735182 -0.41622833907604212 -0.35835437476634974 -0.23252427577972409 -0.12049176916480063 -0.094636481255292879 2.8856301307678227 -0.08408102765679358 -0.10549919307231902 -2.068710088729858 0.33698551356792456 -0.5857180356979369 0.43774749338626867 -0.35061973333358759 -0.19213006645441053 -0.094636481255292879 0.62576699256896984 -1.0289142131805418 -0.094454251229763017 -0.10602660104632376 3.0522264242172246 -0.098336260765790925 -0.10197283327579497 -0.10602660104632376 -0.087623678147792802 -0.10881673917174338 -0.53553795814514149 -0.31222987174987787 0.96120256185531627 0.47540380060672766 0.84777235984802257 1.3727148175239565 -0.079595465213060365 -0.097595691680908189 -0.11422612145543097 -0.10586653277277945 0.51686239242553722 0.046432591974735267 0.27868770062923437 -0.078903071582317338 -0.35554617643356318 1.4166276454925539 -0.49509760737419123 -0.33475720882415766 0.067450400441885008 0.14304469525814059 0.10205626487731935 -1.3362516760826109 -0.099720720201730714
decision_type=2 2 2 2 2 2 2 2 2 2 2 2 2 2 2 2 2 2 2 2 2 2 2 2 2 2 2 2 2 2 2 2 2 2 2 2 2 2 2 2 2 2 2 2 2 2 2 2 2 2 2 2 2 2 2 2 2 2 2 2 2 2 2
left_child=1 4 41 14 -1 11 -7 17 9 10 46 12 13 -5 39 16 -6 -4 36 42 -19 -17 23 -21 -25 26 37 -28 30 45 -11 -24 61 34 -10 -36 -13 -8 -39 -3 -35 -2 -20 -18 -45 -30 48 -48 49 -9 -49 53 58 -14 56 60 -55 -58 -53 -60 -56 -33 -50
right_child=2 3 7 5 15 6 25 8 33 28 -12 18 51 -15 -16 21 43 20 19 22 -22 -23 31 24 -26 -27 27 -29 29 -31 -32 32 -34 40 35 -37 -38 38 -40 -41 -42 -43 -44 44 -46 -47 47 50 62 -51 -52 52 -54 54 55 -57 57 -59 59 -61 -62 -63 -64
leaf_value=0.001952799538626363 2.8350383959636002e-05 8.3520595728982109e-05 0.00013009914105183065 0.0019995250030271044 6.4203730183333321e-05 0.00169416403126282 0.00012085599624649676 0.00024207926674255456 0.0006196678684204926 -1.4851111151629239e-05 -0.00087665605641168952 -0.00073218156103393994 -0.00015857614517258907 -0.00013158520058922395 -4.1137104212654981e-05 -6.3173812650398769e-05 0.00032040924399303174 -0.00015917981137752546 -0.00019074810737420588 -0.0016354324692404835 -0.0011498204358018091 7.6978334396663023e-05 0.00024166142505659596 -0.001643645611686886 -0.00026818548109143464 -8.7973407690560544e-05 0.0016766448845682701 0.00040201403814150744 -3.7526553399195229e-05 -0.0010300277458414871 0.00046211251735960772 -0.00072364835289067059 -0.0011570267640571628 0.0009195722185431119 0.0023947163306249149 0.00075410026394569414 -0.0020963835858685133 2.9253720541336492e-05 -0.0015543166362732965 0.00074455580749211944 5.4304537601732635e-05 -0.00034365807519595617 0.00074155122694199765 0.002120831536589287 0.00025085169560761753 -0.00092653532985180703 0.0010783011604416971 -0.00026896010709062738 2.8740639354488608e-06 0.00064621340359899068 0.00035575911850988987 0.0014244633587972763 -0.00054964742758491388 0.00022566989405805422 -0.00041063922120436377 0.00032292051084398298 -0.001191537690939122 -0.00011641848145314972 -0.00017979239408681493 0.001052418146888432 -0.0013134211357480484 0.00041984024376893835 0.00022034339802056501
leaf_weight=67 617 6836 1584 55 2518 83 991 3470 639 1238 105 119 7825 100 27863 6605 1668 1179 951 158 96 11807 126 54 190 12241 52 297 688 115 439 65 179 105 52 57 50 153 70 142 345 1222 69 52 80 74 223 173 1718 801 2962 51 117 438 2978 122 85 471 144 72 68 92 2645
leaf_count=67 617 6836 1584 55 2518 83 991 3470 639 1238 105 119 7825 100 27863 6605 1668 1179 951 158 96 11807 126 54 190 12241 52 297 688 115 439 65 179 105 52 57 50 153 70 142 345 1222 69 52 80 74 223 173 1718 801 2962 51 117 438 2978 122 85 471 144 72 68 92 2645
internal_value=1.92878e-06 -3.54728e-05 0.000158658 -7.12079e-05 6.37617e-05 -0.000141894 -5.12644e-05 0.000195781 0.000236973 0.0002097 0.000256441 -0.000228212 -0.000192777 0.000632585 -1.34534e-05 5.81078e-05 0.000191992 -3.25726e-05 -0.00044421 -0.000380706 -0.000234612 2.67004e-05 -0.000679708 -0.000996669 -0.000578057 -6.18812e-05 0.000142391 0.000596178 -1.17026e-05 -0.00024468 0.000110208 -0.000402353 -0.000643859 0.000570066 0.000757337 0.00155143 -0.00114575 1.15537e-05 -0.000472551 9.70772e-05 0.000257792 -0.000218899 -0.000127016 0.00037062 0.000997918 -0.000124962 0.000266434 0.000371794 0.000225419 0.000318006 0.00032121 -0.000203168 0.000155767 -0.000214679 -0.000320095 -0.000402083 -5.86459e-05 -0.000282624 0.000465779 0.000233902 -0.000431218 -5.51623e-05 0.000134732
internal_weight=106651 86104 20547 63307 22797 28466 13887 18708 15849 14651 12097 14579 12526 155 34841 22730 4318 2859 2053 1884 1275 18412 864 402 244 13804 1563 349 2554 877 1677 462 336 1198 748 109 169 1214 223 6978 450 1839 1020 1800 132 762 11992 3358 8634 4271 3135 12371 384 11987 4162 3168 994 556 267 216 3046 157 4363
internal_count=106651 86104 20547 63307 22797 28466 13887 18708 15849 14651 12097 14579 12526 155 34841 22730 4318 2859 2053 1884 1275 18412 864 402 244 13804 1563 349 2554 877 1677 462 336 1198 748 109 169 1214 223 6978 450 1839 1020 1800 132 762 11992 3358 8634 4271 3135 12371 384 11987 4162 3168 994 556 267 216 3046 157 4363
is_linear=0
shrinkage=0.05


Tree=2
num_leaves=64
num_cat=0
split_feature=7 4 8 7 7 2 2 6 6 4 8 4 4 0 8 8 7 8 6 8 8 3 8 3 4 7 3 6 7 6 6 8 0 4 8 3 4 6 2 7 6 7 4 6 7 4 2 8 8 2 2 7 7 4 6 6 4 7 7 7 4 3 2
split_gain=0.201243 0.114596 0.117096 0.0756951 0.075669 0.0694491 0.0533658 0.0476535 0.0383767 0.0335982 0.068985 0.0363396 0.031528 0.0321972 0.0500425 0.0309502 0.0308131 0.0306267 0.0353331 0.0285142 0.0261736 0.0567908 0.025869 0.0251297 0.0583618 0.0247521 0.0262948 0.0247478 0.0241085 0.0239134 0.0215932 0.0215474 0.0243566 0.0211489 0.019809 0.0256415 0.0248854 0.0196854 0.0196517 0.0242142 0.0228762 0.018711 0.0344346 0.0182888 0.0182551 0.021764 0.018255 0.0342447 0.0220627 0.01797 0.0179644 0.0179176 0.0178135 0.0172563 0.019051 0.0300792 0.0173961 0.0172442 0.0182854 0.0167417 0.0175714 0.0191483 0.0166601
threshold=-0.14062581211328504 -0.38031551241874689 -0.10178048908710478 -2.275550007820129 1.1572310328483584 -0.12010112032294272 -0.080574121326208101 -0.88005182147026051 0.76441428065299999 0.15841958671808246 -0.093339268118143068 2.3871642351150517 1.0000000180025095e-35 -0.090284347534179674 -0.071743797510862337 -0.028911932371556755 -0.73044636845588673 -0.09046506509184836 -1.0156348943710325 -0.11317624151706694 -0.08720893412828444 -0.10057205334305762 -0.10899270698428153 -0.12354725971817969 1.7541608214378359 -0.39985471963882441 0.038631523028016097 0.25773701071739202 0.3769544661045075 0.96120256185531627 -1.4462450742721555 0.21908222138881686 0.0050353175029158601 0.55387824773788463 -0.083836957812309251 -0.10665386542677878 -0.079733226448297487 1.9698666334152224 -0.12138444185256957 -1.6845112442970274 -0.43019202351570124 0.20172424614429477 -0.093412693589925752 0.23810546100139621 -1.5258650779724119 0.40948961675167089 0.054808730259537704 0.031329564750194556 2.2697842121124272 -0.089696556329727159 0.14304469525814059 1.4364330768585207 2.0705043077468877 -0.38301002979278559 -0.35835437476634974 0.10945676267147066 -0.4028338342905044 -0.56514310836791981 -0.32490304112434382 0.85207477211952221 -0.35780525207519526 -0.01006363984197378 -0.11013617366552352
decision_type=2 2 2 2 2 2 2 2 2 2 2 2 2 2 2 2 2 2 2 2 2 2 2 2 2 2 2 2 2 2 2 2 2 2 2 2 2 2 2 2 2 2 2 2 2 2 2 2 2 2 2 2 2 2 2 2 2 2 2 2 2 2 2
left_child=1 3 22 -1 6 33 19 20 -9 25 29 17 13 14 -10 51 53 62 -19 -2 -6 -22 37 24 -24 30 -27 28 -21 44 -7 32 -32 -4 43 -36 -37 -3 40 -40 -25 42 -8 -30 -11 -46 47 -43 -48 57 -33 -15 -17 54 -5 56 -56 -18 -59 60 61 -49 -12
right_child=4 2 5 16 7 9 41 8 12 10 11 -13 -14 15 -16 52 49 18 -20 27 21 -23 23 38 -26 26 -28 -29 34 -31 31 50 -34 -35 35 36 -38 -39 39 -41 -42 46 -44 -45 45 -47 48 59 -50 -51 -52 -53 -54 -55 55 -57 -58 58 -60 -61 -62 -63 -64
leaf_value=0.0015047703869640828 0.00021919794260326581 2.0608027950049827e-05 -0.00073287864246539714 3.8460771540025148e-05 -0.00026061720288443363 0.00016349034930121043 7.4771356744098393e-05 0.00040018718365815724 0.00020178892580812767 -0.00054290927690567824 -0.0018133981937282512 -0.0019055846503761133 -0.00049082154029054528 -9.9318842818182975e-05 0.0014280691299354657 -0.00012109621706137358 0.00034359926611311195 0.00018323544864449028 -0.00067743793456174432 1.0935042454471915e-06 0.0017071022379241186 2.9462389545435808e-05 0.0016284949132100201 -0.00077826261551331593 -0.00046871034715171742 -9.0624247889094592e-05 0.00087597558506078907 -4.3166583379509461e-05 6.9781211403234722e-05 0.00072335534761591323 -0.00024841643289644433 -0.0014326809653806883 0.00017440969080533992 -0.0020311882414432605 0.0013089521126593969 0.00035023226777795109 -0.00053167161612590371 -0.0003522710744534474 0.00034521841730197227 -0.00011605221577615736 -0.00013009365481723631 0.00019377879175441111 -0.0012173288744983999 0.00073393724157497112 -0.00047715127899320987 0.00026968225142276237 1.4238897733952035e-05 0.001533980465473388 0.00074535341712554345 5.3820053245199621e-05 -0.00037177592338412071 -0.0013058615493048964 0.00089861036598449574 0.00081351808266921614 0.0011314289247157322 0.00016924961300139038 0.00033576607455019732 -0.00038283301733997636 -4.602682051059974e-05 0.0012666607606074505 -0.00028285578235967074 0.00044590711489466854 -0.00062322830766628186
leaf_weight=90 1646 10755 65 983 645 338 6177 3226 498 216 76 59 209 52 99 149 179 148 605 16610 56 439 65 236 66 3095 71 15375 8169 84 9207 67 353 63 61 725 89 365 295 7359 321 5151 51 104 146 289 1936 51 108 6013 99 75 59 118 158 667 123 639 1089 92 58 189 50
leaf_count=90 1646 10755 65 983 645 338 6177 3226 498 216 76 59 209 52 99 149 179 148 605 16610 56 439 65 236 66 3095 71 15375 8169 84 9207 67 353 63 61 725 89 365 295 7359 321 5151 51 104 146 289 1936 51 108 6013 99 75 59 118 158 667 123 639 1089 92 58 189 50
internal_value=1.83459e-06 -7.92524e-05 -0.000122556 6.92364e-05 6.00096e-05 -0.000227379 4.279e-05 0.000236925 0.000312059 -0.000217364 -0.000428457 -0.000712435 6.27582e-05 0.000187291 0.00040719 -0.000204634 5.61268e-05 -0.000630275 -0.000508256 1.51988e-05 -5.09119e-05 0.000222315 -4.15913e-05 -0.000108141 0.000576341 -0.00019064 -6.86777e-05 7.03029e-06 3.69934e-05 -6.557e-05 -0.000228997 -0.000242652 -0.000232787 -0.00138268 0.00010217 0.00032828 0.000253274 8.33817e-06 -0.00011913 -9.82312e-05 -0.000405624 0.000128233 6.39968e-05 7.8218e-05 -0.00016832 1.85014e-05 0.000180961 0.000228067 5.32148e-05 1.1405e-05 -0.000805987 -0.00081648 0.000171063 0.0002289 0.000192772 0.000352572 0.000785575 -0.000122293 -0.000170724 0.000679285 0.000494317 0.000682528 -0.00134973
internal_weight=106651 44552 34493 10059 62099 15031 56592 5507 4367 14903 1673 938 1141 932 597 335 9969 879 753 42779 1140 495 19462 8342 131 13230 3166 41133 25758 735 10064 9726 9560 128 9148 875 814 11120 8211 7654 557 13813 6228 8273 651 435 7585 5541 2044 7920 166 127 208 2049 1931 948 281 1907 1728 390 298 240 126
internal_count=106651 44552 34493 10059 62099 15031 56592 5507 4367 14903 1673 938 1141 932 597 335 9969 879 753 42779 1140 495 19462 8342 131 13230 3166 41133 25758 735 10064 9726 9560 128 9148 875 814 11120 8211 7654 557 13813 6228 8273 651 435 7585 5541 2044 7920 166 127 208 2049 1931 948 281 1907 1728 390 298 240 126
is_linear=0
shrinkage=0.05


Tree=3
num_leaves=64
num_cat=0
split_feature=5 7 7 5 5 1 6 8 7 5 6 5 1 8 8 7 8 6 3 1 7 6 5 6 8 6 5 8 5 1 2 2 6 6 3 3 8 8 5 8 6 2 3 6 1 8 5 8 1 2 8 5 8 1 5 6 5 6 8 2 6 6 5
split_gain=0.212969 0.0972346 0.0629247 0.115548 0.0729559 0.0705212 0.0616485 0.058264 0.0481464 0.054072 0.0532165 0.0477241 0.0758775 0.0524788 0.0502081 0.0433585 0.0481514 0.0444909 0.0391493 0.0303091 0.0303903 0.0522502 0.0302192 0.0656482 0.0298417 0.0291924 0.0647809 0.0289096 0.0274144 0.0264385 0.0425956 0.0247084 0.0242355 0.0225417 0.0217951 0.0272746 0.163836 0.0379692 0.0209644 0.0204242 0.0194287 0.0191786 0.0178975 0.0260228 0.019511 0.0212759 0.0176424 0.0174165 0.0431084 0.0263205 0.0379646 0.023134 0.0172506 0.0184687 0.0172085 0.0167837 0.020868 0.0164515 0.0204053 0.037927 0.0162433 0.0196649 0.0189198
threshold=0.48775646090507513 -0.22564193606376645 -0.31000295281410212 -1.7539820075035093 -0.84694078564643849 0.16682298481464389 -0.85801446437835682 -0.10782602801918982 1.7343105077743532 2.442458033561707 0.67387387156486522 -3.6445941925048824 -0.10802038013935088 -0.067988604307174669 -0.096139457076787935 -1.9135445952415464 0.17835099250078204 1.0017569065093996 -0.07598430290818213 -0.12159829586744307 0.34649807214736944 -0.38229431211948389 -0.35888664424419398 -0.04155416972935199 -0.087623678147792802 -0.27254441380500788 -0.69287285208702076 -0.11278090626001357 -1.0378849506378172 0.02966193109750748 0.1045486629009247 -0.068386241793632493 -1.0878512263298032 -0.47914645075798029 -0.12346313893795012 -0.098697692155837999 -0.073472287505865083 0.085037428885698332 3.0522264242172246 0.070919319987297072 -1.4462450742721555 -0.12104206532239913 -0.095235444605350481 0.86655160784721386 -0.078437000513076768 -0.065859884023666368 1.6230267286300661 -0.079595465213060365 -0.098462183028459535 -0.11422612145543097 -0.10586653277277945 0.51686239242553722 -0.099720720201730714 -0.10527595877647399 1.4414405822753908 -0.05014307610690593 -0.030179339461028572 -0.45456172525882715 -0.10080360621213912 -0.11216681823134421 -0.03360598906874656 -0.42195047438144678 0.6367768943309785
decision_type=2 2 2 2 2 2 2 2 2 2 2 2 2 2 2 2 2 2 2 2 2 2 2 2 2 2 2 2 2 2 2 2 2 2 2 2 2 2 2 2 2 2 2 2 2 2 2 2 2 2 2 2 2 2 2 2 2 2 2 2 2 2 2
left_child=2 -2 5 -4 19 7 24 -1 9 10 47 12 14 -14 -9 17 29 57 22 33 -21 -22 23 -6 38 32 -27 -24 -23 -17 -31 -15 -7 -5 -10 36 41 42 -3 -20 -26 -36 -37 44 45 -44 -12 49 -49 50 -8 -50 -51 -54 60 56 -29 -13 -59 -60 61 -55 -63
right_child=1 6 3 4 18 25 8 11 34 -11 46 15 13 31 -16 16 -18 -19 39 20 21 28 27 -25 40 26 -28 55 -30 30 -32 -33 -34 -35 35 37 -38 -39 -40 -41 -42 -43 43 -45 -46 -47 -48 48 51 52 -52 -53 53 54 -56 -57 -58 58 59 -61 -62 62 -64
leaf_value=5.6982696984212152e-06 -0.0002004619332381174 -0.00011881029992304039 0.0023115364856224614 0.00021978252007740374 -7.2069292673876539e-05 0.00056326928177544958 0.00022583755948291334 0.0003380127087958889 -0.0003100371524704167 -0.00084155220874818049 2.0416332938264251e-05 -0.0003420858575835337 0.0024640472254295852 -1.300690206404351e-05 -0.0015860803817192568 -0.0001462695772858057 -0.0010490160357827941 0.00092685665526837753 9.7991568656608446e-05 0.00014549991780576593 0.00212777275883127 -0.00035354373303925972 8.2770800682185439e-05 0.00028779702667725525 -0.00054452398645338121 0.0018055219480629604 0.00031517132420031644 -9.8614929020874838e-05 0.00094863452181512427 0.00026531111094745148 -0.0004028918807736818 0.0013013088294290796 -0.0001144339005826854 0.0014727770162376236 0.0011298288091912045 -0.00077616102340211264 0.0029068625941727081 0.0011380352379466571 -0.001026297553005751 -7.3915413470067022e-05 0.00025484096924776586 0.00036075377701389724 5.6277439103243251e-05 -0.00083961637323156149 -2.6294346726327031e-05 0.0013699323013976316 -0.00068488634896430483 0.0010501819236136828 -0.00026285919119403131 -4.3712343995403779e-07 0.00060770627969080259 0.00033069551128933356 0.00044288104316943976 9.2622301622060494e-05 -0.00031404353520039026 -9.5951225897492352e-05 2.85858436893022e-05 4.0156735009571286e-05 -0.0016865119414287621 -0.00057948452426139104 -1.402217492631135e-05 8.2117453236692182e-05 0.00070834207396554586
leaf_weight=8605 1839 1802 53 56 3034 174 3470 83 73 124 2444 877 50 78 56 18527 143 58 9952 815 55 74 3649 2175 82 84 518 5410 87 919 321 65 535 101 97 55 79 101 65 2090 910 482 52 50 134 75 91 202 173 1718 801 2983 615 592 196 18951 7978 80 99 352 689 178 375
leaf_count=8605 1839 1802 53 56 3034 174 3470 83 73 124 2444 877 50 78 56 18527 143 58 9952 815 55 74 3649 2175 82 84 518 5410 87 919 321 65 535 101 97 55 79 101 65 2090 910 482 52 50 134 75 91 202 173 1718 801 2983 615 592 196 18951 7978 80 99 352 689 178 375
internal_value=1.74419e-06 0.000146378 -3.27712e-05 -2.05266e-07 -2.49882e-06 -8.88721e-05 0.000180482 -0.000104403 0.00021903 0.000194083 0.00020298 -0.000148044 0.000445981 0.00108518 -0.000442954 -0.000157291 -0.000137953 -0.000419648 -1.11496e-05 0.00038486 0.000285705 0.00081161 -3.43307e-05 7.8218e-05 -3.32119e-05 0.00027003 0.000525777 -5.06231e-05 0.00035163 -0.00013131 9.21475e-05 0.000589297 5.24444e-05 0.00103007 0.000523699 0.000578027 0.000785305 0.000284919 -0.000150937 6.81519e-05 0.000188283 0.000491323 4.70364e-05 0.000194639 0.000395221 0.0008367 -5.16231e-06 0.000246977 0.000343628 0.000209351 0.00029758 0.000298086 0.000122934 0.000203036 0.000130191 -6.56768e-05 -2.28187e-05 -0.000475733 -0.000695407 -0.000825684 0.000177812 0.000293159 0.000507285
internal_weight=106651 20547 86104 54480 54427 31624 18708 30313 15849 14651 14527 21708 332 193 139 21376 19910 1466 53239 1188 1031 216 41197 5209 2859 1311 602 35988 161 19767 1240 143 709 157 1198 1125 658 467 1867 12042 992 579 366 311 261 127 2535 11992 3358 8634 4271 3156 4363 2645 2030 32339 13388 1408 531 451 1834 1145 553
internal_count=106651 20547 86104 54480 54427 31624 18708 30313 15849 14651 14527 21708 332 193 139 21376 19910 1466 53239 1188 1031 216 41197 5209 2859 1311 602 35988 161 19767 1240 143 709 157 1198 1125 658 467 1867 12042 992 579 366 311 261 127 2535 11992 3358 8634 4271 3156 4363 2645 2030 32339 13388 1408 531 451 1834 1145 553
is_linear=0
shrinkage=0.05


Tree=4
num_leaves=64
num_cat=0
split_feature=5 7 7 5 1 8 3 8 5 8 5 1 8 8 5 0 7 7 8 0 3 3 1 2 8 7 1 2 8 8 3 7 8 2 7 5 8 3 0 5 8 3 5 5 7 8 8 5 7 7 8 5 7 5 7 8 8 2 7 8 5 8 1
split_gain=0.192219 0.0877634 0.0567943 0.121743 0.0621332 0.0499412 0.0884752 0.0805183 0.0456606 0.0449821 0.0464043 0.0629344 0.0637608 0.047467 0.04118 0.0380783 0.0374421 0.032786 0.0368914 0.0327834 0.0353485 0.0291295 0.028794 0.0340014 0.0280233 0.0275065 0.0270732 0.025154 0.061211 0.0320932 0.0240562 0.0237429 0.0227843 0.0223348 0.0213808 0.0208541 0.020321 0.0347809 0.0190098 0.0189195 0.0300339 0.0333964 0.0187717 0.0187717 0.0172772 0.0172204 0.0167723 0.0162532 0.0172469 0.0160753 0.0154745 0.0220782 0.0152994 0.0200646 0.0147296 0.0167201 0.0139837 0.0141309 0.0139701 0.0137279 0.0171 0.0133256 0.0132793
threshold=0.48775646090507513 -0.22564193606376645 -0.3681830614805221 -1.3362516760826109 0.16682298481464389 -0.084871906787157045 -0.098697692155837999 -0.053466403856873505 -0.4795872271060943 -0.10899270698428153 -3.6445941925048824 -0.10802038013935088 -0.1043206676840782 -0.067988604307174669 1.6230267286300661 -0.12350186333060263 0.43774749338626867 -1.9135445952415464 0.17835099250078204 -0.12042308226227759 -0.12070972099900244 -0.078445374965667711 0.02966193109750748 0.1045486629009247 -0.11305454000830649 1.2037343978881838 -0.11104832589626311 -0.11544809490442275 -0.098827708512544618 -0.09266697987914084 -0.023275728337466713 -1.6845112442970274 -0.11004323139786719 -0.068386241793632493 -0.066886477172374711 -1.0674899816513059 0.039886139333248145 1.0000000180025095e-35 -0.11965955793857573 -1.0088579058647154 -0.10017889738082884 -0.11208185181021689 3.0522264242172246 -0.77509912848472584 -0.16413697600364682 -0.097015839070081697 0.070919319987297072 1.6230267286300661 2.336087822914124 0.038920694962143905 -0.11068981885910033 -0.82727694511413563 -0.73044636845588673 0.1632213890552521 -0.31000295281410212 0.039886139333248145 2.2697842121124272 0.1045486629009247 -0.1817757189273834 -0.079595465213060365 -0.67753121256828297 -0.083836957812309251 -0.11193100363016127
decision_type=2 2 2 2 2 2 2 2 2 2 2 2 2 2 2 2 2 2 2 2 2 2 2 2 2 2 2 2 2 2 2 2 2 2 2 2 2 2 2 2 2 2 2 2 2 2 2 2 2 2 2 2 2 2 2 2 2 2 2 2 2 2 2
left_child=2 -2 4 16 9 27 7 26 34 43 11 12 -11 -13 36 -12 44 39 19 20 -19 24 38 -24 -10 -16 -7 28 32 45 42 -6 -3 -15 50 -33 49 -38 -21 -17 -41 -42 -27 -1 -4 -30 54 -29 -49 -8 51 -5 -37 -54 -23 -56 57 -39 -53 60 61 -36 -40
right_child=1 5 3 8 31 6 14 -9 21 10 15 13 -14 33 25 17 -18 18 -20 22 -22 46 23 -25 -26 30 -28 47 29 -31 -32 35 -34 -35 59 52 37 56 62 40 41 -43 -44 -45 -46 -47 -48 48 -50 -51 -52 58 53 -55 55 -57 -58 -59 -60 -61 -62 -63 -64
leaf_value=0.00014339673414599956 -0.00019044427483347294 5.7849018720324391e-05 0.0012778885266098688 0.0010202381444590477 0.00090585212271061344 0.0014834624939688839 -0.0001109780579845279 0.0025990614137746458 0.00011849875655592612 0.0011136108798239673 0.00084506427686695446 0.0023432606504773536 -0.001055942439315103 -1.2364780973890632e-05 -0.0005584806370716723 -0.00047916833050326509 0.0022324842278306422 -0.00031343763589717852 -0.00095629188894877999 0.00030425658535654181 -0.0013006758964938516 -0.00019454699087316618 0.00028895235932493415 -0.00034086038607720565 -5.3484701676205222e-05 6.5192927066467141e-05 0.00052243402898797902 7.0691293287845837e-05 0.00075075890273218612 -8.9255541635519081e-05 0.00052066674639858186 -0.00028792002174764334 0.0002539749582525027 0.0012372292385076766 0.00044767602637201041 0.00055806275197627304 0.0014075676311103569 0.00062863064853246962 -0.00022087402585365735 0.00095026730922371399 -0.0012690165384600942 1.5699003231366001e-05 -0.00065904314828689253 -4.4753893508336076e-05 0.00031961406603631289 0.0017747223136514853 -8.6213374751468812e-05 -0.00030226455624398556 0.00046045162842262455 0.00025936970073616643 -1.4496832948531969e-05 1.9160844725414847e-08 1.1732494230760371e-05 0.00094238859579270483 7.1988563603365898e-05 0.00038832774855325123 0.0010894610994551894 0.00019373654370171615 0.00061060426688061683 7.9840223875398046e-05 0.00018078998894107475 0.0012902139056035701 -0.00011543122486378691
leaf_weight=1941 1839 2977 87 83 128 85 321 58 2528 50 95 50 100 78 230 1131 56 573 135 244 107 489 837 287 37351 335 517 5746 76 52 207 189 2947 65 650 330 91 274 3866 60 64 228 121 4176 103 95 1988 539 85 3300 2498 393 473 65 9050 437 65 587 122 898 911 50 13138
leaf_count=1941 1839 2977 87 83 128 85 321 58 2528 50 95 50 100 78 230 1131 56 573 135 244 107 489 837 287 37351 335 517 5746 76 52 207 189 2947 65 650 330 91 274 3866 60 64 228 121 4176 103 95 1988 539 85 3300 2498 393 473 65 9050 437 65 587 122 898 911 50 13138
internal_value=1.66352e-06 0.000139071 -3.11273e-05 -2.63113e-06 -8.89942e-05 0.000171471 0.000287624 0.000834407 -7.39349e-06 -0.000104424 -0.00013902 0.000437007 -0.000330172 0.00103189 0.000222239 -0.000148556 0.00110504 -0.000153163 -0.000135642 -0.000129777 -0.000470464 -2.20513e-05 -0.000117142 0.000127977 -4.25797e-05 -8.86004e-05 0.000660363 0.000114002 0.000186149 0.00099755 7.50004e-05 0.000265285 0.000155442 0.00056028 0.000128163 0.000186931 0.000282094 0.000479559 -0.000133122 -0.000379611 -5.92768e-05 -0.000269253 -0.000128005 1.49623e-05 0.000762796 0.00132664 4.63727e-05 4.43633e-05 -0.000197798 0.000226517 4.02274e-05 0.000268467 0.000290538 0.000125712 7.28002e-05 8.65995e-05 0.000386942 0.000332704 0.000145566 0.000236611 0.000323895 0.000509612 -0.000139416
internal_weight=106651 20547 86104 57694 28410 18708 6191 660 57448 27225 21108 343 150 193 5531 20765 246 20670 19187 19052 680 51843 18372 1124 39879 893 602 12517 6147 223 663 1185 5924 143 5605 1057 4638 1017 17248 1483 352 292 456 6117 190 171 11964 6370 624 3621 3096 598 868 538 9976 9487 926 861 515 2509 1611 700 17004
internal_count=106651 20547 86104 57694 28410 18708 6191 660 57448 27225 21108 343 150 193 5531 20765 246 20670 19187 19052 680 51843 18372 1124 39879 893 602 12517 6147 223 663 1185 5924 143 5605 1057 4638 1017 17248 1483 352 292 456 6117 190 171 11964 6370 624 3621 3096 598 868 538 9976 9487 926 861 515 2509 1611 700 17004
is_linear=0
shrinkage=0.05


Tree=5
num_leaves=64
num_cat=0
split_feature=5 0 6 6 1 8 1 2 0 0 8 5 8 2 2 5 3 5 6 3 8 8 6 6 6 6 8 8 2 8 8 2 3 8 5 8 2 3 8 8 1 1 6 5 8 2 1 1 2 1 6 5 1 1 5 0 3 0 8 6 6 6 5
split_gain=0.176352 0.0514017 0.0478171 0.0649274 0.051245 0.0585949 0.047277 0.0399432 0.0394149 0.0390608 0.0382773 0.0381037 0.0357638 0.0297644 0.0377314 0.0239254 0.0188855 0.0182962 0.0467409 0.0163412 0.0162031 0.0226223 0.0158143 0.0152261 0.0147041 0.0141924 0.0141333 0.0139331 0.0138045 0.0237393 0.0137024 0.0360843 0.0234516 0.0604481 0.0431815 0.0371704 0.0318655 0.0205651 0.0166543 0.0160942 0.0185442 0.0179687 0.015409 0.0225088 0.0169459 0.0208491 0.0166591 0.0148613 0.0173847 0.0148915 0.0147893 0.025874 0.0170125 0.0146196 0.0144971 0.0206076 0.0209157 0.016609 0.0150243 0.0186624 0.0143049 0.0135352 0.0134946
threshold=0.48775646090507513 -0.058305190876126282 0.67387387156486522 -0.63069716095924366 -0.096939418464899049 -0.097300887107849107 -0.046642683446407311 -0.095924496650695787 -0.11568868905305861 -0.11613722145557402 -0.11140204593539237 -3.6445941925048824 -0.060867110267281525 -0.12493905052542685 -0.12447736412286757 1.3145340085029604 -0.11649366840720175 -2.433063149452209 -0.92600613832473744 -0.0440757218748331 -0.031862191855907433 -0.087623678147792802 -0.53553795814514149 0.18962255865335467 -1.1198884248733518 0.11826718598604204 -0.097814347594976411 -0.048294816166162484 -0.12204924225807189 -0.11054767668247222 -0.064731676131486879 -0.080574121326208101 -0.092546448111534105 -0.059504749253392213 -0.43316929042339319 -0.021965191699564453 -0.077176798135042177 -0.10227158293128012 -0.093339268118143068 -0.075176462531089769 -0.074840564280748353 -0.04939740523695945 0.64541059732437145 -0.5857180356979369 -0.05190072022378444 -0.0846845507621765 -0.090382840484380708 -0.073656678199768053 -0.068386241793632493 -0.051721721887588494 -0.76523953676223744 -0.21105569601058957 -0.097760077565908418 -0.12365697696804999 0.1283129081130028 -0.055646659806370728 -0.067205734550952897 -0.065401818603277193 -0.041962418705224984 0.10945676267147066 1.0885024666786196 -0.42195047438144678 0.65118759870529186
decision_type=2 2 2 2 2 2 2 2 2 2 2 2 2 2 2 2 2 2 2 2 2 2 2 2 2 2 2 2 2 2 2 2 2 2 2 2 2 2 2 2 2 2 2 2 2 2 2 2 2 2 2 2 2 2 2 2 2 2 2 2 2 2 2
left_child=6 2 3 20 5 8 10 -6 15 25 -1 -8 -11 -12 -15 16 -5 18 -13 23 21 -2 -17 27 -23 -7 -10 -19 29 -24 31 53 33 34 -32 42 -37 -35 -33 41 -41 -40 44 -44 45 46 -34 -38 -49 -50 -39 52 -52 -16 55 56 58 -58 -46 -60 -42 -59 -9
right_child=1 -3 -4 4 7 9 11 62 26 12 13 17 -14 14 30 22 -18 19 -20 -21 -22 24 28 -25 -26 -27 -28 -29 -30 -31 32 38 35 37 -36 36 47 50 39 40 60 -43 43 -45 54 -47 -48 48 49 -51 51 -53 -54 -55 -56 -57 57 61 59 -61 -62 -63 -64
leaf_value=2.7494953901273053e-05 -7.6056623724339014e-05 0.00029991754567438434 -7.6356662654710562e-05 0.00022098542916485712 -0.00086971439981067811 0.00086709599252607599 0.0012542849272952508 -0.00012947333031688153 3.713616593301107e-05 0.00041927990692049611 0.00075743193118713947 0.00013884169971424855 0.0014888029304956835 -0.00096286068316665981 0.00013289084610219326 0.001420618034587408 0.00085867390997249884 -0.00016643157198340298 -0.0017112575121035871 4.7925240826264312e-05 -0.000852236051804986 -0.00018411998635565398 0.00030512965088920729 0.00089917248845234081 0.00033503017430091723 0.0020769289104814212 -0.00076938540670588352 0.00078453335322831814 0.00027215323296256126 0.0014725996606530208 -0.0014249017179598299 0.00019373901884835773 -0.00048508932109382987 -0.00031425556906517112 4.4390545890960121e-05 -0.00047418143683708604 0.0011111414312976054 0.0013202549696996295 -3.4463017490123375e-05 0.00053515270235042305 -8.6858928797601446e-06 -0.00077157750280628756 0.00092880396629110558 -0.00015690813162510335 -0.00078027489527923949 -0.00034101768135298309 0.00037585401614369067 -0.0003833837169016382 0.00053984991517310019 -0.00017381344848227227 0.00065623936926885375 0.00093718125387871019 -0.00033142131751205412 -7.5499514291890355e-05 -9.4202146658637129e-05 -5.4874793213690657e-05 -0.0017906366867405706 -0.00029032961127894752 4.6559673947704555e-05 -0.0009337337370075758 0.00054793901270551784 -0.0012041016423909147 0.00013487811357024883
leaf_weight=14088 3253 3741 3277 2963 121 50 65 679 1809 1402 109 99 82 116 856 55 120 118 51 12855 58 174 93 107 621 51 55 56 239 82 88 1639 75 76 114 171 51 57 3032 256 919 84 51 582 244 813 215 95 300 96 70 149 112 47284 189 155 61 71 176 66 131 96 1664
leaf_count=14088 3253 3741 3277 2963 121 50 65 679 1809 1402 109 99 82 116 856 55 120 118 51 12855 58 174 93 107 621 51 55 56 239 82 88 1639 75 76 114 171 51 57 3032 256 919 84 51 582 244 813 215 95 300 96 70 149 112 47284 189 155 61 71 176 66 131 96 1664
internal_value=8.36984e-07 0.000132281 9.50429e-05 0.000136434 0.00020846 0.000277471 -3.0619e-05 1.23428e-05 0.000199153 0.000544794 -4.65036e-05 5.58592e-05 0.00047934 -6.42941e-05 -6.58383e-05 0.000296842 0.000246077 4.99021e-05 -0.000497359 5.61887e-05 -2.96086e-05 -1.76143e-05 0.000629318 0.000432708 0.000221316 0.00149237 1.29388e-05 0.00014236 0.000521023 0.000857432 -6.40393e-05 -5.73155e-05 -0.000151337 0.000120518 -0.000599563 -0.000202984 0.000119118 0.000434617 5.7653e-05 7.18082e-06 0.000154454 -5.4575e-05 -0.000285194 -6.81067e-05 -0.000348722 -0.000211296 0.000152294 0.000306831 0.000221199 0.000366839 0.000581734 0.000450963 4.99584e-05 -7.17913e-05 -0.000491659 -0.000577894 -0.000691199 -0.00108612 -0.000504079 -0.000223535 6.1215e-05 -0.000819652 5.82467e-05
internal_weight=106627 20589 16848 13571 9465 7001 86038 2464 5416 1585 72687 13351 1484 58599 58490 3552 3083 13286 150 13136 4106 4048 469 281 795 101 1864 174 414 175 58374 54201 4173 666 202 3507 713 464 6061 4422 1306 3116 2794 633 2161 1103 290 542 491 396 388 331 182 48140 1058 869 714 228 486 242 1050 167 2343
internal_count=106627 20589 16848 13571 9465 7001 86038 2464 5416 1585 72687 13351 1484 58599 58490 3552 3083 13286 150 13136 4106 4048 469 281 795 101 1864 174 414 175 58374 54201 4173 666 202 3507 713 464 6061 4422 1306 3116 2794 633 2161 1103 290 542 491 396 388 331 182 48140 1058 869 714 228 486 242 1050 167 2343
is_linear=0
shrinkage=0.05


Tree=6
num_leaves=64
num_cat=0
split_feature=5 4 7 6 7 5 6 5 7 5 6 4 1 6 2 5 1 7 5 0 1 7 2 0 5 4 4 0 6 2 4 0 6 2 2 4 5 4 7 4 5 4 6 4 1 5 4 5 6 0 0 2 4 6 5 7 4 7 6 2 6 7 6
split_gain=0.159196 0.0811774 0.0745806 0.053173 0.0496419 0.0628904 0.0885416 0.0486277 0.0473695 0.045396 0.045395 0.037627 0.0392922 0.0299871 0.0296974 0.0292157 0.0284855 0.033929 0.0413975 0.0306494 0.0314138 0.0357696 0.0287717 0.0283433 0.0260923 0.024314 0.0239111 0.0346667 0.023518 0.0232765 0.0362423 0.0231047 0.0225234 0.0208551 0.0508986 0.0279762 0.0205566 0.0199427 0.0346938 0.0217727 0.0199046 0.0195817 0.0190684 0.0185207 0.018416 0.0283194 0.0201842 0.0180305 0.0334546 0.0267773 0.0179665 0.0177631 0.0359373 0.0224204 0.0203119 0.0179885 0.0176308 0.0172576 0.0292559 0.017066 0.0170236 0.016736 0.0167153
threshold=0.48775646090507513 -0.39289093017578119 -0.22564193606376645 -0.85801446437835682 -0.14062581211328504 -1.3362516760826109 -0.56914144754409779 -2.1961354017257686 1.7343105077743532 2.442458033561707 0.63269624114036571 -0.32736477255821222 -0.12159829586744307 -1.5867785215377805 0.086405158042907729 -0.45066620409488672 -0.11911768093705176 -3.0635920763015743 -2.433063149452209 0.046432591974735267 0.077444434165954604 -1.0248861908912656 -0.11899335682392119 -0.09211863204836844 -0.45905198156833643 -0.23252427577972409 -0.017114588059484955 -0.094840455800294862 0.37869775295257574 -0.0035360177280381318 -0.41754512488842005 -0.1232408508658409 0.71894812583923351 -0.098565872758626924 -0.10328131541609763 -0.29902851581573481 0.41522438824176794 -0.19213006645441053 0.85207477211952221 -0.22281865030527112 0.38313962519168859 -0.41681547462940211 -0.47075068950653071 0.62396335601806652 0.11799152940511705 -1.1001682281494138 -0.40648828446865076 0.78144794702529918 -0.42195047438144678 -0.058305190876126282 -0.10696313902735709 -0.10656887665390967 -0.19992847740650174 -0.36632676422595972 -0.67753121256828297 0.3243218213319779 1.6110402345657351 1.617805063724518 0.76441428065299999 -0.09475077316164969 -0.32699224352836603 -0.79286697506904591 -1.5032567977905271
decision_type=2 2 2 2 2 2 2 2 2 2 2 2 2 2 2 2 2 2 2 2 2 2 2 2 2 2 2 2 2 2 2 2 2 2 2 2 2 2 2 2 2 2 2 2 2 2 2 2 2 2 2 2 2 2 2 2 2 2 2 2 2 2 2
left_child=1 7 11 13 16 6 -6 -1 9 10 47 -2 -13 -4 33 29 17 -3 43 22 21 -21 -18 -17 28 -15 -14 56 51 -9 32 -26 -31 34 35 -10 62 38 39 41 57 -12 -37 -19 -32 -46 -47 60 49 -49 -40 54 -53 -54 55 -7 -28 -33 -59 -35 -5 -25 -24
right_child=2 4 3 8 5 24 -8 15 14 -11 37 12 26 25 -16 23 19 18 -20 20 -22 -23 36 61 31 -27 27 -29 -30 30 44 40 -34 59 -36 42 -38 -39 50 -41 -42 -43 -44 -45 45 46 -48 48 -50 -51 -52 52 53 -55 -56 -57 -58 58 -60 -61 -62 -63 -64
leaf_value=0.0013969350064144239 0.00017301091158495205 -0.00099321360415261656 -0.0011774071822353443 0.00026848408222647301 0.0025633067509420872 0.00024645612843888674 5.4821419850071914e-05 0.00034553194242169808 0.0012850141468251505 -0.00077059847571376856 0.00051131435096106979 0.00024827493052799557 -0.00026139902804892798 0.00011173371277732301 0.0016777903517233392 -9.4069409042956309e-05 -0.001169157510322741 0.0015095034527432829 -3.1553083833913181e-05 -1.5939803103849825e-05 4.3252929769029934e-05 0.0016931261553258662 0.00017699353644047225 0.00039858323416559408 8.2876480064245799e-05 -0.00018357590368433711 -0.0004111243160759959 -0.001871656176932077 0.00036517349911412811 0.00022013726894227256 -2.2201273556462001e-05 -6.6321362406716105e-05 0.0012643034424929117 -0.00064924142747518746 0.0018058190694008069 0.00079142731767440711 -0.00052042447124154363 -0.00019592425899631015 0.001110763285844139 0.00080881156286227761 8.0729667384474337e-05 -0.00011566323627197172 0.00013489086824595111 0.00039768615335030811 -0.0013024289962386987 -0.00057081019724287171 0.00064281570769896966 3.9712971154216793e-05 0.00036828837189638764 0.00047802098048224353 0.00029612798197092041 8.9082074385745592e-06 -0.00014916951549821534 -0.0014714448093326535 -1.7501797278006365e-05 0.00097967643551369723 -0.0013864297421770806 0.0011181889737764072 -2.2539032228191252e-05 0.0002874739125147092 8.986476018278985e-05 5.5728876090457022e-05 -0.00013175980645190692
leaf_weight=67 545 89 56 2090 56 354 92 1431 87 127 137 246 651 1573 50 3572 66 53 10098 55 486 68 446 366 4023 1250 307 58 783 866 537 22278 54 55 78 154 334 934 103 76 2755 1276 388 126 81 96 52 1803 3804 431 197 664 57 73 614 109 54 82 174 370 3689 11846 23135
leaf_count=67 545 89 56 2090 56 354 92 1431 87 127 137 246 651 1573 50 3572 66 53 10098 55 486 68 446 366 4023 1250 307 58 783 866 537 22278 54 55 78 154 334 934 103 76 2755 1276 388 126 81 96 52 1803 3804 431 197 664 57 73 614 109 54 82 174 370 3689 11846 23135
internal_value=7.97747e-07 -2.9089e-05 0.000125685 0.000155684 -5.49168e-05 -1.00371e-05 0.00101481 6.2235e-05 0.00019159 0.000167027 0.000175269 -0.000176129 -0.000320741 -4.19781e-05 0.000495983 5.74301e-05 -9.61462e-05 -2.66253e-05 -1.81587e-05 -0.000125451 0.000224586 0.000934944 -0.000134349 2.97998e-05 -1.48137e-05 -1.90455e-05 -0.000451671 -0.000745971 0.000135282 0.000197291 7.13414e-05 -2.8408e-05 0.000282731 0.000442348 0.000608594 0.0004575 -0.000131444 -8.77333e-06 8.89892e-05 -9.97455e-06 -4.61138e-05 -5.45549e-05 0.000322548 0.000733441 -0.000182585 -0.00055695 -0.000142949 0.000217675 0.000278106 0.000124451 0.00057858 3.89305e-05 -0.000140396 -0.000897242 0.000171144 0.000420811 -0.000560442 -6.16245e-05 0.00034578 0.000165012 0.000154498 6.60362e-05 -0.000125913
internal_weight=106627 86038 20589 18728 67070 32114 148 18968 15849 14667 14540 1861 1316 2879 1182 18901 34956 10366 10277 24590 609 123 23981 15784 31966 2823 1070 419 2654 3117 1686 29312 920 1132 707 629 23915 2723 1789 1489 25289 1413 542 179 766 229 148 11817 6038 2234 300 1871 794 130 1077 463 361 22534 256 425 5779 12212 23581
internal_count=106627 86038 20589 18728 67070 32114 148 18968 15849 14667 14540 1861 1316 2879 1182 18901 34956 10366 10277 24590 609 123 23981 15784 31966 2823 1070 419 2654 3117 1686 29312 920 1132 707 629 23915 2723 1789 1489 25289 1413 542 179 766 229 148 11817 6038 2234 300 1871 794 130 1077 463 361 22534 256 425 5779 12212 23581
is_linear=0
shrinkage=0.05


Tree=7
num_leaves=64
num_cat=0
split_feature=5 4 7 6 8 7 7 5 6 8 4 4 3 3 7 4 8 8 8 7 5 6 2 8 3 6 8 3 8 2 5 4 6 3 8 8 3 6 7 3 5 6 8 3 3 4 4 4 4 7 3 5 2 2 5 7 6 6 7 4 8 8 3
split_gain=0.14377 0.0808072 0.0610011 0.0610702 0.0508144 0.0503986 0.0459284 0.0584322 0.0936763 0.0357752 0.0510852 0.0371327 0.0538472 0.0348331 0.0355245 0.0325477 0.0467222 0.0303723 0.0303103 0.0297245 0.0375253 0.0306099 0.0276308 0.0705661 0.0275457 0.0264104 0.0337757 0.0258296 0.0331252 0.0311839 0.0245232 0.0695404 0.0262446 0.0234256 0.0456992 0.0325558 0.0343032 0.026989 0.0264021 0.0221261 0.023547 0.02149 0.0338991 0.020841 0.0324365 0.0207315 0.0196869 0.0185041 0.0181573 0.0181271 0.0184945 0.0177459 0.0177023 0.0393533 0.0176655 0.0201901 0.0287738 0.0181976 0.0174534 0.0242682 0.0173216 0.0171411 0.0170754
threshold=0.58398231863975536 -0.40361116826534266 -0.21237289905548093 -0.85801446437835682 0.039886139333248145 -1.788183808326721 -0.14062581211328504 -0.84694078564643849 -0.94972771406173695 -0.10672830417752265 -0.35314567387104029 1.4856334924697878 -0.11918209865689276 -0.091710943728685365 0.0052994755096733579 -0.32736477255821222 -0.041962418705224984 -0.10544202104210852 -0.10872369632124899 1.7343105077743532 2.442458033561707 0.71894812583923351 -0.098565872758626924 -0.073472287505865083 -0.12098427116870879 -1.5867785215377805 -0.08720893412828444 -0.11535041034221648 -0.089338164776563631 -0.11734281107783316 -3.6445941925048824 -0.22281865030527112 -1.254785358905792 0.038631523028016097 0.085037428885698332 -0.065859884023666368 -0.088258732110261903 1.3445686101913454 -1.5978924036025999 -0.12328664213418959 0.38313962519168859 0.41113579273223883 -0.037239728495478623 -0.092910695821046815 0.055200383067131049 1.2756679654121401 -0.072926279157400117 0.29486279189586645 -0.14063624292612073 0.50633874535560619 -0.1079483963549137 -1.3362516760826109 -0.12010112032294272 -0.11970771849155425 -0.45905198156833643 1.617805063724518 0.76441428065299999 0.37869775295257574 0.59962263703346264 -0.18825244158506391 -0.09492806717753409 -0.10178048908710478 0.055200383067131049
decision_type=2 2 2 2 2 2 2 2 2 2 2 2 2 2 2 2 2 2 2 2 2 2 2 2 2 2 2 2 2 2 2 2 2 2 2 2 2 2 2 2 2 2 2 2 2 2 2 2 2 2 2 2 2 2 2 2 2 2 2 2 2 2 2
left_child=1 5 15 25 19 -1 9 8 -8 -3 -11 24 17 -10 -15 -2 18 -13 -17 20 21 -5 23 45 47 -4 -27 29 51 -14 31 -26 -33 35 -35 36 52 -37 -36 -9 54 42 -42 49 -45 -21 -28 -12 -18 -7 -51 -29 61 -54 57 -56 -57 -41 -23 -60 -43 -32 -6
right_child=2 6 3 4 62 43 7 39 13 10 11 12 27 14 -16 16 48 -19 -20 22 -22 58 -24 -25 30 26 46 28 -30 -31 33 32 -34 34 38 37 -38 -39 -40 40 41 60 -44 44 -46 -47 -48 -49 -50 50 -52 -53 53 -55 55 56 -58 -59 59 -61 -62 -63 -64
leaf_value=0.0012900078302346778 0.00020328881100335774 -2.3347448077481167e-05 -0.0011195696607485348 0.0002024397685360141 0.00091370684637474158 -2.2621183260046897e-05 0.0022797322275841399 8.8229588023679118e-05 0.00049701861308347635 -1.473092448574016e-05 0.00087476999543069497 -0.00035254384732407552 -0.00024192546131407918 -0.0013598052171541245 0.00012360161674160769 0.00045590787462294207 -0.00068579997277993252 -0.0015041530211289814 -0.00032966114111226323 0.00055191182616110175 -0.00078358617261983462 -0.000133767457294808 6.7716801762147572e-05 0.0021158687265968594 0.0019324507630201727 -0.00016313537880151575 0.00028333251890298061 -0.00081275704677306838 -0.001590326831633733 0.0011642252357887629 -0.00034931244136797348 0.00047284434830259552 -0.00067283607949329878 0.0015946724409745497 0.00067207666979098295 -0.00038008701884496404 4.2955738497618043e-05 0.00046322632531313262 -0.00086977066661586197 -7.7150678867067489e-06 9.9121579262499948e-05 1.8037728399371733e-05 0.00085637183968989214 0.00016668354314989563 2.9082590885534814e-06 -0.00037006778702430051 -0.00059601511946285441 -0.00018251185666646482 -0.0018655840636648494 0.00029120565181211481 -0.00079570670063225813 0.00027961181176285591 0.0010793048499767939 -0.0001846248879403847 -6.4902832652287664e-05 0.0011249856163780096 1.6052704875065778e-05 0.00031442262696251572 0.00051265845848118058 -0.00022034682131229067 -0.00034348393126071785 -0.0014646941078621347 0.00043168209157401147
leaf_weight=85 395 14618 56 9078 258 1820 62 4547 469 7336 106 88 102 55 144 147 79 167 722 541 104 1184 334 70 52 1690 830 61 54 63 109 98 100 54 50 2377 1977 98 60 1406 3683 1117 153 7430 5097 68 68 67 57 52 152 92 61 9657 24683 85 183 636 287 185 470 50 648
leaf_count=85 395 14618 56 9078 258 1820 62 4547 469 7336 106 88 102 55 144 147 79 167 722 541 104 1184 334 70 52 1690 830 61 54 63 109 98 100 54 50 2377 1977 98 60 1406 3683 1117 153 7430 5097 68 68 67 57 52 152 92 61 9657 24683 85 183 636 287 185 470 50 648
internal_value=7.62797e-07 -2.4347e-05 0.000135005 0.000163732 0.000209057 8.31379e-05 -4.52702e-05 -6.29366e-06 0.000436382 -8.44492e-05 -0.000123486 -0.000174812 -0.000551492 0.00026214 -0.000291134 -0.000180897 -0.000331947 -0.00110966 -0.000196403 0.000181432 0.000157194 0.000166381 0.000440348 0.000623277 -0.000158942 -5.49539e-05 -3.14939e-05 -0.000166925 -0.000537764 0.000298748 -0.000166314 0.000323805 -0.000106256 -0.00017479 0.000417739 -0.0001816 -0.00014714 -0.000346522 -0.00016919 -1.50478e-05 -2.95369e-05 6.55292e-05 0.00012954 7.59998e-05 0.000100052 0.000448527 0.000216156 0.000466607 -0.00119028 -7.28407e-05 -0.000518582 -0.000158357 -0.000185191 -0.000176581 -4.86377e-05 -6.021e-05 0.000370641 9.27225e-05 -3.12935e-05 0.000225499 -8.91781e-05 -0.000707024 0.000569803
internal_weight=106627 89826 16801 15401 12757 14636 75190 37693 730 37497 22879 15543 627 668 199 1400 1005 255 869 11851 10838 10734 1013 679 14916 2644 2588 372 207 165 14743 250 198 14493 164 14329 11854 2475 110 36963 32416 5423 3836 14551 12527 609 898 173 136 2024 204 153 9877 9718 26993 24951 268 2042 1656 472 1587 159 906
internal_count=106627 89826 16801 15401 12757 14636 75190 37693 730 37497 22879 15543 627 668 199 1400 1005 255 869 11851 10838 10734 1013 679 14916 2644 2588 372 207 165 14743 250 198 14493 164 14329 11854 2475 110 36963 32416 5423 3836 14551 12527 609 898 173 136 2024 204 153 9877 9718 26993 24951 268 2042 1656 472 1587 159 906
is_linear=0
shrinkage=0.05


Tree=8
num_leaves=64
num_cat=0
split_feature=5 4 4 3 4 5 0 8 5 8 8 5 3 0 3 0 3 2 4 8 8 8 3 1 8 8 1 3 8 4 4 8 3 3 8 4 5 0 0 5 5 4 5 3 4 8 0 3 8 4 5 4 1 8 8 5 4 0 5 4 2 5 1
split_gain=0.129822 0.0665329 0.0473482 0.0539222 0.0897186 0.0434238 0.0543041 0.0421496 0.0421273 0.034918 0.0293498 0.02592 0.0253397 0.0244938 0.0240571 0.0281558 0.023547 0.0208643 0.0329086 0.0299201 0.0206369 0.020505 0.0492291 0.0181066 0.0250569 0.0184681 0.0305457 0.017321 0.0172661 0.0567844 0.0280019 0.0270737 0.0562141 0.0444569 0.0725674 0.0261774 0.0269156 0.0241314 0.0224716 0.0282951 0.0207559 0.0189052 0.0233975 0.0308614 0.0261548 0.0254462 0.0440223 0.0344854 0.0171423 0.0184089 0.0181808 0.0171331 0.0160226 0.0153301 0.0211228 0.0152716 0.0378938 0.0171495 0.0149791 0.0141336 0.0151105 0.0137505 0.0514428
threshold=0.48775646090507513 -0.39289093017578119 -0.20386604219675061 -0.099012017250061021 0.46484929323196417 0.95824775099754345 -0.11953869462013243 -0.11115171015262602 -2.1961354017257686 -0.078903071582317338 -0.087623678147792802 -0.45066620409488672 -0.12148330733180045 -0.041727911680936806 -0.12503367662429807 -0.1245303265750408 -0.091710943728685365 -0.0035360177280381318 -0.41825111210346216 -0.004999469965696334 2.2697842121124272 -0.021965191699564453 -0.029029528610408303 -0.098130088299512849 -0.073472287505865083 0.039886139333248145 0.055532589554786689 0.012670340947806837 -0.092320244759321199 0.11841929331421853 2.3871642351150517 -0.083292663097381578 -0.095600392669439302 -0.10057205334305762 -0.077467307448387132 0.62396335601806652 -1.5847586393356321 -0.11021034419536589 -0.11021034419536589 -0.42480030655860895 0.011103167664259674 -0.36128467321395868 -1.8702207803726194 -0.096860058605670915 -0.31388920545577997 0.17835099250078204 0.046432591974735267 -0.038706945255398743 -0.078903071582317338 -0.39133653044700617 -0.57409095764160145 -0.065778069198131547 0.02966193109750748 0.0053232326172292241 0.070919319987297072 1.6230267286300661 -0.27533748745918268 -0.08629546687006949 -0.69287285208702076 -0.072926279157400117 -0.068386241793632493 3.0522264242172246 -0.11869235336780547
decision_type=2 2 2 2 2 2 2 2 2 2 2 2 2 2 2 2 2 2 2 2 2 2 2 2 2 2 2 2 2 2 2 2 2 2 2 2 2 2 2 2 2 2 2 2 2 2 2 2 2 2 2 2 2 2 2 2 2 2 2 2 2 2 2
left_child=1 8 5 61 9 20 12 -3 -1 -5 -8 17 -7 59 -9 -16 -13 21 -19 27 -2 -10 -23 24 -12 55 -27 -20 -17 40 31 38 33 34 37 36 -34 -33 -31 -40 41 48 43 51 -45 46 47 -44 -30 50 -50 -43 -42 -49 -55 -25 57 -57 -38 -11 -61 -4 -63
right_child=2 7 3 4 -6 6 10 14 11 13 23 16 -14 -15 15 28 -18 18 19 -21 -22 22 -24 25 -26 26 -28 -29 29 30 -32 32 35 -35 -36 -37 58 -39 39 -41 52 42 45 44 -46 -47 -48 53 49 -51 -52 -53 -54 54 -56 56 -58 -59 -60 60 -62 62 -64
leaf_value=0.001298704268564881 9.8464089589151959e-05 2.296427865360495e-05 7.6647627925515295e-05 -0.00067417162999592825 -0.0023764507669279829 0.00062906884142628801 0.00010028421523690158 0.00078976677198815994 0.000258583748895969 0.00033816458863490369 0.00045214378779536888 -8.5277190670735362e-05 0.0018984916288091983 -0.00094880482872887961 -0.00089059298142923839 -5.1343317097230201e-05 5.9453345581891555e-05 0.00027369907059808903 -0.00028982453912841888 -0.00037867342322158809 0.0010883899662590955 0.0020517509158318199 0.00018416723642545062 0.0003312644545252099 0.0015027335250700083 0.0011110602861624673 0.00033727336494318344 0.00057277514536578503 -0.00018205995392660959 -0.0011532405328138599 -0.0014656553682774152 0.0015386109150885778 0.00013784390809353601 0.0013730892108845486 -0.001144488040630802 -0.0015413358450926369 -0.0013015309848144951 9.1274267169720829e-05 -0.00079131571194555753 0.00050596038483837174 -1.4493037899904045e-05 0.0010004681789485136 -0.00017128837482890231 0.00047854832705122104 -0.00026651291109825944 -0.0010296268318268052 0.00095696257888788295 -0.00037012186701816283 -0.0011919100675425542 8.8660163582695127e-05 -2.0009100203139952e-05 -8.1921443518883773e-05 0.00046164200862756693 -0.0013010158923862038 -0.00013709936751443561 0.00081561775247744085 -0.00083076548588540517 4.3664090110375996e-05 -0.00036230060838298936 -0.00036341150497662237 0.00056931736875578118 -0.0017063449701298868 0.00019760153754604342
leaf_weight=67 8179 15398 6750 287 50 90 1673 80 1280 291 207 3657 71 61 104 35289 12127 888 88 542 52 55 96 1239 78 176 462 168 1181 174 65 53 126 74 86 62 83 62 126 62 3933 121 6165 157 462 90 82 252 56 2134 79 52 184 135 55 94 106 297 88 206 54 50 116
leaf_count=67 8179 15398 6750 287 50 90 1673 80 1280 291 207 3657 71 61 104 35289 12127 888 88 542 52 55 96 1239 78 176 462 168 1181 174 65 53 126 74 86 62 83 62 126 62 3933 121 6165 157 462 90 82 252 56 2134 79 52 184 135 55 94 106 297 88 206 54 50 116
internal_value=7.26523e-07 -2.62625e-05 0.000113505 1.70592e-05 -0.000336164 0.000173115 0.000298122 -4.96449e-05 5.64147e-05 -0.000220174 0.000264441 5.19425e-05 0.00119714 -6.51805e-06 -7.12821e-05 -7.26325e-05 2.59174e-05 0.000183679 6.44359e-05 -0.000168479 0.000104849 0.000324028 0.000873436 0.00036765 0.000743923 0.000322184 0.000552137 0.000276283 -7.09631e-05 -0.000113698 -0.000467134 -0.000400565 -0.000203031 0.000334226 -5.31445e-05 -0.000614365 -0.000416333 0.000765821 -0.00074501 -0.000363077 -8.88972e-05 -0.000124678 -0.00016888 8.81847e-05 -7.70723e-05 -0.000198922 -0.000187592 -0.00020194 -2.76572e-05 5.27532e-05 -0.000511321 0.000676525 6.89368e-06 -0.000628119 -0.000966574 0.000237404 3.22024e-06 0.000230856 -0.000823101 9.93303e-05 -0.000168252 6.55695e-05 -0.00038266
internal_weight=106627 86038 20589 7865 949 12724 4493 67070 18968 899 4332 18901 161 612 51672 51592 15784 3117 1686 798 8231 1431 151 2659 285 2374 638 256 51488 16199 1061 996 634 275 201 359 297 115 362 188 15138 11021 7571 792 619 6779 6689 6607 3450 2269 135 173 4117 442 190 1736 497 391 171 551 260 6916 166
internal_count=106627 86038 20589 7865 949 12724 4493 67070 18968 899 4332 18901 161 612 51672 51592 15784 3117 1686 798 8231 1431 151 2659 285 2374 638 256 51488 16199 1061 996 634 275 201 359 297 115 362 188 15138 11021 7571 792 619 6779 6689 6607 3450 2269 135 173 4117 442 190 1736 497 391 171 551 260 6916 166
is_linear=0
shrinkage=0.05


Tree=9
num_leaves=64
num_cat=0
split_feature=7 4 8 7 4 0 0 8 3 8 4 8 7 7 1 0 7 7 3 8 3 4 3 8 0 8 4 7 4 2 1 1 8 8 4 4 4 8 4 4 2 4 1 7 2 2 1 4 0 2 3 2 4 1 8 7 8 4 7 4 1 1 8
split_gain=0.112731 0.0646562 0.0744033 0.0534139 0.0502637 0.0489602 0.044106 0.0447215 0.0432675 0.0410278 0.0376758 0.0482828 0.0375146 0.0342447 0.031152 0.0249939 0.0231229 0.0227072 0.0310859 0.0267531 0.0425508 0.0422784 0.0345769 0.0278091 0.0214844 0.0525755 0.0241338 0.0199217 0.0201409 0.0198847 0.0222876 0.039806 0.0288586 0.0271742 0.0256269 0.0207506 0.0205141 0.0250291 0.0236126 0.0197144 0.0189275 0.0178502 0.0177968 0.0171668 0.0169963 0.024226 0.018851 0.016803 0.0164626 0.0302045 0.0344913 0.0227064 0.0226276 0.0217827 0.0191171 0.026265 0.026972 0.0265151 0.0182103 0.0163494 0.0163213 0.0161679 0.0160896
threshold=-0.060784244909882539 -0.37663000822067255 -0.10572725534439086 1.7343105077743532 0.79881799221038829 -0.12118126079440115 -0.11788384988903998 -0.063517626374959932 -0.079530451446771608 -0.097015839070081697 -0.23566920310258863 1.0000000180025095e-35 -0.74409440159797657 2.8856301307678227 -0.1152481511235237 -0.12110223993659018 -0.82789531350135792 0.66729962825775158 -0.12328664213418959 -0.085840377956628786 -0.11156760901212691 -0.093412693589925752 -0.091242667287588106 -0.07260876893997191 -0.11568868905305861 -0.10586653277277945 -0.29513236880302424 0.75158762931823742 -0.39759634435176844 -0.12010112032294272 -0.11629780381917952 -0.11166400834918021 -0.084378469735383974 -0.09831939265131949 0.2551002055406571 -0.32422408461570734 0.52298212051391613 -0.091573785990476594 0.038974637165665633 -0.2389666214585304 -0.058077298104763024 -0.33032107353210444 -0.11193100363016127 0.78846499323844921 -0.098565872758626924 -0.10356577858328818 -0.11615639552474021 -0.33743169903755182 -0.086771190166473375 -0.1004497818648815 -0.099410381168127046 -0.084019038826227174 -0.17122180759906766 -0.10936372354626654 -0.064731676131486879 -1.788183808326721 -0.013956595677882431 -0.065778069198131547 -0.88686004281043995 -0.39603574573993677 -0.11911768093705176 -0.080601211637258516 -0.1014021299779415
decision_type=2 2 2 2 2 2 2 2 2 2 2 2 2 2 2 2 2 2 2 2 2 2 2 2 2 2 2 2 2 2 2 2 2 2 2 2 2 2 2 2 2 2 2 2 2 2 2 2 2 2 2 2 2 2 2 2 2 2 2 2 2 2 2
left_child=1 12 -3 8 5 -4 9 14 17 15 13 -12 -1 44 -8 -6 60 18 -2 24 -21 22 23 -22 25 -19 41 -26 -29 62 33 35 -33 34 39 -32 37 -37 -39 -31 48 -27 -16 -28 45 46 -5 -48 49 53 -51 52 58 -34 -53 56 -56 -57 -50 -46 -17 -24 -7
right_child=3 2 4 10 6 29 7 -9 -10 -11 11 -13 -14 -15 42 16 -18 19 -20 20 21 -23 61 -25 27 26 43 28 -30 30 31 32 40 -35 -36 36 -38 38 -40 -41 -42 -43 -44 -45 59 -47 47 -49 51 50 -52 54 -54 -55 55 57 -58 -59 -60 -61 -62 -63 -64
leaf_value=0.00023449609405352883 0.00012349802562702618 -1.3217582728864173e-05 0.00092703190646177428 0.0012134950933175097 -0.0012217900797809058 -0.0003245298921764415 0.00043918822230302286 -0.0016271492172272015 0.00011963204067497392 -0.0020136491493389446 0.00017548447725891417 -0.0012614174369974212 5.3554724019709869e-06 0.0011901591144152235 -0.00062232222258379419 0.00036666255930322225 -0.0012187137724443652 3.3194128559227094e-05 -2.3695445266336263e-05 0.0014751147965268632 0.00031823067361496141 -0.00049962612307761524 -4.2577406974604782e-05 0.00096455656955946132 0.00019824382273220267 0.00060953303410297304 -0.00017293671733077936 -0.00058807933326332008 -6.5450555863345186e-05 0.0002402260328647507 -2.4133657112020532e-05 -5.8684776460784248e-05 0.0003124804850667613 0.00065697965625683243 0.00043645286101511575 -0.00041501759511951655 0.00017224491432443756 -0.00064041707274989921 -0.0019041973763835682 -0.00035328736332425152 -7.5756067488673203e-05 0.0016873356126325236 3.6567104080926079e-05 0.00048263031499192919 0.00071126060058423861 0.0014089040315225414 -0.00041141460179042535 0.00054104689498349367 9.7958870520371777e-06 0.0010532026829542186 -8.8375991445797903e-05 -0.00012092612185343987 -0.0014872408878114872 -0.00052218642791076217 -0.00032362416043930182 -0.00045623282835215243 0.00082630123069975529 -0.0013862546314553851 -0.000847607098171317 4.6689371066857755e-05 -0.00069948401547402939 0.00084035171812661647 -0.0014435003261371773
leaf_weight=2153 4112 18156 107 57 126 89 179 52 12928 68 1025 61 10462 159 244 99 53 3040 28045 69 484 182 573 254 686 101 125 197 2680 197 375 8220 88 173 224 1331 127 114 55 477 2233 63 176 487 121 82 73 123 104 68 1611 980 75 659 154 815 75 84 152 384 55 56 50
leaf_count=2153 4112 18156 107 57 126 89 179 52 12928 68 1025 61 10462 159 244 99 53 3040 28045 69 484 182 573 254 686 101 125 197 2680 197 375 8220 88 173 224 1331 127 114 55 477 2233 63 176 487 121 82 73 123 104 68 1611 980 75 659 154 815 75 84 152 384 55 56 50
internal_value=6.90484e-07 -5.35497e-05 -8.62261e-05 4.94196e-05 -0.000153546 -0.000134549 -0.000489654 -0.000234941 3.98428e-05 -0.000901554 0.00029769 9.36883e-05 4.44784e-05 0.000519142 -0.000111571 -0.00066911 -0.000328439 1.47757e-05 -4.87017e-06 8.49867e-05 0.000269049 0.000214408 0.000309769 0.000541683 4.45962e-05 0.000127021 0.000494074 -4.36922e-05 -0.000101429 -0.000140728 -0.000136201 -0.000149888 -0.000122469 8.50837e-05 -2.57005e-05 -0.000359517 -0.000436756 -0.000488399 -0.00106049 -0.000179713 -0.000196317 0.00103128 -0.000346785 0.000348668 0.000390863 0.000666568 0.000421369 0.000186016 -0.000251627 -0.000159301 -4.15423e-05 -0.000343358 -0.000727969 -0.000423573 -0.00028265 -0.000422923 5.49441e-05 -0.000544575 -0.000500604 0.000207014 -1.61603e-05 3.72391e-05 -0.000734473
internal_weight=106627 50460 37845 56167 19689 18637 1052 651 54082 401 2085 1086 12615 999 599 333 207 41154 32157 8997 1618 1549 1367 738 7379 3816 776 3563 2877 18530 18391 17320 15318 1071 898 2002 1627 1500 169 674 7098 164 420 612 840 335 253 196 4865 2426 1679 2439 331 747 2108 1128 229 899 256 505 154 629 139
internal_count=106627 50460 37845 56167 19689 18637 1052 651 54082 401 2085 1086 12615 999 599 333 207 41154 32157 8997 1618 1549 1367 738 7379 3816 776 3563 2877 18530 18391 17320 15318 1071 898 2002 1627 1500 169 674 7098 164 420 612 840 335 253 196 4865 2426 1679 2439 331 747 2108 1128 229 899 256 505 154 629 139
is_linear=0
shrinkage=0.05


Tree=10
num_leaves=64
num_cat=0
split_feature=7 7 4 8 7 4 4 8 0 8 4 2 1 7 7 8 8 7 3 8 8 8 0 4 8 0 4 2 3 4 1 7 8 8 4 3 7 8 3 7 8 4 8 4 2 8 2 4 7 4 7 8 4 7 7 0 2 8 8 8 8 1 2
split_gain=0.100586 0.0500205 0.0439956 0.07114 0.0653248 0.0765601 0.0345772 0.0585894 0.0450277 0.0455495 0.0335658 0.0277918 0.0389085 0.0196455 0.0246727 0.0296262 0.0234592 0.0192963 0.0308778 0.0176009 0.017476 0.0167246 0.0165996 0.0159132 0.014791 0.0406194 0.0364887 0.0207685 0.0329445 0.0315529 0.0203574 0.016881 0.0162511 0.0146534 0.0145838 0.0492277 0.039722 0.0631716 0.0190341 0.0166869 0.0154473 0.0145668 0.0154206 0.0145409 0.0143102 0.0350949 0.0345619 0.0386371 0.0215888 0.0144316 0.0167391 0.0143026 0.0141361 0.0265821 0.0155899 0.0136759 0.0135853 0.0298444 0.023709 0.0198417 0.0153225 0.0136525 0.0151783
threshold=-0.29627941548824305 1.2037343978881838 -0.38031551241874689 -0.10782602801918982 -1.6845112442970274 -0.41407111287116999 1.1785910725593569 -0.08720893412828444 -0.11773030832409857 -0.097563143819570528 -0.40577302873134607 -0.12010112032294272 -0.11911768093705176 -0.77608188986778248 -0.95110079646110524 0.14921344071626666 0.47540380060672766 0.43774749338626867 -0.1188073307275772 -0.10017889738082884 0.070919319987297072 -0.10504899919033049 -0.11613722145557402 -0.42818082869052881 -0.083836957812309251 -0.10587442666292189 0.11841929331421853 -0.098907183855772005 -0.09835276752710341 -0.33175384998321528 -0.087812144309282289 0.80811315774917614 -0.069041412323713289 -0.10572725534439086 -0.19630489498376844 -0.029029528610408303 -1.6845112442970274 -0.078191358596086488 -0.11970089375972746 -2.068710088729858 -0.092320244759321199 -0.36883455514907831 -0.066882841289043413 -0.37757202982902521 -0.063226379454135881 -0.037239728495478623 -0.051887899637222283 -0.10602660104632376 -2.068710088729858 1.0282739996910097 -3.0635920763015743 -0.11317624151706694 4.9991202354431161 -2.275550007820129 -1.6845112442970274 0.14451261609792712 -0.11173127591609953 -0.10367675498127936 -0.093665301799774156 -0.089338164776563631 -0.097015839070081697 -0.12118579447269438 -0.12138444185256957
decision_type=2 2 2 2 2 2 2 2 2 2 2 2 2 2 2 2 2 2 2 2 2 2 2 2 2 2 2 2 2 2 2 2 2 2 2 2 2 2 2 2 2 2 2 2 2 2 2 2 2 2 2 2 2 2 2 2 2 2 2 2 2 2 2
left_child=2 10 4 52 5 -1 34 8 9 11 -2 33 -13 14 15 -6 -16 18 19 51 -7 -10 -23 -17 27 31 32 -19 -29 -30 -31 -26 -27 -8 36 44 37 39 -38 -5 -41 43 -43 -34 45 49 47 -46 -47 50 -36 -12 53 -4 -54 -20 58 -58 60 -60 61 62 -52
right_child=1 -3 3 6 13 20 7 -9 21 -11 17 12 -14 -15 16 23 -18 24 55 -21 -22 22 -24 -25 25 26 -28 28 29 30 -32 -33 41 -35 35 -37 38 -39 -40 40 -42 42 -44 -45 46 48 -48 -49 -50 -51 56 -53 54 -55 -56 -57 57 -59 59 -61 -62 -63 -64
leaf_value=0.002324550450206376 9.3108792226175439e-05 0.00017793858429792343 0.0010038119784439915 0.0016238456202388209 0.00016930775826825062 0.00099897825846845235 -0.00038557395976871102 -0.0016531536570097241 0.00095594200721271197 -0.0019361839630730909 0.00016357600124493449 0.0010493866814963091 -0.00053828020454506928 -4.2303700169706323e-05 0.00028621904516773266 0.0001431249536616666 0.0012586990776269334 5.0043828604379441e-05 -5.3509642118123029e-05 0.00083100837630419337 -0.00011626630890388319 0.00067604773972892551 -0.00023405791592337596 -0.00068364686266791941 0.0015253452330297379 0.0002787334594131903 -0.0011157358438867958 -0.00088517626308775687 7.5960334208423819e-05 -0.00058970650125695473 5.8218563435984227e-05 0.0003283895909239968 9.1620535685663397e-05 -0.0010290968000758551 -0.00080131974989074346 -0.0015065760689342116 0.00059405719902398159 -3.0655885624038423e-05 -0.00014470424599266534 5.5539508660634363e-05 0.0011478149811106656 -0.00086181945197062845 -4.1574908902210939e-05 0.00059427578990398826 -0.00023686160037883743 -0.00022583314836908554 -0.00036368532904676757 0.0014381641763947075 -0.0012021613075090241 0.00033322453017524715 -0.0001297837170899253 1.672754036955676e-05 -0.00096622126340564047 1.1383085652377337e-05 -0.00011489192653042569 0.00038871393853799998 0.00042732685931711682 -0.00015724860770109761 -0.0013453605842207457 -0.00030778138712288564 0.00029068313954613747 -0.00029329233313004819 0.00084785991157828417
leaf_weight=64 11357 5045 67 69 685 53 191 91 52 56 1911 64 94 5006 627 82 68 9638 26563 69 100 65 207 197 71 1154 59 134 1149 378 178 51 858 167 111 71 87 587 9895 59 71 60 947 172 60 96 155 79 139 131 142 12490 73 8714 198 175 236 2777 89 96 135 2093 54
leaf_count=64 11357 5045 67 69 685 53 191 91 52 56 1911 64 94 5006 627 82 68 9638 26563 69 100 65 207 197 71 1154 59 134 1149 378 178 51 858 167 111 71 87 587 9895 59 71 60 947 172 60 96 155 79 139 131 142 12490 73 8714 198 175 236 2777 89 96 135 2093 54
internal_value=-7.24808e-06 2.60949e-05 -7.79872e-05 -0.000106494 3.49762e-05 0.000886687 -0.000163415 -0.000451111 -0.000327322 -0.00059373 1.4729e-05 -0.000444574 0.000107381 7.11725e-06 0.00015618 -7.60372e-06 0.00038304 -1.15189e-06 -1.87616e-05 4.00713e-05 0.000274038 0.000143385 -1.48897e-05 -0.00044101 4.77153e-05 0.000139763 0.000105974 2.06613e-05 -0.000133273 -7.36948e-05 -0.000382545 0.00103172 0.000128905 -0.000687795 -0.000146911 -0.000206283 -0.000111254 0.000230773 -0.000138207 0.000998221 0.000656298 4.39292e-05 -9.1254e-05 0.000176054 -0.000191609 -0.000208035 0.000148711 0.000718604 -0.000805968 -0.00018394 -0.000195813 3.62242e-05 8.07455e-06 1.90689e-05 -0.000346926 -5.06009e-05 -0.000183718 -0.000111334 -0.000267236 -0.000811491 -0.000225381 -0.000255931 0.000142504
internal_weight=106612 72459 34153 27271 6882 217 18219 987 896 572 67414 516 158 6665 1659 964 695 56057 41208 14470 153 324 272 279 14849 3372 3250 11477 1839 1705 556 122 3191 358 17232 6464 10768 786 9982 199 130 2037 1007 1030 6393 6099 294 139 235 5864 5733 14401 9052 8781 271 26738 5622 3013 2609 185 2424 2289 196
internal_count=106612 72459 34153 27271 6882 217 18219 987 896 572 67414 516 158 6665 1659 964 695 56057 41208 14470 153 324 272 279 14849 3372 3250 11477 1839 1705 556 122 3191 358 17232 6464 10768 786 9982 199 130 2037 1007 1030 6393 6099 294 139 235 5864 5733 14401 9052 8781 271 26738 5622 3013 2609 185 2424 2289 196
is_linear=0
shrinkage=0.05


Tree=11
num_leaves=64
num_cat=0
split_feature=5 4 1 5 8 2 5 4 8 4 2 4 8 4 8 0 8 8 5 4 8 4 5 5 2 4 5 5 8 0 1 4 0 2 2 8 5 4 5 0 3 8 4 5 0 8 5 3 3 0 8 5 8 1 4 8 5 5 4 5 5 4 8
split_gain=0.0932369 0.0526995 0.0395439 0.0357208 0.0312698 0.0267539 0.0553213 0.0264418 0.0261831 0.0424874 0.0211334 0.0501724 0.0386981 0.0517397 0.0281932 0.0565389 0.022793 0.022764 0.0257748 0.0195628 0.034233 0.0388958 0.0335507 0.0215437 0.024805 0.0254159 0.0310647 0.0202441 0.0342644 0.0237567 0.0190971 0.024371 0.0292348 0.0280208 0.0234904 0.0187482 0.017732 0.0294358 0.0174151 0.0183338 0.0173027 0.0337279 0.0237899 0.0169103 0.0165079 0.0232301 0.0193103 0.0198984 0.0164859 0.0308536 0.0195112 0.0193306 0.022949 0.0232055 0.0193877 0.0163838 0.0175587 0.0163355 0.015447 0.02886 0.0164429 0.015138 0.0146194
threshold=0.48775646090507513 -0.40209358930587763 -0.11911768093705176 -2.1961354017257686 -0.096139457076787935 -0.12010112032294272 -1.7539820075035093 -0.40577302873134607 -0.1051792800426483 0.55387824773788463 -0.11563764140009879 -0.025875982828438279 -0.097563143819570528 -0.079733226448297487 -0.087623678147792802 -0.09683943539857863 -0.093009371310472475 -0.05190072022378444 2.442458033561707 -0.33320890367031092 -0.09492806717753409 2.3871642351150517 -2.8181915283203121 0.28820407390594488 -0.11668419837951659 0.11841929331421853 0.1283129081130028 -1.1001682281494138 0.10205626487731935 0.038495451211929328 -0.085406053811311708 -0.22584884613752362 -0.1082375794649124 -0.10261426866054534 -0.085196383297443376 -0.11305454000830649 1.2145277261734011 1.0282739996910097 -0.7088169753551482 -0.044100552797317498 -0.10338835790753363 -0.10017889738082884 -0.25143536925315851 0.90500327944755565 -0.11922806501388548 -0.1112830378115177 0.31525684893131262 -0.11981595680117606 -0.095600392669439302 -0.10756428539752959 -0.069991044700145708 -1.6676339507102964 -0.067988604307174669 -0.085406053811311708 0.52298212051391613 -0.08720893412828444 0.32253850996494299 -0.82727694511413563 0.8481561839580537 1.089252829551697 0.93030288815498363 0.038974637165665633 -0.10178048908710478
decision_type=2 2 2 2 2 2 2 2 2 2 2 2 2 2 2 2 2 2 2 2 2 2 2 2 2 2 2 2 2 2 2 2 2 2 2 2 2 2 2 2 2 2 2 2 2 2 2 2 2 2 2 2 2 2 2 2 2 2 2 2 2 2 2
left_child=1 3 4 -1 5 8 -7 -2 35 -10 12 14 58 -14 40 17 -15 18 -16 22 -21 23 -4 24 -22 27 48 28 30 38 31 32 -26 -34 -32 57 43 61 39 -29 41 -12 -42 -13 45 -8 -47 -48 49 -27 -51 54 -53 -54 -50 56 -25 -3 60 -60 -9 -38 -11
right_child=7 2 19 -5 -6 6 44 10 9 62 11 36 13 16 15 -17 -18 -19 -20 20 21 -23 -24 55 25 26 -28 29 -30 -31 34 -33 33 -35 -36 -37 37 -39 -40 -41 42 -43 -44 -45 -46 46 47 -49 51 50 -52 52 53 -55 -56 -57 -58 -59 59 -61 -62 -63 -64
leaf_value=0.0013395194697228296 0.00025612463256954117 0.00067628627315213232 0.0010245946413724105 5.1177835513701073e-05 -0.0011425324086673614 0.0015237504997224149 0.00038917858245064924 9.0647910480450705e-05 2.0154993722422258e-05 -0.00064097345280676949 -6.4630476147240786e-05 -0.00027232638020157588 0.001810450060219398 0.00082798690675909442 0.00035929523221021604 7.4742066048057157e-05 -0.00033067281347896264 0.0015365129949014564 0.0013122759636396812 -5.8975753642729126e-05 0.00067397930638768107 -0.0013350251307808019 -4.1846906325513627e-05 0.00057465784288629387 -0.00066559201040232159 -0.00066962282157381043 0.00066073355837496101 -0.00036134571735324566 -0.0010654384046551082 0.00081753081742631784 -0.0011927964203865627 -3.9113524594436484e-05 0.0015472258600256641 0.00040340547367957529 -9.6705498977254592e-05 -2.7116448296377843e-05 -0.00092717064932609599 -0.001607542829192683 -0.00018432622936124629 -0.0013170979398671749 -5.3176093440915399e-05 0.00027852381806144414 -0.00050879845217175 0.00025415099210277067 -7.0967113265234702e-05 1.7921404317563723e-05 0.0011478365313087125 0.00013024549025132849 7.6871184033474755e-05 -0.00019115622764738483 0.00078938552957078542 -0.0019424524260604561 -3.2716667010390669e-05 -0.0013162219630248728 -0.0010975436549845406 0.00021853440726040614 -0.00044859333947480342 8.55229491098848e-05 0.00014234880680525879 -0.00033667099641016034 0.00027921898946242293 -0.00022504652380564202 -0.0015703643779124831
leaf_weight=53 2117 121 73 14822 58 69 827 3282 296 154 1957 482 78 85 718 4344 83 51 78 16852 81 71 22024 51 50 331 60 1010 76 54 51 632 65 291 820 15220 95 52 4528 52 1914 1128 336 222 982 1717 79 121 97 208 66 57 63 79 54 588 217 2884 858 495 1785 389 59
leaf_count=53 2117 121 73 14822 58 69 827 3282 296 154 1957 482 78 85 718 4344 83 51 78 16852 81 71 22024 51 50 331 60 1010 76 54 51 632 65 291 820 15220 95 52 4528 52 1914 1128 336 222 982 1717 79 121 97 208 66 57 63 79 54 588 217 2884 858 495 1785 389 59
internal_value=-6.88459e-06 -2.97327e-05 -4.76178e-05 5.5858e-05 7.04589e-06 1.0056e-05 0.000131098 8.88044e-05 -1.44695e-05 -0.000367817 6.9574e-05 2.9271e-05 0.000140697 0.000754882 6.4716e-05 0.000147661 0.000256984 0.000521111 0.000454207 -7.30219e-05 -0.000101987 -0.000177068 -3.82776e-05 -0.000168348 -0.000191831 -0.000200022 -0.000434998 -0.000168706 -3.13455e-05 -0.000217002 1.03595e-05 0.000155156 0.000456919 0.000615998 -0.00016218 -4.5813e-06 -0.000271422 -0.000487852 -0.00022714 -0.000409338 -1.60027e-05 6.08901e-05 -0.000121412 -0.000106182 0.000104906 0.000167849 7.22137e-05 0.000535905 -0.000504459 -0.000345508 4.70443e-05 -0.000777451 -0.00110027 -0.00075099 -0.000347576 7.09517e-05 -0.000252458 0.000109528 0.000117049 -3.30216e-05 0.00015712 -0.000364488 -0.000904546
internal_weight=106612 86063 71188 14875 22587 22529 3795 20549 18734 509 18432 11766 6666 246 10526 5191 168 847 796 48601 26504 9652 22097 9581 8725 8644 1015 7629 1985 5644 1909 1038 406 356 871 18225 1240 536 5590 1062 5335 3085 2250 704 3726 2744 1917 200 955 605 274 350 199 142 151 856 268 3005 6420 1353 5067 484 213
internal_count=106612 86063 71188 14875 22587 22529 3795 20549 18734 509 18432 11766 6666 246 10526 5191 168 847 796 48601 26504 9652 22097 9581 8725 8644 1015 7629 1985 5644 1909 1038 406 356 871 18225 1240 536 5590 1062 5335 3085 2250 704 3726 2744 1917 200 955 605 274 350 199 142 151 856 268 3005 6420 1353 5067 484 213
is_linear=0
shrinkage=0.05


Tree=12
num_leaves=64
num_cat=0
split_feature=7 5 5 6 4 5 8 2 6 6 4 8 0 8 7 7 5 4 4 8 2 5 4 6 7 4 0 8 4 7 7 2 2 7 7 0 8 7 4 8 4 0 5 6 8 2 6 5 0 8 0 7 7 7 5 8 8 2 2 2 8 4 8
split_gain=0.0859161 0.0691744 0.0816341 0.0544229 0.0370537 0.0627964 0.0607536 0.0370018 0.0297674 0.0355887 0.0294857 0.0503435 0.0409045 0.0405751 0.0267188 0.0261378 0.0416844 0.0243257 0.0235945 0.0225642 0.0221709 0.0220568 0.0578805 0.0290961 0.0217741 0.0251688 0.0207573 0.0947949 0.0214056 0.0348783 0.0298161 0.0213753 0.0206614 0.0196787 0.0185139 0.0175319 0.0171114 0.016979 0.0169348 0.0168842 0.0203975 0.015821 0.0152112 0.0316595 0.0419628 0.0252864 0.0251479 0.0182065 0.0179197 0.0148217 0.0146804 0.0146553 0.0145713 0.013972 0.0138449 0.0150003 0.0137019 0.013487 0.0242108 0.0134711 0.0325222 0.0254471 0.0188113
threshold=-0.29627941548824305 0.43171153962612158 -0.84694078564643849 -1.0731567144393919 -0.38031551241874689 -2.8181915283203121 -0.10782602801918982 -0.10078940913081168 -0.82704108953475941 0.26755078136920935 1.1785910725593569 -0.08720893412828444 -0.11773030832409857 -0.097300887107849107 -0.77608188986778248 1.2523127794265749 1.8928951025009157 -0.17550420761108396 -0.40361116826534266 0.14921344071626666 -0.12010112032294272 -3.6445941925048824 -0.2389666214585304 -1.4462450742721555 2.8856301307678227 -0.079733226448297487 -0.019789554178714749 -0.004999469965696334 -0.42048789560794825 -1.5258650779724119 -1.1087002158164976 0.028747139498591427 -0.086659457534551607 1.3061886429786684 -0.25128646194934839 -0.071244936436414705 -0.11311116069555281 2.8856301307678227 -0.099840488284826265 0.14921344071626666 -0.39759634435176844 0.730241358280182 -0.31574623286724085 -0.03360598906874656 -0.10301767289638518 -0.1176793910562992 0.3574244379997254 -0.40768222510814661 -0.11492295935750006 -0.10504899919033049 -0.11613722145557402 -0.65937393903732289 0.85207477211952221 -0.26415690779685969 -1.6676339507102964 -0.10572725534439086 0.048983190208673484 0.019740574061870578 0.086405158042907729 -0.098907183855772005 -0.10251194611191748 -0.27029830217361445 -0.078191358596086488
decision_type=2 2 2 2 2 2 2 2 2 2 2 2 2 2 2 2 2 2 2 2 2 2 2 2 2 2 2 2 2 2 2 2 2 2 2 2 2 2 2 2 2 2 2 2 2 2 2 2 2 2 2 2 2 2 2 2 2 2 2 2 2 2 2
left_child=4 2 3 -2 5 -1 -6 -5 24 15 21 12 13 20 26 16 34 19 53 -9 51 22 -8 -24 35 -26 27 32 29 -28 39 -32 -7 38 -10 -3 -20 56 -17 -30 -41 -31 43 -38 45 -45 48 -48 -47 -14 -51 54 -18 -4 -12 -56 59 -58 -59 60 -11 -61 -62
right_child=1 8 18 7 6 14 10 17 9 37 11 -13 49 -15 -16 33 52 -19 36 -21 -22 -23 23 -25 25 -27 28 -29 30 41 31 -33 -34 -35 -36 -37 42 -39 -40 40 -42 -43 -44 44 -46 46 47 -49 -50 50 -52 -53 -54 -55 55 -57 57 58 -60 61 62 -63 -64
leaf_value=0.0017627207656355148 0.0018329062312471844 -7.8155290965845628e-05 0.00037922390032966904 0.0005944469560327471 7.7958273002416309e-06 0.00068536868590984216 0.0017145485087173163 0.00026494090309418599 -0.00076638614149386651 -4.6528238053926532e-05 -0.0010297987052223781 -0.0015305960098134087 0.00091193986047314105 -0.0018745890366054089 -4.1139543648860454e-05 0.00052311164979983009 -5.1558669758633831e-05 -0.00090226585290067648 0.0001044761750038242 -0.000829655196372736 7.1446588181061101e-05 -0.00014236614345266386 0.00082769187975514566 -0.00048369194057712504 -5.2012284681833807e-06 -0.0013104100560078326 0.0015091032785414305 0.0024901522960349481 -0.00012179785973682367 0.00054623943243027433 -0.00021319488092500099 0.0004677399503664876 1.0455527525794295e-05 0.00029716165992958314 0.00016223818400267414 0.00019860837759938808 -6.7642753437616455e-05 0.00072974248433156934 0.0016055190244034475 -0.0011909972942994855 1.5533857679526721e-06 -0.00018520367168336333 -5.5821977841738211e-05 0.00019987267813060107 -1.9993228673757457e-05 0.00093639231232892995 0.0013715956245081767 0.00046927929151353701 -3.4310340118055758e-05 0.00064768541201236515 -0.00020818893775028234 -0.001407269667724218 -0.0010754845241773064 4.1341153159016939e-05 0.00010305042078859834 -0.00071901674197057596 0.0010194366993106852 -0.00070476160195070297 0.00039592471615932051 -2.9714405451920011e-05 0.00020604647262228941 -0.0005238036497752078 0.000872280290110535
leaf_weight=51 62 2343 315 591 9052 167 57 422 53 2471 88 91 52 52 5006 119 56 62 2116 52 159 16978 60 137 77 70 58 50 264 145 186 300 349 1660 9730 756 3666 84 52 102 55 149 31628 785 1514 69 145 93 148 65 207 52 91 9654 116 105 56 61 257 1725 1053 306 117
leaf_count=51 62 2343 315 591 9052 167 57 422 53 2471 88 91 52 52 5006 119 56 62 2116 52 159 16978 60 137 77 70 58 50 264 145 186 300 349 1660 9730 756 3666 84 52 102 55 149 31628 785 1514 69 145 93 148 65 207 52 91 9654 116 105 56 61 257 1725 1053 306 117
internal_value=-6.54057e-06 2.42752e-05 -7.07729e-06 0.00040222 -7.19181e-05 3.17511e-05 -9.80798e-05 0.000321958 0.000100398 0.000125671 -0.000150681 -0.000416352 -0.000301607 -0.000555529 1.85716e-05 0.000176579 0.000144545 2.096e-05 -1.67924e-05 0.000143365 -0.000420278 -0.000135441 0.00032621 -8.21226e-05 -3.88957e-05 -0.000631384 0.000182293 0.000433508 6.91013e-05 0.000399455 -5.94052e-05 0.000207233 0.00022979 0.000350137 0.000157129 -1.05966e-05 -3.38816e-05 2.79855e-05 0.000859686 -0.000366972 -0.000775859 0.000176171 -4.15787e-05 2.85882e-05 0.000156664 0.0003722 0.000668422 0.00102245 0.000277226 0.000147005 -2.03686e-06 -0.000636454 -0.000688401 5.20545e-05 -0.000502616 -0.000289004 1.81165e-05 0.00031083 0.000183239 -1.23577e-06 5.63109e-05 -0.000104377 0.000273358
internal_weight=106612 72459 51322 1189 34153 6882 27271 1127 21137 17891 18219 987 896 572 6831 11761 9930 536 50133 474 520 17232 254 197 3246 147 1825 566 1259 352 907 486 516 1831 9783 3099 40164 6130 171 421 157 294 38048 6420 2754 1240 455 238 217 324 272 361 147 9969 309 221 6046 374 318 5672 3641 2031 1170
internal_count=106612 72459 51322 1189 34153 6882 27271 1127 21137 17891 18219 987 896 572 6831 11761 9930 536 50133 474 520 17232 254 197 3246 147 1825 566 1259 352 907 486 516 1831 9783 3099 40164 6130 171 421 157 294 38048 6420 2754 1240 455 238 217 324 272 361 147 9969 309 221 6046 374 318 5672 3641 2031 1170
is_linear=0
shrinkage=0.05


Tree=13
num_leaves=64
num_cat=0
split_feature=7 5 5 6 6 4 7 2 7 5 7 4 3 3 5 7 4 4 4 6 0 6 6 2 6 5 0 5 6 4 6 4 7 5 2 5 6 2 4 7 7 5 0 6 5 5 6 3 4 2 5 2 4 4 5 7 5 4 2 4 4 7 0
split_gain=0.0775395 0.0626587 0.071466 0.049219 0.041477 0.0340117 0.0697404 0.0334171 0.0275032 0.0640694 0.0264363 0.077404 0.0381333 0.026826 0.0399867 0.0245112 0.0302544 0.0241891 0.021983 0.0217222 0.0200662 0.0200404 0.0187775 0.0182428 0.0165994 0.0163384 0.0161264 0.0158776 0.0170451 0.0210779 0.0155888 0.0194506 0.0252649 0.0201716 0.0209286 0.0168738 0.0209154 0.032596 0.0293171 0.0507477 0.0269144 0.024219 0.0250567 0.0179785 0.0215334 0.017032 0.0152223 0.0149881 0.016881 0.0193904 0.0243562 0.0219302 0.0151292 0.0149802 0.0149777 0.0148666 0.0145452 0.033797 0.0351563 0.0209151 0.0216592 0.0190888 0.0321647
threshold=-0.29627941548824305 0.58398231863975536 -0.84694078564643849 -1.0731567144393919 -0.8914755880832671 -0.40855647623538965 -1.6845112442970274 -0.10078940913081168 1.2523127794265749 1.6230267286300661 -3.0635920763015743 -0.19992847740650174 -0.11909897997975348 -0.11816275119781493 -2.433063149452209 2.8856301307678227 -0.093412693589925752 -0.40361116826534266 -0.17550420761108396 1.5822639465332033 -0.11886100098490714 -0.70011091232299794 -0.83720260858535755 0.16651485860347751 -1.2777220010757444 1.2145277261734011 0.028925002552568916 0.90500327944755565 -0.4871885478496551 -0.11201291531324385 -1.4462450742721555 -0.36128467321395868 -0.84662741422653187 -0.5857180356979369 -0.072355203330516801 -0.61100342869758595 -0.8914755880832671 -0.07591934502124785 -0.25701543688774103 -1.9135445952415464 -1.788183808326721 -2.0146837234497066 0.055201318114995963 -1.0156348943710325 -0.32253527641296381 -2.433063149452209 -0.519457846879959 -0.087233666330575929 -0.24523510038852689 -0.11117267236113547 -1.5847586393356321 -0.10783397033810614 -0.12998595088720319 -0.12998595088720319 0.95824775099754345 1.617805063724518 0.74545082449913036 -0.017114588059484955 -0.11438011750578879 0.96364572644233715 0.75038918852806102 -1.788183808326721 -0.10226421430706976
decision_type=2 2 2 2 2 2 2 2 2 2 2 2 2 2 2 2 2 2 2 2 2 2 2 2 2 2 2 2 2 2 2 2 2 2 2 2 2 2 2 2 2 2 2 2 2 2 2 2 2 2 2 2 2 2 2 2 2 2 2 2 2 2 2
left_child=5 2 3 -2 15 6 -1 -5 9 19 11 -7 -13 14 22 -3 -17 -4 21 -6 55 -9 24 -22 -12 -16 -23 28 -10 -30 -15 32 33 34 -32 36 -33 38 39 -38 45 -39 -43 44 -37 -40 -36 48 -42 -50 -51 53 -49 -52 -29 -19 59 -58 -59 60 61 62 -45
right_child=1 4 17 7 8 10 -8 18 27 -11 13 12 -14 30 25 16 -18 20 -20 -21 23 26 -24 -25 -26 -27 -28 54 29 -31 31 35 -34 -35 46 43 37 41 40 -41 47 42 -44 56 -46 -47 -48 52 49 50 51 -53 -54 -55 -56 -57 57 58 -60 -61 -62 -63 -64
leaf_value=0.001477048103635587 0.0017427156033504401 -4.0231106685524782e-05 5.7364048103307783e-05 0.00056477480940294613 0.00015362782882817952 0.00089796397339186353 4.9042003014445507e-05 0.00095180182135663934 0.00085243803633894245 -0.00042347953407707254 0.00078224507273298889 -0.0017188525579042797 -0.00049797614557915476 0.00013452111879530104 -1.6689923436173853e-05 1.4905860863269911e-05 -0.0014874682650091683 1.6362708860149331e-05 -0.00085786863171037229 -0.00024302821853861486 -5.2935037400703622e-05 0.00015676445207102904 0.0014838055041359946 0.00053621660063899151 -0.0002968996526760748 -0.00086597999222903408 -0.00064568938846191895 0.001044408989371732 0.00013332525078747597 -0.00069822204961859252 0.00043677261836043131 -0.00010583226030177898 -9.8481019915164578e-05 0.00037622572175845926 2.2842365681274821e-05 4.5873290916063957e-05 0.001489686288577677 -0.0013893430603940677 -0.0015056997290102709 -8.1056249596600581e-05 -0.00089068275205877231 -0.00056362930859193603 0.00059147948831748953 -0.00062910094674603623 0.00096260632784833438 -0.00056187671500060722 -0.00048286536502222362 -0.00025298265320135473 -0.00034325211935571265 0.00077698377494112058 -0.00013513293045140068 -0.00025436806528301471 -0.0012974436705007976 0.00082931164122667126 0.0003239224681486374 0.00069550231751629426 -8.4551501386506217e-05 4.505388481034474e-05 -0.0015318762852271619 0.00041371334023260252 -0.001034221760456271 -0.00011557160890875519 0.00087528364076545472
leaf_weight=87 62 2270 10897 591 9717 81 3013 64 52 531 98 86 247 638 8708 67 66 15619 62 357 28978 334 53 131 55 56 76 74 264 106 204 3060 4354 563 464 322 53 81 56 1076 80 618 50 50 79 318 218 77 663 94 70 471 63 93 2061 80 313 54 101 194 62 7013 117
leaf_count=87 62 2270 10897 591 9717 81 3013 64 52 531 98 86 247 638 8708 67 66 15619 62 357 28978 334 53 131 55 56 76 74 264 106 204 3060 4354 563 464 322 53 81 56 1076 80 618 50 50 79 318 218 77 663 94 70 471 63 93 2061 80 313 54 101 194 62 7013 117
internal_value=-6.20964e-06 2.30654e-05 -1.2548e-06 0.000382149 0.000111956 -6.83183e-05 8.95817e-05 0.000305821 0.00014683 0.00011132 -8.40838e-05 -0.000480494 -0.00081748 -7.87119e-05 -5.99398e-06 -7.90398e-05 -0.00073617 -9.44511e-06 1.97754e-05 0.000139549 -2.56936e-05 0.000136137 0.000680876 -5.02653e-05 0.000394908 -2.22149e-05 6.80781e-06 0.000294003 1.37131e-05 -0.000106142 -0.000108812 -0.0001162 -3.82979e-05 0.000142485 -6.29924e-06 -0.000145882 -0.00020353 -0.000280871 -0.000209515 -6.06595e-06 -0.000325169 -0.000576863 -0.000476414 -9.78087e-05 0.000228422 -0.000706836 -0.000139276 -0.000236179 -0.000188826 -0.00014785 3.03328e-05 -8.14187e-05 -0.000728858 0.000416834 0.000349372 1.98676e-05 -0.000114386 -0.000384483 -0.000985727 -9.73379e-05 -0.000111083 -0.000102969 0.000423805
internal_weight=106612 72459 56894 1189 15565 34153 3100 1127 13162 10605 31053 414 333 30639 8970 2403 133 55705 536 10074 44808 474 206 29109 153 8764 410 2557 422 370 21669 21031 5803 1449 886 15228 6923 3863 3114 1129 1985 749 668 8305 401 374 682 1611 1471 1391 728 634 140 163 2135 15699 7904 468 155 7436 7242 7180 167
internal_count=106612 72459 56894 1189 15565 34153 3100 1127 13162 10605 31053 414 333 30639 8970 2403 133 55705 536 10074 44808 474 206 29109 153 8764 410 2557 422 370 21669 21031 5803 1449 886 15228 6923 3863 3114 1129 1985 749 668 8305 401 374 682 1611 1471 1391 728 634 140 163 2135 15699 7904 468 155 7436 7242 7180 167
is_linear=0
shrinkage=0.05


Tree=14
num_leaves=64
num_cat=0
split_feature=5 4 0 8 2 6 6 4 5 6 3 4 4 8 6 4 2 3 6 3 0 3 8 8 5 0 4 6 5 5 0 8 5 5 3 5 4 6 3 0 3 0 8 5 8 2 8 2 0 8 8 4 0 6 5 4 5 4 6 4 8 4 4
split_gain=0.0695184 0.039725 0.0268964 0.030151 0.035701 0.0267787 0.0304778 0.0279987 0.0236386 0.0294901 0.0219798 0.0212112 0.0202098 0.0203366 0.0424492 0.0439925 0.093358 0.0512177 0.0356801 0.0310199 0.0362449 0.0297183 0.0293156 0.0452345 0.0284348 0.0269767 0.0438999 0.0237229 0.0193527 0.0191545 0.0346939 0.0176027 0.0215342 0.0189303 0.0189694 0.0167867 0.0169376 0.0167523 0.016147 0.016711 0.0159805 0.0155222 0.0152371 0.0143291 0.0369251 0.0185638 0.0192777 0.0307601 0.0142617 0.0481015 0.0388945 0.0337762 0.0441743 0.0396848 0.0330988 0.0254768 0.0176224 0.0165806 0.0295285 0.0510974 0.0247687 0.0218385 0.0160626
threshold=0.48775646090507513 -0.40855647623538965 -0.11922806501388548 -0.096139457076787935 -0.12010112032294272 0.67387387156486522 -0.8914755880832671 3.1406507492065434 -1.1719839572906492 -0.36632676422595972 -0.12114444375038146 3.1406507492065434 -0.37663000822067255 -0.070872306823730455 -0.90335804224014271 -0.20809818804264066 -0.10297307744622229 -0.087233666330575929 0.26755078136920935 -0.029029528610408303 -0.072467535734176622 -0.092546448111534105 -0.018057731911540028 0.017372499220073227 -0.25095738470554346 -0.099381178617477403 -0.254082441329956 -0.96240395307540882 -1.5847586393356321 -1.5079573988914488 -0.016486985608935353 -0.1112830378115177 -1.3843645453453062 0.30814069509506231 -0.11981595680117606 2.442458033561707 -0.41899812221527094 -1.5867785215377805 0.046633848920464523 -0.093626704066991792 -0.067205734550952897 2.060145497322083 -0.062190409749746316 0.25579866766929632 -0.079595465213060365 0.066803261637687697 -0.034473638981580727 -0.028992015868425366 -0.11585303023457526 -0.097563143819570528 -0.094306085258722291 0.49281069636344915 -0.10480288416147231 -0.30355171859264368 1.6230267286300661 -0.034578425809741013 2.1116136312484746 -0.23566920310258863 -0.29558217525482172 0.038974637165665633 -0.085350744426250444 -0.24203244596719739 0.8481561839580537
decision_type=2 2 2 2 2 2 2 2 2 2 2 2 2 2 2 2 2 2 2 2 2 2 2 2 2 2 2 2 2 2 2 2 2 2 2 2 2 2 2 2 2 2 2 2 2 2 2 2 2 2 2 2 2 2 2 2 2 2 2 2 2 2 2
left_child=1 8 3 4 10 6 37 35 9 28 -3 -12 29 -14 21 25 -17 18 -18 20 -19 -15 24 -24 -22 26 42 -23 -1 30 -4 -6 -33 -34 -35 36 -7 -2 39 -10 -39 -40 -16 -31 -45 46 -46 -48 49 62 54 52 56 -53 -50 -51 -52 61 59 60 -59 -54 -8
right_child=5 2 12 -5 31 7 48 -9 38 -11 11 -13 13 14 15 16 17 19 -20 -21 22 27 23 -25 -26 -27 -28 -29 -30 43 -32 32 33 34 -36 -37 -38 40 41 -41 -42 -43 -44 44 45 -47 47 -49 50 55 51 53 57 -55 -56 -57 -58 58 -60 -61 -62 -63 -64
leaf_value=-0.00027068940347677338 -0.00087851211089097579 1.0242768761922264e-05 0.0013193812347564841 -0.0011507745121239819 0.00037010619064768518 0.00044508224132657457 0.0002262246905814891 -0.001122128959918805 -7.057849089346081e-05 0.0014976918092589448 -0.00011737642951069391 -0.0011171054245332254 -6.1492901103414799e-05 0.0009841322436665407 0.00048164686739657158 -0.0020766450613865705 -0.00023642854313616208 -0.00092463820130402475 0.00078417751178998815 -0.0017085214428758872 -0.001111884825421095 -4.9131773863634904e-05 0.0012023028081536971 -0.00047626438227737144 0.00012556744443344665 -0.00016949582634727319 -0.0007748990929590387 0.00072446065333574511 0.00061990598487436481 -3.7224628085641007e-05 3.0542570125579091e-05 0.00071847578046100148 -3.0248943858577e-06 0.0010888617189638934 0.00011276204919965047 0.00086770273830132712 -5.9954581553451218e-05 -9.9979190546796142e-05 -5.8542537580380875e-05 0.00013595027927080272 0.00020164106483226783 0.00020623088869637027 0.0015898396947132251 -3.9411649037823099e-05 0.00031379891588321097 -0.00025145925874869358 0.0019529944166816469 0.0005109027342098814 2.8665141734070481e-07 0.0019927991730443093 0.00051827142082789158 0.00044133212661608031 0.00017439055901590129 -0.00137019579919676 -0.00066802005153084368 0.00060047444462047979 0.0014190602550027713 -0.00085136458268714383 -0.00026407029410962488 0.0013662608103537611 0.00023987696274832668 0.001195373902819998 -1.7396826286509237e-05
leaf_weight=103 59 15587 75 55 828 173 3391 58 1194 58 3097 53 33167 92 76 85 262 294 126 59 109 805 76 83 80 3499 51 112 147 11262 167 129 1670 82 125 51 3619 1983 4056 5436 563 640 53 1533 457 97 51 132 3111 51 469 50 4693 74 196 93 61 67 584 86 220 52 845
leaf_count=103 59 15587 75 55 828 173 3391 58 1194 58 3097 53 33167 92 76 85 262 294 126 59 109 805 76 83 80 3499 51 112 147 11262 167 129 1670 82 125 51 3619 1983 4056 5436 563 640 53 1533 457 97 51 132 3111 51 469 50 4693 74 196 93 61 67 584 86 220 52 845
internal_value=-5.89928e-06 -2.56284e-05 -3.90588e-05 7.90742e-06 1.09149e-05 7.67269e-05 0.000104356 -4.11779e-05 6.02893e-05 0.000491774 -1.41046e-05 -0.000134546 -5.8294e-05 -7.66699e-05 -0.000162516 -0.00022386 -0.000490235 -0.000364619 9.61692e-05 -0.000619437 -0.000516848 0.000132464 -0.000170674 0.000328569 -0.000590191 -0.000138748 0.000456593 4.6039e-05 0.000253364 -6.22371e-06 0.000433762 0.000176278 9.61289e-05 5.29973e-05 0.000502805 -2.45762e-05 -3.68023e-05 -5.27029e-05 4.8513e-05 9.87514e-05 -3.32286e-05 -2.24213e-05 0.000945678 -1.41237e-05 0.000100451 0.000391033 0.000488652 0.000921227 0.000133492 0.000208333 9.95501e-05 0.000171899 0.000188195 -0.000642054 -3.95127e-05 0.00110393 0.000624424 0.000147545 -4.22718e-05 0.000304772 -1.69444e-05 0.000185829 0.000177634
internal_weight=106612 86063 74429 21626 21571 20549 16648 3901 11634 308 18737 3150 52803 39029 5862 4853 1174 1089 388 701 642 1009 348 159 189 3679 180 917 250 13774 242 2834 2006 1877 207 3843 3792 2605 11326 6630 2546 4696 129 13532 2270 737 640 183 14043 4380 9663 6356 6232 124 3307 144 530 5702 957 373 287 4745 4236
internal_count=106612 86063 74429 21626 21571 20549 16648 3901 11634 308 18737 3150 52803 39029 5862 4853 1174 1089 388 701 642 1009 348 159 189 3679 180 917 250 13774 242 2834 2006 1877 207 3843 3792 2605 11326 6630 2546 4696 129 13532 2270 737 640 183 14043 4380 9663 6356 6232 124 3307 144 530 5702 957 373 287 4745 4236
is_linear=0
shrinkage=0.05


Tree=15
num_leaves=64
num_cat=0
split_feature=7 3 4 1 7 6 7 2 6 6 4 3 7 6 1 4 7 3 2 1 4 3 4 4 6 4 6 1 3 1 6 4 6 3 6 4 4 3 6 7 7 4 0 0 4 1 6 0 7 2 3 6 6 1 0 4 4 4 4 7 6 6 4
split_gain=0.0574395 0.0362238 0.0347685 0.0446444 0.0380321 0.0632404 0.0305735 0.0292891 0.028398 0.0226901 0.0216229 0.0370176 0.0218291 0.0199202 0.0197882 0.0149392 0.0143523 0.013959 0.0323394 0.0207838 0.0207184 0.0362984 0.0341432 0.0233301 0.0168075 0.0293638 0.0154586 0.0153221 0.0307396 0.0262364 0.0151793 0.0193281 0.0152685 0.0145301 0.0231579 0.013958 0.0159002 0.0297097 0.0142286 0.0138209 0.0281866 0.0393517 0.0137609 0.0133961 0.0404408 0.0149505 0.0132199 0.0131146 0.012685 0.0123639 0.0237558 0.0122864 0.0220038 0.0156503 0.0130466 0.0227325 0.0114435 0.0128256 0.0112628 0.0111167 0.0110124 0.0121145 0.0222714
threshold=-0.066886477172374711 -0.079530451446771608 -0.37663000822067255 -0.11911768093705176 -1.788183808326721 -0.16309607774019239 1.1572310328483584 -0.11899335682392119 -0.88005182147026051 2.5124624967575078 -0.12453879788517951 -0.046737721189856522 2.8856301307678227 0.25773701071739202 0.055532589554786689 -0.35435096919536585 0.59962263703346264 -0.10267237946391104 -0.10851250588893889 -0.10963465645909308 0.49281069636344915 -0.087717156857252107 0.38500642776489263 0.15841958671808246 -1.3993319869041441 0.49281069636344915 -0.66514858603477467 -0.11166400834918021 -0.11228468269109725 -0.11104832589626311 -1.0878512263298032 -0.12998595088720319 -0.86871072649955738 -0.11208185181021689 -0.63069716095924366 -0.38811597228050226 1.099646329879761 -0.12239179387688635 0.033241229131817825 -3.0635920763015743 -2.275550007820129 2.3871642351150517 -0.12380416318774222 -0.096414364874362932 -0.32097040116786951 -0.087340623140335069 -0.72789856791496266 -0.097672287374734865 -0.45897834002971644 -0.1126032806932926 -0.1126999258995056 0.64541059732437145 0.98169162869453441 -0.10770985111594199 -0.099793359637260423 -0.26518814265727991 0.1308914199471474 0.094967599958181395 -0.025875982828438279 1.4364330768585207 -0.58636808395385731 -1.0585933327674864 -0.2389666214585304
decision_type=2 2 2 2 2 2 2 2 2 2 2 2 2 2 2 2 2 2 2 2 2 2 2 2 2 2 2 2 2 2 2 2 2 2 2 2 2 2 2 2 2 2 2 2 2 2 2 2 2 2 2 2 2 2 2 2 2 2 2 2 2 2 2
left_child=2 6 4 39 5 46 13 -5 58 35 12 16 14 -2 60 -16 -12 18 19 27 22 -22 23 56 -20 -26 -25 28 49 -29 -31 32 -32 34 -30 47 51 42 -39 -4 41 -41 -38 -15 -45 -46 -1 -10 -36 50 -9 -37 53 -53 55 59 57 -19 -8 -54 61 -3 -63
right_child=1 10 3 7 -6 -7 8 17 9 -11 11 -13 -14 43 15 -17 -18 20 24 -21 21 -23 -24 26 25 -27 -28 29 33 30 31 -33 -34 -35 48 36 37 38 -40 40 -42 -43 -44 44 45 -47 -48 -49 -50 -51 -52 52 54 -55 -56 -57 -58 -59 -60 -61 -62 62 -64
leaf_value=0.00047386654203344301 2.7347838285172019e-05 1.3215030919004934e-05 -0.00062334826895191035 -0.001152002236057976 2.3238486706965322e-05 0.0019991658839325493 1.8792534883386107e-05 -8.8577882200701843e-05 0.00015517444827000274 -0.00057149787355408814 -0.00058109499194769249 -0.0013885668990238069 0.0009388098953786539 -2.5177280996965147e-05 2.7281460966985962e-05 -0.00065520899980783288 0.00045898912283646076 -0.00012289744126913878 0.00071544041627542192 -0.00039208925996725658 -0.00019028668562026251 -0.0017863693033107735 0.0010921037363770762 -0.00017548108742327411 9.5631149344519505e-05 -0.00080848491224285053 -0.00094621624915001534 0.00044242973968948722 -1.5406307595019989e-05 -0.00055702396650331209 0.00062053356392186931 0.000394879925667659 -0.00021260030781813387 -0.00030117185224813256 -0.0018128721411423095 0.00035164035707954883 -6.7859620321542033e-05 -0.0001892246386828506 -0.0012321247382025267 0.0013819506218876794 1.0860052525642138e-05 -7.6287574241481104e-05 0.00095760634740731955 -5.1511991320296604e-05 -0.00037232161991484537 -0.00097193675624736254 -0.00053594930288062312 -0.00077548808757385882 -0.00072668376332761628 0.00022674672334687787 -0.00092919695134375678 -0.00060656357438159021 0.00044613956124521796 0.00020255023783629798 -0.00015438843422030445 0.0001312810939931016 0.00053777794013372979 -0.00071582158759512192 -0.00036248798739848479 0.0012768763825016353 0.0001227396432856648 0.00028482024417635982 0.0012202915797442713
leaf_weight=88 24369 385 83 65 12328 64 543 7588 90 90 53 64 79 12186 3615 81 85 11221 102 584 114 51 56 119 2618 92 144 351 54 132 60 242 560 368 55 2043 69 76 57 89 12149 95 61 1931 332 152 50 64 56 304 84 144 78 101 123 252 64 91 300 86 7705 1313 66
leaf_count=88 24369 385 83 65 12328 64 543 7588 90 90 53 64 79 12186 3615 81 85 11221 102 584 114 51 56 119 2618 92 144 351 54 132 60 242 560 368 55 2043 69 76 57 89 12149 95 61 1931 332 152 50 64 56 304 84 144 78 101 123 252 64 91 300 86 7705 1313 66
internal_value=1.26865e-06 3.57901e-05 -3.77104e-05 -6.17529e-05 3.44181e-05 0.000713234 1.34582e-05 -0.000100018 0.000142 0.000207544 0.000107445 -0.000404743 0.000115287 -3.22786e-07 0.000110274 1.21511e-05 5.82297e-05 -9.72492e-05 -6.19716e-05 -0.000102514 -0.000136653 -0.000691411 -0.000128767 -0.000134735 8.85031e-05 6.4651e-05 -0.000599466 -8.53143e-05 -0.000110101 7.14641e-05 -5.98438e-05 1.68477e-05 -0.000131105 -0.000477381 -0.0008662 0.000229327 0.000252492 -0.000118985 -0.000642041 1.58364e-05 2.01882e-05 0.000632713 0.000416957 -4.65036e-05 -0.000154061 -0.000562246 0.000106768 -0.000234102 -0.00127627 -8.5501e-05 -9.79016e-05 0.000287081 0.000118614 -0.000273543 0.000297043 0.000430569 -0.000123939 -0.00012773 -0.000117163 0.000886868 0.000148569 0.000261255 0.000330444
internal_weight=106714 56593 50121 37591 12530 202 43147 25175 4177 3334 13446 202 13244 38970 13165 3696 138 25110 13250 10438 11860 165 11695 11639 2812 2710 263 9854 8509 1345 994 862 620 533 165 3244 3090 263 133 12416 12333 184 130 14601 2415 484 138 154 111 7976 7672 2827 784 245 539 416 11376 11312 843 164 9469 1764 1379
internal_count=106714 56593 50121 37591 12530 202 43147 25175 4177 3334 13446 202 13244 38970 13165 3696 138 25110 13250 10438 11860 165 11695 11639 2812 2710 263 9854 8509 1345 994 862 620 533 165 3244 3090 263 133 12416 12333 184 130 14601 2415 484 138 154 111 7976 7672 2827 784 245 539 416 11376 11312 843 164 9469 1764 1379
is_linear=0
shrinkage=0.05


Tree=16
num_leaves=64
num_cat=0
split_feature=7 8 3 8 1 1 2 8 2 8 0 3 6 6 3 6 8 6 7 7 6 7 6 3 8 0 0 1 8 7 1 1 8 7 2 7 6 8 2 3 3 7 8 1 6 1 7 6 6 8 1 8 0 1 6 6 2 0 2 6 6 7 7
