tree
version=v4
num_class=1
num_tree_per_iteration=1
label_index=0
max_feature_idx=8
objective=regression
feature_names=Column_0 Column_1 Column_2 Column_3 Column_4 Column_5 Column_6 Column_7 Column_8
feature_infos=[-0.1264350563287735:5] [-0.12658858299255371:5] [-0.1263919323682785:5] [-0.12648019194602966:5] [-0.43321773409843445:5] [-4.0397491455078125:5] [-1.9954947233200073:5] [-5:5] [-0.11399253457784653:5]
tree_sizes=6232 6209 6200 6198 6181 6243 6176 6220 6177 6219

Tree=0
num_leaves=64
num_cat=0
split_feature=7 1 7 6 4 7 6 6 4 7 4 8 6 4 1 8 8 6 3 3 0 8 8 8 6 1 3 8 3 0 1 4 8 8 3 7 8 8 3 1 8 7 4 0 3 3 6 7 6 3 8 3 0 7 6 3 4 4 8 0 8 1 8
split_gain=0.0944603 0.0862112 0.0565562 0.0533301 0.0480096 0.060027 0.0480212 0.0730731 0.0468384 0.0491469 0.0467356 0.0463222 0.0448059 0.0478348 0.0399537 0.0386144 0.0378362 0.0342212 0.0324895 0.0611251 0.0525472 0.0462853 0.0324046 0.0322422 0.0320762 0.0319173 0.0313252 0.0367237 0.030882 0.0303956 0.0389649 0.0361548 0.0304533 0.0300141 0.0361925 0.029746 0.0277967 0.0267658 0.0514365 0.0267349 0.0263146 0.0466348 0.0362053 0.0388912 0.0334841 0.0262962 0.0262172 0.0471077 0.0375823 0.0381561 0.0260998 0.0276953 0.0254617 0.0253001 0.0245062 0.0236272 0.0391959 0.0298928 0.0234731 0.0252572 0.0234104 0.0233188 0.0228536
threshold=2.3905125856399541 -0.070962414145469652 -0.9395286738872527 1.724684000015259 -0.2283523231744766 -2.3928365707397456 -1.121024966239929 -0.01664542872458696 -0.3618475198745727 0.92737284302711498 0.86694911122322094 -0.11286117881536482 -1.4935442209243772 -0.41313949227333063 -0.10806325078010558 -0.10921853408217429 -0.087770588696002946 -1.4338033795356748 0.23323577642440799 0.14957227557897571 0.33241109549999243 0.33851979672908789 1.0000000180025095e-35 0.33851979672908789 -0.31155627965927118 -0.098970759660005556 -0.097509481012821184 0.0620041061192751 -0.10128446295857428 -0.087782211601734147 -0.098331134766340242 -0.052022941410541527 -0.087770588696002946 -0.024557497352361676 -0.058091487735509865 0.18807802349328998 0.22849254310131076 0.1007148250937462 0.11887310445308687 -0.081949792802333818 -0.078115224838256822 0.24805282801389697 -0.074372958391904817 -0.10443022102117537 -0.10763936489820479 -0.093843076378107057 0.21373178809881213 0.29333707690238958 1.2194277048110964 -0.099985048174858079 0.021670791320502761 1.0000000180025095e-35 -0.098202694207429872 0.36496125161647802 -0.27429284155368799 0.51694363355636608 -0.40976935625076288 -0.42187161743640894 -0.094238884747028337 -0.12359672784805296 -0.071540776640176759 -0.12295034155249594 -0.070601198822259889
decision_type=2 2 2 2 2 2 2 2 2 2 2 2 2 2 2 2 2 2 2 2 2 2 2 2 2 2 2 2 2 2 2 2 2 2 2 2 2 2 2 2 2 2 2 2 2 2 2 2 2 2 2 2 2 2 2 2 2 2 2 2 2 2 2
left_child=1 2 4 12 5 -1 -6 10 18 16 54 -4 -2 -14 24 -12 -10 -18 19 23 -20 -21 40 36 58 -7 28 -28 -16 30 32 -31 -9 -11 -35 -23 37 -3 -39 -24 46 42 43 -42 60 -27 -13 -48 49 -49 -36 -52 -51 -38 -8 56 -22 -57 59 -15 -43 -17 -56
right_child=3 8 11 -5 6 25 7 29 9 33 15 22 13 14 26 61 17 -19 20 21 55 35 39 -25 -26 45 27 -29 -30 31 -32 -33 -34 34 50 -37 53 38 -40 -41 41 44 -44 -45 -46 -47 47 48 -50 52 51 -53 -54 -55 62 57 -58 -59 -60 -61 -62 -63 -64
leaf_value=0.0007576254126630134 -0.0015392877392021395 -0.00060973826578140217 -0.00060261371583086355 -0.0017547566402715987 -0.00071068372834755201 -0.00054792874274266299 -0.00099426811663513685 -0.00067977754346764882 -0.00043721381577761234 -0.00073862267124608235 -0.0010702720726676407 -0.00074734412522518552 -0.0015220994919132272 0.00057303855106077654 0.00022148760629286826 -0.0027288447513671805 4.873617540448235e-05 -0.0009269531609421923 -0.0011108559636563214 -0.0003730086125322855 -0.00051320116919288282 0.001200222335816663 -0.00086845539690102308 -0.0017265848672691514 -0.00095044487506554785 -0.0014213367112960265 -0.00040835424252710586 0.00063130005398854324 0.0015292534896373256 -0.00083726755408513806 0.00018500213877187483 -0.0025463777346516649 -0.0013587277487122056 0.0011423942730808647 -0.00082691180867985187 -0.00019882876859768329 -0.00052780575154072918 -0.00074629182433136234 -0.0018855406692582502 -0.0022446861659456861 0.00024810917158651219 0.0010935259380008553 -0.0013506047943128757 -0.00078533750908930044 -0.00054439216610310424 -0.00080342308818954122 -0.00076312829387225321 -0.0009150153469848969 -0.00072409936993907359 -0.0018465292565876344 0.0008642178472311145 -0.00047594983912805717 -0.0011444854420681484 0.00066921390953530459 -0.0012861801558513839 -0.000657390031540662 0.00086037119435724142 -0.001203048386997034 0.00056509539334399545 -0.00066768540781970932 -0.00041571823484339552 -0.0016653048895895319 -0.0024522908514270228
leaf_weight=68 62 14031 4729 60 1277 1010 1485 1021 484 314 295 42252 61 52 129 58 91 3935 828 1044 353 82 75 65 182 226 268 124 71 79 111 50 196 52 124 72 101 757 113 66 94 53 273 2181 2570 714 16153 5037 2026 150 71 84 917 78 230 2282 60 281 89 182 50 476 51
leaf_count=68 62 14031 4729 60 1277 1010 1485 1021 484 314 295 42252 61 52 129 58 91 3935 828 1044 353 82 75 65 182 226 268 124 71 79 111 50 196 52 124 72 101 757 113 66 94 53 273 2181 2570 714 16153 5037 2026 150 71 84 917 78 230 2282 60 281 89 182 50 476 51
internal_value=-0.000737504 -0.000742508 -0.000766886 -0.00031064 -0.000899394 -0.000691707 -0.000978035 -0.00106228 -0.000661603 -0.000796083 -0.00122133 -0.000754179 -0.000238843 -0.000168585 -9.26759e-05 -0.00153094 -0.000854484 -0.00090471 -0.000627193 -0.000596561 -0.000758796 -0.000252889 -0.00076415 -0.000623777 -0.000420305 -0.000742989 0.000185799 -7.68369e-05 0.000694714 -0.000778859 -0.000707454 -0.00150853 -0.000789544 -0.000388179 -5.67333e-05 0.000553818 -0.000618958 -0.000626427 -0.000895411 -0.00151872 -0.000762656 -0.000654576 -0.000807621 -0.000742222 -0.000508716 -0.000952554 -0.000771139 -0.000812538 -0.000910693 -0.000972618 -0.000286144 0.000144268 -0.00124413 -1.27997e-06 -0.00107563 -0.000660752 -0.000310272 -0.000717373 -0.000121855 -0.000387564 0.000371026 -0.00178433 -0.00150315
internal_weight=110555 109275 83973 1280 7347 2018 5329 4052 25302 5155 2595 76626 1220 1158 1097 829 4510 4026 20147 16343 3804 1198 71897 15145 505 1950 592 392 200 1457 1328 129 1217 645 331 154 15080 14901 870 141 71756 5221 2548 2275 2673 940 66535 24283 8130 6104 279 155 1067 179 1766 2976 413 2563 323 234 103 534 281
internal_count=110555 109275 83973 1280 7347 2018 5329 4052 25302 5155 2595 76626 1220 1158 1097 829 4510 4026 20147 16343 3804 1198 71897 15145 505 1950 592 392 200 1457 1328 129 1217 645 331 154 15080 14901 870 141 71756 5221 2548 2275 2673 940 66535 24283 8130 6104 279 155 1067 179 1766 2976 413 2563 323 234 103 534 281
is_linear=0
shrinkage=1


Tree=1
num_leaves=64
num_cat=0
split_feature=7 2 7 4 6 6 4 5 6 5 4 8 4 7 8 2 8 0 2 6 8 5 7 6 5 5 7 5 6 8 2 0 2 2 8 0 8 2 4 4 4 5 8 2 6 6 2 2 8 5 7 6 6 8 5 0 7 4 8 2 5 4 8
split_gain=0.085328 0.0765145 0.0534506 0.0484912 0.0474544 0.0572712 0.043371 0.0669523 0.0420815 0.0702883 0.046499 0.0418933 0.0388633 0.0400991 0.0346826 0.0344113 0.0315404 0.0291602 0.0290534 0.0284634 0.0282893 0.028219 0.101634 0.0610208 0.0680694 0.0676375 0.0531417 0.0430338 0.0414995 0.0413883 0.0280165 0.0272856 0.0555907 0.0475788 0.0336992 0.0339458 0.0301762 0.0271353 0.0423289 0.0297482 0.0266306 0.0257796 0.0254208 0.0307069 0.0249229 0.0246483 0.0245765 0.0239881 0.0529069 0.0235774 0.0436089 0.0271602 0.053085 0.0297167 0.0229038 0.02271 0.0226916 0.022577 0.0224762 0.0270261 0.0220483 0.0219455 0.0265563
threshold=2.3905125856399541 -0.070831015706062303 -0.9395286738872527 -0.4137494415044784 0.06550233438611032 -1.4935442209243772 -0.2283523231744766 -2.6549892425537105 -1.121024966239929 -1.481053292751312 0.71369493007659923 -0.11302770674228667 -0.3618475198745727 0.92737284302711498 -0.087770588696002946 -0.098809044808149324 -0.094238884747028337 -0.12379541620612143 -0.095715675503015504 0.41363094747066503 -0.024557497352361676 -0.31138654053211207 1.1323409676551821 0.0078144851140677946 0.19899351894855502 2.4052119255065922 0.29333707690238958 -0.56831294298171986 -0.12682054936885831 -0.084927808493375764 -0.057871183380484574 0.23286531865596774 0.1495068892836571 0.33210733532905584 0.33851979672908789 0.20689511299133304 0.33851979672908789 0.51939100027084362 -0.40976935625076288 -0.42187161743640894 -0.3868290483951568 -2.3250278234481807 0.22849254310131076 0.056696521118283279 -1.4338033795356748 -1.1050453186035154 -0.1257664933800697 0.10444248467683794 0.1007148250937462 -0.71238541603088368 -1.6888583302497862 -0.87583255767822255 -0.36482472717761988 -0.057262007147073739 -1.1176068782806394 0.11843795329332353 -1.1715622544288633 -0.23155582696199414 0.021670791320502761 0.040753694251179702 0.47194936871528631 -0.27789621055126185 -0.10964274033904074
decision_type=2 2 2 2 2 2 2 2 2 2 2 2 2 2 2 2 2 2 2 2 2 2 2 2 2 2 2 2 2 2 2 2 2 2 2 2 2 2 2 2 2 2 2 2 2 2 2 2 2 2 2 2 2 2 2 2 2 2 2 2 2 2 2
left_child=1 2 6 -2 5 -5 7 -1 -8 10 41 46 31 14 -14 56 17 -7 -17 -11 -15 22 28 24 -23 26 -25 -24 45 61 -22 32 36 54 -34 -36 42 38 -35 -39 -31 -10 47 -44 -16 -13 -4 -3 55 51 -51 -46 -53 -54 -33 -49 -9 -6 -32 -60 -21 62 -26
right_child=3 12 11 4 57 16 8 15 9 19 -12 21 13 20 44 18 -18 -19 -20 60 30 23 27 25 29 -27 -28 -29 -30 40 58 33 34 37 35 -37 -38 39 -40 -41 -42 -43 43 -45 49 -47 -48 48 -50 50 -52 52 53 -55 -56 -57 -58 -59 59 -61 -62 -63 -64
leaf_value=0.0014311778806542687 -0.0008650909316509595 0.00011646191685503939 -0.00010509438593823927 -0.00083664083174274622 0.00049263430098421968 0.0013113835434116232 1.9024650252602753e-05 0.00041120186969938909 -0.00088553455638228573 -0.00029074127139095215 -0.0010941118091943479 0.00012420653412774558 0.00029552918719545694 -2.7778447782255073e-05 0.00067962296382740369 -0.00088387915275419879 0.00097155481575369367 4.7196517996273418e-05 -0.00011773721664152473 0.00016049744597467912 0.0017079563126362 -7.0652829547693816e-05 0.0013758214568494972 -3.6817114910623412e-05 -0.00028096804656115086 -0.0016419251155041692 -0.00017777215713973509 0.00029315006618797567 0.00013193849026080091 -0.00017108856685691507 -6.4751856294723473e-05 -0.0013031185466512028 0.00035510600259746228 0.00023999947496421167 0.001910319191093246 0.00042280303824543495 -0.00093855439234808422 7.447034490585031e-05 0.0016686636301856796 -0.00047237320457197942 0.00038647985779898409 -0.00017708623978755918 0.0016982733841157623 0.00027035498876109957 -3.9309750647613721e-05 -7.1955579633679038e-05 0.00022420024692374409 -0.00016812689893484206 -0.00085420349254763581 0.001144946022208647 -0.00011993493418643077 -0.00087025653229349804 0.0010515644995253892 -0.00024580483251804552 -0.00027982285968935144 0.0005270214822360829 -5.8609819416323281e-05 -0.0004016694025978645 0.0013589346760435996 6.0967807123651272e-06 -0.00045875063799357627 0.00011481980487953162 2.7845115088390947e-05
leaf_weight=82 70 14269 715 59 112 57 1282 523 185 2140 396 1930 483 303 87 146 581 214 785 746 51 12432 190 19237 821 69 10249 178 5220 247 123 58 1061 349 74 80 68 2289 60 278 1585 417 53 126 453 9382 2720 307 206 69 2573 465 51 291 769 189 504 187 95 60 177 7030 4547
leaf_count=82 70 14269 715 59 112 57 1282 523 185 2140 396 1930 483 303 87 146 581 214 785 746 51 12432 190 19237 821 69 10249 178 5220 247 123 58 1061 349 74 80 68 2289 60 278 1585 417 53 126 453 9382 2720 307 206 69 2573 465 51 291 769 189 504 187 95 60 177 7030 4547
internal_value=3.73135e-07 -4.38279e-06 -2.73715e-05 0.000406078 0.000480271 0.000659489 -0.000155842 4.02684e-05 -0.000230713 -0.000309536 -0.000673768 -1.49793e-05 7.17619e-05 -5.15247e-05 -0.000104226 -1.86829e-05 0.000763954 0.000316939 -0.000238704 -0.00019068 0.000320963 -2.29973e-05 3.36542e-05 -4.00282e-05 1.48176e-05 -8.95042e-05 -8.58159e-05 0.000854352 1.53351e-05 8.94884e-05 0.000641255 0.000102859 0.000130788 -1.78271e-05 0.000456121 0.0011453 0.000104785 7.54227e-05 0.000453142 1.50876e-05 0.000311253 -0.000395906 0.00010953 0.000700232 -0.000152692 -3.84793e-05 0.000155646 0.000102421 -0.000182744 -0.000171418 -8.64799e-05 -0.00034931 -0.000523061 -4.98357e-05 -0.000353077 9.72857e-05 0.000180809 -6.61539e-05 0.000440145 0.000838651 4.13788e-05 5.66967e-05 -1.94293e-05
internal_weight=110555 109275 83935 1280 1210 911 7383 2040 5343 4061 998 76552 25340 5104 4472 1958 852 271 931 3063 632 73117 16900 56217 26662 29555 29486 368 16532 14230 329 20236 16433 3803 1215 154 15218 2976 409 2567 1832 602 15150 179 3989 11312 3435 14971 702 3902 2642 1260 807 342 827 496 1027 299 278 155 923 12398 5368
internal_count=110555 109275 83935 1280 1210 911 7383 2040 5343 4061 998 76552 25340 5104 4472 1958 852 271 931 3063 632 73117 16900 56217 26662 29555 29486 368 16532 14230 329 20236 16433 3803 1215 154 15218 2976 409 2567 1832 602 15150 179 3989 11312 3435 14971 702 3902 2642 1260 807 342 827 496 1027 299 278 155 923 12398 5368
is_linear=0
shrinkage=0.05


Tree=2
num_leaves=64
num_cat=0
split_feature=7 3 6 7 4 4 6 7 4 8 8 6 4 2 2 7 4 8 0 8 8 6 0 0 7 6 3 2 8 4 7 8 2 8 4 8 2 3 6 6 8 2 6 8 3 8 3 8 3 0 4 4 6 8 8 4 3 7 7 6 7 6 7
split_gain=0.0770185 0.070313 0.046309 0.0461637 0.0420988 0.0409239 0.0638328 0.0466002 0.0479272 0.0389622 0.0386421 0.0364804 0.0389039 0.0344636 0.0341897 0.0341714 0.0487036 0.0415016 0.0404402 0.0363956 0.0335891 0.0329006 0.0311341 0.0336321 0.0297273 0.079024 0.0263399 0.0554713 0.0398602 0.038539 0.035604 0.0234587 0.0227077 0.0389753 0.0226014 0.0220376 0.0220006 0.0549519 0.0228256 0.0229274 0.0217248 0.0462482 0.0213042 0.0207665 0.0366916 0.0228059 0.0391241 0.0320911 0.0558663 0.0289461 0.0258838 0.0257082 0.0429714 0.0253773 0.02288 0.0206296 0.0258083 0.0232784 0.0204586 0.0198875 0.0392938 0.0271036 0.0221912
threshold=2.3905125856399541 -0.073461573570966707 1.724684000015259 -0.9395286738872527 -0.37439100444316858 0.082736108452081694 -1.2869339585304258 -1.6019088029861448 0.762974113225937 -0.11280506476759909 -0.10135786607861517 -1.4935442209243772 -0.41313949227333063 -0.11737812682986258 -0.10192951560020445 0.63030901551246654 -0.3197921067476272 -0.087770588696002946 -0.066073797643184648 0.035866761580109603 0.42638093233108526 -1.3868452906608579 -0.11666943877935408 -0.11773843318223952 -2.3928365707397456 -0.17296589165925977 0.23323577642440799 0.1495068892836571 0.33851979672908789 -0.42347498238086695 0.18807802349328998 0.22849254310131076 0.10444248467683794 0.1007148250937462 -0.39393861591815943 -0.10733373463153838 -0.09849135577678679 -0.10128446295857428 -0.6546054184436797 -1.0565993189811704 -0.10335315018892287 -0.1089387610554695 1.0000000180025095e-35 -0.0095899859443306906 -0.081952344626188264 -0.078115224838256822 -0.092781722545623765 -0.057262007147073739 -0.10763936489820479 -0.075986064970493303 0.21874332427978518 -0.094550974667072282 -0.19712713360786435 -0.072463653981685625 -0.095491297543048845 0.061038520187139518 -0.1258684694766998 0.27369651198387152 0.20635821670293811 0.21373178809881213 0.066712535917758956 1.1914277672767641 0.70041471719741832
decision_type=2 2 2 2 2 2 2 2 2 2 2 2 2 2 2 2 2 2 2 2 2 2 2 2 2 2 2 2 2 2 2 2 2 2 2 2 2 2 2 2 2 2 2 2 2 2 2 2 2 2 2 2 2 2 2 2 2 2 2 2 2 2 2
left_child=1 3 11 5 26 24 40 8 10 55 -8 -2 -13 -14 -12 17 -17 -6 -18 -20 21 -19 23 35 25 -1 27 32 42 -28 -30 36 -3 -34 -31 -9 37 -15 39 -38 -7 -42 -29 45 -45 49 47 48 -47 59 58 -50 -53 -54 -51 57 -57 -5 -48 62 -61 -62 -11
right_child=2 4 -4 9 15 6 7 22 -10 43 14 12 13 31 -16 16 18 20 19 -21 -22 -23 -24 -25 -26 -27 29 28 30 34 -32 -33 33 -35 -36 -37 38 -39 -40 -41 41 -43 -44 44 -46 46 50 -49 51 54 -52 52 53 -55 -56 56 -58 -59 -60 60 61 -63 -64
leaf_value=2.1164391948255952e-06 -0.00072072436303151626 0.00012077027862766496 -0.00095983366188535967 7.241965908428453e-05 0.00027761867254681331 0.00042889989563263956 0.00045023157576181712 -8.3447525420770666e-06 -0.00093536525130003944 -2.2757112259461112e-05 -0.00095454209854045873 -0.00070455200170286962 0.00016216755686889058 0.00068070454740260531 0.00014254488262719991 -9.4587708463222963e-05 0.001550197814711802 0.0006756111920455418 0.00014604633807114152 0.0012379170073300453 -0.0011551894287774225 -0.00014981489429082882 -0.00050756094870678327 0.00088061862237130608 -7.1063264467780514e-05 0.0022524282059891323 8.0603088828155579e-05 0.00057007271756273918 0.002010182073855823 -0.00040038603005022628 0.00040521389985484865 0.0017321030827835045 0.00011142434620575266 -0.00063549586202597396 0.00021237961357078886 -0.00052240815813639908 0.00025173934592111327 0.0023329319884679966 3.07075869422577e-06 0.0014172964215437632 -0.0011116498138142538 0.00066075974829036047 0.00011366073089726724 -2.1334566586481951e-05 -0.0015222877059841268 0.0010884885528119486 -0.00013959707230184806 0.00069507263520151772 0.00015116195062512782 0.00027489880171180652 -0.0011219053556110253 0.00050235722482183426 -0.00020295088610577364 -0.0016531528794357529 -0.00062714596471992359 -8.1242103676443277e-05 0.00027741979738237654 -0.00037104785954333766 0.00012024959987501545 3.0247386232408242e-06 -0.0001669026302816928 4.9356312344761624e-06 8.0586266359624844e-05
leaf_weight=166 62 13829 60 1777 658 379 137 808 585 35332 195 61 336 298 111 660 83 123 390 94 80 4601 602 86 3716 50 2768 545 73 793 66 58 478 274 185 280 88 60 176 81 78 68 482 112 63 145 1487 352 1079 88 52 71 53 70 339 635 2379 354 1542 11240 9553 3020 6089
leaf_count=166 62 13829 60 1777 658 379 137 808 585 35332 195 61 336 298 111 660 83 123 390 94 80 4601 602 86 3716 50 2768 545 73 793 66 58 478 274 185 280 88 60 176 81 78 68 482 112 63 145 1487 352 1079 88 52 71 53 70 339 635 2379 354 1542 11240 9553 3020 6089
internal_value=3.57661e-07 -4.16076e-06 0.000385802 -2.66745e-05 6.72887e-05 -0.000147104 -0.000276083 -0.000370806 -0.000638598 -1.51414e-05 -0.00024548 0.000452713 0.000516107 0.000584563 -0.000557411 -4.09405e-05 0.000197394 -9.4507e-05 0.000536836 0.000360219 -0.000145524 -0.000128185 -0.000215528 -6.54756e-05 -3.78629e-05 0.000531001 0.000104428 0.000132774 0.000464491 -1.47355e-05 0.00125645 0.000770604 0.000106218 -0.000161207 -0.000284376 -0.000140999 0.000688929 0.000963341 0.000402216 0.00081543 0.00022957 -0.000287265 0.000356185 -2.48111e-05 -0.000567257 -2.34568e-05 8.1149e-05 0.00026842 0.000162094 -3.11862e-05 -2.64881e-05 5.58017e-05 -0.000472633 -0.00103495 -0.000441037 0.000117689 0.000201854 -1.38829e-06 -7.31858e-06 -2.84967e-05 -6.49062e-05 -0.00012563 -7.56377e-06
internal_weight=110555 109275 1280 83093 26182 7261 3329 2804 1028 75832 443 1220 1158 1097 306 6689 1227 5462 567 484 4804 4724 1776 1174 3932 216 19493 15747 1166 3746 139 761 14581 752 978 1088 703 358 345 169 525 146 1027 70687 175 70512 4851 1770 1418 65661 3081 1273 194 123 427 5145 3014 2131 3029 65234 23813 12573 41421
internal_count=110555 109275 1280 83093 26182 7261 3329 2804 1028 75832 443 1220 1158 1097 306 6689 1227 5462 567 484 4804 4724 1776 1174 3932 216 19493 15747 1166 3746 139 761 14581 752 978 1088 703 358 345 169 525 146 1027 70687 175 70512 4851 1770 1418 65661 3081 1273 194 123 427 5145 3014 2131 3029 65234 23813 12573 41421
is_linear=0
shrinkage=0.05


Tree=3
num_leaves=64
num_cat=0
split_feature=1 8 7 7 6 6 7 8 6 5 6 5 5 5 7 5 8 5 2 2 6 6 5 7 5 7 6 5 5 7 6 8 5 8 6 7 5 2 6 2 8 1 1 5 3 5 5 2 8 2 6 8 1 8 6 8 5 8 8 7 1 6 6
split_gain=0.0706064 0.122656 0.0560371 0.0499729 0.0445476 0.0527093 0.0404809 0.0346015 0.0340867 0.0690417 0.0400586 0.0378777 0.027655 0.0318141 0.0302616 0.0268198 0.0366656 0.0237867 0.0301387 0.0301805 0.0235807 0.0283198 0.0242792 0.021868 0.0212499 0.0754952 0.0503925 0.060077 0.0510657 0.0447016 0.0415184 0.0349865 0.0305269 0.0239617 0.0233514 0.0231844 0.0215178 0.0214274 0.0205825 0.0204443 0.0201323 0.0282912 0.0238652 0.0227979 0.0217491 0.0200033 0.0198567 0.0346007 0.0293116 0.0324337 0.0196059 0.0194986 0.0191898 0.0350379 0.0190127 0.0184795 0.0183457 0.018274 0.0181706 0.0180475 0.0178989 0.017792 0.0177568
threshold=-0.070962414145469652 0.035866761580109603 2.1639128923416142 2.3905125856399541 0.06550233438611032 -1.317541718482971 -0.9395286738872527 -0.11302770674228667 -0.01664542872458696 -1.8254202604293821 -1.2869339585304258 -2.3250278234481807 -3.2899627685546871 -0.71238541603088368 -1.8028470277786253 -1.8254202604293821 -0.095212358981370912 0.30353020131587988 -0.089029449969530092 -0.098809044808149324 -0.87583255767822255 0.89575782418251049 -1.7192067503929136 -2.8809064626693721 -0.31138654053211207 1.1323409676551821 0.0078144851140677946 0.19899351894855502 2.4052119255065922 0.29333707690238958 -0.12682054936885831 -0.084927808493375764 -0.56831294298171986 -0.07667094841599463 -1.1050453186035154 1.2533625960350039 0.12613824009895327 -0.087202370166778551 -0.47391875088214869 -0.1257664933800697 -0.094238884747028337 -0.091661851853132234 -0.12404698505997656 2.7914083003997807 -0.10128446295857428 3.5138276815414433 -3.2899627685546871 -0.10722655057907103 -0.10284674912691115 -0.10972742363810538 -0.63811588287353505 -0.08269724994897841 -0.1077299192547798 -0.10786650329828261 1.2194277048110964 -0.1083833761513233 -1.4163666367530821 -0.073340628296136842 -0.093238871544599519 0.60638782382011425 -0.11519863456487654 -0.58745765686035145 0.31984318792819982
decision_type=2 2 2 2 2 2 2 2 2 2 2 2 2 2 2 2 2 2 2 2 2 2 2 2 2 2 2 2 2 2 2 2 2 2 2 2 2 2 2 2 2 2 2 2 2 2 2 2 2 2 2 2 2 2 2 2 2 2 2 2 2 2 2
left_child=1 3 12 6 5 -5 8 39 10 -10 46 50 -2 20 -15 16 -9 60 19 -19 -14 22 38 -13 25 30 27 -26 29 36 34 -29 -27 35 -17 52 -28 -33 -22 59 42 44 -7 -44 61 -45 47 -1 -48 -50 -12 -24 53 55 -34 -31 -51 -35 -16 -8 -11 -42 -62
right_child=2 -3 -4 4 -6 40 7 15 9 17 11 23 13 14 58 24 -18 18 -20 -21 21 -23 51 -25 26 32 28 31 -30 33 -32 37 54 57 -36 -37 -38 -39 -40 -41 41 -43 43 45 -46 -47 48 -49 49 56 -52 -53 -54 -55 -56 -57 -58 -59 -60 -61 62 -63 -64
leaf_value=-1.9700904965571977e-05 0.00092009032645788105 -0.0019784748470374324 0.00067579789685719583 -0.00051694312540919286 -0.00024007906772860753 0.0013293434301672011 -1.7855992676312496e-05 -0.00014338548606484318 0.0017943966273580574 0.00025947104389651549 -0.00051357951852467471 -0.0011923457218105333 9.4491389656019013e-05 0.00098938527839693611 0.0002658334740710947 0.00011720889287933365 0.0012524401626073198 -0.00039443036442059453 -0.0014673744854344815 0.00092763281843908057 -0.0009470616365239127 0.00059616425112772988 0.00069241078723708224 -0.00020486801629631356 -6.699480147427161e-05 0.0011964954585399954 1.6923067217116269e-05 5.3458368669511005e-05 -0.0014402057469377052 -0.00018398277305878925 0.00012886100004402248 0.00043023413216865773 -0.00022967133693822217 0.00055180355543129592 -7.5218725987534856e-05 -0.00042946032450379747 -8.8805896855729968e-05 7.9844610327968154e-05 -0.00012496006310147304 0.00020448310019207674 0.0012982615632305776 0.0001979704846101078 -0.00066373108475090712 0.0011161371704656632 0.0019236008589406947 -8.8730864454929201e-05 0.00025057954887487444 0.0015523221348688575 -0.0012799267047493897 -0.00030109720710500736 -0.001270955101153154 -0.00016926359699223745 -0.0002748442995557018 3.2454787859978176e-05 0.00079913895629446909 -0.00064233444851036247 0.00068038700407931302 -2.4819517263944291e-05 6.9028703901877653e-05 -0.00090403942795958198 -0.00037897178033939025 0.00031529023741408218 6.6326265680808613e-05
leaf_weight=86 93 79 379 101 247 50 653 91 53 694 364 56 1348 91 1245 1899 96 281 53 50 186 115 67 3613 12443 182 10086 12405 68 3091 5174 1079 91 164 9263 895 9202 733 129 2720 119 94 63 64 76 73 468 58 73 246 112 1924 2590 2450 87 236 58 821 20022 62 318 76 750
leaf_count=86 93 79 379 101 247 50 653 91 53 694 364 56 1348 91 1245 1899 96 281 53 50 186 115 67 3613 12443 182 10086 12405 68 3091 5174 1079 91 164 9263 895 9202 733 129 2720 119 94 63 64 76 73 468 58 73 246 112 1924 2590 2450 87 236 58 821 20022 62 318 76 750
internal_value=3.43088e-07 -2.1591e-05 7.31342e-05 -1.97463e-05 0.000338201 0.000537748 -2.38581e-05 -1.3111e-05 -0.000136077 2.8632e-05 -0.000206617 -0.000274827 6.40511e-05 6.08462e-05 8.44803e-05 -2.0395e-05 0.000576038 -1.57927e-05 -0.00037184 -0.00019253 -7.30689e-05 -0.000166366 -0.000204635 -0.000220261 -2.19315e-05 2.76025e-05 -3.6631e-05 1.32321e-05 -8.15358e-05 -7.8359e-05 1.17969e-05 8.3448e-05 0.000742806 -0.000162747 -4.24733e-05 -0.00018768 -3.35205e-05 0.000288615 -0.000611852 0.000141958 0.000711516 0.000948069 0.000363747 0.000116936 0.00120657 0.000478136 7.92445e-05 0.000619814 -1.34999e-05 -0.000341118 -0.000694076 -0.000139934 -0.000161769 -0.000111035 0.000274829 -0.000216679 -0.000112224 7.1649e-05 8.05619e-05 -9.58552e-05 6.1969e-05 0.000918718 -6.6493e-05
internal_weight=110555 84956 25599 84877 963 716 83914 76581 7333 2199 5134 4145 25220 25127 21358 73146 187 2146 384 331 3769 2421 2306 3669 72959 16696 56263 26660 29603 29535 16336 14217 360 10247 11162 9262 19288 1812 315 3435 615 365 250 200 271 137 989 144 845 377 476 1991 8367 5777 178 3327 304 985 21267 715 1762 195 1068
internal_count=110555 84956 25599 84877 963 716 83914 76581 7333 2199 5134 4145 25220 25127 21358 73146 187 2146 384 331 3769 2421 2306 3669 72959 16696 56263 26660 29603 29535 16336 14217 360 10247 11162 9262 19288 1812 315 3435 615 365 250 200 271 137 989 144 845 377 476 1991 8367 5777 178 3327 304 985 21267 715 1762 195 1068
is_linear=0
shrinkage=0.05


Tree=4
num_leaves=64
num_cat=0
split_feature=2 8 7 7 7 5 8 8 5 5 7 5 7 5 0 1 8 5 7 5 7 0 2 8 7 2 8 8 7 7 5 7 3 2 3 8 5 5 1 7 7 7 8 3 8 7 5 2 0 5 5 3 3 2 8 5 2 7 2 7 1 7 0
split_gain=0.0639514 0.0800161 0.0488071 0.0460121 0.0388188 0.0329892 0.0315291 0.0298918 0.0239931 0.0211806 0.102368 0.0239305 0.0227465 0.0210504 0.059502 0.0406844 0.0400161 0.030391 0.0364716 0.020855 0.0259717 0.0199546 0.0257364 0.0201259 0.0246097 0.0192729 0.0190979 0.0190603 0.019484 0.0188079 0.018497 0.0181969 0.0176949 0.0174622 0.023983 0.0430972 0.0219947 0.0408407 0.0341951 0.0303278 0.0264134 0.0205928 0.0174427 0.0172719 0.0192148 0.0170429 0.016901 0.020172 0.0248168 0.0167046 0.0193464 0.016235 0.0663751 0.0404992 0.0401005 0.0389893 0.0315601 0.0271085 0.023097 0.0153968 0.0152523 0.0151236 0.0146247
threshold=-0.057871183380484574 0.072506658732891097 2.3905125856399541 2.3905125856399541 -0.9395286738872527 2.7914083003997807 1.0000000180025095e-35 -0.11280506476759909 0.53132224082946788 -0.31138654053211207 0.92737284302711498 1.7927595376968386 -0.24283611774444577 -3.2899627685546871 -0.10897441208362578 -0.092886205762624727 -0.10433821380138396 -1.952785789966583 -2.8809064626693721 -0.56831294298171986 1.3034079074859621 -0.1218595691025257 -0.12309399247169493 -0.062812764197587953 0.65744102001190197 -0.12409245595335959 0.0620041061192751 0.072506658732891097 1.5543233752250674 -0.51629310846328724 2.1397550106048588 0.27369651198387152 -0.100644513964653 -0.12191095575690268 -0.12319576367735861 -0.11113031953573226 1.5844851732254031 1.3142134547233584 -0.11774608492851256 0.81984269618988048 1.8436898589134219 0.95039188861846935 -0.11137491092085837 -0.12294526398181914 -0.10912838205695151 -2.8809064626693721 0.30353020131587988 -0.089029449969530092 -0.09853044897317885 -0.64330410957336415 -0.68175259232521046 0.14957227557897571 0.23323577642440799 0.33210733532905584 0.33851979672908789 -1.3120794892311094 0.10444248467683794 -0.43991845846176142 0.51939100027084362 1.6341814398765566 -0.11499083042144774 0.14330615103244784 0.11843795329332353
decision_type=2 2 2 2 2 2 2 2 2 2 2 2 2 2 2 2 2 2 2 2 2 2 2 2 2 2 2 2 2 2 2 2 2 2 2 2 2 2 2 2 2 2 2 2 2 2 2 2 2 2 2 2 2 2 2 2 2 2 2 2 2 2 2
left_child=1 2 4 8 6 7 13 31 27 10 12 33 -9 14 16 -16 -1 25 -19 20 -12 22 -13 24 -23 -15 -5 62 45 -10 -4 -6 -7 34 41 -36 37 42 -39 -38 -41 -11 -35 44 -37 -29 49 48 -48 50 -20 56 54 55 57 -54 -47 -53 -55 -22 -40 -62 -2
right_child=3 -3 30 26 5 32 -8 9 29 11 19 21 -14 17 15 -17 -18 18 46 -21 59 23 -24 -25 -26 -27 -28 28 -30 -31 -32 -33 -34 36 35 43 39 38 60 40 -42 -43 -44 -45 -46 51 47 -49 -50 -51 -52 52 53 58 -56 -57 -58 -59 -60 -61 61 -63 -64
leaf_value=0.00059051710763014854 6.2438834920887297e-05 -0.0018136260763464134 3.0972668487019606e-05 9.3550743317351718e-06 0.00015064873553875338 -0.0003412630838350555 0.00080830406595748755 -3.6598610949001768e-05 -0.0003196580345569097 5.8761635952342698e-06 0.00051452797733811146 0.00024121752748093041 8.2446657999962883e-05 -0.0012385697354822867 0.0018056728663525844 6.7808131542301085e-05 -0.00094512583009755298 -0.0013190384839676442 -0.00011783524980336521 0.00038441679323623375 0.0019258288397325342 -0.00089451451021343911 0.0016088027520001762 0.00069801593797365064 0.00010499558928876376 -0.00034362268999733317 0.0010361427807517678 0.0007542870551473103 0.00079634921529087358 0.00020824561423666828 0.00047886863622597265 -9.7541644132328361e-05 -0.001441118314895513 7.0521559927924513e-05 -0.00037471821167932382 -8.655988482739001e-05 -0.0010177685856712821 -0.0002917936378363716 0.0010046501748969528 4.1075568588814062e-05 -0.0010291832880508424 -0.00032780709845008858 -3.7867528581545187e-05 8.5378109636297797e-05 -0.0010596198455110823 -7.7226906278935668e-05 -0.0004060615627402571 -0.0011176370349130595 0.00078471194971522584 4.1783636925571566e-05 -0.00076049693882001635 0.00075466103061834087 -0.0017654559373046074 0.00044349653186196315 0.0012955988383495066 -0.00034795207379336791 -0.0006559025643199627 -4.5271624021619894e-05 -6.4871803802843699e-05 0.00085013110956717896 -0.00045471681244505039 0.00039822971554594937 0.00025957278766782112
leaf_weight=69 10886 61 350 61 4252 108 88 10511 176 3988 146 96 6489 63 76 60 107 61 3682 290 80 66 53 127 761 1058 175 64 68 3663 675 893 55 4057 1774 167 126 213 96 350 68 522 43515 1096 72 1049 309 79 50 1946 120 174 53 250 121 488 303 268 2033 61 55 753 1029
leaf_count=69 10886 61 350 61 4252 108 88 10511 176 3988 146 96 6489 63 76 60 107 61 3682 290 80 66 53 127 761 1058 175 64 68 3663 675 893 55 4057 1774 167 126 213 96 350 68 522 43515 1096 72 1049 309 79 50 1946 120 174 53 250 121 488 303 268 2033 61 55 753 1029
internal_value=3.28014e-07 -1.80118e-05 -1.67696e-05 7.91791e-05 -2.07396e-05 -1.04801e-05 -0.000127493 -9.03986e-06 7.12157e-05 -1.69836e-05 3.10931e-05 -3.1565e-05 8.84385e-06 -0.00013832 0.000263373 0.00104506 -0.000343149 -0.000155363 -0.000112309 0.000685469 0.000987277 0.000198998 0.000735156 0.000114576 2.42442e-05 -0.000394978 0.000771904 4.54198e-05 -3.79044e-05 0.000183967 0.000326108 0.000107561 -0.000718904 -3.60416e-05 -0.000106478 -0.000213299 -2.51394e-05 -2.16032e-05 0.000277109 -0.000341014 -0.000135074 -3.28094e-05 -2.86227e-05 1.32146e-06 -0.000382893 -4.98789e-05 -0.000100198 -0.000399248 -0.000238497 -7.73447e-05 -0.000138314 -6.08959e-05 -2.40972e-06 -0.00010128 0.00049282 -0.000489821 -0.000207304 0.000270627 -9.03311e-06 0.00146972 0.000411328 0.00033968 7.9484e-05
internal_weight=110555 89694 89633 20861 88608 80840 7768 80677 20625 75532 17577 57955 17000 7680 312 136 176 7368 6247 577 287 1103 149 954 827 1121 236 16786 4871 3839 1025 5145 163 56852 7619 3109 49233 48689 1117 544 418 4510 47572 1335 239 4803 6186 438 359 5748 3802 4739 3387 2824 563 541 1352 442 2283 141 904 808 11915
internal_count=110555 89694 89633 20861 88608 80840 7768 80677 20625 75532 17577 57955 17000 7680 312 136 176 7368 6247 577 287 1103 149 954 827 1121 236 16786 4871 3839 1025 5145 163 56852 7619 3109 49233 48689 1117 544 418 4510 47572 1335 239 4803 6186 438 359 5748 3802 4739 3387 2824 563 541 1352 442 2283 141 904 808 11915
is_linear=0
shrinkage=0.05


Tree=5
num_leaves=64
num_cat=0
split_feature=3 8 5 6 8 5 6 5 6 6 1 8 2 8 5 6 5 8 3 8 5 0 8 8 8 5 3 5 1 0 6 8 0 5 1 0 3 1 1 8 8 3 5 3 6 5 5 3 6 5 5 0 2 2 8 8 0 2 8 6 1 8 3
split_gain=0.0589217 0.0986761 0.0416295 0.0634943 0.0319373 0.0316002 0.0311561 0.0296456 0.0353858 0.0347657 0.0274001 0.0484441 0.0227443 0.0316188 0.0279448 0.0372146 0.0259409 0.0252033 0.0215289 0.0524663 0.0485338 0.0408989 0.0299785 0.0287591 0.0279364 0.0213459 0.0488669 0.0386534 0.0362965 0.0202603 0.0189677 0.0186937 0.021398 0.0256427 0.0183636 0.0555395 0.0205412 0.0507992 0.032254 0.0330781 0.0291774 0.0288984 0.0280504 0.0252598 0.0187869 0.0187081 0.0177585 0.027288 0.0173869 0.0171942 0.0164344 0.0182698 0.0163675 0.0155156 0.0150522 0.0362395 0.0193611 0.0178906 0.0199874 0.0150365 0.0148678 0.052589 0.0189835
threshold=-0.073461573570966707 0.035866761580109603 1.7927595376968386 1.0000000180025095e-35 -0.11302770674228667 2.7914083003997807 -1.317541718482971 -0.74514764547348011 0.97449916601181041 -0.87583255767822255 -0.086317777633666978 -0.069645423442125307 -0.12245639786124228 -0.1047849804162979 -0.52466443181037892 -0.080176990479230867 1.502289950847626 -0.10956637561321257 -0.12319576367735861 -0.11125643178820609 -1.361936569213867 -0.12483904883265494 -0.11086099967360495 -0.10743653401732443 -0.11092997714877127 -3.2899627685546871 -0.10732902958989142 -2.3250278234481807 -0.092886205762624727 -0.12506384402513501 -1.5762540102005003 -0.068609505891799913 -0.003776180674321949 -1.952785789966583 -0.12194160372018813 -0.12143820896744727 -0.11549443379044531 -0.11790659651160239 -0.1118480935692787 -0.083313193172216402 -0.094238884747028337 -0.1135486103594303 0.948980212211609 -0.10958691686391829 -0.34951056540012354 -1.0213397145271299 -0.53454220294952381 -0.11387066543102263 -0.69816917181015004 2.7914083003997807 -0.79639586806297291 -0.11742115020751952 -0.1257664933800697 -0.11540634185075758 -0.095491297543048845 -0.093238871544599519 -0.1146586276590824 -0.11482001096010207 -0.098983366042375551 -0.77256911993026722 -0.10555740073323248 -0.089878365397453294 -0.11035705730319022
decision_type=2 2 2 2 2 2 2 2 2 2 2 2 2 2 2 2 2 2 2 2 2 2 2 2 2 2 2 2 2 2 2 2 2 2 2 2 2 2 2 2 2 2 2 2 2 2 2 2 2 2 2 2 2 2 2 2 2 2 2 2 2 2 2
left_child=1 2 4 6 52 -5 -4 8 9 -2 11 60 18 14 15 17 -16 -14 19 29 59 22 -22 -23 -20 26 -15 53 -28 -6 -19 -11 -33 -34 -29 -36 37 40 39 41 45 46 44 -40 -39 -37 47 -38 -13 -9 -46 -52 -1 -27 57 56 -56 58 -48 -21 61 62 -8
right_child=7 -3 3 5 12 -7 10 49 -10 31 -12 48 13 25 16 -17 -18 30 24 20 21 23 -24 -25 -26 27 28 34 -30 -31 -32 32 33 -35 35 36 38 42 43 -41 -42 -43 -44 -45 50 -47 54 -49 -50 -51 51 -53 -54 -55 55 -57 -58 -59 -60 -61 -62 -63 -64
leaf_value=-8.8213677046403835e-05 0.00010393079266304737 -0.0018359628005806981 -0.00025516295717552126 -0.00022258080319564519 -0.00020397251568725534 -0.0015481993792938037 0.00037803514287786485 7.9920913869705314e-05 0.00095326407849003229 0.00018683865996606003 -0.0002936101007787872 0.00078351922020374336 0.00023102075455142353 -0.00042997197199631299 -1.9716147323838075e-06 0.00047435655172717593 -0.0005944826870476665 0.00086548955520717352 -0.00034369647706072539 -0.00068016973599729815 -0.00025366166706330013 -0.00033954862933751429 0.0011749678956517384 0.00027811363662025751 -1.1631883171685697e-05 -0.0011547475023824653 0.0016453407269825127 0.00064551179536291342 4.2745224033881515e-06 5.9998214722560056e-05 -4.9387304918882854e-05 -0.00044294263550722133 -0.00078242751478539967 -2.6611934023907825e-05 -0.0012745757387908456 -0.00063098233241200361 -0.00020147344472700945 -0.00010250070876558127 0.00012559956997492308 0.00066644992122227072 -0.00098449416605816248 -0.00038890037147203875 0.00076546063000436837 -5.8965845427378104e-05 0.00088249310664468791 -3.2439127547305839e-05 -0.00019337127704546268 -0.0013112185685374121 0.0018714200766587292 0.00054912221890420366 0.00078179881617423171 0.00014340164140508722 0.00017581324848705605 -0.0003836357703639597 0.001733179259406147 -0.00015589951928933523 0.00040422711763459391 2.9831870683784554e-05 -0.0011568094754975263 -0.0017086613744719547 4.2833270704250026e-05 0.0014404626697215777 -0.00059421959966938533
leaf_weight=743 1411 74 204 215 855 56 735 22469 82 259 128 79 1500 100 27014 659 185 57 1736 82 62 1649 88 212 997 80 86 93 55 4819 2442 910 126 965 92 145 323 473 1993 104 98 1597 219 26383 99 1235 225 66 72 196 125 1022 2785 347 50 162 61 800 70 65 279 118 53
leaf_count=743 1411 74 204 215 855 56 735 22469 82 259 128 79 1500 100 27014 659 185 57 1736 82 62 1649 88 212 997 80 86 93 55 4819 2442 910 126 965 92 145 323 473 1993 104 98 1597 219 26383 99 1235 225 66 72 196 125 1022 2785 347 50 162 61 800 70 65 279 118 53
internal_value=-2.68467e-06 -2.31538e-05 -2.15348e-05 0.000207392 -2.6947e-05 -0.000501194 0.000322747 6.24495e-05 -6.77003e-05 -9.07592e-05 0.000403395 0.000470344 -3.35595e-05 -2.29489e-05 1.33576e-05 0.000126504 -6.02342e-06 6.90768e-05 -0.000101805 -5.96273e-05 -0.000269408 -0.000204983 0.000586698 -0.000269075 -0.000222608 -5.49848e-05 0.000413045 -5.81415e-05 0.00100975 2.01922e-05 -2.81819e-05 -0.000212303 -0.000264034 -0.000114538 -5.24351e-05 -5.42899e-05 -5.1069e-05 6.54342e-05 -6.35722e-05 -0.000207722 -0.000155296 -0.000235019 0.000233766 -4.59988e-05 0.000165622 -9.57409e-05 -9.50094e-05 -0.000392639 0.00131115 8.40025e-05 0.000267406 0.000213595 0.0001202 -0.000530467 -1.01515e-05 0.000321323 0.00101298 -9.3011e-05 -0.00042512 -0.00114342 0.000362188 0.000460376 0.000311972
internal_weight=110484 84066 83992 1939 82053 271 1668 26418 3753 3671 1464 1336 78525 67960 31857 4658 27199 3999 10565 7832 2158 2011 150 1861 2733 36103 241 35862 141 5674 2499 2260 2001 1091 35435 35342 35250 3416 31834 3458 1478 3354 1938 28376 1719 1380 1757 389 151 22665 1246 1147 3528 427 1368 273 111 1095 295 147 1185 906 788
internal_count=110484 84066 83992 1939 82053 271 1668 26418 3753 3671 1464 1336 78525 67960 31857 4658 27199 3999 10565 7832 2158 2011 150 1861 2733 36103 241 35862 141 5674 2499 2260 2001 1091 35435 35342 35250 3416 31834 3458 1478 3354 1938 28376 1719 1380 1757 389 151 22665 1246 1147 3528 427 1368 273 111 1095 295 147 1185 906 788
is_linear=0
shrinkage=0.05


Tree=6
num_leaves=64
num_cat=0
split_feature=0 4 7 5 2 6 6 5 7 1 2 2 1 4 2 2 7 7 6 4 0 6 5 2 7 4 5 1 1 5 7 6 6 5 4 4 0 6 6 1 5 7 0 4 2 2 4 1 7 7 2 0 6 6 7 7 0 4 6 4 4 7 5
split_gain=0.0526476 0.0429355 0.0454006 0.0268652 0.0771379 0.0391219 0.0371548 0.034929 0.031311 0.0252354 0.0343137 0.0317305 0.0229242 0.0494826 0.0295859 0.0426064 0.0242462 0.0288714 0.0244559 0.0236616 0.0332721 0.0342024 0.0225992 0.0218572 0.0217822 0.0411489 0.0711597 0.0357416 0.0348435 0.0273463 0.0497922 0.0388778 0.0268257 0.0484448 0.0379388 0.0367522 0.0342642 0.0300894 0.0225404 0.0221609 0.0217071 0.0211871 0.0363159 0.0319057 0.0191488 0.0189807 0.018709 0.0243422 0.0186805 0.0218327 0.0181959 0.0276978 0.0244814 0.0225557 0.0331501 0.0313572 0.0243718 0.0224738 0.0196467 0.0180362 0.0345116 0.0205353 0.0180285
threshold=-0.073395814746618257 -0.36834973096847529 0.95039188861846935 1.7927595376968386 -0.088419184088706956 1.0000000180025095e-35 -1.1560765504837034 2.7914083003997807 3.3825588226318364 0.23274130374193194 0.1495068892836571 0.33210733532905584 -0.040948886424303048 -0.026676144450902935 0.03326165862381459 0.068720288574695601 -1.6888583302497862 -0.43991845846176142 -0.83338105678558339 -0.25110265612602228 -0.045461615547537797 0.015953582711517814 -1.0511502623558042 -0.016286561265587803 -0.89541819691658009 -0.2283523231744766 -2.6549892425537105 -0.098970759660005556 -0.10103731229901312 -0.79639586806297291 0.33533568680286413 -0.064700715243816362 -1.3868452906608579 -1.6357948184013364 1.060872554779053 0.762974113225937 -0.11951811611652373 -0.99792891740798939 -0.98428755998611439 -0.093990355730056749 -1.952785789966583 2.759059071540833 -0.12001657858490943 -0.017965827137231823 0.10444248467683794 -0.043192436918616288 -0.094550974667072282 -0.10312034934759139 0.49560835957527166 0.34282203018665319 -0.086658906191587434 -0.090572886168956743 -0.6546054184436797 -0.01664542872458696 -1.8028470277786253 -1.2501538991928098 -0.12397252395749091 2.1240761280059819 0.12427963316440584 -0.044405754655599587 0.31508308649063116 1.4772722721099856 0.9007108509540559
decision_type=2 2 2 2 2 2 2 2 2 2 2 2 2 2 2 2 2 2 2 2 2 2 2 2 2 2 2 2 2 2 2 2 2 2 2 2 2 2 2 2 2 2 2 2 2 2 2 2 2 2 2 2 2 2 2 2 2 2 2 2 2 2 2
left_child=3 9 12 24 5 6 8 -6 -5 10 44 -11 16 14 23 -16 18 45 -3 48 21 -21 -12 -14 25 26 -1 28 -28 30 38 -32 34 35 -27 -34 -36 40 -26 -29 -37 -8 -43 -44 -2 -18 -40 -48 49 -19 51 53 -52 54 -35 56 -56 -58 -54 61 -61 -7 -55
right_child=1 2 -4 4 7 59 41 -9 -10 11 22 -13 13 -15 15 -17 17 19 -20 20 -22 -23 -24 -25 29 32 27 39 -30 -31 31 -33 33 50 36 37 -38 -39 46 -41 -42 42 43 -45 -46 -47 47 -49 -50 -51 52 -53 58 62 55 -57 57 -59 -60 60 -62 -63 -64
leaf_value=0.0014784788746144571 0.00011329827471539039 0.0012129263354969833 0.00027983461566104771 0.00015136761861542987 -0.0003571469208348871 0.00090226972516735697 0.00037100287226054097 -0.0018869789335241713 -0.00099049778818152841 -0.00030115036521931923 0.0011900861170124699 5.2881650099482748e-05 -0.00015694077266973193 -0.0015629377475540553 0.0011487762386190468 -9.7092210977708053e-05 -0.00030227111059437427 -3.0567636476976701e-05 5.3873593107056921e-05 0.00023295695065373681 -0.00052922597540600697 0.0013083548316213285 0.00031938162875773575 -0.00058511630459434974 0.00022341190470699234 -0.000113709568658787 0.00010490776686361439 -0.00059245198818775897 0.00092690384193996878 -2.5407323295747652e-05 -0.00028684334373619571 0.00094086167903732407 -0.00027095690557963178 -0.00080011903146441914 0.00030016024327593743 -0.00068472845709747956 0.001846093649566263 -0.0011877316307611517 7.1847367465454216e-05 -5.838051541383514e-05 0.00045408980978097309 4.4178132153046071e-05 0.0006915526586058347 0.0019813620457352957 -0.00014467011202584101 0.00064840921745185781 -0.00012334953077701642 -0.00098928025900124682 -0.00037359507567170616 0.00058231331509887244 0.00030497194164357981 0.00074124021236154176 -0.0013825134189542512 8.4771219810992249e-05 -0.00078935624860341841 -0.00030503303876521577 8.7840294186029581e-05 0.00096254487930526106 -0.00032690713378048276 -0.0016956738243538467 -9.8982886198715087e-05 -0.00051028575852307353 -0.0007450386687802772
leaf_weight=86 14529 74 861 300 118 50 853 54 74 803 79 2973 745 69 85 339 1193 1217 116 212 79 113 1129 497 1302 406 1003 261 147 69772 83 282 787 219 117 158 51 261 1700 752 56 92 114 84 756 54 927 88 334 164 62 95 86 1274 68 1256 586 83 91 52 94 51 68
leaf_count=86 14529 74 861 300 118 50 853 54 74 803 79 2973 745 69 85 339 1193 1217 116 212 79 113 1129 497 1302 406 1003 261 147 69772 83 282 787 219 117 158 51 261 1700 752 56 92 114 84 756 54 927 88 334 164 62 95 86 1274 68 1256 586 83 91 52 94 51 68
internal_value=-2.55101e-06 5.90131e-05 -5.66743e-05 -2.19011e-05 0.000162151 0.000260833 0.000355839 -0.000845574 -7.66018e-05 9.41274e-05 0.000120821 -2.24662e-05 -0.000111477 -0.000260419 -0.000205568 0.000154784 -3.87535e-05 -6.98304e-05 0.000509281 4.25142e-05 0.000386257 0.000609731 0.000377261 -0.000328613 -2.62417e-05 -0.000104766 7.64239e-05 2.00214e-05 0.000210694 -1.77975e-05 0.000103348 0.000661664 -0.000175958 -0.000212094 0.000148063 -0.000481147 0.000777608 -0.000828097 5.24649e-05 -0.000196433 -0.000385994 0.000497281 0.000866161 0.00124595 0.00010053 -0.000260616 -2.95663e-05 -0.000199325 -3.86387e-05 4.25834e-05 -0.000124661 -9.68952e-05 -0.00054642 -0.000119501 -0.000217579 -0.000153198 0.000105624 0.000197636 -0.000844686 -0.000321747 -0.000675334 0.000190989 4.22008e-05
internal_weight=110484 26421 6152 84063 1936 1764 1517 172 374 20269 16493 3776 5291 1735 1666 424 3556 3366 190 2119 404 325 1208 1242 82127 7973 2249 2163 1150 74154 4382 365 5724 5150 574 1262 168 475 4017 1013 214 1143 290 198 15285 1247 2715 1015 1715 1381 3888 3649 239 3554 2212 1993 737 669 177 247 146 101 1342
internal_count=110484 26421 6152 84063 1936 1764 1517 172 374 20269 16493 3776 5291 1735 1666 424 3556 3366 190 2119 404 325 1208 1242 82127 7973 2249 2163 1150 74154 4382 365 5724 5150 574 1262 168 475 4017 1013 214 1143 290 198 15285 1247 2715 1015 1715 1381 3888 3649 239 3554 2212 1993 737 669 177 247 146 101 1342
is_linear=0
shrinkage=0.05


Tree=7
num_leaves=64
num_cat=0
split_feature=3 8 4 7 8 5 6 8 5 6 7 4 3 5 6 8 4 3 4 8 5 4 5 8 7 6 5 8 5 3 2 8 2 2 8 4 7 5 5 6 8 8 2 4 3 3 8 6 6 3 8 5 4 3 8 4 8 2 8 8 4 5 4
split_gain=0.0480897 0.0887868 0.0380554 0.0400299 0.0421022 0.0343388 0.05306 0.0287964 0.0279636 0.0259831 0.0240336 0.0360265 0.0337236 0.0281148 0.0283633 0.0326212 0.028084 0.0345161 0.0220039 0.0445254 0.0388705 0.0880305 0.0270636 0.0262333 0.0392835 0.0260612 0.0698983 0.0355344 0.0259919 0.0219135 0.0294373 0.0307369 0.0267664 0.0211331 0.028356 0.0286882 0.059018 0.0431275 0.0218514 0.0328287 0.0250157 0.0210627 0.0208521 0.0340561 0.0242966 0.0206282 0.0398873 0.0204863 0.0200921 0.0187529 0.0521919 0.0316746 0.0346152 0.019411 0.0329205 0.0274561 0.026602 0.0220576 0.025523 0.0237628 0.0212226 0.018499 0.0183231
threshold=-0.073461573570966707 0.035866761580109603 -0.36834973096847529 0.95039188861846935 -0.08269724994897841 1.7927595376968386 1.0000000180025095e-35 -0.11302770674228667 2.7914083003997807 -1.317541718482971 -1.6888583302497862 -0.059573810547590249 -0.050917262211441987 -1.361936569213867 -0.94560840725898732 0.0099960695952177065 -0.026676144450902935 -0.045466186478734009 0.762974113225937 -0.092885345220565782 -3.2899627685546871 -0.17731023579835889 1.4304094910621645 -0.089498363435268388 -0.6158337891101836 -1.317541718482971 -1.6357948184013364 -0.097725484520196901 -0.99182000756263722 0.23323577642440799 0.1495068892836571 0.33851979672908789 0.33210733532905584 -0.12245639786124228 -0.1047849804162979 -0.10742916911840437 0.90348520874977123 -0.57968795299530018 -0.52466443181037892 -0.27429284155368799 -0.10797308012843131 0.0048757006879895934 -0.1193568855524063 0.23722944408655169 -0.11614255979657172 -0.087822180241346345 -0.069645423442125307 -0.99792891740798939 -0.82351794838905323 -0.10338768362998961 -0.08269724994897841 -0.38665051758289332 -0.35494089126586909 -0.095053024590015397 -0.08269724994897841 -0.2383533492684364 -0.098224930465221391 -0.09849135577678679 -0.074233386665582643 -0.0601915456354618 -0.34221573173999781 -1.952785789966583 -0.081096570938825593
decision_type=2 2 2 2 2 2 2 2 2 2 2 2 2 2 2 2 2 2 2 2 2 2 2 2 2 2 2 2 2 2 2 2 2 2 2 2 2 2 2 2 2 2 2 2 2 2 2 2 2 2 2 2 2 2 2 2 2 2 2 2 2 2 2
left_child=1 5 29 4 -4 7 9 -1 -8 62 11 13 -13 14 -6 -16 -12 -18 20 22 21 -9 25 -21 48 28 47 -28 -20 30 -2 -32 -31 -22 38 41 -37 -38 39 40 -35 49 -39 44 -44 46 -11 61 -25 50 -36 52 -52 54 56 57 -51 59 60 -56 -59 -27 -7
right_child=2 -3 3 -5 10 6 8 18 -10 45 16 12 -14 -15 15 -17 17 -19 19 23 33 -23 -24 24 -26 26 27 -29 -30 32 31 -33 -34 34 35 36 37 42 -40 -41 -42 -43 43 -45 -46 -47 -48 -49 -50 53 51 -53 -54 -55 55 -57 -58 58 -60 -61 -62 -63 -64
leaf_value=0.00011542889088126892 9.5639186848191565e-05 -0.0017404861025667438 0.00021390922642366703 0.00026954388666785737 0.00021533875527487653 0.00022565902255114196 -0.00019718728932081867 0.0023999855292560018 -0.0014440983797325507 0.00032632867778928007 -0.00017822105306190619 0.0018607781089721592 5.7522320604024864e-05 0.00060945011003323913 0.00013679301213145395 -0.0014413744650835939 -0.00021975624200422318 -0.0017316190775917761 0.00060522998359415349 -0.001395699483593612 -0.00010554103598306864 8.7188846346516924e-06 -0.00071368430895843438 -6.4998274264892329e-06 0.00037533931778314369 -0.0006689934502809667 -7.2175396620842959e-05 0.00064989687734075903 -0.00026208817108681616 -0.00027444652129219764 0.0002575643580305412 0.0010274472390478509 5.023846354701165e-05 0.00017105010931734967 -2.6391077836075622e-06 -0.00022134185901808259 0.0015464623999324138 -0.00057685964831067358 3.9396660099057463e-06 0.00040816898890001395 -0.00012019725038274428 0.00081038852501660581 0.00070389745201417575 0.00082850124631528321 -0.00017081885073397365 -0.00023980321706176257 0.0011800762668586215 -0.0010390095041751014 -0.0011633642469546935 -4.6751875950760968e-05 0.001997988009692162 0.00021410675741014463 0.00056471711683187497 -1.7107422827364559e-05 0.00026128349259218748 -0.0003356049396582724 -0.00026000936140154005 -0.00018226277637443331 -0.0004197198284503433 0.001093351224317483 0.00072998835879735087 0.0004782684093627792 -0.0007184188251412707
leaf_weight=3528 15271 74 876 834 120 105 215 53 56 1183 3830 53 50 109 53 84 89 65 266 88 7195 134 166 52 102 108 5343 175 127 806 1058 147 2973 1851 9457 4570 58 88 25796 837 1224 74 100 177 370 127 154 232 134 2489 58 412 152 11566 579 299 3546 121 242 100 133 51 99
leaf_count=3528 15271 74 876 834 120 105 215 53 56 1183 3830 53 50 109 53 84 89 65 266 88 7195 134 166 52 102 108 5343 175 127 806 1058 147 2973 1851 9457 4570 58 88 25796 837 1224 74 100 177 370 127 154 232 134 2489 58 412 152 11566 579 299 3546 121 242 100 133 51 99
internal_value=-2.42278e-06 -2.09149e-05 5.64205e-05 -5.23655e-05 -0.000102786 -1.93792e-05 0.000188537 -2.42947e-05 -0.000459213 0.000293989 -0.000165121 0.000173151 0.000994381 -6.00395e-05 -0.000345248 -0.000834275 -0.000204976 -0.000864935 -3.05737e-05 -0.000116224 -2.23944e-05 0.000695618 -8.54227e-05 -0.000644446 -0.000410861 -6.87631e-05 -9.50022e-05 -4.91617e-05 0.000324998 8.95219e-05 0.000114428 0.000352258 -1.90659e-05 -2.42821e-05 -1.51878e-05 -4.59585e-05 -0.000152248 0.00024571 2.06409e-05 0.000130741 5.51181e-05 -2.6451e-05 0.000141104 0.000239495 1.63903e-05 0.000367638 0.000425475 -0.000740152 -0.000841704 -2.86029e-05 2.65623e-05 0.000469838 0.000968166 -5.77514e-05 -0.000120344 9.14453e-05 -0.000172078 0.000200309 -5.31379e-05 0.000385254 0.000296401 -0.000300315 -0.000233766
internal_weight=110484 84066 26418 6163 5329 83992 1939 82053 271 1668 4453 469 103 366 257 137 3984 154 78525 6844 71681 187 6468 376 288 6302 5909 5518 393 20255 16476 1205 3779 71494 64299 34591 5363 793 29708 3912 3075 29228 735 647 470 1464 1337 391 186 29154 10079 622 210 19075 7509 1474 6035 1175 496 679 254 159 204
internal_count=110484 84066 26418 6163 5329 83992 1939 82053 271 1668 4453 469 103 366 257 137 3984 154 78525 6844 71681 187 6468 376 288 6302 5909 5518 393 20255 16476 1205 3779 71494 64299 34591 5363 793 29708 3912 3075 29228 735 647 470 1464 1337 391 186 29154 10079 622 210 19075 7509 1474 6035 1175 496 679 254 159 204
is_linear=0
shrinkage=0.05


Tree=8
num_leaves=64
num_cat=0
split_feature=4 5 8 4 8 5 8 4 8 5 5 8 4 2 2 8 4 1 2 5 1 3 5 4 4 1 5 5 8 8 8 2 4 8 2 4 5 1 5 3 0 8 2 1 2 5 4 3 8 2 4 3 5 5 8 8 8 1 4 1 1 3 4
split_gain=0.0439326 0.0357974 0.0249905 0.021232 0.0638094 0.0296087 0.0448074 0.0542776 0.0782313 0.0265602 0.0277168 0.0262109 0.0223123 0.0218596 0.0205265 0.0240519 0.0506882 0.0311206 0.0367188 0.0242692 0.0299466 0.0351674 0.026365 0.0235439 0.0198488 0.0226356 0.0197157 0.0193944 0.0248952 0.0181715 0.0314457 0.0180789 0.036284 0.0172484 0.0171888 0.0185981 0.0204608 0.0180356 0.0171346 0.0187534 0.0169614 0.0492743 0.0306583 0.0225233 0.0328127 0.0204628 0.0176197 0.0166952 0.028045 0.0158017 0.0205504 0.0155572 0.0154521 0.0151422 0.015059 0.0148147 0.0146266 0.0143764 0.0141712 0.071083 0.067045 0.025897 0.0246793
threshold=-0.40573002398014063 1.7927595376968386 -0.11308947578072547 0.762974113225937 -0.049096835777163499 -3.2899627685546871 0.052170511335134513 -0.21761104464530942 -0.062812764197587953 -1.481053292751312 1.1772118806838991 -0.10073180124163626 4.9991202354431161 -0.11753632873296736 -0.12245639786124228 -0.10930544137954711 -0.29746295511722559 -0.12202602624893187 -0.12163952738046645 0.92461925745010387 -0.11851025372743605 -0.11717445775866507 1.5844851732254031 -0.094550974667072282 0.094383016228675856 -0.1233043000102043 -2.3250278234481807 -0.31138654053211207 -0.10948155447840689 -0.10711130872368811 -0.11119409278035162 -0.12324308604001998 2.7133544683456425 -0.10368546470999716 -0.11327929422259329 -0.30921380221843714 1.1383237838745119 -0.11259183287620543 -0.77898690104484547 -0.12201463431119917 -0.09103612974286078 -0.085908509790897356 -0.075999256223440156 -0.10555740073323248 -0.10356771200895308 2.7914083003997807 -0.31274385750293726 0.057001616805791862 0.1007148250937462 -0.1257664933800697 0.86694911122322094 -0.12350916862487792 2.1397550106048588 1.6821824312210085 -0.057262007147073739 -0.11086099967360495 -0.10765899345278739 -0.11045801267027854 -0.10742916911840437 -0.045343041419982903 -0.067224338650703416 -0.11671824380755423 0.0094872498884797114
decision_type=2 2 2 2 2 2 2 2 2 2 2 2 2 2 2 2 2 2 2 2 2 2 2 2 2 2 2 2 2 2 2 2 2 2 2 2 2 2 2 2 2 2 2 2 2 2 2 2 2 2 2 2 2 2 2 2 2 2 2 2 2 2 2
left_child=53 2 49 5 9 6 7 -4 -9 11 -11 31 -12 -13 24 16 27 -17 56 26 -21 33 23 34 25 29 -20 28 -16 30 51 32 -5 -22 35 36 -23 -36 -18 -40 41 -3 45 -43 -45 46 -42 48 -44 50 -2 -7 -48 -1 -46 -34 -19 -41 -28 60 61 -60 -61
right_child=1 40 3 4 -6 14 -8 8 -10 10 12 13 -14 -15 15 17 38 18 19 20 21 22 -24 -25 -26 -27 58 -29 -30 -31 -32 -33 55 -35 37 -37 -38 -39 39 57 42 43 47 44 54 -47 52 -49 -50 -51 -52 -53 -54 -55 -56 -57 -58 -59 59 62 -62 -63 -64
leaf_value=7.7489643353219172e-05 -0.00044194786856752296 0.00010195802577997957 0.0022494005568520293 0.00017325966380832888 -0.0018377777257108322 -9.9772840624805462e-05 -0.00064917368105274042 -0.00033341949522487679 0.00202027319099608 -3.3563323843256983e-05 -0.0003216495609662882 -0.00176862856583195 -0.0014458146347583263 -0.00055335482490629381 6.5809402051181931e-05 0.00042004724951372744 0.00036049749554469598 -0.00034308580224104744 -0.00032806876617870435 -0.00031957623254533652 0.0010537508546096634 0.00038071487530639083 -0.00022883173066677251 -0.00016336221188222846 -1.4854889527611101e-06 -0.00033503746033371846 -2.314253558178913e-05 -0.0001406052370541102 0.0012179630862459924 0.00065795157113572285 -0.00044540405015205281 -3.1663456854353327e-06 -0.0005659861347845031 1.2620086740103684e-05 -0.00059173396133701314 0.00019477801731133287 0.0016107310386360041 0.00016975834964445209 -9.8862128599983177e-05 0.00012256320308819767 0.00059836213081245924 0.0012847309612486178 0.00017705092066258964 -0.00060855650096657758 0.00048453441319806084 -0.0010489601212456186 8.1163039430975922e-05 -0.00042379049061738684 0.0013492600828057975 0.00018205959737562069 0.00011152983325173562 0.00020642832082761636 -0.00099562444317570866 -0.00039143502794543344 0.0013504979865745195 -0.001733488224888757 -0.0013835585896617196 -0.00056393492374230518 2.4579446946124509e-05 -0.00052486741561621716 0.00087768628266834047 -0.00016781185956581316 -0.001899319618773323
leaf_weight=16461 258 1215 51 87 52 1834 65 114 50 5730 337 50 50 141 583 387 624 71 575 431 143 71 575 564 3062 1379 45161 3721 50 78 565 382 53 55 79 173 65 2822 1152 8286 56 126 381 55 179 91 67 86 58 2359 475 535 65 173 70 58 65 76 2730 64 179 4866 68
leaf_count=16461 258 1215 51 87 52 1834 65 114 50 5730 337 50 50 141 583 387 624 71 575 431 143 71 575 564 3062 1379 45161 3721 50 78 565 382 53 55 79 173 65 2822 1152 8286 56 126 381 55 179 91 67 86 58 2359 475 535 65 173 70 58 65 76 2730 64 179 4866 68
internal_value=-2.29959e-06 -1.55736e-05 -2.06291e-05 -2.55217e-05 -0.000109464 -1.8361e-05 0.000494 0.000841016 0.000392065 -9.61514e-05 -6.12628e-05 -0.000372515 -0.000470243 -0.000879044 -2.01362e-05 -1.21323e-05 4.55942e-05 -2.62776e-05 -2.92243e-05 -2.73131e-05 7.82855e-05 0.00011606 8.62973e-05 0.000134358 -9.92031e-05 -0.000167329 -3.71138e-05 -9.70801e-05 0.000158594 -9.04607e-05 -0.000110575 -0.000204484 -0.000590916 0.000766065 0.000186702 0.000540681 0.000976056 0.000148825 0.000106873 9.02018e-05 0.000173039 0.000264984 -1.51799e-05 0.000724323 0.000488598 -0.000437821 -0.000138018 0.000209829 0.000334636 0.00011907 -8.36189e-05 -3.05644e-05 -0.000452572 7.25894e-05 0.000732406 -0.00118606 -0.00084684 0.000116257 -3.39551e-05 -9.57005e-05 -7.60841e-05 -9.86724e-05 -0.00124188
internal_weight=110484 93850 91401 88309 6940 81369 280 215 164 6888 6117 771 387 191 81089 73636 14492 59144 58757 58621 4978 4547 4349 3774 7453 4391 53643 4354 633 3012 2934 580 198 198 3210 309 136 2901 10138 9514 2449 1645 804 430 304 279 188 525 439 3092 733 2369 132 16634 249 111 136 8362 53068 7907 7775 7596 132
internal_count=110484 93850 91401 88309 6940 81369 280 215 164 6888 6117 771 387 191 81089 73636 14492 59144 58757 58621 4978 4547 4349 3774 7453 4391 53643 4354 633 3012 2934 580 198 198 3210 309 136 2901 10138 9514 2449 1645 804 430 304 279 188 525 439 3092 733 2369 132 16634 249 111 136 8362 53068 7907 7775 7596 132
is_linear=0
shrinkage=0.05


Tree=9
num_leaves=64
num_cat=0
split_feature=3 8 7 4 4 7 7 4 8 2 7 8 4 2 4 3 8 4 8 8 4 7 1 4 4 4 8 1 2 3 7 8 8 8 8 8 1 7 8 3 8 0 2 3 4 8 7 4 2 4 3 7 2 4 1 1 8 4 4 4 4 4 4
split_gain=0.0407744 0.0793131 0.0336849 0.027886 0.0260655 0.0317106 0.0250042 0.0292274 0.0453745 0.0354261 0.0247603 0.0241152 0.0240521 0.0223444 0.0211272 0.0598532 0.0408882 0.020913 0.0234862 0.0223646 0.0207224 0.037026 0.0218636 0.0315385 0.0206134 0.0198568 0.0197815 0.0215881 0.0197105 0.0196123 0.0191678 0.0185614 0.0295893 0.0224807 0.0176064 0.0175085 0.025224 0.017336 0.0232309 0.0206809 0.0173017 0.0168693 0.0165708 0.0220787 0.0349647 0.0405499 0.0435769 0.0241694 0.0204235 0.0202909 0.0201552 0.0181806 0.017955 0.016796 0.0161574 0.0334006 0.0457486 0.0379966 0.0246112 0.0220187 0.0218019 0.0158523 0.0200491
threshold=-0.073461573570966707 0.035866761580109603 -0.36409978568553919 0.082736108452081694 -0.35609923303127283 -2.3928365707397456 1.7290419936180117 -0.3694149106740951 -0.094582322984933839 -0.09849135577678679 2.1639128923416142 -0.11302770674228667 -0.25110265612602228 -0.10023630037903784 -0.24792126566171643 -0.053265634924173348 -0.049096835777163499 -0.36070851981639857 -0.08269724994897841 -0.024557497352361676 0.762974113225937 -1.5249323248863218 -0.11045801267027854 1.5830520391464236 -0.059573810547590249 -0.33816519379615778 1.0000000180025095e-35 -0.076017841696739183 -0.1075514107942581 -0.11614255979657172 1.8436898589134219 -0.085908509790897356 -0.092526976019144044 -0.098224930465221391 0.22849254310131076 -0.10921853408217429 -0.12413278967142104 0.38045808672904974 -0.074233386665582643 -0.074696961790323244 1.16169148683548 -0.063248611986637102 -0.12245639786124228 -0.11584390327334403 -0.10742916911840437 -0.10352418571710585 1.168301582336426 0.27527682483196264 -0.1150061972439289 0.13095436990261081 -0.11549443379044531 0.16005083918571475 -0.12426150962710379 0.6280680000782014 -0.080838203430175767 -0.083720695227384553 -0.069645423442125307 -0.37624083459377283 -0.40642262995243067 -0.28918366134166712 -0.23155582696199414 -0.14249445497989652 -0.37343709170818323
decision_type=2 2 2 2 2 2 2 2 2 2 2 2 2 2 2 2 2 2 2 2 2 2 2 2 2 2 2 2 2 2 2 2 2 2 2 2 2 2 2 2 2 2 2 2 2 2 2 2 2 2 2 2 2 2 2 2 2 2 2 2 2 2 2
left_child=1 6 4 10 40 24 11 28 29 13 14 -1 25 30 17 16 41 -4 -19 -20 26 -22 31 -24 -6 -12 27 42 -8 35 -10 32 33 -23 -7 -9 -37 61 39 -39 -2 -16 49 53 54 48 -47 -48 50 51 -46 -13 -53 -44 55 -45 -57 -58 -56 -59 -60 62 -29
right_child=2 -3 3 -5 5 34 7 8 9 -11 12 20 -14 -15 15 -17 -18 18 19 -21 21 22 23 -25 -26 -27 -28 37 -30 -31 -32 -33 -34 -35 -36 36 -38 38 -40 -41 -42 -43 43 44 45 46 47 -49 -50 -51 -52 52 -54 -55 58 56 57 59 60 -61 -62 -63 -64
leaf_value=0.00010539460154589274 4.4409310181077371e-05 -0.0016444567233944935 9.5399104038766398e-05 -0.00096957719698923862 6.2608713651383208e-05 -0.00019897442952973568 0.00028267948555845866 -0.00039463819197022005 0.0013899537556183836 5.6200417005674441e-05 0.00048666119724576778 -6.5099692940712102e-05 -0.00032769484497423821 0.0015069427493885584 0.00085795084858177626 -5.1979775555659886e-05 0.0016996061570862032 0.00024855147851679342 -0.00028518542257421941 9.2194901731166331e-05 -0.00043411492779781355 -6.7149171467150405e-05 -9.8352383425303195e-05 -0.0016192879191261123 0.0012508497662966581 0.0015023389932579331 0.00068258376073208644 -0.00020100599476690422 -0.00085546089489823857 -0.00056031112757375264 0.00044852160134133118 0.00082053169462597002 -0.0009580047228015386 0.00049604710097536967 -0.0010056216554533291 0.001168125977314878 6.8420177192125066e-05 -0.001023521276570658 0.00062765205434983748 0.00034293197346486003 -0.00034639166958175228 -0.0002785027611285581 2.4730850993043308e-05 -1.1346147404399479e-05 7.9458019544836138e-05 -0.0002870772687221345 0.00011593192652112469 0.0012708065311732649 0.00011914763361586059 1.9113442068424599e-05 -0.00082146226190924355 5.321731464417038e-05 -0.00033801867388840156 0.0003279329059101535 -0.00042530884898691772 -9.1790913074712912e-05 0.00018483674350710844 -0.0016082744628013309 0.00029284786365758636 -0.00064415086463252586 -0.00030674441861746108 0.00040531198259109182 -0.00081715680064707369
leaf_weight=3533 5365 74 15274 61 96 2082 56 178 59 438 224 2482 69 65 78 333 108 457 1129 601 785 5584 90 54 58 61 99 270 115 158 581 59 90 182 69 56 614 60 106 50 298 55 20840 33817 124 3481 177 60 1499 2651 123 357 1635 466 167 846 75 113 1185 128 173 52 259
leaf_count=3533 5365 74 15274 61 96 2082 56 178 59 438 224 2482 69 65 78 333 108 457 1129 601 785 5584 90 54 58 61 99 270 115 158 581 59 90 182 69 56 614 60 106 50 298 55 20840 33817 124 3481 177 60 1499 2651 123 357 1635 466 167 846 75 113 1185 128 173 52 259
internal_value=-2.18606e-06 -1.92137e-05 5.19972e-05 8.90992e-05 -3.39133e-05 -0.000175622 -1.77623e-05 0.000144066 0.000194186 0.000409587 9.26635e-05 -2.23609e-05 0.000506212 0.000628746 8.45186e-05 0.000382744 0.000981153 7.46936e-05 -6.98911e-05 -0.000154106 -2.81386e-05 -0.000111238 -6.93414e-05 -0.000675937 0.000515311 0.000708545 -2.016e-05 -2.11467e-05 -0.00048326 -5.07131e-05 0.000537343 -5.44621e-05 -6.34164e-05 -4.92893e-05 -0.000225305 4.47837e-05 0.00016194 -0.000279747 0.000102366 -0.000404912 2.37869e-05 0.000389418 -1.82151e-05 -1.00742e-05 -3.11183e-05 -0.000149068 -0.00024239 0.000412416 4.96808e-05 -9.04996e-05 -0.000370682 -0.000155439 -0.000267911 3.13775e-05 -1.34598e-05 -2.04071e-05 -0.000283868 -0.000796187 0.000145801 -0.00110099 0.000216294 -0.000421739 -0.000503648
internal_weight=110484 84066 26418 18450 7968 2305 83992 2320 2149 1143 18389 81672 354 705 18035 574 241 17461 2187 1730 78139 6844 6059 144 154 285 71295 71196 171 1006 640 5915 5856 5766 2151 848 670 797 216 110 5663 133 70399 63274 41968 5464 3718 237 1746 7125 247 4474 1992 21306 36504 34979 1162 316 1525 241 1358 581 529
internal_count=110484 84066 26418 18450 7968 2305 83992 2320 2149 1143 18389 81672 354 705 18035 574 241 17461 2187 1730 78139 6844 6059 144 154 285 71295 71196 171 1006 640 5915 5856 5766 2151 848 670 797 216 110 5663 133 70399 63274 41968 5464 3718 237 1746 7125 247 4474 1992 21306 36504 34979 1162 316 1525 241 1358 581 529
is_linear=0
shrinkage=0.05


end of trees

feature_importances:
Column_8=130
Column_5=86
Column_4=82
Column_7=77
Column_6=71
Column_2=63
Column_3=51
Column_1=39
Column_0=31

parameters:
[boosting: gbdt]
[objective: regression]
[metric: l2]
[tree_learner: serial]
[device_type: cpu]
[data_sample_strategy: bagging]
[data: ]
[valid: ]
[num_iterations: 1200]
[learning_rate: 0.05]
[num_leaves: 64]
[num_threads: 0]
[seed: 0]
[deterministic: 0]
[force_col_wise: 0]
[force_row_wise: 0]
[histogram_pool_size: -1]
[max_depth: -1]
[min_data_in_leaf: 50]
[min_sum_hessian_in_leaf: 0.001]
[bagging_fraction: 0.8]
[pos_bagging_fraction: 1]
[neg_bagging_fraction: 1]
[bagging_freq: 5]
[bagging_seed: 3]
[bagging_by_query: 0]
[feature_fraction: 0.8]
[feature_fraction_bynode: 1]
[feature_fraction_seed: 2]
[extra_trees: 0]
[extra_seed: 6]
[early_stopping_round: 0]
[early_stopping_min_delta: 0]
[first_metric_only: 0]
[max_delta_step: 0]
[lambda_l1: 0]
[lambda_l2: 1]
[linear_lambda: 0]
[min_gain_to_split: 0]
[drop_rate: 0.1]
[max_drop: 50]
[skip_drop: 0.5]
[xgboost_dart_mode: 0]
[uniform_drop: 0]
[drop_seed: 4]
[top_rate: 0.2]
[other_rate: 0.1]
[min_data_per_group: 100]
[max_cat_threshold: 32]
[cat_l2: 10]
[cat_smooth: 10]
[max_cat_to_onehot: 4]
[top_k: 20]
[monotone_constraints: ]
[monotone_constraints_method: basic]
[monotone_penalty: 0]
[feature_contri: ]
[forcedsplits_filename: ]
[refit_decay_rate: 0.9]
[cegb_tradeoff: 1]
[cegb_penalty_split: 0]
[cegb_penalty_feature_lazy: ]
[cegb_penalty_feature_coupled: ]
[path_smooth: 0]
[interaction_constraints: ]
[verbosity: -1]
[saved_feature_importance_type: 0]
[use_quantized_grad: 0]
[num_grad_quant_bins: 4]
[quant_train_renew_leaf: 0]
[stochastic_rounding: 1]
[linear_tree: 0]
[max_bin: 255]
[max_bin_by_feature: ]
[min_data_in_bin: 3]
[bin_construct_sample_cnt: 200000]
[data_random_seed: 1]
[is_enable_sparse: 1]
[enable_bundle: 1]
[use_missing: 1]
[zero_as_missing: 0]
[feature_pre_filter: 1]
[pre_partition: 0]
[two_round: 0]
[header: 0]
[label_column: ]
[weight_column: ]
[group_column: ]
[ignore_column: ]
[categorical_feature: ]
[forcedbins_filename: ]
[precise_float_parser: 0]
[parser_config_file: ]
[objective_seed: 5]
[num_class: 1]
[is_unbalance: 0]
[scale_pos_weight: 1]
[sigmoid: 1]
[boost_from_average: 1]
[reg_sqrt: 0]
[alpha: 0.9]
[fair_c: 1]
[poisson_max_delta_step: 0.7]
[tweedie_variance_power: 1.5]
[lambdarank_truncation_level: 30]
[lambdarank_norm: 1]
[label_gain: ]
[lambdarank_position_bias_regularization: 0]
[eval_at: ]
[multi_error_top_k: 1]
[auc_mu_weights: ]
[num_machines: 1]
[local_listen_port: 12400]
[time_out: 120]
[machine_list_filename: ]
[machines: ]
[gpu_platform_id: -1]
[gpu_device_id: -1]
[gpu_use_dp: 0]
[num_gpu: 1]

end of parameters

pandas_categorical:null
