tree
version=v4
num_class=1
num_tree_per_iteration=1
label_index=0
max_feature_idx=8
objective=regression
feature_names=Column_0 Column_1 Column_2 Column_3 Column_4 Column_5 Column_6 Column_7 Column_8
feature_infos=[-0.12652987241744995:5] [-0.12667277455329895:5] [-0.12648162245750427:5] [-0.12657180428504944:5] [-0.43320596218109131:5] [-4.0397491455078125:5] [-1.9943192005157471:5] [-5:5] [-0.11389906704425812:5]
tree_sizes=6146 6206 6203

Tree=0
num_leaves=64
num_cat=0
split_feature=8 3 7 7 4 8 1 0 8 3 8 6 8 0 8 1 8 0 1 3 6 6 8 1 8 8 7 1 1 0 0 3 7 4 8 7 3 8 1 8 3 6 8 4 8 0 6 4 7 3 4 4 3 0 0 8 6 7 4 4 7 3 4
split_gain=0.199749 0.266884 0.149966 0.141514 0.102101 0.0924656 0.149748 0.0971564 0.0909823 0.0844557 0.179527 0.067211 0.0616536 0.195727 0.184079 0.0926036 0.127772 0.0604169 0.0518756 0.0613028 0.0493964 0.0724723 0.0476598 0.152322 0.0851743 0.0442272 0.0413571 0.0410462 0.0588713 0.0681749 0.0410371 0.0489643 0.0409182 0.100136 0.14333 0.038944 0.0568209 0.0567313 0.056211 0.0381619 0.0475674 0.0374275 0.0360021 0.035445 0.0420737 0.0353031 0.034859 0.0428358 0.0336934 0.0330947 0.0334594 0.0330273 0.0378687 0.0323803 0.0496873 0.0432182 0.0349696 0.0402941 0.0319191 0.0712427 0.0317803 0.0477177 0.0524909
threshold=-0.089211463928222642 -0.10672588646411894 -0.64679789543151844 -3.1605755090713497 -0.25529576838016504 -0.051589235663413995 -0.09565075114369391 -0.10367573425173758 -0.082752872258424745 -0.1214940883219242 -0.10852390527725218 -0.35437570512294764 -0.11109206452965735 -0.12480877339839934 -0.1088166832923889 -0.12245835363864897 -0.10778747871518134 -0.10136951878666876 -0.10255803167819975 -0.050831560045480721 0.72668224573135387 -0.87826356291770924 -0.10996194183826445 -0.12118796631693839 -0.10191611200571059 -0.10464978218078612 0.21947672963142398 -0.085674382746219621 -0.11372618749737738 -0.1173715442419052 -0.12412419170141219 -0.12285615131258963 2.2784698009490971 -0.42254030704498285 0.09902855753898622 -1.7270755171775816 -0.11270809546113013 -0.071548230946063981 -0.11372618749737738 -0.10009512677788733 -0.11879684403538703 0.34494350850582128 -0.11028140038251875 0.32673333585262304 -0.10608654841780661 -0.10282043740153311 -0.52939707040786732 -0.36216454207897181 0.24605295062065127 0.046247448772192008 -0.39911513030529017 0.32673333585262304 -0.090889502316713319 -0.10001028701663016 -0.093673426657915101 -0.097690768539905534 -0.43738783895969385 1.6345413327217104 -0.36441078782081598 -0.2524369210004806 0.83466985821723949 -0.098312593996524797 -0.079053595662116991
decision_type=2 2 2 2 2 2 2 2 2 2 2 2 2 2 2 2 2 2 2 2 2 2 2 2 2 2 2 2 2 2 2 2 2 2 2 2 2 2 2 2 2 2 2 2 2 2 2 2 2 2 2 2 2 2 2 2 2 2 2 2 2 2 2
left_child=2 8 9 11 22 18 7 -7 -2 10 -1 -3 -6 14 42 16 -15 -9 -5 45 21 -12 26 24 -24 -23 -4 28 29 39 -18 43 51 -34 41 -10 38 -38 -37 -25 -41 58 -14 -32 -45 -20 -39 -48 -30 -36 -51 52 -8 55 -55 -17 57 -57 -35 -60 -47 -62 -63
right_child=1 3 4 5 12 6 32 17 35 -11 20 -13 13 15 -16 53 30 -19 19 -21 -22 25 23 27 -26 -27 -28 -29 48 -31 31 -33 33 34 49 36 37 46 -40 40 -42 -43 -44 44 -46 60 47 -49 -50 50 -52 -53 -54 54 -56 56 -58 -59 59 -61 61 62 -64
leaf_value=0.00034688661983174471 0.00051354476539854587 0.0010356064959298253 2.0271784887217946e-05 0.00044064041473292282 9.7930115284375544e-05 -0.00034361050884149688 0.0009231267997627967 0.0030178729408115727 0.00036365825810007993 0.00022973442620120252 0.002154669576238125 0.0031130689573678366 0.00034237067645077494 0.00030638588702074955 0.0043302887117427063 0.0001566201915515083 0.0021837077702204868 0.0013000546950289213 -0.0011981597298290163 0.00034247487599717774 0.0023047564711720075 0.00047576547652204324 0.00057796164452850554 -0.00010574150325454341 0.0024549537571907833 0.0016135597218023625 -0.00025991768853181704 0.00026077474566007022 4.5256590214272043e-05 0.00030807310047095579 0.00012422958854309588 0.0016039966315918651 -0.0012105021957004012 -0.00031548769813210642 0.0024443967787140582 0.0014826899537240111 0.00069687555328468685 0.00061159126722587769 0.0033168748728528707 0.001498197337385826 -0.00031687902569297775 -0.00062476901068941881 0.0018662006181611476 0.000292128610816656 0.0017526601346505148 0.0001313035793407287 0.003152406019825478 0.0014971649719948536 -0.00010817719934314647 0.0020552689409208567 0.00048737287803697171 -0.00063612103515617855 0.00028576099948096991 -0.00061323459203701863 0.00026768447837610307 0.00047952097277122939 0.00027487885625835371 0.0014495804584274186 0.0017423666008295146 8.7165242960396481e-05 0.00035851643021298277 -0.00028047214892261418 0.00082690326514105281
leaf_weight=2597 1163 171 3909 1552 12552 76 235 63 137 7668 123 50 104 2394 51 12556 76 273 52 2958 98 319 876 2001 64 116 1987 2270 9093 3552 185 190 64 84 111 161 441 67 57 84 62 87 61 91 107 10419 53 156 5903 67 69 95 18779 321 318 354 1134 153 113 151 483 1567 114
leaf_count=2597 1163 171 3909 1552 12552 76 235 63 137 7668 123 50 104 2394 51 12556 76 273 52 2958 98 319 876 2001 64 116 1987 2270 9093 3552 185 190 64 84 111 161 441 67 57 84 62 87 61 91 107 10419 53 156 5903 67 69 95 18779 321 318 354 1134 153 113 151 483 1567 114
internal_value=0.00019988 0.000289524 0.000149802 0.000257989 0.000118995 0.000250519 0.000322815 0.00126517 0.000820242 0.000320313 0.000533749 0.00151665 0.000183075 0.000242139 0.00173475 0.000224021 0.000475231 0.00162957 0.000165056 0.000137613 0.00127215 0.00108734 5.30981e-05 8.4509e-05 0.000708024 0.000781738 -7.42153e-05 5.89661e-05 3.68278e-05 0.00017363 0.00109693 0.000949568 0.000303208 0.000666252 0.000844168 0.00115237 0.00126763 0.00105057 0.00197434 -4.87424e-05 0.000729181 0.000297022 0.000912407 0.000622089 0.00108527 8.9644e-05 0.00161186 0.001929 -1.51569e-05 0.00180346 0.00126774 0.000289011 0.000293676 0.000172481 -0.000175412 0.000188164 0.000429394 0.000774157 0.000529154 0.000798812 9.50761e-05 -7.92388e-05 -0.000205042
internal_weight=111237 39868 71369 37633 60448 37412 20267 412 2235 10921 3253 221 30647 18095 216 17879 3043 336 17145 15593 656 558 29801 23905 940 435 5896 22965 20695 5699 649 573 19855 746 682 1072 935 717 218 2147 146 435 165 383 198 12635 276 209 14996 247 136 19109 19014 14836 639 14197 1641 507 348 264 12583 2164 1681
internal_count=111237 39868 71369 37633 60448 37412 20267 412 2235 10921 3253 221 30647 18095 216 17879 3043 336 17145 15593 656 558 29801 23905 940 435 5896 22965 20695 5699 649 573 19855 746 682 1072 935 717 218 2147 146 435 165 383 198 12635 276 209 14996 247 136 19109 19014 14836 639 14197 1641 507 348 264 12583 2164 1681
is_linear=0
shrinkage=1


Tree=1
num_leaves=64
num_cat=0
split_feature=8 2 5 7 5 4 7 7 8 4 7 8 4 0 8 2 7 5 6 6 4 7 7 8 0 8 0 8 0 8 2 2 0 0 2 4 8 4 6 2 5 2 8 5 8 2 5 8 4 0 4 5 7 2 8 6 8 7 6 6 7 5 2
split_gain=0.180302 0.227785 0.147238 0.128094 0.126605 0.268321 0.167153 0.0934859 0.0912484 0.084428 0.0811345 0.0713842 0.0713792 0.064676 0.0925995 0.0952445 0.0597003 0.0594173 0.0584533 0.0571358 0.0594915 0.0563268 0.0452561 0.0450979 0.101529 0.110866 0.0434105 0.0430329 0.10823 0.0705376 0.0428896 0.0413356 0.0408181 0.075568 0.0619107 0.0378015 0.0499108 0.0555941 0.0378891 0.0377481 0.0370047 0.0365047 0.0363049 0.0347703 0.0473061 0.102517 0.034634 0.0377153 0.0344704 0.0480942 0.0340016 0.032952 0.0325321 0.0322622 0.0500682 0.0427491 0.0420558 0.0420935 0.0356374 0.0343427 0.0320716 0.0320631 0.0356004
threshold=-0.089211463928222642 -0.10946293547749518 -0.67703992128372181 -0.82249197363853443 4.0091762542724618 -0.38119935989379877 2.4794546365737919 -3.1605755090713497 -0.082752872258424745 -0.26097218692302698 -0.28279000520706171 0.09902855753898622 -0.36104042828083033 -0.10215221345424651 -0.051589235663413995 -0.092770755290985094 0.78261107206344616 -3.7065749168395992 -0.69545981287956227 0.1147747077047825 -0.3633380234241485 0.83466985821723949 -1.4194957017898557 -0.11102527007460593 -0.12480877339839934 -0.1101262718439102 -0.050802811980247491 -0.10996194183826445 -0.12103370577096938 -0.10264965519309042 -0.1214843913912773 -0.12415307760238646 -0.1137704625725746 -0.1173715442419052 -0.090220965445041643 0.15354752540588382 -0.071548230946063981 -0.11017824709415434 1.0184433460235598 -0.12330267205834387 1.4467388987541201 -0.11805661767721175 -0.10595685243606566 0.18771937489509585 -0.10789205878973006 -0.12234506011009215 4.0091762542724618 -0.10191611200571059 -0.37666894495487208 -0.10538001731038092 -0.16812241077423093 -0.32702036201953882 0.21947672963142398 -0.12209835276007651 -0.10721683502197264 -0.32361495494842524 -0.0963260382413864 1.6345413327217104 -0.22501144558191297 -0.15556819736957547 0.24605295062065127 1.5028303861618044 -0.12041768059134482
decision_type=2 2 2 2 2 2 2 2 2 2 2 2 2 2 2 2 2 2 2 2 2 2 2 2 2 2 2 2 2 2 2 2 2 2 2 2 2 2 2 2 2 2 2 2 2 2 2 2 2 2 2 2 2 2 2 2 2 2 2 2 2 2 2
left_child=2 8 10 22 6 -6 7 18 -2 27 17 19 -10 35 21 -16 43 42 -3 20 -8 26 30 31 25 -25 40 52 29 -29 51 -18 33 -30 60 36 48 38 -38 -12 -15 -32 -1 -11 -45 -46 53 -48 49 -9 -20 -4 -5 54 -26 56 -55 -58 -57 -60 -34 62 -47
right_child=1 4 3 9 5 -7 11 13 12 16 39 -13 -14 14 15 -17 23 -19 50 -21 -22 -23 -24 24 46 -27 -28 28 32 -31 41 -33 34 -35 -36 -37 37 -39 -40 -41 -42 -43 -44 44 45 61 47 -49 -50 -51 -52 -53 -54 55 -56 58 57 -59 59 -61 -62 -63 -64
leaf_value=0.0019671253004344184 0.00035600479691017808 0.00032906754622104019 0.0023431001156158922 -0.0001869625801856101 -0.0042477165180921121 -0.00021693273018820832 -0.00039536779375150407 -0.00072154037852394115 0.0023919529429643743 -0.00010943097443690371 0.00095829503824522053 0.0016514603062614455 0.00093713752501389184 -5.402157444858873e-05 0.00087087719842188639 9.3173774167087624e-05 8.7777252469765563e-05 5.1222846585847559e-05 0.0028410024972310151 -0.00022008953631068263 0.001154150683777586 -0.00029586179370005031 0.00017214935039965262 3.8612419659472716e-05 0.00020254516178086764 0.0033068003304328564 0.00015664444055229533 0.00030528975394214264 -0.00025534398456248622 0.0020094273293745409 -0.00046845846614421144 -0.00055730788587468507 -0.00015990796644225978 0.00013783317391727952 1.8621161279196924e-05 -0.00031848943861694889 0.00088287614127585473 -0.00025081796067245979 0.002312809063799002 0.00033939791354880146 -0.00092650260365160174 0.00075038542317564698 0.00046917132413000219 -6.2817605162160026e-05 0.0014409999831873155 0.0007773344139317029 -0.0014596420233454624 0.00030552736610512846 0.00035018475359478517 0.00042156356123171482 0.001027751896461788 0.00086851174808757884 -0.00044210096881603641 0.00017308176930559845 0.00096460140197949379 -0.00081532410244299655 0.0002574109467593085 0.0016082072273937164 0.00088371528024435971 -7.7825970028880186e-05 -0.00031630747436975007 -0.00065565793497313724 9.4058971209433066e-05
leaf_weight=59 743 127 53 3699 51 201 76 197 101 14915 299 188 508 10208 401 19085 607 8450 51 176 324 2097 2297 50 775 53 2828 769 2008 65 96 419 7952 3119 3249 225 318 96 54 1394 122 167 127 6610 151 205 67 54 1465 171 55 135 1888 1284 298 151 121 110 99 1300 5581 130 2563
leaf_count=59 743 127 53 3699 51 201 76 197 101 14915 299 188 508 10208 401 19085 607 8450 51 176 324 2097 2297 50 775 53 2828 769 2008 65 96 419 7952 3119 3249 225 318 96 54 1394 122 167 127 6610 151 205 67 54 1465 171 55 135 1888 1284 298 151 121 110 99 1300 5581 130 2563
internal_value=5.81145e-06 9.09805e-05 -4.17661e-05 -7.13088e-05 6.85788e-05 -0.00104625 7.5948e-05 6.10204e-05 0.00072864 -8.70367e-05 0.000132809 0.000807615 0.00118194 5.47633e-05 3.69976e-05 0.000109222 -2.85228e-05 7.07382e-05 0.00105729 0.000529809 0.00085949 -5.52594e-05 0.000262229 0.000122192 0.000192343 0.00173593 -1.68948e-05 -0.000148918 -0.000118366 0.000440354 0.000719622 -0.00017595 -0.000139653 -1.61752e-05 -0.000177373 0.00029899 0.000359482 0.000819856 0.00109609 0.000449202 -6.44145e-05 0.000305395 0.000952307 -6.15715e-05 1.23345e-05 0.000175226 0.000154614 -0.000675833 0.000241557 -0.000190667 0.00191856 0.00129442 -0.000273245 0.000179055 0.000414889 9.63848e-05 0.000285175 0.000904807 -8.82072e-05 -9.20004e-06 -0.000224426 0.000108799 0.000144925
internal_weight=111237 39868 71369 61040 38516 252 38264 37500 1352 58292 10329 764 609 37267 34741 19486 29962 8636 233 576 400 15255 2748 5388 4362 103 13158 28330 22743 834 451 1026 21909 5127 16782 2526 2301 468 372 1693 10330 263 186 24574 9659 3049 4259 121 1833 368 106 188 5587 4138 1073 3065 1515 231 1550 1399 13533 2898 2768
internal_count=111237 39868 71369 61040 38516 252 38264 37500 1352 58292 10329 764 609 37267 34741 19486 29962 8636 233 576 400 15255 2748 5388 4362 103 13158 28330 22743 834 451 1026 21909 5127 16782 2526 2301 468 372 1693 10330 263 186 24574 9659 3049 4259 121 1833 368 106 188 5587 4138 1073 3065 1515 231 1550 1399 13533 2898 2768
is_linear=0
shrinkage=0.05


Tree=2
num_leaves=64
num_cat=0
split_feature=8 3 7 7 4 8 0 0 8 2 3 8 6 2 6 6 7 2 8 3 8 8 4 3 8 2 0 3 3 4 3 8 6 4 2 8 3 3 7 6 8 2 3 0 7 4 8 8 2 3 4 2 8 3 3 7 3 8 2 4 7 3 4
split_gain=0.162722 0.220926 0.12394 0.117513 0.0875003 0.0762559 0.123324 0.0800002 0.0749203 0.0738782 0.0738373 0.157416 0.0575154 0.0478165 0.0439005 0.0651732 0.0430572 0.0476012 0.0500957 0.0512937 0.0498206 0.0455856 0.0406883 0.0405933 0.0396712 0.0383126 0.0530462 0.0371442 0.0487054 0.0481873 0.040828 0.0360825 0.0450487 0.0395465 0.0355779 0.0621906 0.140155 0.0446815 0.0358808 0.0340235 0.0339808 0.170848 0.0498163 0.0530913 0.0327359 0.0877871 0.131333 0.0321528 0.0311974 0.0321129 0.030969 0.0304911 0.0411564 0.0291869 0.0291068 0.028412 0.030475 0.0772118 0.0832918 0.0497519 0.0279576 0.0265365 0.0264511
threshold=-0.089211463928222642 -0.10672588646411894 -0.64679789543151844 -3.1605755090713497 -0.01740900985896587 -0.051589235663413995 -0.095081657171249376 -0.10367573425173758 -0.082752872258424745 -0.10136450827121733 -0.1214940883219242 -0.10852390527725218 -0.35437570512294764 -0.099246017634868608 0.72668224573135387 -0.87826356291770924 1.0776630640029909 -0.10784962400794028 -0.11081477627158164 -0.1221926026046276 -0.097690768539905534 -0.10709966346621512 -0.34372705221176142 -0.085670072585344301 -0.10464978218078612 -0.1124005652964115 -0.11394434049725531 -0.050831560045480721 -0.10220110416412352 0.1675650700926781 -0.10429483279585837 -0.071548230946063981 -0.52939707040786732 -0.36216454207897181 -0.10310729220509528 -0.10767428576946257 -0.12327333167195319 -0.12051611393690108 0.35198184847831732 -0.68666845560073841 -0.10608654841780661 -0.12200710549950598 -0.1214940883219242 -0.11558062583208083 2.2784698009490971 -0.42254030704498285 0.064529947936534895 -0.073378007858991609 -0.11983817070722579 -0.11381923034787177 -0.29886551201343531 -0.11828781664371489 -0.10210897028446196 -0.1070243827998638 -0.12182948738336562 3.1776472330093388 -0.12340292707085608 -0.11074451357126235 -0.12489248067140578 1.1677455902099612 1.1654737591743471 -0.10953860729932784 -0.41527812182903284
decision_type=2 2 2 2 2 2 2 2 2 2 2 2 2 2 2 2 2 2 2 2 2 2 2 2 2 2 2 2 2 2 2 2 2 2 2 2 2 2 2 2 2 2 2 2 2 2 2 2 2 2 2 2 2 2 2 2 2 2 2 2 2 2 2
left_child=2 8 10 12 16 27 7 -7 -2 -9 11 -1 -3 40 15 -13 23 18 -18 21 22 39 -21 34 -17 26 47 28 29 -5 -31 50 -33 -34 35 -4 -37 -38 -36 -20 55 60 54 -44 -8 -46 -47 -10 -39 51 61 52 -50 -51 -43 56 57 -6 -59 -58 -42 -27 -40
right_child=1 3 4 5 13 6 44 9 25 -11 -12 14 -14 -15 -16 24 17 -19 19 20 -22 -23 -24 -25 -26 31 -28 -29 -30 30 -32 32 33 -35 38 36 37 48 62 -41 41 42 43 -45 45 46 -48 -49 49 53 -52 -53 -54 -55 -56 -57 59 58 -60 -61 -62 -63 -64
leaf_value=0.00013993554864119494 0.00029099359298772899 0.00075988186205883492 -0.00016749786949786581 0.00027262859910933627 1.359011954086406e-05 -0.00054890254588779545 8.5168440231430921e-05 0.0026926935245033486 0.001259018921900722 0.00088917132678173287 3.0650302655316803e-05 0.0018442558604815969 0.0026813630028353895 -0.0014297923705141461 0.0019797388385132315 0.00025266902866860619 -0.00073311109836840147 -0.00033999176003632879 -0.00058285693138553627 -0.00055226777919461579 0.00055187385463573277 0.0015547803461887554 0.00010984982668656627 7.8571902818058245e-05 0.0013301809024402543 0.00070156170620590058 0.0022785219483674297 0.0001344761031109152 -9.4846716447287977e-05 3.0133981853555509e-05 -0.0015778687763472656 8.9927144124632403e-05 0.002672231843893382 0.0010995455786628771 -0.00016465822836219865 0.0019437977495383369 0.0003757825627600687 -0.00064508707407127941 -0.0012759066384408952 0.00070972121747414066 0.0017741061410194931 -0.00015686898589289437 0.00031631816417942977 -0.00010610139239520595 -0.001331552365490307 -3.171259343798738e-05 0.0013726037843480301 -0.00022730608288125664 -0.00039494397744642109 -0.00018193037719218885 0.00072538511937584801 0.00012623087512680201 0.00064471486970658399 2.2314728270310855e-05 -0.0017303636233456496 -0.0010448289374023893 -1.2048359526094934e-05 0.0020417631649207778 0.0003650269526536521 -0.00038292191341180587 0.00081467529859191405 -0.00055632473123968455 -0.00037282357137347543
leaf_weight=2597 1163 171 17629 1572 5188 76 19072 69 130 313 7668 123 50 55 98 319 142 551 67 294 497 121 1086 2452 116 65 102 2958 12453 96 66 78 53 167 5866 89 624 221 84 203 153 59 1469 1505 64 374 299 50 605 4838 313 3454 112 2739 58 64 6294 81 775 1055 156 114 1862
leaf_count=2597 1163 171 17629 1572 5188 76 19072 69 130 313 7668 123 50 55 98 319 142 551 67 294 497 121 1086 2452 116 65 102 2958 12453 96 66 78 53 167 5866 89 624 221 84 203 153 59 1469 1505 64 374 299 50 605 4838 313 3454 112 2739 58 64 6294 81 775 1055 156 114 1862
internal_value=5.53123e-06 8.64416e-05 -3.96673e-05 5.77502e-05 -6.76741e-05 5.09428e-05 0.000116597 0.000926847 0.000569306 0.00122112 0.000115343 0.000314911 0.00120473 2.88431e-05 0.00100634 0.000832152 -0.000105167 7.888e-05 0.000174748 0.000231888 0.000123174 0.000752123 -3.15078e-05 -0.0001186 0.000542397 0.000870691 0.00137112 -2.66684e-05 -6.02742e-05 0.000187925 -0.000630639 0.00069055 0.00112418 0.0014888 -0.000131283 -0.000106755 -2.23116e-05 -3.63601e-05 -0.000226427 0.000388003 3.36868e-05 0.000174893 6.26441e-05 0.000102588 9.7817e-05 0.000424577 0.000593307 0.000847176 -5.78767e-05 -4.67763e-05 0.00042616 6.46319e-05 -0.000231871 -0.000108105 -0.000944946 -2.00024e-06 3.06067e-06 8.62208e-05 0.000525887 -6.53347e-05 0.00129392 -9.81904e-05 -0.000412441
internal_weight=111237 39868 71369 37633 60448 37412 20267 458 2235 382 10921 3253 221 16912 656 558 43536 2961 2410 2268 1877 391 1380 40575 435 1072 282 17145 14187 1734 162 790 298 220 38123 30311 12682 12593 7812 270 16857 3400 3091 2974 19809 737 673 180 11969 11748 492 4171 717 7577 117 13457 13393 6044 856 7349 309 179 1946
internal_count=111237 39868 71369 37633 60448 37412 20267 458 2235 382 10921 3253 221 16912 656 558 43536 2961 2410 2268 1877 391 1380 40575 435 1072 282 17145 14187 1734 162 790 298 220 38123 30311 12682 12593 7812 270 16857 3400 3091 2974 19809 737 673 180 11969 11748 492 4171 717 7577 117 13457 13393 6044 856 7349 309 179 1946
is_linear=0
shrinkage=0.05


end of trees

feature_importances:
Column_8=45
Column_4=25
Column_7=25
Column_3=24
Column_0=19
Column_2=19
Column_6=17
Column_5=8
Column_1=7

parameters:
[boosting: gbdt]
[objective: regression]
[metric: l2]
[tree_learner: serial]
[device_type: cpu]
[data_sample_strategy: bagging]
[data: ]
[valid: ]
[num_iterations: 1200]
[learning_rate: 0.05]
[num_leaves: 64]
[num_threads: 0]
[seed: 0]
[deterministic: 0]
[force_col_wise: 0]
[force_row_wise: 0]
[histogram_pool_size: -1]
[max_depth: -1]
[min_data_in_leaf: 50]
[min_sum_hessian_in_leaf: 0.001]
[bagging_fraction: 0.8]
[pos_bagging_fraction: 1]
[neg_bagging_fraction: 1]
[bagging_freq: 5]
[bagging_seed: 3]
[bagging_by_query: 0]
[feature_fraction: 0.8]
[feature_fraction_bynode: 1]
[feature_fraction_seed: 2]
[extra_trees: 0]
[extra_seed: 6]
[early_stopping_round: 0]
[early_stopping_min_delta: 0]
[first_metric_only: 0]
[max_delta_step: 0]
[lambda_l1: 0]
[lambda_l2: 1]
[linear_lambda: 0]
[min_gain_to_split: 0]
[drop_rate: 0.1]
[max_drop: 50]
[skip_drop: 0.5]
[xgboost_dart_mode: 0]
[uniform_drop: 0]
[drop_seed: 4]
[top_rate: 0.2]
[other_rate: 0.1]
[min_data_per_group: 100]
[max_cat_threshold: 32]
[cat_l2: 10]
[cat_smooth: 10]
[max_cat_to_onehot: 4]
[top_k: 20]
[monotone_constraints: ]
[monotone_constraints_method: basic]
[monotone_penalty: 0]
[feature_contri: ]
[forcedsplits_filename: ]
[refit_decay_rate: 0.9]
[cegb_tradeoff: 1]
[cegb_penalty_split: 0]
[cegb_penalty_feature_lazy: ]
[cegb_penalty_feature_coupled: ]
[path_smooth: 0]
[interaction_constraints: ]
[verbosity: -1]
[saved_feature_importance_type: 0]
[use_quantized_grad: 0]
[num_grad_quant_bins: 4]
[quant_train_renew_leaf: 0]
[stochastic_rounding: 1]
[linear_tree: 0]
[max_bin: 255]
[max_bin_by_feature: ]
[min_data_in_bin: 3]
[bin_construct_sample_cnt: 200000]
[data_random_seed: 1]
[is_enable_sparse: 1]
[enable_bundle: 1]
[use_missing: 1]
[zero_as_missing: 0]
[feature_pre_filter: 1]
[pre_partition: 0]
[two_round: 0]
[header: 0]
[label_column: ]
[weight_column: ]
[group_column: ]
[ignore_column: ]
[categorical_feature: ]
[forcedbins_filename: ]
[precise_float_parser: 0]
[parser_config_file: ]
[objective_seed: 5]
[num_class: 1]
[is_unbalance: 0]
[scale_pos_weight: 1]
[sigmoid: 1]
[boost_from_average: 1]
[reg_sqrt: 0]
[alpha: 0.9]
[fair_c: 1]
[poisson_max_delta_step: 0.7]
[tweedie_variance_power: 1.5]
[lambdarank_truncation_level: 30]
[lambdarank_norm: 1]
[label_gain: ]
[lambdarank_position_bias_regularization: 0]
[eval_at: ]
[multi_error_top_k: 1]
[auc_mu_weights: ]
[num_machines: 1]
[local_listen_port: 12400]
[time_out: 120]
[machine_list_filename: ]
[machines: ]
[gpu_platform_id: -1]
[gpu_device_id: -1]
[gpu_use_dp: 0]
[num_gpu: 1]

end of parameters

pandas_categorical:null
