tree
version=v4
num_class=1
num_tree_per_iteration=1
label_index=0
max_feature_idx=8
objective=regression
feature_names=Column_0 Column_1 Column_2 Column_3 Column_4 Column_5 Column_6 Column_7 Column_8
feature_infos=[-0.12652987241744995:5] [-0.12667277455329895:5] [-0.12648162245750427:5] [-0.12657180428504944:5] [-0.43320596218109131:5] [-4.0397491455078125:5] [-1.9943192005157471:5] [-5:5] [-0.11389906704425812:5]
tree_sizes=6176 6188 6180 6179 6187 6198 6200

Tree=0
num_leaves=64
num_cat=0
split_feature=8 3 7 8 1 7 6 8 7 6 3 7 3 7 3 8 4 4 1 8 4 4 8 3 3 8 8 0 1 3 8 1 7 7 0 1 8 3 8 4 1 8 6 7 3 7 8 8 1 8 3 8 4 1 1 3 4 0 8 4 7 4 6
split_gain=0.204691 0.242645 0.131468 0.105122 0.112086 0.0846238 0.0932807 0.078758 0.0750808 0.0737005 0.0690337 0.068508 0.0684391 0.0645976 0.082489 0.0643061 0.0625527 0.0592014 0.0699331 0.0687554 0.0566634 0.0556669 0.0615377 0.157113 0.052679 0.0579096 0.0485491 0.0492736 0.0475161 0.0578058 0.0794155 0.0475487 0.0458077 0.0451473 0.0404191 0.0429072 0.0702849 0.0398624 0.0388213 0.037597 0.0502772 0.037383 0.0367812 0.0356436 0.0348054 0.0347419 0.0345541 0.0341343 0.142905 0.138083 0.057395 0.16456 0.0427682 0.0552078 0.0449542 0.0322822 0.0626813 0.122587 0.0565692 0.0389267 0.04466 0.0320681 0.0311865
threshold=-0.083929233253002153 -0.096557512879371629 -0.6336386203765868 -0.067632403224706636 -0.109591968357563 -3.1605755090713497 -0.36174616217613215 -0.015832090750336644 1.5715765357017519 -0.95924702286720265 -0.11959173530340193 -1.2198447585105894 -0.0084318160079419596 2.1350500583648686 -0.090316701680421815 0.09902855753898622 -0.41527812182903284 -0.25826966762542719 -0.097978536039590822 -0.025398867204785344 -0.37940064072608942 -0.19050685316324231 -0.10987966880202292 -0.12182948738336562 -0.11622729897499083 -0.097690768539905534 -0.10852390527725218 -0.12335232645273207 -0.072078738361597047 -0.10346736758947371 -0.10030321776866911 -0.11426882445812224 0.096945039927959456 3.1776472330093388 -0.11754546687006949 -0.12228805571794508 -0.10862839221954344 -0.10611471906304358 -0.082174193114042268 -0.37940064072608942 -0.1082896441221237 -0.10661537200212477 -0.44482834637165064 0.24605295062065127 -0.12498266249895094 0.4112882018089295 -0.030895585194230076 -0.11109206452965735 -0.12495456263422965 -0.11004959419369696 -0.12209821119904517 -0.10767428576946257 0.75793203711509716 -0.11041105166077612 -0.1208706460893154 -0.044154178351163857 -0.16812241077423093 -0.077610373497009263 0.020391522906720642 -0.18195018917322156 -1.0993509888648985 -0.30466569960117335 0.55968809127807628
decision_type=2 2 2 2 2 2 2 2 2 2 2 2 2 2 2 2 2 2 2 2 2 2 2 2 2 2 2 2 2 2 2 2 2 2 2 2 2 2 2 2 2 2 2 2 2 2 2 2 2 2 2 2 2 2 2 2 2 2 2 2 2 2 2
left_child=2 3 10 4 20 6 -3 12 21 33 11 44 -7 14 -9 62 -17 19 -19 37 -2 22 32 41 34 -26 -13 -28 29 30 -25 -32 -4 -10 35 36 -11 -5 45 40 -12 -24 -41 -31 -1 -22 -14 -23 49 -49 51 -50 -52 54 -54 56 -16 -58 -59 -57 -61 -43 -15
right_child=1 5 8 17 -6 7 -8 13 9 24 39 26 46 15 55 16 -18 18 -20 -21 38 47 23 28 25 -27 27 -29 -30 43 31 -33 -34 -35 -36 -37 -38 -39 -40 42 -42 61 -44 -45 -46 -47 -48 48 50 -51 52 -53 53 -55 -56 59 57 58 -60 60 -62 -63 -64
leaf_value=0.0015663827067239869 0.0027277576682569319 0.00060399817210246229 6.8065618296160899e-05 0.0018996207209831526 0.00034714609264188689 0.00012898439791827375 0.0031165586783675624 0.0020453811843328096 0.00013778507696577078 0.00038367221043825292 0.0013038426856014191 0.00021240485150568247 0.00053642098278767515 0.00055576379575975879 0.00035800666762737636 0.00020930662720392967 0.0017310594751927142 0.00044800432931231272 0.0018657362871109461 0.0028402593939517999 -0.00057106715068130399 0.00010679990628495411 0.00068279960655405188 6.5576709260458033e-05 -0.00066925400194384156 0.0004483827814884325 0.0022021491569477001 0.00057724115731706653 0.00031789533853673527 5.1726130990206731e-05 0.00068790136770046197 0.00024269774952020016 -0.00016907024415060046 -0.00092270446767381731 0.0015432982321597825 0.00030566435406156135 0.0014814850835593422 0.00094625481218441401 0.001249559010750464 7.4451746146291396e-05 0.00030538429380366425 0.0025945569854542686 0.00030298726428754801 -0.0001400556706696557 0.00066098397347618982 0.0011390202626483711 0.00013034231088674818 0.00052306957048310057 0.00023913979959382854 0.0036769243535300874 0.00019527539017606118 0.0012906591113486467 -0.00060271316734437669 -0.0016719309811962021 0.00011317449056749492 0.00028636699840891341 -0.00054021110847963789 0.0028520505656741873 0.0010394377901554886 0.00057784203698299139 -0.0010784550985076637 0.00096252644759522456 -0.00068030066024868938
leaf_weight=114 51 129 4236 145 2461 14291 51 67 479 293 174 2310 1729 251 860 94 239 535 103 69 65 10932 549 11528 152 477 50 561 2141 6659 723 3496 3924 126 138 518 290 457 343 3801 452 51 3278 3810 1439 53 751 87 2196 57 9350 447 278 53 1026 11746 67 88 86 64 109 75 63
leaf_count=114 51 129 4236 145 2461 14291 51 67 479 293 174 2310 1729 251 860 94 239 535 103 69 65 10932 549 11528 152 477 50 561 2141 6659 723 3496 3924 126 138 518 290 457 343 3801 452 51 3278 3810 1439 53 751 87 2196 57 9350 447 278 53 1026 11746 67 88 86 64 109 75 63
internal_value=0.000199205 0.000299374 0.00015328 0.000651915 0.000487359 0.000250164 0.00132811 0.000243767 0.000124664 0.000394745 0.000303864 0.000460059 0.000171064 0.000332542 0.000308404 0.000819862 0.00130283 0.00102514 0.000679144 0.00135292 0.0011597 0.000113821 7.53079e-05 0.000109411 0.000550044 0.000177361 0.000317317 0.000713277 9.14555e-05 7.29587e-05 0.000133503 0.00031909 -4.59993e-05 -8.45551e-05 0.000739104 0.000637172 0.000931024 0.00117833 0.00098112 0.000213144 0.000584239 0.000862753 0.000180278 -1.80945e-05 0.000728286 0.000198512 0.000413475 0.000172465 0.000225665 0.00178688 0.000208707 0.000417327 0.000157193 -0.000105006 -3.99391e-05 0.000299324 0.00055825 0.00126918 0.00196611 0.000275377 -0.000467035 0.00163681 0.000305776
internal_weight=111237 34967 76270 4282 2973 30685 180 30505 64091 2473 12179 4474 16771 13734 13087 647 333 1309 638 671 512 61618 37192 29032 1868 629 2921 611 28357 26216 15747 4219 8160 605 1239 1101 583 602 461 7705 626 675 7079 10469 1553 118 2480 24426 13494 144 13350 2643 10707 1357 1304 13020 1101 241 174 11919 173 126 314
internal_count=111237 34967 76270 4282 2973 30685 180 30505 64091 2473 12179 4474 16771 13734 13087 647 333 1309 638 671 512 61618 37192 29032 1868 629 2921 611 28357 26216 15747 4219 8160 605 1239 1101 583 602 461 7705 626 675 7079 10469 1553 118 2480 24426 13494 144 13350 2643 10707 1357 1304 13020 1101 241 174 11919 173 126 314
is_linear=0
shrinkage=1


Tree=1
num_leaves=64
num_cat=0
split_feature=8 2 5 7 5 7 7 4 6 6 4 8 2 8 0 5 8 0 8 5 4 8 6 0 8 7 5 4 2 0 2 8 8 2 0 6 5 4 7 0 8 0 7 8 4 0 6 6 7 7 8 7 7 5 8 2 0 4 0 7 5 2 2
split_gain=0.184787 0.231577 0.14118 0.10502 0.12878 0.102674 0.0968415 0.0863322 0.0672354 0.0656765 0.0644788 0.0644008 0.125178 0.105111 0.074477 0.0548394 0.0501174 0.140642 0.0916284 0.047344 0.0586631 0.0471114 0.0650987 0.0454634 0.115353 0.0451006 0.0445986 0.0441937 0.0916671 0.143894 0.0611492 0.148929 0.0625416 0.100531 0.0559509 0.0551851 0.04986 0.042976 0.0666842 0.0424714 0.0632512 0.0511252 0.0414438 0.0564147 0.0458672 0.0401866 0.0400876 0.038542 0.0371469 0.0361841 0.0343173 0.0338648 0.0325645 0.0324514 0.0352134 0.078012 0.0426773 0.0359816 0.0379322 0.0323041 0.0381731 0.0323652 0.0356237
threshold=-0.083929233253002153 -0.10696750506758688 -0.45520688593387598 2.4794546365737919 4.0091762542724618 -3.1605755090713497 -0.82249197363853443 -0.36546632647514338 -0.12445117905735968 -0.35437570512294764 -0.26097218692302698 -0.11109206452965735 -0.12337275221943854 -0.10800225287675856 -0.12412419170141219 3.135251641273499 -0.10987966880202292 -0.12178195267915724 -0.10509317368268965 -1.6083450913429258 0.12737905979156497 0.09902855753898622 0.40958046913146978 -0.12328748777508734 -0.10891218855977057 -1.5234144330024717 0.18771937489509585 0.12737905979156497 -0.077636681497097002 -0.048555374145507806 -0.092329915612936006 -0.051589235663413995 0.026288618333637718 -0.018987182527780529 -0.0040430880617350331 -1.1042587161064146 0.057461623102426536 -0.091818377375602708 0.20643635839223864 -0.1137704625725746 -0.10030321776866911 -0.070553623139858232 -0.29794615507125849 -0.073378007858991609 -0.21340284496545789 -0.1173715442419052 -0.79760724306106556 -1.1564881801605222 -0.53140842914581288 1.8953684568405154 -0.030895585194230076 1.272924602031708 -0.87637475132942189 4.0091762542724618 -0.10595685243606566 -0.11657294631004332 -0.12214231863617896 1.8409943580627444 -0.12019262090325354 -0.29794615507125849 -1.0235764384269712 0.061135936528444297 0.087887298315763487
decision_type=2 2 2 2 2 2 2 2 2 2 2 2 2 2 2 2 2 2 2 2 2 2 2 2 2 2 2 2 2 2 2 2 2 2 2 2 2 2 2 2 2 2 2 2 2 2 2 2 2 2 2 2 2 2 2 2 2 2 2 2 2 2 2
left_child=2 25 8 5 21 9 -4 -6 23 -3 16 -12 13 -13 -15 27 -8 18 -18 20 -10 22 47 24 -1 -2 -14 30 35 -30 31 49 34 36 37 -29 -34 -32 48 40 45 -41 43 44 -27 -19 -37 -5 52 -7 -36 -21 -39 54 57 56 -56 58 -28 -35 -61 -62 -63
right_child=1 3 6 4 7 15 10 -9 19 -11 11 12 26 14 -16 -17 17 39 -20 51 -22 -23 -24 -25 -26 42 53 28 29 -31 32 -33 33 59 50 46 -38 38 -40 41 -42 -43 -44 -45 -46 -47 -48 -49 -50 -51 -52 -53 -54 -55 55 -57 -58 -59 -60 60 61 62 -64
leaf_value=0.00013872230573482543 8.1389688194156084e-05 0.00063284785921646845 0.00025032508100093727 -5.357032653409988e-05 -0.0021505476290098672 0.00016946764122362525 -0.000276952272027891 0.00013665240271560229 0.0020369846096578042 0.0026487979607190942 -0.00012522790184878302 0.00028424133304871081 -0.00011021657712210797 0.0026207909324215892 0.00078013783767908384 -0.0012956834404806918 0.00049357936964272567 -0.00023327179637863823 0.0026404340279680728 0.00021231455435734422 -2.9936997743789108e-05 0.0015838727637565355 -0.00037400101942255097 -6.4668724390406029e-06 0.0015087201217071622 0.0019310321566032096 0.00017712917629966588 0.00077014760611484115 0.0022821451551469697 -0.0010008114235490928 -7.6777454361974464e-05 0.0010657509867257424 0.00035854869934360276 -1.9388776159643292e-05 0.00033828219696538354 -0.0021821439548683186 0.001186510194513117 -2.6505494752753629e-05 0.0010896555997810919 -0.00018868617850843376 0.00045360374983748666 9.2489671658560463e-05 0.00075495388438080084 0.0028074702707719611 0.00022079778442275712 7.2768746508256583e-05 -0.00068577402900167617 0.0012111635650867837 -0.00077191490071809631 -0.00062527309980941938 3.9534838019781394e-05 0.001115155500083007 0.001062488904403102 -0.0008257524542796984 0.001388453296324563 3.072673973593315e-05 0.00039689023938855049 -0.00063623727221284829 -0.0001260572198531422 0.0009579220900904099 0.00038279021257716766 -0.00039868056713680155 0.00013121594335265688
leaf_weight=1926 185 156 2207 74 56 3182 5402 149 81 54 11419 1081 6572 85 156 74 395 1967 56 3626 59 196 115 10824 166 73 1813 58 73 60 13965 491 443 3512 1530 50 309 262 202 16304 675 1794 748 62 84 2357 388 321 115 149 2584 106 92 101 118 3097 1262 230 2391 151 1176 348 3480
leaf_count=1926 185 156 2207 74 56 3182 5402 149 81 54 11419 1081 6572 85 156 74 395 1967 56 3626 59 196 115 10824 166 73 1813 58 73 60 13965 491 443 3512 1530 50 309 262 202 16304 675 1794 748 62 84 2357 388 321 115 149 2584 106 92 101 118 3097 1262 230 2391 151 1176 348 3480
internal_value=5.16637e-06 0.000100341 -3.84684e-05 7.65788e-05 0.000605847 6.19072e-05 -7.46082e-05 -0.00049555 8.95761e-05 0.00116133 -8.71331e-05 -3.34979e-05 2.8464e-05 0.000495403 0.00143748 5.48101e-05 -0.000139607 -0.00010809 0.000765403 0.000272301 0.00117189 0.000925906 0.000670436 3.47813e-05 0.0002481 0.000797167 -1.1176e-05 5.79133e-05 -0.000356806 0.000804696 6.60784e-05 0.000253721 4.06107e-05 0.000145719 -1.2195e-05 -0.000669249 0.000699886 -5.79883e-05 0.000332587 -0.000125178 3.82919e-06 -0.00016081 0.000933879 0.00153879 0.00102319 -6.64717e-05 -0.000861174 0.000974689 4.8902e-06 0.000133741 0.000150694 0.00023825 0.000258706 6.10536e-05 7.11964e-05 0.000170096 0.00048262 -2.86781e-05 4.70475e-06 9.7561e-05 0.000177225 0.00015348 8.2952e-05
internal_weight=111237 34967 76270 33815 911 32904 59482 205 16788 210 57275 28325 16906 1322 241 32694 28950 23548 451 3872 140 706 510 12916 2092 1152 15584 32620 629 133 31991 3822 28169 9419 18750 496 752 14636 671 23097 4999 18098 967 219 157 4324 438 395 469 3331 4114 3732 354 9012 8911 4477 1380 4434 4204 8667 5155 5004 3828
internal_count=111237 34967 76270 33815 911 32904 59482 205 16788 210 57275 28325 16906 1322 241 32694 28950 23548 451 3872 140 706 510 12916 2092 1152 15584 32620 629 133 31991 3822 28169 9419 18750 496 752 14636 671 23097 4999 18098 967 219 157 4324 438 395 469 3331 4114 3732 354 9012 8911 4477 1380 4434 4204 8667 5155 5004 3828
is_linear=0
shrinkage=0.05


Tree=2
num_leaves=64
num_cat=0
split_feature=8 2 7 7 7 2 6 6 4 8 3 8 0 8 3 8 2 8 7 7 3 3 2 8 4 3 0 3 8 6 8 3 0 8 6 4 7 2 7 7 0 8 7 8 4 4 7 4 0 0 4 8 7 8 2 7 3 2 7 8 7 8 0
split_gain=0.166794 0.209146 0.110344 0.0947846 0.0928 0.0889367 0.0854262 0.0594101 0.0585362 0.0577227 0.184041 0.0987164 0.0577462 0.0809532 0.0601725 0.0547021 0.124169 0.154757 0.0563075 0.0545277 0.0518655 0.0497218 0.0451853 0.0445074 0.0440562 0.0901862 0.137925 0.0616996 0.0997697 0.0496647 0.0495554 0.0924108 0.045521 0.0442 0.0431558 0.04289 0.0417243 0.0412848 0.0407307 0.0385392 0.037775 0.0376652 0.037512 0.0510413 0.0374337 0.0367919 0.0361254 0.0351407 0.0337793 0.0412723 0.0321706 0.0341286 0.0330524 0.0309736 0.0308486 0.0303732 0.0300919 0.0395399 0.0312752 0.0297156 0.0294931 0.0482998 0.0292177
threshold=-0.083929233253002153 -0.10696750506758688 -1.0993509888648985 2.4794546365737919 -3.1605755090713497 -0.11969712376594542 -1.298137307167053 -0.35437570512294764 -0.27659656107425684 -0.10971578955650328 -0.12175092846155165 -0.10386449843645094 -0.1137704625725746 -0.10030321776866911 -0.11759344860911368 -0.11193453893065451 -0.12431152909994124 -0.10800225287675856 -0.04735616780817508 -0.37123817205429072 -0.11651902645826338 -0.070630006492137895 -0.11569931358098982 -0.10871827974915503 0.12737905979156497 -0.076308280229568468 -0.048555374145507806 -0.096557512879371629 -0.051589235663413995 -1.1042587161064146 0.026288618333637718 -0.019020169042050835 -0.0040430880617350331 0.15341853350400927 0.44271093606948858 -0.11017824709415434 0.078360348939895644 -0.10365722700953482 -1.5234144330024717 0.24605295062065127 -0.12389531359076499 -0.025398867204785344 -0.29794615507125849 -0.071548230946063981 -0.2715455144643783 -0.33809892833232874 0.8883623778820039 -0.27659656107425684 -0.046267619356513016 -0.073250740766525255 -0.20603171736001966 -0.066535666584968553 1.5096931457519533 -0.030895585194230076 -0.11389808729290961 -0.65896156430244435 -0.098312593996524797 -0.069288875907659517 3.1776472330093388 -0.096876606345176683 2.0060266256332402 -0.04827908240258693 -0.058031581342220299
decision_type=2 2 2 2 2 2 2 2 2 2 2 2 2 2 2 2 2 2 2 2 2 2 2 2 2 2 2 2 2 2 2 2 2 2 2 2 2 2 2 2 2 2 2 2 2 2 2 2 2 2 2 2 2 2 2 2 2 2 2 2 2 2 2
left_child=2 38 5 4 7 -1 -5 -3 9 36 11 40 13 14 -12 18 17 -17 -10 -15 45 39 23 -16 27 29 -27 28 50 -26 32 33 35 -32 56 60 -4 -30 -2 -14 -11 -37 43 44 -40 59 54 -36 49 -43 51 52 -6 -34 -24 -53 -8 58 -58 -21 -29 -62 -63
right_child=1 3 8 6 24 -7 34 -9 15 10 12 -13 21 19 22 16 -18 -19 -20 20 -22 -23 46 -25 25 26 -28 30 37 -31 31 -33 53 -35 47 41 -38 -39 42 -41 -42 48 -44 -45 -46 -47 -48 -49 -50 -51 -52 55 -54 -55 -56 -57 57 -59 -60 -61 61 62 -64
leaf_value=0.00046192118282398437 7.7342075414352273e-05 0.00060140703327265707 -0.00011546483696296556 -0.00074651159337480312 0.00026753747021801257 2.6408698836227298e-05 0.0015471868860241691 0.0025187660127200867 2.0897662028555826e-05 0.0017889258885031357 -0.00023925430312370555 0.0029678053621601782 -9.6516371219290125e-05 0.0014858418380167531 -0.00028256298758464658 0.00036541915422980489 2.8834633930768116e-06 0.0025579279655290922 -0.00021946629533963806 0.00059675593345709073 2.5996422247554372e-05 0.00010763478456085536 -6.8138987848965176e-05 0.00049648893839759813 0.00068987250172843539 0.0022651287202989645 -0.00093096665953034698 -5.4728210843773188e-05 8.5052601576675313e-05 -0.00084487927979719354 0.00055437732256850174 8.8005106332188004e-05 0.00032137912184992495 0.001994137943494997 0.00057425822488174009 0.00013211930262674128 -0.00038638362488149769 0.0015378199596752849 0.0020134266491553163 -0.00024323432413868122 0.00045642955574765558 0.00046485259522565601 0.0007172565866964721 0.0027559786044692278 0.00043370834254741539 0.00028325627927106245 -0.00085571862541408954 -0.00090255283851166173 -9.195095065727153e-05 0.0023140903727542008 -0.00014183882916742396 0.0015485533808285337 -0.00053763841390312521 3.755884240816007e-05 0.00065429606403908812 0.00045248570823283834 0.00087494679257471238 0.0011494523770711825 -0.00034524749124622243 0.0021992510271957146 -0.0014896585060380045 0.00056924741546113397 -0.00087540180398112477
leaf_weight=1882 185 156 2946 107 1332 3106 156 54 4401 61 1905 50 11988 123 224 1084 27440 86 5457 50 442 2052 1226 995 59 72 62 14734 64 446 692 8702 1530 57 114 727 2747 208 58 7144 385 60 748 56 105 110 128 61 54 61 563 88 140 2584 167 223 98 264 111 71 94 83 59
leaf_count=1882 185 156 2946 107 1332 3106 156 54 4401 61 1905 50 11988 123 224 1084 27440 86 5457 50 442 2052 1226 995 59 72 62 14734 64 446 692 8702 1530 57 114 727 2747 208 58 7144 385 60 748 56 105 110 128 61 54 61 563 88 140 2584 167 223 98 264 111 71 94 83 59
internal_value=4.91899e-06 9.53413e-05 -3.6537e-05 7.27593e-05 5.8821e-05 0.00019079 0.000575574 0.00110404 -5.24468e-05 -0.000101504 -7.11156e-05 0.0008822 -8.89075e-05 5.63796e-05 -2.34965e-05 -1.05984e-05 2.44013e-05 0.000528625 -0.000112167 0.000521936 0.000343826 -0.000126225 0.000126543 0.000353218 5.20738e-05 -0.000358696 0.000790396 6.02732e-05 0.000292835 -0.000664563 3.95809e-05 0.000133914 -5.03171e-06 0.000666458 0.000752232 -4.34505e-05 -0.000246234 0.00119756 0.00075756 -0.000151312 0.000642271 0.000291202 0.000887481 0.00146298 0.00100467 0.000949233 -5.52382e-05 5.72808e-05 0.00094757 0.00140844 0.000187474 0.000291479 0.000190645 0.000143164 1.88775e-05 0.000766596 0.000945183 0.000743791 0.000228343 0.00154738 -6.36327e-05 -0.000616983 -3.29184e-05
internal_weight=111237 34967 76270 33815 32904 4988 911 210 71282 32814 27121 496 26625 5441 4645 38468 28610 1170 9858 796 673 21184 2740 1219 32694 639 134 32055 2618 505 29437 9451 19986 749 804 15872 5693 272 1152 19132 446 902 967 219 163 231 1521 175 175 121 2346 1783 1472 4114 1393 311 629 473 209 121 14970 236 142
internal_count=111237 34967 76270 33815 32904 4988 911 210 71282 32814 27121 496 26625 5441 4645 38468 28610 1170 9858 796 673 21184 2740 1219 32694 639 134 32055 2618 505 29437 9451 19986 749 804 15872 5693 272 1152 19132 446 902 967 219 163 231 1521 175 175 121 2346 1783 1472 4114 1393 311 629 473 209 121 14970 236 142
is_linear=0
shrinkage=0.05


Tree=3
num_leaves=64
num_cat=0
split_feature=8 2 5 7 7 5 7 7 7 6 6 5 5 8 6 2 8 1 7 3 6 7 2 5 2 2 8 3 1 7 5 1 5 2 1 1 6 6 2 6 5 6 7 1 6 7 1 5 8 8 8 3 8 2 8 2 3 7 5 1 3 8 5
split_gain=0.15058 0.188893 0.121183 0.112493 0.0855781 0.112767 0.0838739 0.0654922 0.0562395 0.0600717 0.0537416 0.0490896 0.0423324 0.0415893 0.0545525 0.0401395 0.0440896 0.0482758 0.0400448 0.0394298 0.0367965 0.0367867 0.0366431 0.0434976 0.0354772 0.0350879 0.0346477 0.163497 0.0404952 0.0346574 0.035859 0.0344196 0.0340375 0.0340207 0.0910588 0.0395073 0.0335197 0.0395255 0.0333068 0.0328806 0.0319727 0.0440693 0.0359491 0.0406561 0.031542 0.031441 0.030872 0.0308377 0.0303433 0.0412423 0.0303275 0.182048 0.149089 0.144823 0.0541545 0.036107 0.0487305 0.0403293 0.0300919 0.0300374 0.0465297 0.0655884 0.0561247
threshold=-0.083929233253002153 -0.10696750506758688 -0.62633600831031788 -0.82249197363853443 2.4794546365737919 4.0091762542724618 -3.1605755090713497 -0.17963345348834989 1.5715765357017519 -0.95924702286720265 -0.35437570512294764 3.135251641273499 2.4322854280471806 0.09902855753898622 0.40958046913146978 -0.11585695296525954 -0.0963260382413864 -0.11356553807854651 3.1776472330093388 -0.12359175458550452 0.057048501446843154 -1.5234144330024717 -0.11969712376594542 -0.88926795125007618 -0.11997994408011435 -0.096967704594135271 -0.051589235663413995 -0.09286316484212874 1.0000000180025095e-35 2.1350500583648686 1.6358368396759035 -0.064510181546211229 1.0476729869842532 -0.1124005652964115 -0.11372618749737738 -0.11155656352639197 -0.81742945313453663 0.31629070639610296 -0.10365722700953482 -1.1564881801605222 -1.9258971810340879 -0.94707238674163807 -1.5234144330024717 0.027930419892072681 -0.66163420677185047 -2.2061482667922969 0.015320683829486372 1.9094805717468264 -0.071548230946063981 -0.060488810762763016 -0.11088688299059866 -0.12209821119904517 -0.10800225287675856 -0.12407780438661574 -0.10283267870545386 -0.12323694303631781 -0.12252651154994963 0.5157650113105775 1.7190871238708498 -0.072078738361597047 -0.10346736758947371 -0.097690768539905534 0.2277270779013634
decision_type=2 2 2 2 2 2 2 2 2 2 2 2 2 2 2 2 2 2 2 2 2 2 2 2 2 2 2 2 2 2 2 2 2 2 2 2 2 2 2 2 2 2 2 2 2 2 2 2 2 2 2 2 2 2 2 2 2 2 2 2 2 2 2
left_child=2 21 7 -4 6 13 10 22 12 18 -3 26 50 14 39 20 -17 -18 -10 -9 32 -2 23 24 -1 -7 28 38 -8 30 40 -27 -11 34 -23 -35 -31 -38 -28 -6 41 -29 44 -44 46 -42 -43 -22 -37 -50 55 52 58 -54 -55 -5 57 -57 -52 60 61 -53 -63
right_child=1 4 3 8 5 25 11 19 9 15 -12 -13 -14 -15 -16 16 17 -19 -20 -21 47 33 -24 -25 -26 31 27 29 -30 36 -32 -33 -34 35 -36 48 37 -39 -40 -41 45 42 43 -45 -46 -47 -48 -49 49 -51 51 59 53 54 -56 56 -58 -59 -60 -61 -62 62 -64
leaf_value=0.00027401514964733094 7.3495739460697454e-05 0.00057152822270031399 0.00024717870370244541 -6.5984354812383464e-05 -6.455190068421265e-05 0.00065869445913681291 -2.9052263733788462e-05 0.00094979761261568697 -6.2921753810598349e-05 0.0014992985301370059 0.0023951175555438652 -0.0012282507846442363 -0.0011353489406853137 0.0014645415295531788 -0.00034958423845543216 -0.00070562377690493725 -0.00093599665855784739 0.00047350236596965751 -0.0010621533515612414 0.00029121655464548992 0.00029307010455689492 0.00069550391618148841 -7.3160411608642694e-06 -4.8157045646076423e-05 0.001296931121826426 -0.0016359468339155808 -4.1189762123394763e-05 0.00018751423307359846 0.0004073984420523761 -0.00034695354561942323 -0.00030941648154393241 -0.00014662406458491349 0.00055319161895159101 -0.00054187589356886401 0.0026654657900000403 0.00051511546511957048 0.0016308822875629942 8.5116252138623568e-05 0.0011762317510076302 0.0011034153435279116 0.00079271923079915398 0.00046162878695343228 -0.00059494124020063085 0.00099492015080434866 -0.0015263163373958834 8.4145986954796767e-05 -0.0012401844770956101 -0.00093389717931450719 0.0018307806709163543 0.0004577438380748595 0.00010367804583827838 -9.7267326011648181e-05 0.0034006525969935437 0.00054257767182693136 0.0018812634924607768 -0.00031716325989504778 -0.00013933034863367283 -0.0008870459968563963 0.0012108562641688402 9.3138925406266958e-05 -0.00018970624943414621 -7.2883226207417218e-05 0.00032328834355645913
leaf_weight=2374 185 156 2807 8153 74 50 12531 268 477 115 54 74 95 196 115 172 72 362 126 1479 505 188 6761 1285 87 73 65 326 554 59 620 82 544 62 85 408 105 68 410 321 157 55 117 60 127 17316 50 56 127 97 2392 22538 56 482 89 2005 6223 367 62 2092 10646 1719 1861
leaf_count=2374 185 156 2807 8153 74 50 12531 268 477 115 54 74 95 196 115 172 72 362 126 1479 505 188 6761 1285 87 73 65 326 554 59 620 82 544 62 85 408 105 68 410 321 157 55 117 60 127 17316 50 56 127 97 2392 22538 56 482 89 2005 6223 367 62 2092 10646 1719 1861
internal_value=4.68725e-06 9.06023e-05 -3.47023e-05 -6.22771e-05 6.91415e-05 0.000546913 5.58974e-05 0.000109344 -7.64723e-05 0.000159251 0.00104958 4.94829e-05 -8.62158e-05 0.000846423 0.000606471 0.000302107 -3.05096e-05 0.000238054 -0.000273129 0.000392732 0.000467215 0.000719942 6.21921e-05 0.000187613 0.000310689 -0.000483672 5.2419e-05 9.45914e-05 -1.05439e-05 7.17289e-05 6.42252e-05 -0.000854038 0.000720315 0.000843412 0.00131635 0.000655745 0.000677808 0.00102728 0.0010099 0.000884996 7.69643e-05 -0.000245873 -0.000590926 -5.34435e-05 -0.000998999 9.05577e-05 -0.000352813 0.000169148 0.000773904 0.00124088 -8.44981e-05 -6.17809e-05 0.000308112 0.000995567 0.000754159 -0.000141375 -0.000212873 -0.000405673 0.000132133 -9.11179e-05 -0.000101605 -6.5688e-05 0.000133092
internal_weight=111237 34967 76270 64016 33815 911 32904 12254 61209 2429 210 32694 58780 706 510 1826 606 434 603 1747 1220 1152 10507 3746 2461 205 32620 19535 13085 19060 18828 155 659 967 273 694 232 173 475 395 18208 735 409 177 232 17473 105 561 632 224 58685 41937 3081 627 571 16748 8595 2372 2454 38856 36764 26118 3580
internal_count=111237 34967 76270 64016 33815 911 32904 12254 61209 2429 210 32694 58780 706 510 1826 606 434 603 1747 1220 1152 10507 3746 2461 205 32620 19535 13085 19060 18828 155 659 967 273 694 232 173 475 395 18208 735 409 177 232 17473 105 561 632 224 58685 41937 3081 627 571 16748 8595 2372 2454 38856 36764 26118 3580
is_linear=0
shrinkage=0.05


Tree=4
num_leaves=64
num_cat=0
split_feature=8 2 5 7 8 5 7 2 7 7 8 8 8 7 0 5 8 3 7 2 5 3 8 3 0 5 5 3 8 3 0 0 0 5 5 8 5 7 7 8 5 8 7 5 5 8 3 8 0 8 1 0 7 5 5 2 8 2 1 5 7 7 8
split_gain=0.135922 0.173787 0.109379 0.101526 0.0751054 0.0715745 0.103432 0.0625379 0.0591174 0.0580429 0.0760143 0.0531098 0.052164 0.0507465 0.0469869 0.0445844 0.0436669 0.0619875 0.0511737 0.0557624 0.0427178 0.040561 0.0619709 0.0605548 0.0396642 0.0387961 0.0382507 0.0364697 0.082563 0.0356043 0.03506 0.0350005 0.0343896 0.034323 0.0342547 0.04595 0.0333866 0.0347387 0.0382572 0.0559235 0.030862 0.0283747 0.0277963 0.0286127 0.0277332 0.0273798 0.164399 0.134696 0.141006 0.0497395 0.0329731 0.0546774 0.0391842 0.0272075 0.0271362 0.0488963 0.0590454 0.0511026 0.0341261 0.0302117 0.0292106 0.0285319 0.0269997
threshold=-0.083929233253002153 -0.098540686070919023 -0.62633600831031788 -0.82249197363853443 -0.015832090750336644 4.0091762542724618 2.4794546365737919 -0.10696750506758688 -0.17963345348834989 -2.6770946979522701 0.3802464902400971 -0.030895585194230076 0.09902855753898622 1.5715765357017519 -0.10038592666387557 4.0091762542724618 0.026288618333637718 0.046247448772192008 0.58037763833999645 0.020319293253123764 2.7033406496047978 -0.11622729897499083 -0.097690768539905534 -0.11742655560374259 -0.066564910113811479 -2.1711888313293453 2.4322854280471806 -0.12252651154994963 -0.10862839221954344 -0.12359175458550452 -0.0040430880617350331 -0.064260136336088167 0.040250228717923171 -2.3595303297042842 -3.7065749168395992 -0.10595685243606566 -1.738283574581146 -1.651165723800659 -0.29794615507125849 -0.073378007858991609 -3.7065749168395992 0.15341853350400927 0.24605295062065127 -0.63895088434219349 -1.4853418469429014 -0.11088688299059866 -0.12209821119904517 -0.10800225287675856 -0.12412419170141219 -0.10283267870545386 -0.12337512150406836 -0.12263834848999976 0.5157650113105775 1.7190871238708498 0.25679679214954382 -0.10310729220509528 -0.10009512677788733 -0.11628951877355574 -0.085674382746219621 0.74602231383323681 0.63964533805847179 -0.068415444344282136 -0.030895585194230076
decision_type=2 2 2 2 2 2 2 2 2 2 2 2 2 2 2 2 2 2 2 2 2 2 2 2 2 2 2 2 2 2 2 2 2 2 2 2 2 2 2 2 2 2 2 2 2 2 2 2 2 2 2 2 2 2 2 2 2 2 2 2 2 2 2
left_child=2 4 8 -4 7 6 9 33 34 10 11 -3 -8 26 42 21 20 18 24 41 30 23 -23 27 -18 40 45 28 -15 -10 -11 -7 -26 -2 35 -1 -35 -38 39 -39 -13 -20 -9 -44 -31 50 47 53 -49 -50 -5 52 -52 -47 58 56 -56 -58 -48 60 -57 -61 -32
right_child=1 5 3 13 -6 31 12 14 29 16 -12 25 -14 15 -16 -17 17 -19 19 -21 -22 22 -24 -25 32 -27 -28 -29 -30 44 62 -33 -34 36 -36 -37 37 38 -40 -41 -42 -43 43 -45 -46 46 54 48 49 -51 51 -53 -54 -55 55 59 57 -59 -60 61 -62 -63 -64
leaf_value=0.0018897679955537977 -0.00039593713114247325 0.00012031107833352659 0.00023482417187574943 -6.5157104622994201e-05 0.0022129826517796078 -0.0016454050548297041 0.00036304667139977888 -5.9841612688674913e-05 0.00090248428125970493 -3.3672822035700623e-05 -0.0010945283210900265 0.0018565440690539526 0.001391686188232279 4.5663045598874685e-05 0.00060683716398092329 -0.00064498293854185469 0.0014169122545152077 4.8141083669761066e-05 0.00081127394348443755 3.9072407476425649e-05 -0.0010640020245122478 -0.00080519375529615694 0.00018696379657851003 0.0013286297613054794 7.046818805065414e-05 0.0026079171734556695 -0.0010791728120845316 5.659629691590904e-06 0.0012065469445312347 0.0011884729722750527 0.00029577064902425409 -0.00023986929618842443 0.00093416347923921429 0.0019496569462197451 4.6256372844448809e-05 0.0002306060838152266 -0.00029238973066059268 0.00090355030183186878 0.00060577796434083987 0.0028191178431049651 0.00028864394257455036 0.001851215800539089 0.0012244854693338391 0.00023217553816962881 0.00022508963516811595 9.8496321234519196e-05 -0.0001422213008372817 0.003319259565282744 0.00050539640700131847 0.0017882454746480413 -0.00036923049855373255 -0.00014360366843636877 -0.0010837063182326449 0.0011512744858630448 -4.2506453028793111e-05 -2.3542793190709348e-05 0.00090641108658423444 0.00015681600595134776 5.5787614021245747e-05 -0.0013300759153287503 -0.00042900252157950202 -0.00031369913195014359 3.0670031188588885e-05
leaf_weight=57 68 108 2807 8496 56 89 332 1031 268 16603 50 58 196 365 648 163 62 7019 448 234 94 213 594 146 1481 56 95 685 263 78 1530 88 124 55 10300 150 82 158 730 50 68 77 80 714 1401 2392 20560 56 482 89 1324 6704 224 62 8610 2745 251 2335 2433 72 529 1321 2578
leaf_count=57 68 108 2807 8496 56 89 332 1031 268 16603 50 58 196 365 648 163 62 7019 448 234 94 213 594 146 1481 56 95 685 263 78 1530 88 124 55 10300 150 82 158 730 50 68 77 80 714 1401 2392 20560 56 482 89 1324 6704 224 62 8610 2745 251 2335 2433 72 529 1321 2578
internal_value=4.46052e-06 8.60868e-05 -3.29628e-05 -5.91601e-05 0.000411453 4.7898e-05 5.36152e-05 0.000382949 0.000103888 4.16265e-05 0.000690313 0.00100075 0.000746799 -7.26456e-05 0.000241419 0.00015127 3.43129e-05 0.000123466 0.000341289 0.000681367 -6.16461e-06 0.000208806 -7.55792e-05 0.000366049 0.000186133 0.00151969 -8.1901e-05 0.000258085 0.000532975 0.000373131 -1.31231e-06 -0.000951881 0.000137736 0.000688685 5.90897e-05 0.000694366 0.000757598 0.000691474 0.000777703 0.00137531 0.00101931 0.000967028 0.000111409 0.000333571 0.000276666 -8.02683e-05 -5.86832e-05 0.000292822 0.000946252 0.000708127 -0.000134311 -0.000205492 -0.00047325 0.000125553 -8.65619e-05 -3.62526e-05 2.04264e-05 0.000229895 -0.000121268 -0.000172199 -8.91664e-05 -0.000367149 0.000129453
internal_weight=111237 34967 76270 64016 3672 31295 31118 3616 12254 30590 340 290 528 61209 2473 2429 30250 9445 2426 759 20805 2266 807 1459 1667 182 58780 1313 628 1747 20711 177 1605 1143 10507 207 1075 1020 938 208 126 525 1825 794 1479 58685 41937 3081 627 571 16748 8252 1548 2454 38856 15863 11196 2586 22993 4667 3274 1393 4108
internal_count=111237 34967 76270 64016 3672 31295 31118 3616 12254 30590 340 290 528 61209 2473 2429 30250 9445 2426 759 20805 2266 807 1459 1667 182 58780 1313 628 1747 20711 177 1605 1143 10507 207 1075 1020 938 208 126 525 1825 794 1479 58685 41937 3081 627 571 16748 8252 1548 2454 38856 15863 11196 2586 22993 4667 3274 1393 4108
is_linear=0
shrinkage=0.05


Tree=5
num_leaves=64
num_cat=0
split_feature=8 1 5 5 1 8 2 3 8 1 5 6 5 5 8 5 0 8 6 0 8 5 8 3 2 2 3 8 1 0 8 0 1 8 0 0 6 1 3 8 5 1 5 2 3 3 6 2 8 3 0 6 8 6 0 3 2 2 8 1 6 8 5
split_gain=0.108771 0.144585 0.0987879 0.0748201 0.0649644 0.182335 0.18431 0.0620431 0.0579396 0.158793 0.0971417 0.0706343 0.0480172 0.0438755 0.0764184 0.0562187 0.0391968 0.0382363 0.0381741 0.0373813 0.0807438 0.0365233 0.0380912 0.0940536 0.0363751 0.0363573 0.03614 0.100998 0.0339976 0.0429129 0.0484747 0.0335943 0.0332531 0.0331015 0.0324277 0.0322351 0.0312658 0.0312247 0.0310672 0.048072 0.0367356 0.0321782 0.0310565 0.03059 0.0651397 0.0291398 0.0362902 0.0268169 0.0264357 0.0381547 0.0343549 0.0544643 0.0486858 0.0397141 0.025689 0.0608076 0.0482085 0.0795778 0.0482511 0.0264277 0.0253982 0.0433509 0.0249591
threshold=-0.089211463928222642 -0.10255803167819975 -0.78252559900283802 4.0091762542724618 -0.11538218706846236 -0.10755955055356024 -0.12209835276007651 -0.12451225146651267 -0.051589235663413995 -0.096085630357265459 4.0091762542724618 -0.85672888159751881 -3.7065749168395992 0.4496906995773316 -0.10009512677788733 1.5028303861618044 -0.10282043740153311 -0.10191611200571059 0.8591136932373048 -0.12328748777508734 -0.10852390527725218 0.53878748416900646 0.047755856066942222 -0.015495523344725369 -0.12365499138832091 -0.033342096954584115 -0.12252651154994963 -0.10697972401976584 -0.085674382746219621 -0.10312946513295172 -0.099645994603633867 -0.090835615992546068 -0.12286989018321036 -0.10595685243606566 -0.096993092447519288 -0.0040430880617350331 -0.41464127600193018 -0.090335305780172334 0.22081742435693744 0.26878115534782415 1.1308999657630923 0.27367350459098821 0.88182923197746288 -0.09784690290689467 -0.099324271082878099 -0.10953860729932784 -1.025580823421478 -0.12302505970001219 -0.069684036076068864 -0.10733190923929213 -0.10367573425173758 0.89571902155876171 -0.046411760151386254 -0.39158280193805689 -0.092374294996261583 -0.093720693141221986 -0.080926239490509019 -0.066497515887022005 -0.035664383322000497 -0.087001845240592943 0.20289765298366549 0.0095036542043089884 -1.1368905901908872
decision_type=2 2 2 2 2 2 2 2 2 2 2 2 2 2 2 2 2 2 2 2 2 2 2 2 2 2 2 2 2 2 2 2 2 2 2 2 2 2 2 2 2 2 2 2 2 2 2 2 2 2 2 2 2 2 2 2 2 2 2 2 2 2 2
left_child=2 3 12 45 5 19 7 -7 16 43 21 -12 33 -8 15 -15 -3 18 32 20 -4 54 31 25 -22 -24 27 -14 29 30 -6 -23 47 -1 -31 -18 37 -28 39 -25 -41 -40 -43 44 -10 46 -2 -9 -47 -50 51 52 53 -51 55 -11 59 58 -58 -56 61 -60 -61
right_child=1 8 4 -5 28 6 13 17 9 10 11 -13 26 14 -16 -17 35 -19 -20 -21 24 22 23 38 -26 -27 36 -29 -30 34 -32 -33 -34 -35 -36 -37 -38 -39 41 40 -42 42 -44 -45 -46 48 -48 -49 49 50 -52 -53 -54 -55 56 -57 57 -59 60 62 -62 -63 -64
leaf_value=0.0018423370752734915 0.0017660308484224634 -0.0013265629289119299 -2.1563880218966823e-05 -0.0012080274914624172 -0.00014952789936895373 0.0024007967156052714 1.279571904717494e-05 0.00036190651534620408 0.0017125619982726308 -0.00018359216692947228 -0.00040404759646480673 -0.0026850595103146938 0.00019343154599471839 0.00027642339911199425 0.00079287732118573468 -0.0003152117961820165 -5.1137289038703015e-05 0.0015872261885446139 0.0013387980436552959 -0.00012160078370730881 0.0016725388317033376 0.00099457633459678631 0.00085546761234424904 0.00025959141163388924 0.00019557727130935142 0.0022232800242216093 -4.5875926872292185e-05 0.0016102919540999746 5.5420853426176585e-05 -0.00033170343959975355 4.6253872860640597e-05 4.2373658898416794e-05 0.00088212007487963409 0.00044082768918157246 -0.00013464144150104524 0.00029399405503336855 0.0002344798084317469 0.00056667655144087593 -0.00060701787349745542 0.00040646303235667341 0.0017323663437061689 0.00053070032987261007 -0.00015181153586840722 0.0022914245011889491 3.5350721609751579e-05 0.00020582977009826829 0.00052277695698802547 -0.00066674214486924779 0.0014446374351758063 0.0010926227444106689 0.0011577476697363276 0.0015975369441245373 -0.0015406996998244037 -0.00037535386147210376 -7.9122587521851533e-07 0.0016138212088224143 0.00010866853066741841 2.3315027116530219e-05 0.00082049199979417054 -0.001294482761811444 0.00043084172624154992 0.0023197990780317924 -0.00039591602666049787
leaf_weight=62 61 58 10469 74 10436 60 4753 267 133 105 99 51 1680 1637 546 531 14786 116 144 18395 101 95 138 889 71 76 4554 135 2435 4113 4535 2642 241 130 4243 708 1651 217 165 101 109 315 352 56 102 1982 1184 82 107 72 105 50 52 124 255 84 388 13215 205 109 198 63 265
leaf_count=62 61 58 10469 74 10436 60 4753 267 133 105 99 51 1680 1637 546 531 14786 116 144 18395 101 95 138 889 71 76 4554 135 2435 4113 4535 2642 241 130 4243 708 1651 217 165 101 109 315 352 56 102 1982 1184 82 107 72 105 50 52 124 255 84 388 13215 205 109 198 63 265
internal_value=-3.02139e-06 6.35031e-05 -3.97875e-05 0.000356229 -6.12399e-05 -1.91648e-05 0.000186325 0.000857743 3.22995e-05 8.81263e-05 7.11538e-05 -0.00119224 0.000120985 0.000104395 0.000264749 0.000131438 -4.0249e-05 0.000746129 0.000611225 -7.84537e-05 -3.86143e-06 8.07998e-05 0.000199463 0.000357179 0.00106752 0.00134931 0.000102706 0.000299647 -0.00012234 -0.000140898 -9.02228e-05 7.57754e-05 0.000431683 0.000900599 -0.000231668 -3.53485e-05 4.70078e-05 -1.79022e-05 0.000246585 0.00042096 0.00109962 1.60226e-05 0.000170826 0.00124567 0.000987815 0.000387519 0.00058506 0.000119004 0.000288633 0.000609397 0.000384606 0.000109229 -0.000196044 0.000166712 4.18749e-05 0.000619548 3.44051e-05 5.35629e-05 0.00052105 -0.000393507 0.000863439 0.00118025 -0.000660551
internal_weight=111177 39573 71604 3811 63175 37413 8377 910 35762 20210 19919 150 8429 7467 2714 2168 15552 850 734 29036 10641 19769 4882 2145 172 214 8237 1815 25762 23327 14971 2737 590 192 8356 15494 6422 4771 1931 1099 210 832 667 291 235 3737 1245 349 2492 510 403 298 248 196 14887 189 14698 14069 854 629 466 268 374
internal_count=111177 39573 71604 3811 63175 37413 8377 910 35762 20210 19919 150 8429 7467 2714 2168 15552 850 734 29036 10641 19769 4882 2145 172 214 8237 1815 25762 23327 14971 2737 590 192 8356 15494 6422 4771 1931 1099 210 832 667 291 235 3737 1245 349 2492 510 403 298 248 196 14887 189 14698 14069 854 629 466 268 374
is_linear=0
shrinkage=0.05


Tree=6
num_leaves=64
num_cat=0
split_feature=5 6 5 4 7 5 7 5 4 5 7 7 0 4 6 4 5 0 0 5 7 6 7 7 2 1 4 5 1 6 1 7 4 0 5 5 4 0 7 5 1 4 1 7 6 7 6 6 7 1 5 4 4 7 5 6 6 7 4 7 6 2 4
split_gain=0.0970133 0.165036 0.0881134 0.188744 0.136 0.108136 0.0616935 0.0471604 0.0582476 0.0470316 0.11062 0.0963663 0.0649357 0.0461831 0.0448529 0.0456271 0.0445309 0.0444674 0.0428592 0.0421006 0.0389743 0.0301542 0.0367667 0.0297805 0.0264099 0.0368428 0.0302887 0.0485838 0.0448609 0.0398087 0.0270773 0.0254964 0.0248667 0.0247772 0.0246824 0.032379 0.031633 0.0298021 0.0278647 0.0244769 0.0242628 0.0239685 0.0239462 0.0235193 0.0233619 0.0327641 0.0232973 0.0222305 0.0221292 0.0219225 0.0314362 0.0350494 0.0239889 0.0219047 0.0370695 0.0353806 0.0318279 0.0224098 0.0218177 0.0273057 0.0258305 0.0255007 0.0324987
threshold=-3.7065749168395992 -0.23289772123098371 4.0091762542724618 -0.38896813988685602 1.5715765357017519 -0.5688469111919402 3.1776472330093388 2.7033406496047978 -0.24941190332174298 -0.62633600831031788 -0.33799572288990015 -0.57520589232444752 -0.070553623139858232 -0.26097218692302698 -0.85672888159751881 0.40093591809272772 -0.83378028869628895 -0.12480877339839934 -0.064260136336088167 0.20738189667463305 1.0776630640029909 -0.0082960696890950186 0.19288390129804614 3.8157845735549931 -0.12258692458271979 -0.12279070168733595 -0.35750581324100489 -1.6083450913429258 0.24071072787046435 1.11421674489975 -0.015630787238478657 -2.6770946979522701 -0.19474586844444272 -0.12033211812376975 1.7190871238708498 0.53878748416900646 -0.37666894495487208 -0.015495323576033114 0.83466985821723949 -1.738283574581146 0.034639706835150726 -0.39212131500244135 -0.12254579737782477 -0.36298070847988123 -0.65307170152664173 -1.4194957017898557 -0.071778014302253709 1.0622047781944277 1.5096931457519533 -0.12228805571794508 1.5028303861618044 0.70891574025154125 -0.034599516540765755 0.078360348939895644 -0.40913029015064234 0.48789161443710333 1.2875920534133913 0.3277056366205216 -0.38729567825794214 1.7915747165679934 -0.5783938169479369 -0.099246017634868608 -0.06504302471876143
decision_type=2 2 2 2 2 2 2 2 2 2 2 2 2 2 2 2 2 2 2 2 2 2 2 2 2 2 2 2 2 2 2 2 2 2 2 2 2 2 2 2 2 2 2 2 2 2 2 2 2 2 2 2 2 2 2 2 2 2 2 2 2 2 2
left_child=1 14 4 -4 9 -6 17 8 -8 10 24 -11 13 53 15 31 20 46 33 -15 42 22 -21 -9 25 -2 27 28 44 30 43 32 -1 -5 35 36 38 -38 -14 -32 -39 -40 -12 -28 -26 -46 -7 -44 -37 52 -51 -52 -24 -13 57 -56 -57 -55 59 -19 -61 -60 -63
right_child=2 -3 3 18 5 6 7 23 -10 11 16 12 34 19 -16 -17 -18 58 -20 21 -22 -23 49 -25 26 -27 29 -29 -30 -31 39 -33 -34 -35 -36 48 37 40 41 -41 -42 -43 47 -45 45 -47 -48 -49 -50 50 51 -53 -54 54 55 56 -58 -59 61 60 -62 62 -64
leaf_value=0.0013972829542581167 0.00013028536678811109 0.0034202515696604534 -0.003516936794204532 -0.0012691000990703606 0.001458972093387274 0.0004029213354505342 0.0011149956215350562 0.00074567427980791847 -0.00023542147773647967 0.00011346191324029807 0.00084875489317363701 -6.6121408641164051e-05 6.0918334777120456e-05 -8.5824080252909119e-05 -0.00061045321925267597 0.001523134014216619 0.00011469605676474942 -5.5321219571686185e-05 0.00099284828119946406 0.00035938529156275537 0.0013590378702602638 -4.0979497386970222e-05 -0.00032545691570647675 0.0019603697054921404 0.00012474029420319485 0.0014439776491119781 -6.1766532745896813e-05 0.00016392261964591926 -0.0011698204310841829 0.0012871031610559858 -2.5771695369397864e-05 -0.00064882631864994619 -1.170545163202203e-05 -0.0002742838676490037 -0.00040218335823203363 0.00015551952094219391 -0.00010523874279603715 -0.0012188250586342387 -0.00045142032802201966 -0.00093155812901592064 -0.00020269984585587935 0.00050936182378791273 0.00028792487799300784 -0.00071949689533112914 -0.0013524963320898158 3.4943911547694979e-05 0.0018479458833878329 0.0011125740196845538 0.0012039540816319869 0.00019176758944136171 -6.6876024005072833e-05 -0.001270663921313826 4.1750468197225752e-05 -0.00010495869067120936 -0.00012098764161814846 -0.00035805513415032407 -7.9428087715566824e-05 0.00047715880433822698 0.00016053509030507403 0.00011245421278761655 0.00089942394255539061 -0.00022950031322581757 0.00064590365652576049
leaf_weight=55 1820 50 52 85 179 57 138 112 187 10206 251 12646 9583 15009 86 103 2021 241 52 1211 109 6474 649 94 352 54 9048 3270 122 52 129 58 71 233 312 3984 1795 115 449 176 120 75 1709 137 76 95 55 85 50 3048 445 69 1408 301 12675 3567 1439 365 2232 167 278 973 118
leaf_count=55 1820 50 52 85 179 57 138 112 187 10206 251 12646 9583 15009 86 103 2021 241 52 1211 109 6474 649 94 352 54 9048 3270 122 52 129 58 71 233 312 3984 1795 115 449 176 120 75 1709 137 76 95 55 85 50 3048 445 69 1408 301 12675 3567 1439 365 2232 167 278 973 118
internal_value=-2.85819e-06 0.000752013 -5.74801e-06 -0.000726009 -2.98659e-06 0.000256403 0.000209827 0.000716582 0.000339648 -1.48666e-05 5.52269e-05 -3.07662e-05 -5.01897e-05 -7.45887e-05 0.000386152 0.000685869 0.000283364 0.000144372 -0.000325348 -2.84234e-05 0.000441491 3.63351e-05 0.000109615 0.00130675 -6.91485e-06 0.00016889 -3.14079e-05 8.56866e-05 -0.000310592 -7.94546e-05 -8.70774e-05 0.000211483 0.000609489 -0.000543339 3.75976e-05 4.61069e-05 5.31344e-06 -0.000174751 4.14932e-05 -0.000549791 -0.00070301 -0.000313196 0.000391945 -7.16542e-05 -0.00010831 -0.000585974 0.00112261 0.000327595 0.00016881 5.57305e-05 0.000130768 -0.000230628 -7.42083e-05 -0.00011676 -0.000151658 -0.000165454 -0.000277994 0.000214307 0.00011677 0.000373281 0.000605004 6.37196e-05 -0.000134314
internal_weight=111177 423 110754 422 110332 4831 4652 531 325 105501 19506 85995 75789 59306 373 287 4175 4121 370 28313 2154 13304 6830 206 15331 1874 13457 3915 645 9542 9490 184 126 318 16483 16171 12137 2030 10107 305 235 524 2045 9185 523 171 112 1794 4034 5619 3562 514 2057 30993 18347 17681 5006 666 4009 686 445 3323 1091
internal_count=111177 423 110754 422 110332 4831 4652 531 325 105501 19506 85995 75789 59306 373 287 4175 4121 370 28313 2154 13304 6830 206 15331 1874 13457 3915 645 9542 9490 184 126 318 16483 16171 12137 2030 10107 305 235 524 2045 9185 523 171 112 1794 4034 5619 3562 514 2057 30993 18347 17681 5006 666 4009 686 445 3323 1091
is_linear=0
shrinkage=0.05


end of trees

feature_importances:
Column_8=87
Column_7=73
Column_5=57
Column_0=40
Column_6=40
Column_2=38
Column_3=38
Column_4=35
Column_1=33

parameters:
[boosting: gbdt]
[objective: regression]
[metric: l2]
[tree_learner: serial]
[device_type: cpu]
[data_sample_strategy: bagging]
[data: ]
[valid: ]
[num_iterations: 1200]
[learning_rate: 0.05]
[num_leaves: 64]
[num_threads: 0]
[seed: 0]
[deterministic: 0]
[force_col_wise: 0]
[force_row_wise: 0]
[histogram_pool_size: -1]
[max_depth: -1]
[min_data_in_leaf: 50]
[min_sum_hessian_in_leaf: 0.001]
[bagging_fraction: 0.8]
[pos_bagging_fraction: 1]
[neg_bagging_fraction: 1]
[bagging_freq: 5]
[bagging_seed: 3]
[bagging_by_query: 0]
[feature_fraction: 0.8]
[feature_fraction_bynode: 1]
[feature_fraction_seed: 2]
[extra_trees: 0]
[extra_seed: 6]
[early_stopping_round: 0]
[early_stopping_min_delta: 0]
[first_metric_only: 0]
[max_delta_step: 0]
[lambda_l1: 0]
[lambda_l2: 1]
[linear_lambda: 0]
[min_gain_to_split: 0]
[drop_rate: 0.1]
[max_drop: 50]
[skip_drop: 0.5]
[xgboost_dart_mode: 0]
[uniform_drop: 0]
[drop_seed: 4]
[top_rate: 0.2]
[other_rate: 0.1]
[min_data_per_group: 100]
[max_cat_threshold: 32]
[cat_l2: 10]
[cat_smooth: 10]
[max_cat_to_onehot: 4]
[top_k: 20]
[monotone_constraints: ]
[monotone_constraints_method: basic]
[monotone_penalty: 0]
[feature_contri: ]
[forcedsplits_filename: ]
[refit_decay_rate: 0.9]
[cegb_tradeoff: 1]
[cegb_penalty_split: 0]
[cegb_penalty_feature_lazy: ]
[cegb_penalty_feature_coupled: ]
[path_smooth: 0]
[interaction_constraints: ]
[verbosity: -1]
[saved_feature_importance_type: 0]
[use_quantized_grad: 0]
[num_grad_quant_bins: 4]
[quant_train_renew_leaf: 0]
[stochastic_rounding: 1]
[linear_tree: 0]
[max_bin: 255]
[max_bin_by_feature: ]
[min_data_in_bin: 3]
[bin_construct_sample_cnt: 200000]
[data_random_seed: 1]
[is_enable_sparse: 1]
[enable_bundle: 1]
[use_missing: 1]
[zero_as_missing: 0]
[feature_pre_filter: 1]
[pre_partition: 0]
[two_round: 0]
[header: 0]
[label_column: ]
[weight_column: ]
[group_column: ]
[ignore_column: ]
[categorical_feature: ]
[forcedbins_filename: ]
[precise_float_parser: 0]
[parser_config_file: ]
[objective_seed: 5]
[num_class: 1]
[is_unbalance: 0]
[scale_pos_weight: 1]
[sigmoid: 1]
[boost_from_average: 1]
[reg_sqrt: 0]
[alpha: 0.9]
[fair_c: 1]
[poisson_max_delta_step: 0.7]
[tweedie_variance_power: 1.5]
[lambdarank_truncation_level: 30]
[lambdarank_norm: 1]
[label_gain: ]
[lambdarank_position_bias_regularization: 0]
[eval_at: ]
[multi_error_top_k: 1]
[auc_mu_weights: ]
[num_machines: 1]
[local_listen_port: 12400]
[time_out: 120]
[machine_list_filename: ]
[machines: ]
[gpu_platform_id: -1]
[gpu_device_id: -1]
[gpu_use_dp: 0]
[num_gpu: 1]

end of parameters

pandas_categorical:null
