tree
version=v4
num_class=1
num_tree_per_iteration=1
label_index=0
max_feature_idx=8
objective=regression
feature_names=Column_0 Column_1 Column_2 Column_3 Column_4 Column_5 Column_6 Column_7 Column_8
feature_infos=[-0.12652987241744995:5] [-0.12667277455329895:5] [-0.12648162245750427:5] [-0.12657180428504944:5] [-0.43320596218109131:5] [-4.0397491455078125:5] [-1.9943192005157471:5] [-5:5] [-0.11399253457784653:5]
tree_sizes=6179 6151 6163 6142 6157 6174 6162 6197 6135 6205 6113 6205 6210 6151 6196 6102 6053 6121 6170 6112 6158 6130 6091 6094 6111 6160 6203 6191 6202 6102 6173 6130 6137 6105 6154 6191 6207 6216 6177 6222 6103 6099 6106 6089 6176 6189 6141 6114 6138 6182 6077 6053 6086 6081 6121 6150 6117 6110 6136 6180 6126 6067 6047 6143 6084 6156 6125 6125 6136 6107 6102 6107 6052 6087 6108 6143 6103 6147 6150 6117 6134 6077 6128 6071 6157 6092 6124 6124 6088 6189 6097 6108 6082 6121 6072 6145 6130 6153 6206 6018 6103 6106 6046 6055 6068 6101 6142 6106 6174 6132 6138 6131 6108 6153 6151 6123 6109 6140 6117 6100 6049 6053 6131 6078 6091 6107 6147 6066 6065 6181 6137 6138 6140 6058 6084 6080 6127 6110 6124 6130 6086 6036 6070 6119 6161 6041 6132 6045 6056 6110 6152 6142 6171 6087 6137 6103 6136 6127 6163 6196 6120 6181 6139 6074 6093 6149 6102

Tree=0
num_leaves=64
num_cat=0
split_feature=7 7 6 1 7 6 3 7 8 8 1 1 8 8 4 1 4 1 4 0 6 8 3 4 4 7 8 0 8 8 4 7 6 7 6 4 1 1 4 8 4 3 8 8 7 8 4 8 3 6 0 6 0 3 8 1 4 4 3 8 8 7 0
split_gain=0.222867 0.123478 0.106701 0.0821377 0.053298 0.0742734 0.0509191 0.0469446 0.0458151 0.0456452 0.0612469 0.0531958 0.0754701 0.0446118 0.0532681 0.0440492 0.0404555 0.0399799 0.0382843 0.0382642 0.0369381 0.0369114 0.132829 0.05041 0.0402799 0.0479482 0.0619382 0.0775484 0.0832884 0.0438612 0.0411708 0.0608645 0.0366808 0.0498942 0.0609646 0.0491116 0.0351054 0.0344506 0.0558614 0.054885 0.0335947 0.033515 0.0328348 0.0328299 0.0317551 0.0317064 0.0314828 0.031031 0.0411841 0.0346014 0.0763165 0.0368425 0.0315712 0.0305495 0.0550214 0.0301918 0.0287329 0.0300006 0.0275927 0.0433967 0.0271002 0.0355225 0.0264472
threshold=1.3588449358940127 -0.94604501128196705 -1.1429437994956968 -0.071314960718154893 2.2771211862564091 0.058013364672660835 -0.12495650351047514 3.1668672561645512 -0.028590925969183442 0.1912273317575455 0.22204711288213733 1.0000000180025095e-35 0.021031250245869163 -0.094154957681894288 -0.41419708728790278 -0.085884418338537202 -0.40058831870555872 -0.12220360338687895 -0.11136748641729353 -0.082436341792345033 1.3112865686416628 -0.085606697946786867 -0.11263350397348403 -0.28790839016437525 -0.17012424767017362 0.16227913647890094 -0.11160671710968016 -0.12177528813481329 -0.10577782616019248 -0.10994060337543486 -0.39303232729434961 0.51833757758140575 -1.0289373993873594 -2.0396894216537471 0.1075282394886017 -0.3228373229503631 -0.12375373393297194 -0.096162486821413026 -0.30275960266590113 -0.059602987021207803 -0.37698163092136378 -0.12427270039916037 -0.082321505993604646 -0.10869207605719565 0.39716386795043951 0.44777815043926245 0.25475278496742254 -0.070895418524742113 -0.096610110253095613 -0.13203708082437512 -0.09885776042938231 -0.24729640781879422 -0.09305154904723166 -0.1034371070563793 -0.097433906048536287 -0.088996559381484971 -0.086734548211097703 -0.25462672114372248 -0.10371465608477591 -0.086091503500938402 -0.040663313120603554 -1.2750801444053648 -0.099970981478691087
decision_type=2 2 2 2 2 2 2 2 2 2 2 2 2 2 2 2 2 2 2 2 2 2 2 2 2 2 2 2 2 2 2 2 2 2 2 2 2 2 2 2 2 2 2 2 2 2 2 2 2 2 2 2 2 2 2 2 2 2 2 2 2 2 2
left_child=1 20 7 21 6 13 -4 -2 62 11 -11 12 15 17 -15 47 -13 -6 -17 -9 32 24 23 -23 25 41 -27 28 29 -28 31 -29 -1 34 -34 -36 -31 38 39 -24 -5 -3 -42 -32 -40 -12 -39 49 -49 51 -51 52 58 54 -45 -10 57 -16 59 -8 -22 -62 -7
right_child=2 3 4 40 5 8 9 19 55 10 45 16 -14 14 56 18 -18 -19 -20 -21 60 22 37 -25 -26 26 27 30 -30 36 43 -33 33 -35 35 -37 -38 46 44 -41 42 -43 -44 53 -46 -47 -48 48 -50 50 -52 -53 -54 -55 -56 -57 -58 -59 -60 -61 61 -63 -64
leaf_value=-0.0022095407122736666 -0.0021985784012223822 -0.0017413212673135928 -0.00084926756333091741 -0.0020563652748874189 -0.0011518046897775948 -0.002161664882931126 -0.0019317997415321453 -0.0033906068201586797 -0.00037775261294731625 -0.00055618192476427405 -0.003044477090115477 -0.0020459909155276937 -0.000913960354981945 -0.0026337557232733043 -0.00095023028164770845 -0.0024861717042049336 -0.0033024833567034534 -0.0023193932071150173 -0.0010700040339217806 -0.0018863576170522671 -0.002173830536087848 0.00030660874153005599 -0.0018852388747440183 -0.0014398314454917016 -0.002165630262809211 -0.0026127389120664682 -0.0022141144612425764 -0.002311795502921413 0.00011985625208214791 -0.00047933637806592483 -0.0024429625646815198 -0.0027965093496463722 -0.0029294693868472305 -0.0023780998806150998 -0.00068558463859043437 -0.0024100268375311308 -0.00175979439696989 -0.002192020715004558 -0.0024547285330301163 -0.00091938138988741005 -0.0019120534691851991 -0.0022071970749419955 -0.0022685479156860856 -0.0022351435515136388 -0.0018940297320006933 -0.0014623136690491577 -0.0034170339017366345 -0.00094343355243476832 -0.001994471755956179 -0.0020675379292523256 -0.0037156382752172156 -0.0010186951317860406 -0.00083228862608241577 -0.0023530760298489037 -0.0018536996571005477 -0.0017557121031618141 -0.00043028864387395028 -0.0017738052604596368 -0.0025306183064791521 -0.00055559867433520186 -0.00076090903181244042 -0.0022675914416698706 -0.0032808458570619701
leaf_weight=2489 603 392 107 16518 122 355 955 177 50 132 51 125 169 54 378 582 130 181 51 55 454 69 1245 104 25496 1548 589 1875 50 67 2114 989 884 6675 52 186 257 5043 684 166 775 21821 3852 4554 399 80 52 180 193 1106 74 134 66 2987 1192 185 164 158 173 60 89 69 61
leaf_count=2489 603 392 107 16518 122 355 955 177 50 132 51 125 169 54 378 582 130 181 51 55 454 69 1245 104 25496 1548 589 1875 50 67 2114 989 884 6675 52 186 257 5043 684 166 775 21821 3852 4554 399 80 52 180 193 1106 74 134 66 2987 1192 185 164 158 173 60 89 69 61
internal_value=-0.00217669 -0.00219501 -0.00190178 -0.00217632 -0.00182896 -0.00159217 -0.00192166 -0.00243152 -0.00201267 -0.00194889 -0.00131203 -0.00199099 -0.00194336 -0.00133359 -0.0011278 -0.00199237 -0.00268844 -0.00184744 -0.0023705 -0.00303427 -0.00235422 -0.00220186 -0.0020989 -0.000732996 -0.00221436 -0.00224668 -0.00231203 -0.00228028 -0.00184679 -0.00195688 -0.00231075 -0.00247933 -0.00237667 -0.00243001 -0.00273841 -0.00202859 -0.0014906 -0.00213023 -0.001978 -0.0017708 -0.00208972 -0.00219896 -0.00220879 -0.00226621 -0.00224808 -0.00208017 -0.00220476 -0.00191095 -0.00148532 -0.00197301 -0.00217211 -0.00180388 -0.00188864 -0.0022234 -0.00215597 -0.00145614 -0.00101115 -0.0011918 -0.00194841 -0.00184893 -0.00197708 -0.00141531 -0.00232803
internal_weight=110647 103736 6911 92838 6076 1708 4368 835 651 4261 263 3998 3743 1057 754 3574 255 303 633 232 10898 71693 7762 173 63931 38435 16222 14674 963 913 13711 2864 10286 7797 1122 238 324 7589 2494 1411 21145 22213 4627 10847 1083 131 5095 2941 373 2568 1180 1388 1254 8733 5746 235 700 536 1188 1015 612 158 416
internal_count=110647 103736 6911 92838 6076 1708 4368 835 651 4261 263 3998 3743 1057 754 3574 255 303 633 232 10898 71693 7762 173 63931 38435 16222 14674 963 913 13711 2864 10286 7797 1122 238 324 7589 2494 1411 21145 22213 4627 10847 1083 131 5095 2941 373 2568 1180 1388 1254 8733 5746 235 700 536 1188 1015 612 158 416
is_linear=0
shrinkage=1


Tree=1
num_leaves=64
num_cat=0
split_feature=7 5 4 5 7 5 7 5 7 0 0 6 5 7 7 7 8 0 5 4 5 5 6 6 5 4 8 6 5 5 8 6 4 5 8 6 2 6 8 4 2 6 0 5 6 8 2 4 6 0 7 8 0 4 8 4 7 8 4 7 8 2 8
split_gain=0.201255 0.222842 0.224324 0.132807 0.111434 0.111413 0.108385 0.078884 0.105405 0.0786738 0.0532732 0.0564626 0.0655275 0.0786116 0.0485128 0.0432727 0.0417267 0.0404693 0.0377725 0.0588796 0.0374592 0.0369301 0.0796689 0.0451361 0.0770618 0.0384366 0.0355301 0.0380106 0.0353801 0.0446275 0.0348969 0.0345581 0.0342581 0.0337148 0.0312587 0.0311664 0.0291965 0.0362591 0.0345084 0.0283605 0.0275863 0.0262615 0.0241454 0.0236247 0.0235136 0.0234128 0.0546674 0.0229609 0.0227532 0.0224079 0.0266384 0.0223675 0.0755813 0.0412976 0.0483095 0.0332565 0.031553 0.0314882 0.0308986 0.0335001 0.0647881 0.0544957 0.0773642
threshold=1.3588449358940127 3.9837681055068974 -0.36929808557033533 -0.51503613591194142 -0.94604501128196705 2.4132486581802373 3.1668672561645512 -0.66667598485946644 -0.33198995888233179 -0.071130637079477296 -0.12476653233170508 0.26023578643798834 1.000202536582947 1.7061563134193423 1.1337072253227236 2.471494317054749 -0.10228934511542319 -0.11990268528461455 2.1983029842376713 -0.26045908033847803 1.7031093835830691 -1.407105505466461 -1.1081313490867613 0.074642140418291106 -2.060341358184814 0.79567497968673717 0.049402346834540374 0.81718602776527416 0.49665682017803198 -0.11522286012768744 -0.11112601682543753 -1.1608803272247312 -0.066204044967889772 0.079658243805170073 -0.082929395139217363 -0.86847504973411549 -0.12315230816602706 0.90768533945083629 -0.10869207605719565 1.2507448196411135 -0.12435864657163619 0.058013364672660835 3.8058301210403447 -1.4615136384963987 -1.2484685778617857 1.3455585837364199 2.1490472555160527 -0.43202513456344599 -1.1429437994956968 -0.067084074020385728 1.5083113908767702 -0.085606697946786867 -0.10797194764018057 -0.19627579301595685 -0.073628243058919893 0.11719631776213647 0.18662024289369586 -0.07838736847043036 -0.12863222509622571 0.2321058735251427 -0.11160671710968016 -0.12172413244843482 -0.10577782616019248
decision_type=2 2 2 2 2 2 2 2 2 2 2 2 2 2 2 2 2 2 2 2 2 2 2 2 2 2 2 2 2 2 2 2 2 2 2 2 2 2 2 2 2 2 2 2 2 2 2 2 2 2 2 2 2 2 2 2 2 2 2 2 2 2 2
left_child=4 3 -3 -2 21 7 10 8 35 51 30 12 13 33 31 -14 -4 -8 19 -19 42 22 -1 25 -25 -24 27 49 29 -29 -5 -10 -7 -12 -17 43 38 -38 -33 40 -37 -15 45 -6 -36 46 -11 -47 -18 50 -13 58 53 54 -53 56 -54 -57 59 -9 -61 62 -62
right_child=1 2 16 6 5 32 17 9 14 20 11 26 15 41 -16 34 48 18 -20 -21 -22 -23 23 24 -26 -27 -28 28 -30 -31 -32 36 -34 -35 44 39 37 -39 -40 -41 -42 -43 -44 -45 -46 47 -48 -49 -50 -51 -52 52 55 -55 -56 57 -58 -59 -60 60 61 -63 -64
leaf_value=-1.7332166402489996e-05 0.0014262230806979014 -0.0036188684181392853 -0.0013730884325564093 0.00050412961747209166 0.00057476178283807184 -0.00064952849234465421 0.00012080286130108915 -3.7172583757627086e-05 -0.00083223309193272146 7.9109148541341165e-05 0.001472400963830296 -0.0010542043350856799 0.00012329008790627335 0.0016880080710070617 0.0015250788660366732 0.0001934475733783626 -0.00055750880978387392 0.0015310896454482443 0.0016395021646653533 -0.00032375886035080796 -0.00057012105500193274 -9.7063121257355897e-05 -0.00043676442514872213 0.0017955521862263438 -0.00058087602077845873 -0.0010061307307237116 0.00049225103517765243 0.00049499091986991185 0.00051305539533059877 -0.00052857072694272142 0.0019794564282432582 0.00057237810003425119 -0.0021628826026738224 0.00015093326925632745 6.2522910840651204e-06 0.00064753647456055284 0.00024833149978795437 0.00090748694743621118 0.0019671414100370247 -0.00073018409154048899 -7.3195543719011431e-05 0.00063681295087008043 0.00056006924186081995 9.6624720507335098e-05 0.001180912889123832 0.00023425055392321738 0.0011543808981208591 -0.00072800772881542134 0.00032393334826897794 -0.0014668885948268791 -0.00017087930559255609 0.00072564419307725764 -9.3423500180669889e-05 4.3189966776740873e-05 0.0023859277678701771 0.00029777791526801182 0.00013779005487778073 -0.0011972090399119065 1.8898612120005404e-06 -0.0004593729853877235 0.00015655830017760426 -0.00012843042887083616 0.0021583180997421388
leaf_weight=1616 267 61 80 100 289 83 106 22893 62 17813 54 111 2749 199 86 238 137 89 229 81 219 6909 1882 57 82 352 245 157 276 326 67 315 69 397 52 137 2749 225 51 157 3502 87 264 2374 235 96 118 172 155 52 361 186 2847 139 57 52 3061 106 20166 1385 906 12209 50
leaf_count=1616 267 61 80 100 289 83 106 22893 62 17813 54 111 2749 199 86 238 137 89 229 81 219 6909 1882 57 82 352 245 157 276 326 67 315 69 397 52 137 2749 225 51 157 3502 87 264 2374 235 96 118 172 155 52 361 186 2847 139 57 52 3061 106 20166 1385 906 12209 50
internal_value=1.62772e-06 0.000262865 -0.000834084 0.000336304 -1.57785e-05 1.97737e-06 0.000289228 4.20274e-06 0.000137231 -1.17915e-05 0.000226989 0.000200344 0.000298854 0.000724518 0.000358675 0.000202842 -0.000368962 0.000990635 0.00122084 0.000650584 7.8488e-05 -0.000167024 -0.000288142 -0.000472478 0.000399495 -0.000526887 -5.82722e-05 -0.000163701 6.24767e-05 -0.000195525 0.00110429 0.00032875 -0.00134616 0.000312065 0.000618367 1.76086e-05 0.000350544 0.000298489 0.000771561 -7.43779e-05 -4.58912e-05 0.00137157 8.62119e-05 0.00014871 0.000968843 7.93076e-05 8.62493e-05 -0.000383729 -9.01113e-05 -0.000490808 -0.0003804 -3.8122e-05 5.0186e-05 0.000731399 0.00112328 7.17387e-06 2.63738e-05 -0.00070641 -4.80068e-05 -7.48794e-05 -0.000134201 -9.99592e-05 0.000263399
internal_weight=110647 6911 433 6478 103736 92838 6211 92686 9947 82739 5706 5539 4011 737 3488 3274 372 505 399 170 18682 10898 3989 2373 139 2234 1528 1283 759 483 167 3402 152 451 525 6459 3340 2974 366 3796 3639 286 18463 2663 287 18199 17931 268 292 524 472 64057 6448 382 243 6066 5908 158 57609 37443 14550 13165 956
internal_count=110647 6911 433 6478 103736 92838 6211 92686 9947 82739 5706 5539 4011 737 3488 3274 372 505 399 170 18682 10898 3989 2373 139 2234 1528 1283 759 483 167 3402 152 451 525 6459 3340 2974 366 3796 3639 286 18463 2663 287 18199 17931 268 292 524 472 64057 6448 382 243 6066 5908 158 57609 37443 14550 13165 956
is_linear=0
shrinkage=0.05


Tree=2
num_leaves=64
num_cat=0
split_feature=7 7 6 3 8 2 8 2 3 6 0 8 2 3 4 6 4 7 3 8 8 3 4 2 4 4 3 8 4 8 2 4 8 0 6 8 8 7 6 3 4 6 7 8 4 8 4 7 8 4 7 6 2 8 3 3 7 8 3 0 4 4 7
split_gain=0.181682 0.101645 0.0897986 0.0752585 0.0474874 0.0554959 0.110702 0.0515905 0.0440007 0.0432017 0.064809 0.0421233 0.0709735 0.0500071 0.0481564 0.0467404 0.0383299 0.0381516 0.0351853 0.273591 0.0350767 0.120831 0.0453761 0.0389014 0.0656547 0.0463571 0.0491006 0.0357619 0.0349941 0.0468635 0.0364046 0.0403944 0.0494819 0.0349928 0.0347057 0.034253 0.0338818 0.0330459 0.0381962 0.0450223 0.0380094 0.0633734 0.0313653 0.0308519 0.0305186 0.0300139 0.0299653 0.0335402 0.0494534 0.0533148 0.0552184 0.0354575 0.0336552 0.0609778 0.029388 0.0454483 0.0265515 0.0263664 0.059163 0.0431947 0.0381514 0.0258908 0.0245702
threshold=1.3588449358940127 -0.7432473599910735 -1.1429437994956968 -0.071228947490453706 0.10525911301374437 -0.089578766375780092 -0.066870469599962221 0.020579297095537189 -0.12495650351047514 -0.13203708082437512 -0.09885776042938231 -0.094154957681894288 -0.10706015303730963 -0.11565648391842841 -0.30856524407863611 -0.89022976160049427 -0.38673429191112513 3.1668672561645512 -0.12481787428259848 -0.11018064245581626 -0.085606697946786867 -0.11263350397348403 -0.33355168998241419 -0.097052343189716325 0.21774119883775714 -0.093149747699499116 -0.10007636621594428 -0.072739381343126283 -0.42881309986114496 0.7705076038837434 0.22034753859043124 -0.39982715249061579 0.22016515582799914 -0.082436341792345033 0.15851811319589618 -0.056798499077558511 -0.11078528687357901 -1.5305771231651304 0.87100085616111766 0.24038003385066989 0.79567497968673717 -1.3374508023262022 1.7869226932525637 -0.08407235890626906 -0.26045908033847803 0.009783468674868347 -0.017809809185564515 0.16227913647890094 -0.11172126233577727 -0.39303232729434961 0.50832587480545055 1.2433775663375857 -0.12172413244843482 -0.10463184863328932 -0.12481787428259848 -0.12381742522120474 0.75294145941734325 0.015142204705625774 1.0000000180025095e-35 -0.06601278111338614 -0.11136748641729353 -0.23927232623100278 1.4521382451057436
decision_type=2 2 2 2 2 2 2 2 2 2 2 2 2 2 2 2 2 2 2 2 2 2 2 2 2 2 2 2 2 2 2 2 2 2 2 2 2 2 2 2 2 2 2 2 2 2 2 2 2 2 2 2 2 2 2 2 2 2 2 2 2 2 2
left_child=1 37 17 18 5 6 8 -6 36 11 -11 13 43 15 -14 42 -8 -2 19 -3 46 22 -22 25 -25 35 27 -27 -9 30 31 -30 -33 -19 -18 -23 -4 38 39 40 -1 -42 -10 -13 -37 -40 47 -20 56 50 -50 52 53 -51 -43 -56 -49 60 59 -59 -7 -58 -15
right_child=2 3 4 -5 7 57 16 28 9 10 -12 12 14 62 -16 -17 34 33 20 -21 21 23 -24 24 -26 26 -28 -29 29 -31 -32 32 -34 -35 -36 44 -38 -39 45 -41 41 54 -44 -45 -46 -47 -48 48 49 51 -52 -53 -54 -55 55 -57 61 58 -60 -61 -62 -63 -64
leaf_value=-0.00018480772719928597 -2.6198221637860841e-05 7.328274169702447e-05 0.00054679419550737686 9.1565546266109273e-05 0.001535995547931331 -0.00028508451979389706 0.0022529954931151384 -0.00065945523596989616 0.00042913698294512942 0.00010344039302110004 -0.0013012776940782695 0.00097653355885341734 -0.00035506931621911059 0.0004877030587522313 0.00075480232961059549 0.00061405706868440353 0.0012634184153996063 -0.001120393674868405 -2.1805664788668425e-05 0.0031734098805503742 0.0025979728711751741 0.00024105247402399625 0.00082837885681234693 -1.3678300752572703e-05 -0.0017999154101394545 -0.00023767713477332929 0.0010218126774009949 -0.0015331870009768992 0.0011896169251055903 0.0018921784893979156 -0.00052477760142704221 -0.0011877899029059337 0.00081386737166260566 0.00031761067647104418 0.00041804544513302519 0.0013227569241639108 0.0021258621572857149 -8.9922910980644473e-05 2.0432573799267585e-05 -0.0011531234684335021 0.00041855061652604491 0.00029814582673319616 -0.0007133319040994097 0.0021654065242037181 -9.1382265552210647e-05 0.0012239478391138344 2.268994043400282e-05 -0.00029623589037817971 -0.00011524594806347972 0.00010330858202635255 -0.0005713973145488354 0.00023174413015710188 -9.2872968282299394e-05 0.0018191861560842007 -0.0021507197422392091 -0.00075592533919991356 -0.0017842403292411665 -0.00046630844238384052 -0.00053998182483010703 0.0010359358192677404 0.00072489852950038426 -0.00043997819554836802 -0.00059157117481580706
leaf_weight=2837 603 2838 101 19867 149 794 56 59 108 1460 86 216 177 67 216 642 265 177 24621 72 53 1675 115 4806 51 165 52 78 164 62 80 51 75 55 226 141 51 11759 241 148 124 52 133 74 52 65 14515 1778 1850 1263 1034 1083 11695 53 67 437 60 60 137 226 105 89 236
leaf_count=2837 603 2838 101 19867 149 794 56 59 108 1460 86 216 177 67 216 642 265 177 24621 72 53 1675 115 4806 51 165 52 78 164 62 80 51 75 55 226 141 51 11759 241 148 124 52 133 74 52 65 14515 1778 1850 1263 1034 1083 11695 53 67 437 60 60 137 226 105 89 236
internal_value=1.55169e-06 -1.49865e-05 0.00024976 5.9386e-06 0.000316573 0.000268513 0.000359055 0.000723725 0.000257322 0.000220084 2.45089e-05 0.000381761 0.000694303 0.000201339 0.000255304 0.000391435 0.00102078 -0.000236205 -1.90283e-05 0.000151051 -2.6618e-05 7.7564e-05 0.00139871 4.5752e-05 -3.2801e-05 0.000222076 -0.000359527 -0.000658099 0.000474611 0.00063066 0.00041474 0.00067483 6.99569e-07 -0.000779587 0.000875946 0.000314068 0.00108704 -0.000132051 -0.000256747 -0.000301561 -0.000265409 -0.000600916 -0.000201696 0.0012863 0.000943238 0.000279235 -3.95214e-05 -6.02676e-05 -0.000110355 -8.30985e-05 -0.000278931 -4.30091e-05 -6.58949e-05 0.000173742 -0.000828622 -0.000945236 -0.000350332 -1.3309e-05 0.000311781 0.000720253 -0.000166448 -0.000989578 -0.000352101
internal_weight=110647 103736 6911 88006 6076 5436 4114 640 3567 3415 1546 1869 683 1186 393 883 547 835 68139 2910 65229 7188 168 7020 4857 2163 295 243 491 432 370 290 126 232 491 1868 152 15730 3971 3665 3517 680 241 290 193 306 58041 43526 18905 16978 2884 14094 13011 1316 556 504 1927 1322 423 286 899 149 303
internal_count=110647 103736 6911 88006 6076 5436 4114 640 3567 3415 1546 1869 683 1186 393 883 547 835 68139 2910 65229 7188 168 7020 4857 2163 295 243 491 432 370 290 126 232 491 1868 152 15730 3971 3665 3517 680 241 290 193 306 58041 43526 18905 16978 2884 14094 13011 1316 556 504 1927 1322 423 286 899 149 303
is_linear=0
shrinkage=0.05


Tree=3
num_leaves=64
num_cat=0
split_feature=7 5 5 5 7 5 7 7 1 6 3 6 5 7 6 7 8 5 5 6 6 8 5 8 5 6 6 7 5 7 1 6 7 6 3 8 8 3 8 1 6 7 3 8 6 6 5 1 7 7 6 7 8 3 6 8 3 8 3 2 8 7 6
split_gain=0.164079 0.195695 0.11731 0.096277 0.0947117 0.0945389 0.0959271 0.0927552 0.0763576 0.0605382 0.0505566 0.0490461 0.0568785 0.0688671 0.0430319 0.0380832 0.0362446 0.0348752 0.0343224 0.0325829 0.0310505 0.0397429 0.0375049 0.0308252 0.0306721 0.0691165 0.0987962 0.0339789 0.0302132 0.030096 0.0315497 0.0302424 0.0429531 0.0285321 0.0279724 0.0278773 0.0269868 0.0259918 0.147174 0.0304391 0.0251668 0.0247674 0.0245684 0.0477602 0.0234543 0.0224716 0.0221694 0.0213745 0.0232487 0.0210419 0.020338 0.0202955 0.0201623 0.0558118 0.0201402 0.0200061 0.0756444 0.0306776 0.0272287 0.0248242 0.0361011 0.0322232 0.0226821
threshold=1.3588449358940127 3.9837681055068974 -0.51503613591194142 2.4132486581802373 -0.7432473599910735 -0.82413777709007252 1.1047648787498476 3.1668672561645512 -0.071314960718154893 -0.31520034372806544 -0.12495650351047514 0.26023578643798834 1.000202536582947 1.7061563134193423 1.2433775663375857 2.471494317054749 -0.11112601682543753 1.7031093835830691 2.1983029842376713 -0.34492787718772883 0.81718602776527416 0.10525911301374437 0.48671437799930578 -0.094793517142534242 -1.9327923059463499 0.082662556320428862 -0.94900637865066517 -1.5305771231651304 0.079658243805170073 -0.33198995888233179 -0.12505397945642469 -0.798449546098709 -0.17938385903835294 -0.7690942883491515 -0.1034371070563793 -0.02260553557425737 -0.082929395139217363 -0.12481787428259848 -0.11018064245581626 -0.12468521296977995 -0.87960162758827198 -2.9503145217895503 -0.12444741651415824 -0.11131227388978003 0.058013364672660835 -1.2249226570129392 -0.20439075678586957 3.8399668931961064 -0.30103124678134913 3.1668672561645512 -0.27052430808544153 1.5083113908767702 1.3455585837364199 2.1266903877258305 -1.2484685778617857 -0.085606697946786867 -0.11263350397348403 -0.081727296113967882 -0.093103624880313859 -0.10391202941536902 -0.095121257007122026 0.29519699513912206 0.31827464699745184
decision_type=2 2 2 2 2 2 2 2 2 2 2 2 2 2 2 2 2 2 2 2 2 2 2 2 2 2 2 2 2 2 2 2 2 2 2 2 2 2 2 2 2 2 2 2 2 2 2 2 2 2 2 2 2 2 2 2 2 2 2 2 2 2 2
left_child=3 2 -2 4 24 6 14 10 37 33 16 12 13 28 29 -14 -4 47 35 -5 21 -13 46 -20 25 26 -1 41 -12 40 -31 32 -32 49 -25 -9 -17 38 -7 -39 -6 -28 43 -41 -15 -26 -22 52 -49 -3 -30 -52 53 -10 -38 59 57 -57 -58 60 -44 -61 -63
right_child=1 9 7 19 5 8 -8 18 17 -11 11 20 15 44 -16 36 -18 -19 23 -21 22 -23 -24 34 45 -27 27 -29 50 30 31 -33 -34 -35 -36 -37 54 39 -40 42 -42 -43 55 -45 -46 -47 -48 48 -50 -51 51 -53 -54 -55 -56 56 58 -59 -60 61 -62 62 -64
leaf_value=-6.6808905878802379e-05 0.001330527231663443 0.00018497478038839558 0.0005017617931026597 -0.0021846529250269977 0.00026730788955491009 6.6549129417735957e-05 0.00214443717195536 9.8943414143702423e-06 8.4444904258434265e-05 -0.0024106428567571203 0.001381958934315745 -0.00047875845137921506 0.00010809167640117129 0.0015720843199105731 0.0013842455378423135 0.00017684595475336265 0.0021388178066858513 -0.00054714928359721356 0.00026680127572035415 -0.00068320201657004476 0.0004285395837024821 0.00066499746803442986 0.00054684558123165538 0.0022817595230576228 0.00013221320583665201 0.0012630484813480113 -0.00041833622997610137 -0.00025650104822999553 0.00053494485655598758 0.0014378948225414441 0.00040349682712663724 0.00036193473134514564 -0.001012274912585888 0.00044222210259419115 0.0010996793598234136 0.001135688461011511 7.230813509591346e-06 -0.0003672418378181016 0.0026339174242151018 4.3601936897333794e-05 -4.2707268024478665e-05 -0.0011285605827918346 -3.7536407918381427e-05 0.0014629244345724147 0.0005868873248335957 -0.00011495039165686683 -0.00029918518310871221 -0.00027452518280817947 0.00080359666139137608 -0.00092645661706742633 0.00023655955660615292 -0.00071442179185396534 -0.00034675810252782614 0.0011532422524381891 0.0010943978687418304 0.00047355738296765167 0.00014772466708903924 0.001942888203252485 -6.4727500040970143e-05 -5.4124719631903281e-05 0.00018856671682419878 -0.00014866415914411402 -0.00041604538747417409
leaf_weight=1303 267 50 90 58 1038 2702 63 139 17721 50 54 558 2752 199 74 237 54 215 59 97 138 87 337 83 992 68 168 252 175 61 112 1684 101 58 134 90 52 690 56 229 1769 472 40449 79 89 12470 423 66 200 275 127 99 265 122 235 75 2543 68 3703 8218 1845 2558 1150
leaf_count=1303 267 50 90 58 1038 2702 63 139 17721 50 54 558 2752 199 74 237 54 215 59 97 138 87 337 83 992 68 168 252 175 61 112 1684 101 58 134 90 52 690 56 229 1769 472 40449 79 89 12470 423 66 200 275 127 99 265 122 235 75 2543 68 3703 8218 1845 2558 1150
internal_value=1.48045e-06 0.000237358 0.00030618 -1.42361e-05 -1.23667e-05 7.86124e-06 0.000221203 0.000261938 -4.74825e-06 -0.000790599 0.000204362 0.000180298 0.000272278 0.000666979 0.000195726 0.000182584 0.00112617 8.45126e-05 0.000910801 -0.00125544 -5.93005e-05 -0.000323694 0.000130752 0.00128568 -0.000125374 -0.000295659 -0.0003445 -0.000749611 0.000282885 0.000176981 0.000327388 0.000290939 -0.000269425 -0.000573378 0.0015602 0.00045536 0.000572858 -3.05282e-05 0.000119614 -3.72516e-05 7.19875e-05 -0.00094307 -3.35079e-05 0.000411205 0.00127072 -9.67287e-05 -0.000119729 9.19333e-05 0.000536066 -0.000755424 0.00013181 -0.000181333 8.53799e-05 9.18169e-05 0.000898129 -3.57745e-05 4.79046e-05 0.0011809 2.17802e-05 -4.56355e-05 -2.76688e-05 -0.000109344 -0.00023168
internal_weight=110647 6911 6478 103736 103581 87856 4902 6211 82954 433 5706 5562 4019 743 4839 3276 144 18589 505 155 1543 645 898 276 15725 2263 2195 892 455 4765 1958 1897 213 383 217 229 524 64365 2758 61607 2807 640 60917 308 288 13462 561 18374 266 325 401 226 18108 17843 287 60609 6389 143 6246 54220 42294 11926 3708
internal_count=110647 6911 6478 103736 103581 87856 4902 6211 82954 433 5706 5562 4019 743 4839 3276 144 18589 505 155 1543 645 898 276 15725 2263 2195 892 455 4765 1958 1897 213 383 217 229 524 64365 2758 61607 2807 640 60917 308 288 13462 561 18374 266 325 401 226 18108 17843 287 60609 6389 143 6246 54220 42294 11926 3708
is_linear=0
shrinkage=0.05


Tree=4
num_leaves=64
num_cat=0
split_feature=7 5 5 5 7 7 5 7 1 8 3 8 0 7 8 8 0 5 5 5 5 7 2 8 7 8 8 8 8 3 0 8 3 5 8 7 2 8 3 8 3 8 8 5 8 2 7 2 8 8 2 5 2 2 7 2 0 1 8 8 8 8 8
split_gain=0.148183 0.176759 0.105901 0.0870261 0.0856015 0.0838112 0.0653542 0.0859668 0.060742 0.0529535 0.0457146 0.0426996 0.0595104 0.0386684 0.03409 0.0327811 0.0318928 0.0313756 0.0305938 0.0301104 0.031322 0.0283795 0.0251082 0.0282067 0.0247867 0.0217521 0.0208079 0.0202148 0.0402514 0.0199671 0.0196032 0.0194065 0.0457858 0.0193454 0.0191095 0.0190553 0.0314481 0.0468992 0.0310402 0.0833772 0.0529423 0.0260871 0.0239186 0.0290574 0.0219373 0.0726581 0.038546 0.033276 0.0264094 0.0207849 0.0186555 0.0184505 0.0184496 0.0293595 0.0280665 0.021691 0.0183925 0.0367663 0.0209127 0.0201726 0.0180807 0.0178765 0.0178405
threshold=1.3588449358940127 3.9837681055068974 -0.51503613591194142 2.4132486581802373 -0.94604501128196705 3.1668672561645512 -0.66667598485946644 -0.33198995888233179 -0.071314960718154893 0.091083042323589339 -0.12495650351047514 0.1912273317575455 0.220952183008194 1.1337072253227236 0.44777815043926245 -0.11112601682543753 -0.11990268528461455 2.1983029842376713 1.7031093835830691 -1.407105505466461 -3.3764363527297969 -1.4133276939392088 -0.12328230589628218 -0.10916263237595557 0.78411284089088451 -0.02260553557425737 0.14480784535408023 -0.10228934511542319 -0.093137994408607469 -0.1034371070563793 3.8058301210403447 1.3455585837364199 2.1266903877258305 1.616981089115143 -0.092796377837657915 0.87198388576507579 -0.10416651889681815 -0.097433906048536287 -0.1219087392091751 -0.10925085842609404 -0.12364669144153594 -0.099197495728731142 -0.028590925969183442 0.92772483825683605 -0.082321505993604646 -0.10798441246151923 0.18662024289369586 -0.076868239790201173 -0.088437978178262697 -0.072739381343126283 -0.073899336159229265 0.52683845162391674 -0.1196039356291294 -0.11557504534721373 0.93107092380523693 -0.11276124045252799 0.089216154068708434 0.20020258426666263 -0.077649671584367738 -0.080476745963096605 -0.079102199524641023 -0.10869207605719565 0.10525911301374437
decision_type=2 2 2 2 2 2 2 2 2 2 2 2 2 2 2 2 2 2 2 2 2 2 2 2 2 2 2 2 2 2 2 2 2 2 2 2 2 2 2 2 2 2 2 2 2 2 2 2 2 2 2 2 2 2 2 2 2 2 2 2 2 2 2
left_child=3 2 -2 4 19 10 7 -6 33 27 15 -12 -13 22 -14 -4 -7 25 30 20 -1 26 23 -9 -5 -18 -22 -3 -29 -19 31 32 34 35 -10 44 37 38 39 -37 -41 -38 43 -43 47 49 -47 -8 -49 60 -50 -48 54 61 -40 -55 58 -58 59 -21 -46 -54 -20
right_child=1 9 5 24 6 16 8 13 18 -11 11 12 14 -15 -16 -17 17 29 62 56 21 -23 -24 -25 -26 -27 -28 28 -30 -31 -32 -33 -34 -35 -36 36 41 -39 52 40 -42 42 -44 -45 45 46 51 48 50 -51 -52 -53 53 55 -56 -57 57 -59 -60 -61 -62 -63 -64
leaf_value=0.00016509885214524653 0.0012642491060663571 -0.0012432894266421052 0.00047694942178358175 -0.00045908323697992326 1.6894534761784023e-05 9.3694510662963048e-05 -4.3549791958092326e-05 0.00050775879551414021 0.00027693106452210842 -0.0022181076885856416 0.00013492321699668598 0.0013625936200822191 -0.00089661761976160168 0.0013662800777502139 0.0005434014356964442 0.0020338213163962459 -5.0066364578756133e-05 0.002007979376806664 -0.00022394554818146712 -5.6146032952927741e-05 -0.00035585598888748354 -0.0001038679249590832 0.00025195492689183171 0.0017632884680560377 -0.0017413666668044548 0.001079528046462296 -0.0008884034697808574 0.00083496447106630629 -0.00063132449425017416 0.0010451026834090481 0.00050269316393170374 -0.00035205283011811818 0.0010533464460353908 -0.00029152860910673753 5.6326902152406235e-05 5.2409613224255018e-05 -0.0011383209065834602 0.00053740380864820221 0.00039397580354852841 0.002523969389050145 0.00069856148927514871 -0.00029930550119788618 0.00092255106457222221 0.0001993443602963896 0.0012699008994698693 -0.00010222634325389134 8.754385762390085e-05 -0.00020840193758573378 -0.001636412138805099 0.0018414343362031826 -0.00053231136403337597 0.00043125643448133679 -0.00028314557661069561 -0.00049961756074968968 -0.00055724721469624491 5.2935859755343329e-05 0.00078521116731849994 -0.00010401450487175265 -0.0002237103038406053 0.00057223627970663736 4.0999623904053039e-05 0.00037887621213984301 -0.0012137796908455829
leaf_weight=401 267 80 90 67 6459 106 53582 299 1042 53 5204 173 60 86 125 54 80 95 154 3940 2173 1215 3051 52 88 90 200 57 243 134 264 268 118 719 16720 873 61 620 99 52 164 873 55 438 61 2396 1113 383 63 57 99 601 124 327 347 387 178 331 2326 131 58 557 64
leaf_count=401 267 80 90 67 6459 106 53582 299 1042 53 5204 173 60 86 125 54 80 95 154 3940 2173 1215 3051 52 88 90 200 57 243 134 264 268 118 719 16720 873 61 620 99 52 164 873 55 438 61 2396 1113 383 63 57 99 601 124 327 347 387 178 331 2326 131 58 557 64
internal_value=1.41552e-06 0.000225577 0.000290984 -1.35204e-05 -1.1743e-05 0.000248948 3.84156e-06 0.000124925 -1.07166e-05 -0.000751381 0.000194218 0.000171336 0.000698792 0.000324911 7.40586e-05 0.00107078 0.000865735 0.00107009 6.87528e-05 -0.000144312 -0.000253668 -0.000300502 0.000298192 0.000698244 -0.00119359 0.00055077 -0.000401095 -0.000541527 -0.000350881 0.00145154 7.57368e-05 6.94984e-05 7.58363e-05 -3.3811e-05 6.92834e-05 -3.08833e-05 6.30239e-05 0.0001427 5.90238e-05 0.000270495 0.00114762 -0.00013515 -8.95523e-05 -0.000132684 -3.88855e-05 6.99929e-05 2.72692e-05 -4.75081e-05 -0.000435875 0.0010619 -0.000969089 0.000208245 -6.61456e-05 2.34128e-05 -0.000345692 -0.000200469 -8.11192e-05 0.000207882 -0.000104144 -3.57899e-05 0.000676274 0.000258093 -0.000518755
internal_weight=110647 6911 6478 103736 103581 6211 92686 9947 82739 433 5706 5562 358 3488 185 144 505 399 18630 10895 3989 3588 3402 351 155 170 2373 380 300 229 18412 18148 17880 64109 17762 63390 4977 3550 2930 1089 216 1427 1366 1311 58413 4286 4110 54127 545 176 162 1714 1841 1395 446 714 6906 509 6397 4071 119 681 218
internal_count=110647 6911 6478 103736 103581 6211 92686 9947 82739 433 5706 5562 358 3488 185 144 505 399 18630 10895 3989 3588 3402 351 155 170 2373 380 300 229 18412 18148 17880 64109 17762 63390 4977 3550 2930 1089 216 1427 1366 1311 58413 4286 4110 54127 545 176 162 1714 1841 1395 446 714 6906 509 6397 4071 119 681 218
is_linear=0
shrinkage=0.05


Tree=5
num_leaves=64
num_cat=0
split_feature=5 6 8 3 0 5 8 6 0 8 3 8 6 8 8 8 8 3 0 8 3 8 0 5 8 8 3 1 2 0 5 2 5 6 6 1 3 2 6 5 6 5 5 6 8 3 8 8 3 8 3 5 0 2 0 0 3 6 8 1 5 2 2
split_gain=0.1325 0.162835 0.0632511 0.0614059 0.0504508 0.0393918 0.0414726 0.0327703 0.0317127 0.239461 0.13051 0.0426477 0.0306459 0.0275723 0.025907 0.0236347 0.0236202 0.0232953 0.0292633 0.0215108 0.0687675 0.154145 0.0431691 0.0430575 0.0406613 0.0312289 0.0307438 0.0350686 0.0318891 0.0296984 0.0300855 0.0295316 0.0257466 0.0433079 0.0270704 0.0254933 0.0394488 0.0241098 0.0248336 0.0229508 0.0239031 0.0217836 0.0207473 0.0410338 0.0205766 0.0205204 0.157446 0.0374539 0.0652073 0.0852869 0.0412864 0.0335408 0.0286717 0.0282333 0.0263857 0.0241439 0.0255489 0.0232823 0.0216876 0.067835 0.0395447 0.0303618 0.0269161
threshold=3.9837681055068974 -0.31520034372806544 0.009783468674868347 -0.014571065083146094 -0.010901911649852989 -0.078493971377611146 0.10525911301374437 -1.1608803272247312 -0.12476653233170508 -0.11025645583868025 -0.12495650351047514 -0.1087895669043064 0.099862121045589461 -0.079102199524641023 -0.031290203332900994 -0.038355460390448563 -0.079769857227802263 -0.048118548467755311 -0.083361003547906862 -0.11071796342730521 -0.122293584048748 -0.10750997066497801 -0.12414148077368735 1.2105429768562319 -0.09964402392506598 -0.10943251848220824 -0.12077150866389273 -0.12334981188178061 -0.12190692871809004 -0.12376719340682028 -1.0740359425544737 -0.12435864657163619 -3.3764363527297969 -0.54599153995513905 -1.3749197721481321 -0.12292443215847014 -0.12273323908448218 -0.12401290610432623 0.90768533945083629 -0.77299559116363514 -0.57034504413604725 -1.9327923059463499 -1.2410303354263303 0.40090347826480871 -0.1126403473317623 -0.10426603257656096 -0.088437978178262697 -0.070895418524742113 -0.11284319311380385 -0.081727296113967882 -0.10579464212059973 -0.11522286012768744 -0.11185313016176222 -0.11618612706661223 -0.11347217112779616 -0.11068909242749213 -0.1087202988564968 -1.5636580586433408 -0.10030511021614073 -0.11429611593484877 0.70304092764854442 -0.11540820077061652 -0.11486126482486723
decision_type=2 2 2 2 2 2 2 2 2 2 2 2 2 2 2 2 2 2 2 2 2 2 2 2 2 2 2 2 2 2 2 2 2 2 2 2 2 2 2 2 2 2 2 2 2 2 2 2 2 2 2 2 2 2 2 2 2 2 2 2 2 2 2
left_child=2 7 4 5 8 17 12 13 9 -1 11 -11 -7 -2 15 -6 -9 18 -4 23 21 25 -23 26 -24 29 27 37 44 30 -21 -27 33 34 -22 39 -37 38 -10 40 -33 -34 43 -5 -29 46 58 48 49 53 55 -52 -50 -48 -55 -49 -57 -47 -43 60 -60 -62 -63
right_child=1 -3 3 42 14 6 -8 16 19 10 -12 -13 -14 -15 -16 -17 -18 -19 -20 20 32 22 24 -25 -26 31 -28 28 -30 -31 -32 35 41 -35 -36 36 -38 -39 -40 -41 -42 45 -44 -45 -46 57 47 50 52 -51 51 -53 -54 54 -56 56 -58 -59 59 -61 61 62 -64
leaf_value=3.6060124389867422e-05 -0.0016152456504809295 -0.0033877022137208512 -0.0005673455028776445 -0.00023848587086006047 0.00020424132914708196 0.00089746613675276577 0.0017063431790368421 0.0006121046687107216 -8.4192801015780055e-05 0.0019611239606906329 -0.00017883299679616121 0.0038737432957961296 0.00019971327469193057 -0.00040098824107679738 3.2751733035220081e-05 0.00063525873402665769 -0.00051346651915217217 -7.9498392143331862e-05 0.00076322786724238153 -0.0015627660797381739 0.00079555601178714895 0.0018622476186845784 0.00056093005796992396 -0.00058722625479018227 0.0018632233333350581 0.001025684548323761 6.2139093328141543e-05 -5.5191640054447059e-05 -5.408241543634864e-05 2.258040324646241e-05 -0.00029860545355505079 6.4091338852169719e-05 -0.00021557965621844734 0.0017750911688541667 -0.00028982795086641711 0.0017938470619721523 0.00027462797203151609 5.2855223265869708e-05 -0.00057538802992015828 0.00010082623553370693 -0.0014510257973528978 -4.0209652611535444e-05 9.8831449994978525e-05 0.0011958404926842362 -0.00034705400876100783 0.00093889071555167906 0.0011055565066387916 0.00046929047467356958 -0.00069094038394433349 0.0019671091429152849 0.00090901756809805246 -0.00083503742459773399 0.00021044392011747672 -0.00029799288597383441 0.0010056958490991439 0.0022913564731174246 0.0010609733912490869 -4.6930908320708314e-05 0.00017511999053218373 -4.1967752091766374e-05 0.00090817823797211125 -0.00072338660728068105 0.00073246891170128956
leaf_weight=3268 86 55 50 845 1842 311 87 81 2019 75 53 52 319 103 2058 384 107 412 221 52 98 85 685 393 65 106 4026 778 2750 1273 429 51 1416 50 136 50 267 4356 294 564 52 25884 8356 52 2704 59 93 110 93 122 50 59 1442 144 52 57 172 33962 1483 4767 381 62 63
leaf_count=3268 86 55 50 845 1842 311 87 81 2019 75 53 52 319 103 2058 384 107 412 221 52 98 85 685 393 65 106 4026 778 2750 1273 429 51 1416 50 136 50 267 4356 294 564 52 25884 8356 52 2704 59 93 110 93 122 50 59 1442 144 52 57 172 33962 1483 4767 381 62 63
internal_value=1.79775e-06 -0.000871137 5.22955e-06 0.000121016 -7.16996e-06 0.000429511 0.000688128 -0.000496008 -1.47237e-05 0.000134119 0.0019044 0.00276839 0.000545036 -0.000959101 0.00016066 0.000278847 -2.78402e-05 0.000157411 0.000516551 -2.03185e-05 -8.63994e-06 0.000202091 0.000798952 -7.05045e-05 0.000676126 2.66328e-05 -5.84736e-05 -9.61149e-05 -0.000181382 -0.000103966 -0.00043823 0.000236691 -1.95999e-05 0.000454678 0.000166186 0.000150743 0.00051914 -1.64196e-05 -0.000146849 -2.48575e-05 -0.000707419 -2.15177e-05 7.42981e-05 -0.000154097 -0.000281876 -1.75353e-05 9.32398e-06 0.000400621 0.00030544 0.000864004 0.000812463 -3.40214e-05 0.000155418 0.000393156 5.12331e-05 0.00108394 0.00137586 -4.51937e-05 -1.93873e-05 6.03825e-05 0.000305581 0.000686842 1.03544e-05
internal_weight=110571 432 110139 10653 99486 1400 717 377 95202 3448 180 127 630 189 4284 2226 188 683 271 91754 74434 3679 835 17320 750 2844 16927 12901 6232 1754 481 1090 70755 284 234 984 317 6669 2313 667 103 70471 9253 897 3482 69055 35034 2394 1946 411 448 109 1535 289 196 339 229 34021 32640 6756 1989 506 125
internal_count=110571 432 110139 10653 99486 1400 717 377 95202 3448 180 127 630 189 4284 2226 188 683 271 91754 74434 3679 835 17320 750 2844 16927 12901 6232 1754 481 1090 70755 284 234 984 317 6669 2313 667 103 70471 9253 897 3482 69055 35034 2394 1946 411 448 109 1535 289 196 339 229 34021 32640 6756 1989 506 125
is_linear=0
shrinkage=0.05


Tree=6
num_leaves=64
num_cat=0
split_feature=5 4 7 7 5 7 1 6 7 6 6 5 5 2 6 0 4 2 2 7 7 5 6 6 2 1 1 7 6 7 6 0 0 6 5 4 0 4 5 5 6 6 6 4 1 0 1 6 7 6 6 6 7 1 6 4 6 4 4 2 1 7 1
split_gain=0.11976 0.247272 0.14772 0.0585369 0.102649 0.101134 0.0637814 0.048062 0.0452165 0.0434246 0.044737 0.103147 0.0397048 0.048885 0.0449049 0.0384208 0.0356803 0.0354611 0.034327 0.0337273 0.0337055 0.0320193 0.038198 0.0573466 0.0400406 0.0314833 0.0437488 0.0305001 0.0353473 0.0289985 0.028589 0.0284181 0.0411598 0.0272677 0.0544256 0.0296003 0.0269034 0.026753 0.0267121 0.0512592 0.0261409 0.0249008 0.0224695 0.0224053 0.0364322 0.0256562 0.0221046 0.0241227 0.0217215 0.021794 0.0213581 0.0417032 0.0212952 0.0207885 0.0327854 0.0226861 0.0214383 0.0206433 0.0202773 0.0202479 0.0212468 0.0199522 0.0375084
threshold=3.9837681055068974 -0.38913711905479426 2.130591988563538 -0.80954417586326588 -0.70930314064025868 1.1337072253227236 -0.025567161850631234 -1.3374508023262022 -0.32455146312713617 -1.482523441314697 0.87100085616111766 -0.77299559116363514 2.4132486581802373 -0.10706015303730963 -0.15509685873985288 0.0094523089937865751 -0.35596986114978785 -0.10833277925848959 -0.12328230589628218 1.4521382451057436 1.3588449358940127 -0.30140142142772669 -0.31520034372806544 -0.77868586778640736 -0.11603947728872298 -0.085884418338537202 -0.089700538665056215 2.7480282783508305 -1.1793211102485655 -1.8923270106315611 0.64408335089683544 -0.11727688089013098 -0.11911073699593543 -0.87960162758827198 -1.5237295627593992 1.2507448196411135 -0.12453453242778777 1.0573275089263918 -0.54712995886802662 0.24974786490201953 0.603053778409958 1.0547692179679873 -1.0918140411376951 4.9991202354431161 -0.12169037014245986 -0.12414148077368735 -0.11348148435354231 -0.24729640781879422 -0.63169574737548817 -0.42849557101726526 0.43374772369861608 -0.31520034372806544 -0.64503324031829823 -0.099707972258329378 -0.071977566927671419 -0.099611651152372346 -0.50682583451271046 -0.38991427421569819 -0.20375738292932508 -0.10706015303730963 -0.11636617034673689 -2.0396894216537471 -0.074004665017127977
decision_type=2 2 2 2 2 2 2 2 2 2 2 2 2 2 2 2 2 2 2 2 2 2 2 2 2 2 2 2 2 2 2 2 2 2 2 2 2 2 2 2 2 2 2 2 2 2 2 2 2 2 2 2 2 2 2 2 2 2 2 2 2 2 2
left_child=2 -2 3 9 5 8 12 -4 33 37 16 -12 20 14 -14 38 17 -11 -10 -15 43 -22 23 -23 31 26 29 -3 -29 -18 53 32 -24 34 52 36 -35 59 -9 -40 -19 42 -20 -6 45 -45 -26 -48 49 -38 51 -17 -5 55 -55 56 -31 -50 -56 60 -1 62 -27
right_child=1 27 7 4 6 -7 -8 15 18 10 11 -13 13 19 -16 50 25 40 41 -21 21 22 24 -25 46 61 -28 28 -30 30 -32 -33 -34 35 -36 -37 48 -39 39 -41 -42 -43 -44 44 -46 -47 47 -49 57 -51 -52 -53 -54 54 58 -57 -58 -59 -60 -61 -62 -63 -64
leaf_value=0.00032110366555970874 -0.0040986909452876003 -0.0014921912745497444 -0.0005632758530797825 0.00065526603714288398 -2.4413408326830039e-05 0.001285001604425334 0.00010584611305215069 0.0015016729026409042 0.0008488426126980668 0.00065985061368139565 0.0020831672986745477 5.0012648843491869e-05 0.00038767223888443728 -0.0019851345777131195 -0.0012852114966833297 0.00080871955249268491 -0.00041057228413094544 5.6753434676871421e-07 -0.00072135673751378619 -0.00056614730445221108 0.00082964456639085667 -2.516765740838119e-05 0.00030489088559060041 0.00058722269047462505 -0.00084205397952955669 -0.00079809678645032618 0.00048609557245936407 -0.00077271922358499833 0.0002649152319968885 -0.00013024958708518559 0.00038537442369611803 0.001191229700860174 -0.00092868151060671001 0.00079888163565192377 0.00013267035153325418 -0.00085769948694538675 -4.3370685773919361e-05 0.0010992524212913005 -0.00048221011393030584 0.00044496297330658715 -0.0006170251181807228 0.0008958473940626592 0.00024331583887676582 -0.00069140822460726867 -0.001646760939197107 0.00059508946359352168 -0.0011337280533628778 -9.4290100217179194e-05 0.00018414161703243383 0.00044992152147630565 0.00032085540061373087 0.0025775405587270283 0.0019471892734414993 -0.00022008168520839703 -0.00063391318063723808 -0.00019989562687550708 0.00021348490736841785 -0.0002389417965204117 -0.0018405404687586752 0.00050749445338040911 -0.00076900711666729132 -0.00045727962800355291 0.000313440151563403
leaf_weight=90 50 53 119 82 70999 203 11350 52 270 192 64 1550 164 70 52 97 1086 2490 61 105 158 763 469 765 140 110 260 150 179 1022 257 70 78 99 1667 105 551 98 163 1655 183 143 2362 91 54 66 59 805 370 376 62 51 53 529 107 3076 814 1295 52 211 87 1528 239
leaf_count=90 50 53 119 82 70999 203 11350 52 270 192 64 1550 164 70 52 97 1086 2490 61 105 158 763 469 765 140 110 260 150 179 1022 257 70 78 99 1667 105 551 98 163 1655 183 143 2362 91 54 66 59 805 370 376 62 51 53 529 107 3076 814 1295 52 211 87 1528 239
internal_value=1.71648e-06 -0.000828193 4.97914e-06 -3.28763e-06 1.09535e-05 0.000186638 -4.60303e-06 0.000410578 0.000156476 -9.84876e-05 -0.000115142 0.000131873 -2.13394e-05 -0.000523231 -1.91258e-05 0.000466538 -0.000148526 5.31482e-06 0.000313454 -0.0011418 -1.86989e-05 0.000137321 0.000102331 0.000281612 -6.6733e-05 -0.000197063 -0.000149498 -0.000390533 -0.000209078 -0.000173366 -0.000129321 0.000250016 0.000127615 5.96063e-05 0.00021122 -3.81481e-05 -5.86332e-06 0.000365426 0.000394102 0.000361614 -4.19293e-05 0.000256811 0.000218742 -2.59463e-05 -0.0005392 -0.000150244 -0.000261444 -0.000166499 -3.68963e-05 0.000156983 0.00110664 0.00143145 0.00117305 -0.000153006 -0.000410239 -0.000116901 2.21801e-05 -0.000144869 -0.00103757 0.000177729 -0.000216024 -0.000379416 -3.81803e-05
internal_weight=110571 432 110139 107940 93895 7637 86258 2199 7434 14045 13559 1614 74908 391 216 2080 11945 2865 2836 175 74517 3307 3149 1528 1621 9080 7203 382 329 6943 5857 617 547 4598 1802 2796 2691 486 1870 1818 2673 2566 2423 71210 211 157 1004 864 2592 927 210 148 135 5600 688 4912 1836 1665 159 388 177 1877 349
internal_count=110571 432 110139 107940 93895 7637 86258 2199 7434 14045 13559 1614 74908 391 216 2080 11945 2865 2836 175 74517 3307 3149 1528 1621 9080 7203 382 329 6943 5857 617 547 4598 1802 2796 2691 486 1870 1818 2673 2566 2423 71210 211 157 1004 864 2592 927 210 148 135 5600 688 4912 1836 1665 159 388 177 1877 349
is_linear=0
shrinkage=0.05


Tree=7
num_leaves=64
num_cat=0
split_feature=5 4 7 7 5 7 8 4 3 7 8 4 7 6 6 5 4 6 3 4 8 2 2 2 4 4 2 6 8 3 7 6 8 8 3 4 7 8 2 8 2 7 8 4 8 3 8 3 3 8 4 8 8 3 3 6 6 5 4 4 5 3 6
split_gain=0.108277 0.223639 0.133478 0.0548067 0.0954354 0.105576 0.0612163 0.0756061 0.0567325 0.0501689 0.0490088 0.0447156 0.0408043 0.0392118 0.0403993 0.0932443 0.0357326 0.033995 0.0336287 0.0322078 0.046014 0.0320212 0.0309965 0.0309229 0.0504752 0.0324345 0.0292501 0.0287062 0.0318841 0.027858 0.0275853 0.0319223 0.0312888 0.0270051 0.0410336 0.0269396 0.041288 0.0385204 0.147375 0.167117 0.0609786 0.052735 0.0507002 0.0281949 0.0275118 0.0264697 0.0260032 0.0258117 0.0347646 0.0401236 0.030909 0.029235 0.0253479 0.0964718 0.0681029 0.0251865 0.0246238 0.0492138 0.0267424 0.0241749 0.0239888 0.0238023 0.0236654
threshold=3.9837681055068974 -0.38913711905479426 2.471494317054749 -0.80954417586326588 -0.70930314064025868 1.1337072253227236 -0.045014332979917519 0.1045912876725197 -0.067173488438129411 0.89010161161422741 -0.094154957681894288 -0.29461911320686335 -0.32455146312713617 -1.482523441314697 0.87100085616111766 -0.77299559116363514 -0.058848427608609193 -1.303368806838989 -0.064966425299644456 -0.35596986114978785 -0.072739381343126283 -0.10833277925848959 -0.12328230589628218 -0.097052343189716325 -0.25770746171474451 -0.1502914875745773 -0.096057519316673265 0.065994657576084151 0.10525911301374437 -0.0079148770309984667 2.7480282783508305 -1.1793211102485655 -0.075403235852718339 -0.025831434875726696 -0.085133749991655336 -0.017809809185564515 -0.19266142696142194 -0.11071796342730521 -0.12409362941980361 -0.1088842712342739 -0.12180906161665915 0.65415149927139293 -0.1026417315006256 -0.28114895522594446 -0.10728600621223448 -0.10314679890871047 -0.096605971455574022 -0.076847657561302171 -0.043622603639960282 -0.036229589954018586 -0.0089999684132635576 -0.047001432627439492 -0.10618365556001662 -0.12210573628544806 -0.12051615491509436 0.1075282394886017 -0.87960162758827198 -1.5237295627593992 1.2507448196411135 1.0573275089263918 2.4132486581802373 -0.12444741651415824 -0.93733784556388844
decision_type=2 2 2 2 2 2 2 2 2 2 2 2 2 2 2 2 2 2 2 2 2 2 2 2 2 2 2 2 2 2 2 2 2 2 2 2 2 2 2 2 2 2 2 2 2 2 2 2 2 2 2 2 2 2 2 2 2 2 2 2 2 2 2
left_child=2 -2 3 13 5 12 29 8 9 11 -4 33 56 59 19 -16 18 -12 -10 21 55 46 -14 24 -22 -25 -11 -19 -29 35 -3 32 -32 -8 -35 37 44 41 39 -39 42 -6 -40 -43 -37 -26 -15 51 49 -49 -51 -27 -38 -54 -55 62 57 -5 61 -1 -56 -58 -21
right_child=1 30 10 4 6 -7 7 -9 16 26 17 -13 22 14 15 -17 -18 27 -20 20 23 -23 -24 25 45 47 -28 28 -30 -31 31 -33 -34 34 -36 36 52 38 40 -41 -42 43 -44 -45 -46 -47 -48 48 -50 50 -52 -53 53 54 60 -57 58 -59 -60 -61 -62 -63 -64
leaf_value=0.00016885033587582922 -0.0038977747295147686 -0.0014189633821068263 3.1947809517394135e-05 0.0011153578111321517 -9.6889818520395682e-05 0.00123415109280961 0.00018040388723466626 -0.001320265273417106 -0.0010200552115877924 0.0019281247698942382 -0.00056610214235786093 -0.00038549716670093891 0.00080655708941414087 0.00027705859744976685 0.001980611419914147 4.7513626070598769e-05 0.0013500841584225948 0.0009829800088030922 7.9307035359445208e-05 -3.5595316333403273e-05 0.00012982193039470289 -3.9844340564713271e-05 0.00024397836203273642 -0.00044866861118726068 -0.00061744301127862264 7.3453433921508076e-05 0.00072744174645360358 0.00015134173457799653 0.001356878329196648 0.00021954135490940172 -0.0013945775434499744 0.00025174304008234886 4.9573556752875446e-05 -0.00015500947152199493 0.0015630000429357298 -2.9182237329240495e-05 4.1912739509337495e-05 0.00019618084390660647 0.00023414350156842592 0.003647835006142549 -3.629191520490931e-05 -0.0010284902180431414 0.001697321040480728 -0.00034250256602873626 -0.00031986089205349264 -0.0018285320978975506 0.0015960239723105643 -0.00018590832426129149 -0.00049584728452221796 0.00043066113307219691 0.0020396737349478319 -0.00092325504135901549 0.0014612344619073609 -0.00080243034027174831 0.00024922843329220837 8.2326778847850306e-05 0.00073244120602750974 0.00012604080332620005 -0.0008152190989590655 0.0010448449924517649 -0.00051048725385244493 -3.5488271511903146e-05 -0.00024726370264373704
leaf_weight=388 50 53 396 135 9051 230 256 92 69 60 50 217 270 142 64 1550 54 563 11211 2115 85 2673 2566 1361 78 185 322 269 68 1196 81 179 69 51 107 3623 9494 89 1333 57 45253 207 61 542 1049 111 50 77 86 58 62 121 146 176 2260 1225 104 1667 105 98 108 2587 3516
leaf_count=388 50 53 396 135 9051 230 256 92 69 60 50 217 270 142 64 1550 54 563 11211 2115 85 2673 2566 1361 78 185 322 269 68 1196 81 179 69 51 107 3623 9494 89 1333 57 45253 207 61 542 1049 111 50 77 86 58 62 121 146 176 2260 1225 104 1667 105 98 108 2587 3516
internal_value=1.63017e-06 -0.000787487 4.73246e-06 -1.39224e-06 1.22716e-05 0.000181413 -2.61599e-06 0.000100073 0.000110762 0.000469081 0.000499406 0.000194729 0.000148681 -9.3563e-05 -0.000109389 0.000125346 7.86979e-05 0.000694024 7.24924e-05 -0.000141114 -0.000187228 5.04984e-06 0.000297804 -0.00038481 -0.000881487 -0.000314604 0.000920573 0.000764581 0.00039789 -1.97294e-05 -0.000371268 -0.000198701 -0.000734339 0.000499054 0.00101097 -2.36284e-05 3.18553e-05 -4.01543e-05 -2.1275e-05 0.00155939 -2.62556e-05 -0.000130288 0.000299341 -0.000533206 -9.45025e-05 -0.0013346 0.000627029 -4.58625e-06 0.000338975 0.000704079 0.00127197 -0.000322393 8.03115e-05 0.000215769 0.000143745 -0.000123088 5.66589e-05 0.000200735 -3.62354e-05 0.000347274 0.000214378 -5.54878e-06 -0.000167782
internal_weight=110571 432 110139 108793 94748 7664 87084 12439 12347 1013 1346 631 7434 14045 13559 1614 11334 950 11280 11945 9080 2865 2836 2224 274 1950 382 900 337 74645 382 329 150 414 158 73449 16856 56593 46793 146 46647 9800 1394 749 4672 189 192 589 283 197 120 306 12184 2690 2544 6856 4598 1802 2796 486 2368 2691 5631
internal_count=110571 432 110139 108793 94748 7664 87084 12439 12347 1013 1346 631 7434 14045 13559 1614 11334 950 11280 11945 9080 2865 2836 2224 274 1950 382 900 337 74645 382 329 150 414 158 73449 16856 56593 46793 146 46647 9800 1394 749 4672 189 192 589 283 197 120 306 12184 2690 2544 6856 4598 1802 2796 486 2368 2691 5631
is_linear=0
shrinkage=0.05


Tree=8
num_leaves=64
num_cat=0
split_feature=5 4 8 4 3 8 4 0 0 8 3 8 5 2 5 4 8 5 4 3 2 8 8 4 4 0 4 1 8 0 2 3 4 8 4 5 1 4 4 5 2 8 8 3 4 3 4 8 2 3 8 8 0 4 5 4 8 2 5 5 5 8 5
split_gain=0.0979139 0.202256 0.0479035 0.0849332 0.0835579 0.0469161 0.0463475 0.0396554 0.0270945 0.209314 0.115432 0.0371141 0.02484 0.0266529 0.0348102 0.0338978 0.0293066 0.0265438 0.03377 0.0268493 0.029687 0.0225804 0.0218165 0.0374921 0.0210051 0.0640692 0.0204942 0.0194585 0.100465 0.0717077 0.0278367 0.0354017 0.0560398 0.0288457 0.0390493 0.0209945 0.0310349 0.027076 0.0245027 0.0349683 0.0189595 0.0186119 0.018595 0.182519 0.0504675 0.0415603 0.110076 0.0742389 0.0643732 0.0578621 0.0571015 0.0427815 0.0399639 0.0288213 0.0280737 0.0280034 0.0328131 0.0461643 0.0262354 0.0398547 0.028844 0.026016 0.0254914
threshold=3.9837681055068974 -0.38913711905479426 0.009783468674868347 0.31390579044818884 -0.014571065083146094 0.12261567637324335 -0.24254214018583295 -0.010901911649852989 -0.12476653233170508 -0.11025645583868025 -0.12495650351047514 -0.1087895669043064 -1.7296210527420042 -0.043547229841351502 -0.54712995886802662 -0.11724070832133292 0.034299204126000411 -0.96788185834884632 -0.26859585940837855 -0.066069964319467531 -0.076868239790201173 -0.031290203332900994 -0.038355460390448563 -0.40058831870555872 0.79567497968673717 -0.11696601286530493 -0.39528578519821161 0.24117776751518252 0.30383773148059851 0.27519518136978155 0.14235906302928927 0.19912299513816836 -0.39303232729434961 0.36395351588726049 -0.39222928881645197 -0.53600192070007313 0.22204711288213733 -0.3193922340869903 -0.41880814731121058 -0.60444062948226918 -0.021813978441059586 -0.031290203332900994 -0.10762655362486838 -0.12210573628544806 0.018853493966162208 -0.11548437923192977 -0.32112772762775416 -0.098207879811525331 -0.11928320676088332 -0.11657923832535742 -0.092796377837657915 -0.088437978178262697 -0.12370923534035681 -0.12863222509622571 -1.0202937126159666 3.0533348321914677 -0.11049312725663184 -0.12409362941980361 0.44822712242603308 -0.31624269485473627 0.71768179535865795 -0.10549587383866309 0.3386558741331101
decision_type=2 2 2 2 2 2 2 2 2 2 2 2 2 2 2 2 2 2 2 2 2 2 2 2 2 2 2 2 2 2 2 2 2 2 2 2 2 2 2 2 2 2 2 2 2 2 2 2 2 2 2 2 2 2 2 2 2 2 2 2 2 2 2
left_child=2 -2 7 4 5 12 27 8 9 -1 11 -11 -4 15 -15 17 40 -14 19 20 -19 22 -9 -24 25 -3 -18 28 35 -29 33 32 -32 -30 -35 36 38 -37 -6 -40 -16 -27 53 44 52 46 47 62 50 -49 58 54 -44 -10 -50 -55 -57 -58 59 -48 -60 -62 -45
right_child=1 24 3 -5 6 -7 -8 21 42 10 -12 -13 13 14 16 -17 26 18 -20 -21 -22 -23 23 -25 -26 41 -28 29 30 -31 31 -33 -34 34 -36 37 -38 -39 39 -41 -42 -43 43 45 -46 -47 48 49 51 -51 -52 -53 -54 55 -56 56 57 -59 60 -61 61 -63 -64
leaf_value=3.2915529078903463e-05 -0.0037067073285488375 -0.0016980568723825161 -0.00034414883074240831 -0.0019303457446250263 0.0003077910506168077 0.0014139692388982247 -0.0013726937711388539 0.00018117805735463221 -9.6678799228034094e-05 0.0018389163989922964 -0.00017931285137483093 0.0036235903963042458 0.0014772050310222602 -0.00047037017009089418 -0.00032267902899750175 0.0016860696916504729 7.713719395736993e-05 0.00047373432938356769 -0.00037343010500200829 0.00028027546443835097 0.0021058196554341441 2.3096578887986196e-05 0.00033135791827030865 0.0015227597623293952 0.00052564627488930549 -0.00041962023972753133 0.0010881371310808411 -0.0006311746463849733 0.0010699460662934664 6.0521835115785619e-05 0.0024929831739603082 0.0006385524019236347 0.00040296545937760836 -0.0011546816532375357 0.00073027028572849109 0.00010552387599978603 0.00099858845137835799 0.0012657825130850588 -0.00019702516156684853 -0.0014516876445159759 0.00070609265497086418 0.00049216499982499419 0.0020931524713374435 0.00018241345687521911 0.00034736356444727137 -3.0552724865712364e-05 -5.722570146229276e-05 0.0020334207609769553 -0.0002407174856241166 0.00034390901694016725 -0.0017953747895912136 0.00084755074513038337 0.00084140131157646567 1.1511877246804643e-05 0.00012458273663368911 2.5441492757636296e-05 -0.0020574099332756868 -0.00041987625452009073 0.00060162967487106377 -0.00058142229609182321 -0.00051105757572388814 0.00018260959727755085 0.00063490742749485341
leaf_weight=3268 50 83 105 50 223 122 55 1842 15894 75 53 52 65 137 143 76 70 58 105 174 54 2058 300 84 57 156 177 422 69 3280 82 208 53 55 53 3628 59 50 958 58 64 86 77 971 557 50145 780 122 606 87 55 186 371 15468 3940 319 51 255 186 677 237 312 458
leaf_count=3268 50 83 105 50 223 122 55 1842 15894 75 53 52 65 137 143 76 70 58 105 174 54 2058 300 84 57 156 177 422 69 3280 82 208 53 55 53 3628 59 50 958 58 64 86 77 971 557 50145 780 122 606 87 55 186 371 15468 3940 319 51 255 186 677 237 312 458
internal_value=1.55297e-06 -0.000748853 4.50307e-06 0.000105267 0.000115048 0.000482369 6.14095e-05 -6.28773e-06 -1.29848e-05 0.000124594 0.0017797 0.00259225 0.000388741 0.000457511 0.000225818 0.000713992 0.000436473 0.000548645 0.000390906 0.000671842 0.0012723 0.000142506 0.000252844 0.000595255 -0.000353032 -0.000508279 0.000803085 7.01331e-05 0.000129811 -1.84755e-05 0.00079041 0.00105272 0.00168145 0.000279037 -0.000231446 6.06319e-05 -0.000112191 0.000121637 -0.000165848 -0.000270007 -2.73922e-06 -9.49054e-05 -1.81561e-05 -1.68902e-06 0.000666099 -1.31213e-05 8.83095e-05 0.000457049 1.71179e-06 0.00133512 -0.000218598 0.000106351 0.00106073 -4.89235e-05 7.58445e-05 -1.75563e-06 -0.000329604 -0.000698611 -0.000178234 -0.000301027 6.52579e-05 -0.000117227 0.000327782
internal_weight=110571 432 110139 10653 10603 1350 9253 99486 95202 3448 180 127 1228 1123 591 532 454 456 391 286 112 4284 2226 384 382 325 247 9198 5496 3702 520 343 135 177 108 4976 1298 3678 1239 1016 207 242 91754 59767 1005 58762 8617 1638 6979 209 2247 4732 448 31987 4546 16093 625 306 2192 1457 735 549 1429
internal_count=110571 432 110139 10653 10603 1350 9253 99486 95202 3448 180 127 1228 1123 591 532 454 456 391 286 112 4284 2226 384 382 325 247 9198 5496 3702 520 343 135 177 108 4976 1298 3678 1239 1016 207 242 91754 59767 1005 58762 8617 1638 6979 209 2247 4732 448 31987 4546 16093 625 306 2192 1457 735 549 1429
is_linear=0
shrinkage=0.05


Tree=9
num_leaves=64
num_cat=0
split_feature=7 4 8 2 8 4 4 7 8 1 3 8 8 8 0 8 8 4 7 8 3 4 4 2 8 1 2 3 7 4 8 8 4 4 7 3 8 0 3 4 3 7 8 8 3 0 4 4 0 0 1 8 7 0 7 1 8 2 4 8 1 3 7
split_gain=0.0602412 0.0851072 0.0726993 0.0497052 0.0592702 0.0485274 0.0443454 0.0389776 0.082967 0.0560604 0.0361505 0.146234 0.0660916 0.0440697 0.0335128 0.0645201 0.0371997 0.0333352 0.0329839 0.036664 0.0332879 0.0307795 0.0422837 0.0299688 0.0669401 0.0386945 0.036573 0.0278245 0.0349977 0.0273259 0.0265494 0.0262411 0.0261901 0.025477 0.035881 0.0249318 0.0248007 0.16401 0.0646229 0.0400978 0.0397162 0.0353579 0.0324584 0.0288709 0.0731123 0.027167 0.035284 0.0243298 0.0456723 0.0689011 0.0395536 0.0341259 0.0626872 0.0349666 0.0470752 0.0233038 0.0232109 0.0503211 0.0224596 0.0253618 0.0247399 0.0220755 0.0213415
threshold=1.1642398834228518 -0.43058338761329645 0.10525911301374437 0.22034753859043124 1.3455585837364199 -0.38238212466239924 -0.41614061594009394 0.3716005682945252 -0.089298091828823076 -0.10810056701302527 -0.098295472562313066 -0.02260553557425737 -0.075403235852718339 -0.056798499077558511 -0.12476653233170508 -0.11010796204209326 -0.11071796342730521 -0.26045908033847803 -0.27905763685703272 -0.10549587383866309 -0.11456874012947081 0.1045912876725197 -0.066204044967889772 -0.11540820077061652 -0.09871592745184897 -0.11380456760525702 -0.11014161258935927 -0.089654941111803041 2.2771211862564091 -0.38673429191112513 -0.087063238024711595 -0.084598235785961137 -0.33355168998241419 -0.39838816225528711 0.51833757758140575 -0.09389536082744597 -0.10762655362486838 -0.12406262755393981 -0.12210573628544806 -0.058848427608609193 -0.11402770876884459 0.2321058735251427 -0.1026417315006256 -0.11189345270395278 -0.12444741651415824 -0.11932571232318877 1.3642222881317141 0.081011384725570693 -0.076791673898696886 -0.048035871237516396 -0.12169037014245986 -0.048736583441495888 -1.6773219108581541 -0.095160972326993928 -1.0716715455055235 -0.1122717261314392 0.22016515582799914 0.020579297095537189 -0.19991596043109891 -0.10916263237595557 -0.11743433773517607 -0.11385827884078024 1.3134143948554995
decision_type=2 2 2 2 2 2 2 2 2 2 2 2 2 2 2 2 2 2 2 2 2 2 2 2 2 2 2 2 2 2 2 2 2 2 2 2 2 2 2 2 2 2 2 2 2 2 2 2 2 2 2 2 2 2 2 2 2 2 2 2 2 2 2
left_child=5 -2 10 6 -5 7 -4 -1 33 -10 11 12 14 17 15 -3 -16 30 19 20 -7 22 27 24 -18 -25 31 28 -15 -14 -12 -27 -28 34 -9 -19 39 -38 42 41 45 -20 -39 -43 -45 46 -40 50 51 -50 -21 53 -53 61 -55 -42 57 -8 60 -60 -46 -49 -32
right_child=1 2 3 4 -6 18 56 8 9 -11 13 -13 29 21 16 -17 23 35 36 47 -22 -23 -24 25 -26 26 32 -29 -30 -31 62 -33 -34 -35 -36 -37 37 38 40 -41 55 43 -44 44 58 -47 -48 48 49 -51 -52 52 -54 54 -56 -57 -58 -59 59 -61 -62 -63 -64
leaf_value=7.7930067808273557e-05 -0.0014887309797757802 0.00023724591068307514 7.6628249042832684e-06 -0.0005650958716854037 0.0013905317970616476 -3.6207107436173579e-05 0.0014984042447959555 -0.0001409924464090771 0.0016914384385087874 4.0551550972721899e-05 0.00027980275852314664 0.0027819344693715774 0.001680053622255743 0.00145376134526406 -0.00052322674349269418 0.0021006836596041407 8.5444026416779656e-05 -0.00065514917418190192 -3.062983527283772e-05 0.0012188014836793995 0.00023326816932618227 -0.00089700509611672415 0.0012385182619846641 -0.00056979912250019929 0.00076395044901705856 0.00024871677456660889 -0.00042790862413481638 8.5971581116999523e-06 -2.0617090448939119e-05 0.00054863906988170108 -0.00015734304847432145 0.0013108632850908995 7.0844303862323664e-05 -0.00013337813917440106 -0.00071284244239160966 0.00044240332704177003 0.0028648744395753717 0.00046948761972031157 -1.7941440858000703e-05 3.3684399056322239e-05 -0.00021268010502522097 -0.00040224483756271022 0.0017130976515517642 0.0016002543163631346 -0.00031881863618651239 0.00020025499557613791 -0.0013408601253275883 -0.00017806642852321696 0.001722001158497364 -0.00070499739052976625 -0.00010115885112636548 -0.0021252004871391418 0.00020322205416639061 0.0011128735874962965 -0.00073528546765270954 -3.2086974478420842e-06 0.0014832065266968881 5.4712632456042725e-05 0.00018688186658092127 -0.00038051269612690206 1.8057106163749101e-05 -0.00049350133864316823 -0.00083493289879101528
leaf_weight=21922 80 235 123 151 51 10330 115 465 51 4648 89 52 60 78 261 57 2116 70 7486 56 1288 74 82 310 438 447 429 1399 82 450 162 66 678 1008 670 190 50 280 1029 9928 1452 1319 64 59 2098 3924 52 1284 68 50 13491 67 50 98 52 15404 198 126 766 264 736 978 415
leaf_count=21922 80 235 123 151 51 10330 115 465 51 4648 89 52 60 78 261 57 2116 70 7486 56 1288 74 82 310 438 447 429 1399 82 450 162 66 678 1008 670 190 50 280 1029 9928 1452 1319 64 59 2098 3924 52 1284 68 50 13491 67 50 98 52 15404 198 126 766 264 736 978 415
internal_value=1.48173e-06 0.000124831 0.000139331 0.000605601 -6.69306e-05 -9.56028e-06 0.000847019 4.54143e-05 -5.87636e-05 5.88253e-05 9.60313e-05 0.000167949 0.000142947 -5.6442e-05 8.79618e-05 0.000606927 5.59043e-05 -0.000334211 -3.13046e-05 -7.40938e-05 -6.31491e-06 9.36443e-05 0.000138836 8.97229e-05 0.000202058 -5.89601e-05 3.90842e-05 8.02384e-05 0.000702708 0.000684774 -0.000521434 0.000387652 -0.000122651 -0.00031651 -0.000478891 0.00014553 -4.80547e-06 3.26828e-05 2.61767e-05 -4.163e-05 1.54607e-05 -0.000100374 0.000705152 -0.00019995 -0.000131849 0.000139124 -8.2759e-05 -0.000122717 -0.000261342 0.00069633 -9.56129e-05 -0.000306284 -0.00113686 -0.00026554 0.000471552 -2.12644e-05 0.00108164 0.000746956 -0.000158704 4.12246e-05 -0.000231355 -0.000314606 -0.000645292
internal_weight=110571 9084 9004 764 202 101487 562 28764 6842 4699 8240 5599 5547 2641 5037 292 4745 926 72723 27812 11618 1715 1641 4484 2554 1930 1620 1559 160 510 666 513 1107 2143 1135 260 44911 22255 22205 22656 21861 12728 344 5242 3923 5005 1081 16194 2647 118 13547 2529 117 2412 150 16856 439 241 3864 1030 2834 2262 577
internal_count=110571 9084 9004 764 202 101487 562 28764 6842 4699 8240 5599 5547 2641 5037 292 4745 926 72723 27812 11618 1715 1641 4484 2554 1930 1620 1559 160 510 666 513 1107 2143 1135 260 44911 22255 22205 22656 21861 12728 344 5242 3923 5005 1081 16194 2647 118 13547 2529 117 2412 150 16856 439 241 3864 1030 2834 2262 577
is_linear=0
shrinkage=0.05


Tree=10
num_leaves=64
num_cat=0
split_feature=7 4 8 7 2 0 4 3 2 8 2 8 8 8 4 7 4 3 4 0 4 0 4 8 3 0 4 2 8 7 8 4 3 1 3 7 8 8 7 4 3 7 8 1 4 3 2 8 8 2 7 7 8 4 8 0 3 3 8 3 1 8 4
split_gain=0.104868 0.0650015 0.0667559 0.0586772 0.0552835 0.044071 0.0410348 0.0326976 0.0296037 0.0342873 0.0433964 0.140578 0.0433045 0.0418414 0.0297752 0.0287177 0.0307993 0.0267952 0.0530977 0.0337713 0.038731 0.0482252 0.0256372 0.0242752 0.100402 0.0488044 0.0292399 0.0343851 0.0548962 0.0318943 0.0285444 0.0268613 0.0250986 0.0242729 0.02379 0.0237653 0.0253577 0.0234573 0.0241276 0.0228884 0.0221125 0.0217982 0.021382 0.02111 0.0205669 0.0352755 0.0627483 0.0276739 0.0212254 0.0234012 0.0204178 0.0192088 0.023217 0.0190717 0.0187687 0.0405985 0.0235711 0.0341059 0.0178431 0.189356 0.0739347 0.043255 0.0350147
threshold=1.2730163335800173 -0.43058338761329645 0.30383773148059851 -0.99360615015029896 0.22034753859043124 -0.0037758796242997046 -0.42489996552467341 1.0000000180025095e-35 0.098604522645473494 0.091083042323589339 -0.097484644502401338 -0.025831434875726696 -0.0718109756708145 -0.053828636184334748 -0.34610003232955927 2.130591988563538 -0.39982715249061579 -0.10740825161337851 -0.30275960266590113 -0.10364024713635443 -0.14465638250112531 -0.09885776042938231 -0.42271029949188227 -0.10906874015927313 -0.12247851118445395 -0.12153096497058867 -0.33210675418376917 -0.10959985107183455 -0.095753256231546388 1.7869226932525637 -0.10630409047007559 -0.18354804068803784 -0.12210573628544806 -0.096162486821413026 0.17229484766721728 1.5083113908767702 -0.089298091828823076 -0.031290203332900994 0.23875262588262561 -0.26045908033847803 -0.12370281293988226 2.0033833980560307 -0.08510266616940497 0.06360193714499475 -0.35596986114978785 -0.092272743582725511 -0.096057519316673265 -0.081727296113967882 -0.10152993351221083 -0.11810932680964469 2.7480282783508305 -1.3657352924346922 -0.099417608231306062 -0.1502914875745773 -0.096885602921247468 -0.10933959111571311 -0.12118146196007727 -0.12148664519190787 -0.10784918814897536 -0.12200244888663291 -0.12429657205939292 -0.1026417315006256 -0.19217036664485929
decision_type=2 2 2 2 2 2 2 2 2 2 2 2 2 2 2 2 2 2 2 2 2 2 2 2 2 2 2 2 2 2 2 2 2 2 2 2 2 2 2 2 2 2 2 2 2 2 2 2 2 2 2 2 2 2 2 2 2 2 2 2 2 2 2
left_child=3 -2 6 44 34 58 -3 -7 9 10 11 12 23 33 15 16 -11 18 -14 -19 21 -21 -6 -8 30 31 27 28 29 -27 -25 -26 -33 -12 -4 36 -29 38 43 -35 -32 -41 -37 -9 45 46 47 -1 53 51 -17 52 -50 -46 55 56 57 -28 62 60 -60 -62 -5
right_child=1 2 4 5 22 7 8 37 -10 14 13 -13 17 -15 -16 50 -18 19 -20 20 -22 -23 -24 24 25 26 54 35 -30 -31 40 32 -34 39 -36 42 -38 -39 -40 41 -42 -43 -44 -45 48 -47 -48 -49 49 -51 -52 -53 -54 -55 -56 -57 -58 -59 59 -61 61 -63 -64
leaf_value=-5.9715512464754287e-05 -0.0014015813052761729 -0.0011679086379068582 0.001049699678454393 -0.00010960811491022109 0.0011741282923347235 0.00054831012225219598 -0.00010558821386928623 0.00056742611271266461 -0.00059883372896658859 0.0006507395815857262 -0.001333471219654062 0.0024962817661135514 0.0025202885479442419 0.00013364556201804151 0.0015225636092002822 0.0017462472276327809 -0.00076884302578872777 -0.00030335000070723394 0.00037705029235575471 0.00099036889601848092 0.0019009580044878711 -0.0008352493325084518 -0.00013141639337354227 0.00057472340397674699 0.00021729915791538434 6.304671861774599e-05 -7.1190251333449605e-05 -0.00052728264746157102 0.00091275300335136225 -0.0013095798661213434 0.0022896416799411319 -0.00042653528852887182 -0.0018458915069490542 -0.00043982841505107783 0.002429505777229982 -0.00036002672379254364 0.00073492462439732494 4.3717318521959081e-05 -9.7347524364665609e-05 0.00052258152349551684 0.0010532496144492144 -0.00056038773978156421 -0.001388911821021374 0.00012609441178862351 0.00020144728974644767 -8.6036288736386174e-05 0.0020420546939965548 0.0010916402323566602 -0.00032458423498050814 -0.00021193470643713554 0.00037347150974417645 2.0805374007531495e-06 -0.0017306660865203964 -0.00012475299579601658 0.00040920775670482529 -0.0011942333454499022 0.00010448545807118111 0.0015671895826900645 0.0024628128135985223 -9.2973400814488833e-06 0.00047572053786360322 0.0016041077368700988 -2.9715820438599394e-06
leaf_weight=249 64 57 71 12834 56 380 724 625 123 78 55 67 51 1346 78 51 73 103 66 109 57 53 110 226 58 164 58 93 165 56 52 69 57 486 59 119 68 8322 355 146 127 67 88 479 554 1851 52 65 51 4759 58 52 70 2326 1058 55 1026 69 62 49821 519 101 19234
leaf_count=249 64 57 71 12834 56 380 724 625 123 78 55 67 51 1346 78 51 73 103 66 109 57 53 110 226 58 164 58 93 165 56 52 69 57 486 59 119 68 8322 355 146 127 67 88 479 554 1851 52 65 51 4759 58 52 70 2326 1058 55 1026 69 62 49821 519 101 19234
internal_value=-3.38743e-06 0.000173156 0.000186336 -1.68169e-05 0.000921504 -4.39106e-06 0.000157031 9.38638e-05 0.000167394 0.000180428 0.000156411 0.000238784 0.000206565 -3.33827e-05 0.000671493 0.000411317 -3.60918e-05 0.000679231 0.00132472 0.000441314 0.00079133 0.000391639 0.000313402 0.00015852 0.000211531 0.000117599 0.000165856 -0.000103975 0.000226098 -0.000290694 0.000952289 -0.000670803 -0.0010781 -0.000331335 0.00168968 -0.000448973 7.06932e-06 7.61539e-05 0.000261013 -0.00025069 0.00142315 0.000180902 -0.000802002 0.00037623 -0.000131699 2.70923e-06 0.00045054 0.000181331 -0.000169839 -0.000232811 0.00102582 -0.00080256 -0.00114554 -6.19566e-05 0.000255529 0.000120705 0.00018441 0.000824243 -1.64831e-05 2.03823e-06 0.000828918 0.000661826 -4.56509e-05
internal_weight=110577 7816 7752 102761 296 92732 7456 10161 7399 7276 6938 4838 4771 2100 338 260 151 439 117 322 219 162 166 4332 3608 3203 3019 753 385 220 405 184 126 754 130 368 161 9781 1459 699 179 213 207 1104 10029 2217 366 314 7812 4932 109 173 121 2880 2266 1208 1153 127 82571 50503 682 620 32068
internal_count=110577 7816 7752 102761 296 92732 7456 10161 7399 7276 6938 4838 4771 2100 338 260 151 439 117 322 219 162 166 4332 3608 3203 3019 753 385 220 405 184 126 754 130 368 161 9781 1459 699 179 213 207 1104 10029 2217 366 314 7812 4932 109 173 121 2880 2266 1208 1153 127 82571 50503 682 620 32068
is_linear=0
shrinkage=0.05


Tree=11
num_leaves=64
num_cat=0
split_feature=5 4 0 8 4 3 5 3 8 2 4 5 3 0 8 8 4 8 0 8 1 4 8 8 3 8 5 4 4 4 4 2 3 8 4 8 5 4 4 2 5 4 4 4 3 4 1 5 8 2 4 5 4 4 1 4 2 8 0 8 4 0 1
split_gain=0.0491204 0.239924 0.0497746 0.0350748 0.0460363 0.0430175 0.0400445 0.0332775 0.0712466 0.0695634 0.0419547 0.0414213 0.0328963 0.0326356 0.224814 0.0456489 0.0354262 0.0274241 0.0255123 0.0230525 0.0809734 0.089169 0.0652339 0.0509251 0.0418286 0.0422497 0.0398985 0.0390345 0.0308687 0.0241229 0.0287284 0.0282332 0.0239038 0.133631 0.132535 0.0994669 0.0606589 0.0481381 0.0582562 0.0371947 0.0582868 0.0344787 0.0294401 0.028821 0.0487908 0.0796244 0.0288948 0.024169 0.0489957 0.058469 0.0305409 0.0248171 0.0244599 0.0285759 0.022204 0.0221311 0.0218103 0.0211567 0.0211129 0.0211093 0.0210295 0.0209656 0.0480184
threshold=3.9837681055068974 -0.38673429191112513 -0.0037758796242997046 0.027071636170148853 0.15708907693624499 -0.014571065083146094 -0.3457623422145843 0.22156026959419253 0.30383773148059851 0.14235906302928927 -0.42489996552467341 -0.058704743161797517 1.0000000180025095e-35 -0.12476653233170508 -0.10869207605719565 -0.11085447296500205 0.69270056486129772 0.36395351588726049 -0.12033037841320036 -0.11010796204209326 -0.12210305407643317 -0.14465638250112531 -0.10925085842609404 -0.10534886643290518 -0.12077150866389273 -0.11285201087594031 0.43937329947948461 -0.28114895522594446 -0.28790839016437525 -0.29885287582874293 -0.39222928881645197 -0.12321583554148673 -0.10314679890871047 -0.080476745963096605 -0.35361039638519282 -0.070895418524742113 -0.25985516607761378 -0.093149747699499116 0.91235250234603893 -0.10833277925848959 0.86631950736045849 -0.39838816225528711 -0.37784920632839197 -0.38238212466239924 -0.043622603639960282 -0.17483817040920255 -0.10114139318466185 0.46671570837497717 -0.10030511021614073 -0.11540820077061652 -0.34610003232955927 2.4132486581802373 -0.16053138673305509 -0.24560677260160443 -0.043643312528729432 0.44083563983440405 -0.12190692871809004 -0.10591967031359671 -0.12268471717834471 -0.10705388709902762 -0.42881309986114496 0.39036285877227789 0.49675592780113226
decision_type=2 2 2 2 2 2 2 2 2 2 2 2 2 2 2 2 2 2 2 2 2 2 2 2 2 2 2 2 2 2 2 2 2 2 2 2 2 2 2 2 2 2 2 2 2 2 2 2 2 2 2 2 2 2 2 2 2 2 2 2 2 2 2
left_child=2 -2 3 13 5 6 -5 8 12 17 60 -11 -4 14 15 -1 -17 -10 -3 24 21 23 55 -21 25 -15 -24 -25 -26 30 -27 -32 33 47 35 36 -35 39 -39 -36 -41 -37 -38 46 54 -46 59 -22 -49 50 -50 -52 53 -51 -45 -23 -31 -28 -57 -34 -9 -12 -63
right_child=1 18 7 4 -6 -7 -8 10 9 11 61 -13 -14 19 -16 16 -18 -19 -20 20 32 22 26 27 28 29 57 -29 -30 56 31 -33 43 34 37 41 42 38 -40 40 -42 -43 -44 44 45 -47 -48 48 49 52 51 -53 -54 -55 -56 58 -58 -59 -60 -61 -62 62 -64
leaf_value=3.230597974357219e-05 -0.0037562378289579764 -0.00083323500562423414 0.00054533448417878091 5.0836421441491432e-05 -0.000959245562130996 -0.00034732950123171857 0.00075401537839350004 2.2040140170254282e-05 0.0007637712339015856 0.00053425666821847425 -0.00037447400494534195 0.001845235170986177 9.2102781603733687e-05 8.3360753628286012e-05 0.0028985979303898703 0.0015917548257857563 0.00018790743698380389 -0.00049558712618715439 0.00012643852726012419 0.00049443814328000194 -3.6125859208111076e-05 -2.7500885298946823e-05 7.5550814973051318e-05 0.0025582728290048963 -0.00010772622823565098 0.00054757754408100209 0.00041333192338094903 0.00081172450288100159 0.00013287748131061167 -0.00015668994954907674 -4.7806354184497136e-05 -0.00048655048813175212 0.00058460925841548794 0.001983152866288198 0.00095775024572142958 0.0011030810835598879 -0.00080951274005481265 -0.00054176656753878491 0.0010477936887723382 -0.00018113141195738678 0.0011621536253104833 0.0026957703030943934 0.00067868709497013384 -6.8863413342905118e-05 -0.00024254685584512633 -0.0014747380071290935 2.3879457151731536e-05 -2.2045897220355029e-05 0.001668560665420955 0.00012377834795324462 0.00038055457724775065 0.0013143899808229676 -0.00015059564505978088 0.00066716327774223809 0.00090263820572961432 -0.00039374726605742718 1.9272381230379155e-05 0.00113436269065248 -0.0013415978866962381 -0.00037176466356945103 0.00036017089390513859 0.00088860718846203257 -0.00022370856035202854
leaf_weight=3245 50 90 422 321 71 183 548 2002 72 103 952 148 7501 2314 71 84 96 105 289 817 24589 367 971 55 2090 91 343 78 3677 8469 517 1262 62 50 241 51 64 306 70 303 109 115 67 19182 1293 145 13041 5893 69 1416 400 86 616 291 58 329 2223 145 71 698 596 121 473
leaf_count=3245 50 90 422 321 71 183 548 2002 72 103 952 148 7501 2314 71 84 96 105 289 817 24589 367 971 55 2090 91 343 78 3677 8469 517 1262 62 50 241 51 64 306 70 303 109 115 67 19182 1293 145 13041 5893 69 1416 400 86 616 291 58 329 2223 145 71 698 596 121 473
internal_value=-3.21017e-06 -0.000536571 -1.128e-06 -1.31513e-05 0.000264546 0.000347973 0.000494625 9.28316e-05 0.000150306 0.000777916 -2.29995e-05 0.00131152 0.000116309 -1.63846e-05 0.000133569 7.54207e-05 0.000848211 1.81071e-05 -0.000103045 -2.20209e-05 -8.72968e-06 0.000238095 6.49244e-05 0.000643365 -6.86279e-05 -0.000112941 0.000261122 0.00154768 4.56775e-05 -0.000149105 -0.000314751 -0.000359144 -2.00587e-05 9.21584e-06 0.000491912 0.00133547 0.000520182 0.000206427 -0.000243843 0.000465671 0.000176206 0.00221599 -4.8997e-05 -4.95509e-05 -8.68958e-05 -0.000367733 6.40507e-06 -1.07081e-05 6.05453e-05 0.000229608 0.000690204 0.000548161 0.000119315 0.000216748 -6.5888e-05 -0.000308141 -0.000120107 0.000629454 -0.000564917 -0.000293079 9.97185e-05 -0.000229154 3.98692e-06
internal_weight=110577 429 110148 97653 1123 1052 869 12495 8351 428 4144 251 7923 96530 3496 3425 180 177 379 93034 72391 3176 2226 950 20643 14876 1459 133 5767 12562 1870 1779 69215 34736 1376 347 181 1029 376 653 412 166 131 34479 20678 1438 13801 33360 8771 2878 555 486 2323 1707 19240 767 10692 488 400 760 2598 1546 594
internal_count=110577 429 110148 97653 1123 1052 869 12495 8351 428 4144 251 7923 96530 3496 3425 180 177 379 93034 72391 3176 2226 950 20643 14876 1459 133 5767 12562 1870 1779 69215 34736 1376 347 181 1029 376 653 412 166 131 34479 20678 1438 13801 33360 8771 2878 555 486 2323 1707 19240 767 10692 488 400 760 2598 1546 594
is_linear=0
shrinkage=0.05


Tree=12
num_leaves=64
num_cat=0
split_feature=7 5 4 7 7 5 5 0 8 4 2 5 6 5 6 6 6 6 8 7 5 0 8 8 7 6 5 4 4 0 0 4 2 5 4 8 8 0 8 0 6 4 8 8 2 7 0 5 4 7 5 0 8 4 6 2 2 8 6 4 8 4 2
split_gain=0.0887257 0.0746941 0.220651 0.0665191 0.0521313 0.0502062 0.0482016 0.0478742 0.045696 0.0418699 0.0395146 0.034693 0.0749725 0.0408847 0.0466702 0.0408744 0.0310185 0.0427633 0.0282205 0.0280826 0.0707311 0.0489552 0.0450066 0.0278169 0.0270906 0.0279623 0.0267806 0.0271985 0.0266825 0.0326734 0.0337741 0.0259382 0.025459 0.0238993 0.0259727 0.0234891 0.0227361 0.0273314 0.0219374 0.026737 0.0218737 0.0215093 0.0214964 0.0212792 0.0893188 0.0582633 0.0334072 0.0386131 0.0315842 0.0376218 0.028998 0.0418415 0.0291663 0.0270402 0.0224489 0.023081 0.0222561 0.0214435 0.020429 0.020126 0.0439738 0.0460214 0.0339367
threshold=1.2342935204505923 3.9837681055068974 -0.36929808557033533 2.471494317054749 -1.5305771231651304 1.616981089115143 -0.60444062948226918 -0.010901911649852989 0.091083042323589339 -0.25172714889049524 -0.12472292035818099 -3.3764363527297969 -0.40602526068687433 -1.9327923059463499 -1.0444968938827512 -0.80794239044189442 0.1075282394886017 -1.0918140411376951 -0.11177881062030791 -0.38934713602066034 -0.88031587004661549 -0.091241270303726182 -0.070895418524742113 -0.093817993998527513 -2.9503145217895503 -0.29276600480079645 -0.16827469319105146 0.69270056486129772 0.74169823527336132 -0.11710949614644049 -0.089581765234470354 -0.37129248678684229 -0.090144671499729143 1.2105429768562319 -0.35596986114978785 0.067621383816003813 -0.096885602921247468 0.027921215631067756 -0.068981353193521486 -0.10536279901862143 -0.69501167535781849 -0.36510989069938654 0.36395351588726049 -0.10784918814897536 -0.12190692871809004 0.89010161161422741 -0.11381535977125166 0.32312549650669103 -0.026514627970755097 0.52822971343994152 0.22841490060091021 -0.12414148077368735 -0.11222291365265845 -0.35596986114978785 0.24156635254621509 -0.12163952738046645 -0.11950066685676573 -0.10317356511950491 0.23188100755214694 -0.073346145451068864 -0.055247612297534936 0.1045912876725197 -0.09380693361163138
decision_type=2 2 2 2 2 2 2 2 2 2 2 2 2 2 2 2 2 2 2 2 2 2 2 2 2 2 2 2 2 2 2 2 2 2 2 2 2 2 2 2 2 2 2 2 2 2 2 2 2 2 2 2 2 2 2 2 2 2 2 2 2 2 2
left_child=4 3 -3 6 11 7 -2 19 16 -4 18 12 -1 14 -13 -15 17 -5 -8 38 21 22 40 -19 -16 36 27 42 29 -11 -31 -23 -18 34 41 43 -26 -38 -6 -40 -21 -9 -17 48 45 57 47 56 49 -22 53 52 -52 -51 55 -55 -46 -45 -41 -48 62 -62 -61
right_child=1 2 9 8 5 -7 10 33 -10 28 -12 13 -14 15 24 26 32 23 -20 20 35 31 -24 -25 25 -27 -28 -29 -30 30 -32 -33 -34 -35 -36 -37 37 -39 39 58 -42 -43 -44 44 46 -47 59 -49 -50 50 51 -53 -54 54 -56 -57 -58 -59 -60 60 61 -63 -64
leaf_value=-1.7810630448840801e-05 0.00079357423218839602 -0.0030790117048773158 0.0009508945407729146 -5.3848949973340209e-05 -4.558227895040589e-05 -0.0003627088191025004 0.00018584750761115219 8.4609669009724859e-05 0.0012156274853101095 -0.0013613320502022712 7.133882819709867e-05 -0.00015423630425988731 0.0020191241863078456 0.00031865015751826077 -8.3784767793542608e-05 -0.00016655691975104388 0.00020385648872682147 0.00028567802834933241 0.0013612639008924023 -4.1818212078325643e-05 -5.6821538078965448e-05 0.00036844709948954089 0.0014357969347337212 0.0010287819940885481 -0.0013687276702131063 -0.0019411220076154538 0.00015609932707252969 -0.00081144034971253462 0.00072956021827207335 0.00058455963038413987 -0.00098064318260488413 -0.00044596189141721785 -0.00087876717721183713 0.0005639011123387788 -0.00034565740657895591 0.00073745201998722876 -0.00036034779031138297 -0.0014330512285426571 0.00091854504679321079 -0.00029411665041435733 0.00049255721993186799 0.00071280640457162931 -0.0010251234477285228 0.00028862318021721166 -0.00025060817248618461 0.0019407937667167544 -7.5729028787115276e-06 0.000271698843672947 2.3751898544168402e-05 -0.0013017789733324511 0.00012166912896460073 -0.00025375749583619178 0.001461847439801706 0.00063275875257014105 -0.00062564028640662607 -0.00067893212916467086 6.8819807654089501e-05 0.0013259597155226047 -3.0029889742928395e-05 -0.00019471889273774319 -0.00025066116276444342 -0.0020861659303773195 0.00060933484220885214
leaf_weight=344 256 68 88 203 18918 990 102 10955 194 77 5989 614 51 436 122 1131 329 187 102 242 13334 153 110 391 123 58 375 233 50 80 59 267 64 259 348 104 291 74 53 2134 914 137 77 327 662 78 27905 2324 10013 104 136 1635 57 85 358 54 3071 58 1115 1224 80 59 146
leaf_count=344 256 68 88 203 18918 990 102 10955 194 77 5989 614 51 436 122 1131 329 187 102 242 13334 153 110 391 123 58 375 233 50 80 59 267 64 259 348 104 291 74 53 2134 914 137 77 327 662 78 27905 2324 10013 104 136 1635 57 85 358 54 3071 58 1115 1224 80 59 146
internal_value=-3.04116e-06 0.000154798 -0.000492406 0.000189796 -1.57498e-05 -8.6183e-06 0.000122577 -5.01625e-06 0.000506359 1.17296e-05 9.47162e-05 -0.000194325 0.000249621 -0.000244002 -0.000469298 -0.000115595 0.000388219 0.000570339 0.000777329 -1.79654e-05 -1.03607e-06 0.00031839 0.000473482 0.000789275 -0.000758228 -0.000908499 -0.00021997 -0.000317877 -0.000301369 -0.000542273 -8.20661e-05 -0.000149114 2.57685e-05 8.98573e-05 7.90767e-05 -9.75355e-06 -0.00078205 -0.000581149 -6.63436e-05 -0.000185241 0.00038075 9.24322e-05 -0.000222086 -1.10248e-05 1.38423e-05 0.000703066 4.82633e-06 0.000111747 -4.56908e-05 -8.9801e-05 -0.000270744 -0.00017151 0.000522968 -0.000571787 -0.000416725 0.000121971 1.21214e-05 0.000447928 -0.000203524 -1.7194e-05 -0.000194988 -0.0010391 -0.000108649
internal_weight=110577 8239 422 7817 102338 98409 6449 97419 1368 354 6193 3929 395 3534 1282 2252 1174 781 204 85720 63500 1686 1266 578 668 546 1816 1441 266 216 139 420 393 11699 11440 61814 488 365 22220 3302 1156 11092 1208 61710 35934 463 35471 6057 25776 15763 2429 1828 193 601 497 139 3733 385 3249 29414 1509 139 1370
internal_count=110577 8239 422 7817 102338 98409 6449 97419 1368 354 6193 3929 395 3534 1282 2252 1174 781 204 85720 63500 1686 1266 578 668 546 1816 1441 266 216 139 420 393 11699 11440 61814 488 365 22220 3302 1156 11092 1208 61710 35934 463 35471 6057 25776 15763 2429 1828 193 601 497 139 3733 385 3249 29414 1509 139 1370
is_linear=0
shrinkage=0.05


Tree=13
num_leaves=64
num_cat=0
split_feature=7 5 4 7 5 7 5 0 2 3 0 6 6 6 5 4 3 7 5 5 7 2 6 0 5 7 3 6 5 4 4 4 2 7 5 7 7 3 5 7 6 6 5 4 7 6 0 4 2 6 0 4 5 6 4 6 0 2 0 7 4 4 4
split_gain=0.0801912 0.0656737 0.204121 0.0584799 0.0512656 0.0477952 0.0467005 0.0390083 0.0366768 0.0427885 0.0328404 0.0324843 0.0289349 0.0284616 0.0277053 0.0363424 0.0350812 0.0282766 0.0267145 0.0244819 0.0525358 0.0317016 0.0242867 0.0239012 0.0237373 0.0294319 0.0232975 0.023818 0.0221712 0.0219827 0.0221882 0.0213472 0.0306198 0.0210433 0.0204579 0.0202557 0.0224387 0.020237 0.0200884 0.019056 0.0187275 0.0375673 0.0340353 0.0339966 0.0262328 0.022376 0.0215595 0.0185884 0.0469439 0.0217494 0.0225341 0.0250682 0.0207913 0.0195473 0.0177132 0.0177066 0.0176491 0.0171826 0.0341728 0.0171336 0.0203855 0.0370465 0.01736
threshold=1.2730163335800173 3.9837681055068974 -0.38673429191112513 2.471494317054749 -0.44720897078514094 -1.1009687781333921 1.616981089115143 -0.010901911649852989 -0.12041982635855673 -0.12210573628544806 -0.12476653233170508 1.3112865686416628 -0.90183764696121205 1.3873959779739382 -1.3157513141632078 0.14420790970325473 -0.08581336215138434 -2.9503145217895503 -2.7686550617218013 -0.70930314064025868 -0.23527608066797254 -0.11603947728872298 -0.46764031052589411 -0.12033037841320036 -1.407105505466461 -1.132219612598419 -0.11284319311380385 -0.27052430808544153 0.30012984573841101 -0.35596986114978785 -0.39679569005966181 -0.36510989069938654 -0.067002803087234483 1.1999505162239077 1.2105429768562319 -0.39788337051868433 -0.55072319507598866 0.063284367322921767 -1.9327923059463499 -2.0396894216537471 -0.7690942883491515 -0.31520034372806544 1.000202536582947 -0.29231943190097803 1.4005464911460879 -0.43655969202518458 -0.082436341792345033 0.74169823527336132 -0.12201596796512602 -0.798449546098709 -0.10639281570911406 -0.31580565869808191 1.7900469899177553 -0.48374539613723749 -0.32754240930080408 0.44471102952957159 0.17211292684078219 0.009346088860183956 0.027921215631067756 -0.1857359707355499 -0.066204044967889772 -0.17012424767017362 0.13022115081548694
decision_type=2 2 2 2 2 2 2 2 2 2 2 2 2 2 2 2 2 2 2 2 2 2 2 2 2 2 2 2 2 2 2 2 2 2 2 2 2 2 2 2 2 2 2 2 2 2 2 2 2 2 2 2 2 2 2 2 2 2 2 2 2 2 2
left_child=5 3 -3 4 -2 11 7 19 9 -5 -6 12 24 37 15 16 18 -17 -14 20 31 22 -22 -4 -1 -26 27 -19 -13 30 33 -7 38 34 -9 36 -21 -10 -33 -20 -12 42 44 45 -42 -44 -45 49 -49 -8 51 -51 -53 -52 -24 -55 -43 -32 -59 -23 61 -61 -62
right_child=1 2 23 8 10 6 47 29 13 -11 40 28 14 -15 -16 17 -18 26 39 35 21 59 54 -25 25 -27 -28 -29 -30 -31 57 32 -34 -35 -36 -37 -38 -39 -40 -41 41 56 43 46 -46 -47 -48 48 -50 50 53 52 -54 55 -56 -57 -58 58 -60 60 62 -63 -64
leaf_value=-9.4831058577558034e-05 0.00071270469174542677 -0.0034211765958781486 -0.00075703018461354083 0.00033311585872053282 0.0007698058084783764 0.00019637087421978751 0.00031584001635368784 6.5068797158707758e-05 0.00062065180123592662 -0.0010687527052814154 -9.0763249719339403e-05 0.00051696164175967982 0.00098604149701934539 -0.00020621000433859138 -0.00013932381739196063 3.2777495371006735e-05 -0.0004959895063766051 -0.00045414328323888244 -0.00056995458902935655 -2.52208968339969e-05 7.9446103835852783e-05 0.00068537770609299726 0.0016118204527004968 0.00017843515699187974 0.00040402188532295575 -0.00075282721386869421 -0.0014881531696068124 -0.0016287737087794703 -0.00026545631592398425 -0.0003385110516337905 0.00055322156638300257 0.00045613068583357701 -0.0004605996801322441 -0.00085695302600544859 0.00065008891274613383 -1.0326648868192393e-05 -0.00016262426090325657 0.0014068569935081722 -2.9967337528972294e-05 9.9830469727785664e-05 0.00020030697427261997 -1.5310982928668879e-05 -0.00029156499993205964 0.00037232155250819474 0.001237827488985427 0.00052202627007235682 0.0014512187262595284 7.0211535415774782e-05 -0.0018591493969324802 0.00085302192924751176 -0.0011863031128876104 -0.00080426270771847804 0.00011629339568025898 -0.00021501841470075524 0.00062727008211530574 -0.0010809282668464892 0.00059283200480276729 -0.00037090644326436353 0.00030276822395644559 6.8356451914750813e-05 -0.0010813376632568428 0.0011925544606980756 0.00011371701471752635
leaf_weight=2062 342 50 89 213 168 1129 138 8920 897 72 1468 310 65 96 3501 97 632 241 144 7385 203 129 50 282 489 61 124 52 127 294 400 221 404 60 151 61196 4971 90 4986 396 98 2617 364 525 162 109 50 62 63 62 105 103 149 268 492 75 124 231 999 1015 65 78 56
leaf_count=2062 342 50 89 213 168 1129 138 8920 897 72 1468 310 65 96 3501 97 632 241 144 7385 203 129 50 282 489 61 124 52 127 294 400 221 404 60 151 61196 4971 90 4986 396 98 2617 364 525 162 109 50 62 63 62 105 103 149 268 492 75 124 231 999 1015 65 78 56
internal_value=-2.88866e-06 0.000151492 -0.00045525 0.000186091 0.00011906 -1.46322e-05 -4.52305e-06 -8.39006e-07 0.000481106 -2.3539e-05 8.32285e-05 -0.000129654 -0.000152979 0.000613807 -0.000220605 -0.00038295 -0.000235778 -0.00073599 3.64159e-05 -1.26742e-05 6.59983e-05 0.000285078 0.000546453 -4.74074e-05 -1.69694e-05 0.000274583 -0.000914466 -0.000667441 0.00028949 8.73478e-05 9.9013e-05 -1.90326e-06 -4.18263e-05 6.86616e-05 7.48779e-05 -2.21175e-05 -8.0509e-05 0.000693694 -9.25232e-06 -7.95023e-05 6.21855e-05 0.000117647 0.000338007 0.000210539 0.000849028 -0.000103372 0.000468495 -0.000340018 -0.000909224 -0.00026004 -0.00036461 -3.95522e-05 -0.000261657 -0.000591846 0.000720897 -0.000406949 1.24069e-05 0.00026889 0.00017605 0.000139788 8.12967e-05 0.0001496 -0.000531856
internal_weight=110577 7816 421 7395 6027 102761 94460 93435 1368 285 5685 8301 7864 1083 5252 1751 1237 514 605 82380 8828 2088 745 371 2612 550 417 293 437 11055 10761 6740 5611 9131 9071 73552 12356 987 5207 540 5517 4049 1308 1048 260 473 575 1025 125 900 762 314 252 448 542 343 2741 1630 1230 1343 1214 1093 121
internal_count=110577 7816 421 7395 6027 102761 94460 93435 1368 285 5685 8301 7864 1083 5252 1751 1237 514 605 82380 8828 2088 745 371 2612 550 417 293 437 11055 10761 6740 5611 9131 9071 73552 12356 987 5207 540 5517 4049 1308 1048 260 473 575 1025 125 900 762 314 252 448 542 343 2741 1630 1230 1343 1214 1093 121
is_linear=0
shrinkage=0.05


Tree=14
num_leaves=64
num_cat=0
split_feature=5 4 4 0 8 4 3 5 3 8 2 4 5 3 0 8 8 4 4 0 0 8 8 3 8 4 8 3 3 8 4 5 4 5 4 4 4 0 3 3 3 2 2 6 3 8 4 8 5 4 4 2 5 4 4 4 3 4 0 4 2 8 5
split_gain=0.0366988 0.180305 0.0415143 0.0376067 0.0303024 0.0396135 0.0382475 0.034396 0.029933 0.0631762 0.062096 0.0373707 0.0356633 0.0290828 0.0275746 0.198124 0.0394404 0.0313304 0.0253648 0.0245046 0.0293129 0.024403 0.0197737 0.045856 0.0974554 0.0442407 0.0438628 0.0380256 0.035385 0.0397616 0.0303813 0.0296923 0.0264607 0.0237309 0.0228595 0.0209133 0.0291245 0.0235096 0.0277089 0.0217894 0.0211975 0.0267305 0.0206154 0.0205685 0.0192449 0.115647 0.119326 0.0883032 0.0547584 0.0420183 0.0531826 0.0332028 0.0514077 0.0307255 0.0267456 0.0246478 0.0423339 0.0713918 0.0245354 0.0209063 0.0205067 0.0197632 0.0191746
threshold=3.9837681055068974 -0.36929808557033533 -0.25172714889049524 -0.0037758796242997046 0.027071636170148853 0.15708907693624499 -0.014571065083146094 -0.3457623422145843 0.22156026959419253 0.30383773148059851 0.14235906302928927 -0.42489996552467341 -0.058704743161797517 1.0000000180025095e-35 -0.12476653233170508 -0.10869207605719565 -0.11085447296500205 0.69270056486129772 0.74169823527336132 -0.11710949614644049 -0.089581765234470354 0.36395351588726049 -0.11071796342730521 -0.12210573628544806 -0.10916263237595557 -0.14465638250112531 -0.10191813111305235 -0.12419274449348448 -0.12077150866389273 -0.11285201087594031 -0.14465638250112531 1.0831037759780886 -0.3228373229503631 1.3773460388183596 -0.080119863152503953 -0.29885287582874293 -0.39904925227165217 -0.1227670907974243 -0.12256076931953429 -0.12200244888663291 -0.12324558198451994 -0.12263635173439978 -0.11917650327086447 -0.048339026048779481 -0.10314679890871047 -0.080476745963096605 -0.35361039638519282 -0.070895418524742113 -0.25985516607761378 -0.093149747699499116 0.91235250234603893 -0.10833277925848959 0.86631950736045849 -0.39838816225528711 -0.37784920632839197 -0.38238212466239924 -0.043622603639960282 -0.12330760434269904 -0.10067918151617049 -0.26317732036113733 -0.11985842511057852 -0.10762655362486838 2.0306025743484502
decision_type=2 2 2 2 2 2 2 2 2 2 2 2 2 2 2 2 2 2 2 2 2 2 2 2 2 2 2 2 2 2 2 2 2 2 2 2 2 2 2 2 2 2 2 2 2 2 2 2 2 2 2 2 2 2 2 2 2 2 2 2 2 2 2
left_child=3 -2 -3 4 14 6 7 -6 9 13 21 -10 -12 -5 15 16 -1 -18 19 -4 -21 -11 28 24 30 26 27 -26 29 -16 -24 -27 -30 35 -35 36 -31 -38 -39 40 -37 -42 -34 -33 45 60 47 48 -47 51 -51 59 -53 -49 -50 58 -57 -58 61 -48 -25 -46 -60
right_child=1 2 18 8 5 -7 -8 -9 11 10 12 -13 -14 -15 22 -17 17 -19 -20 20 -22 -23 23 44 25 31 -28 -29 32 33 -32 43 42 34 -36 39 37 38 -40 -41 41 -43 -44 -45 55 46 49 53 54 50 -52 52 -54 -55 -56 56 57 -59 62 -61 -62 -63 -64
leaf_value=2.8773201029042822e-05 -0.0028056640231954883 0.00090839132019907118 -0.001271163648627221 0.00050661282896975746 5.1076930839885989e-05 -0.00088850250791033944 -0.00033150137641432993 0.00070279208369494143 8.669318126271624e-05 0.0007118509652185548 0.00050897863284962328 -0.00022369403497916513 0.0017256487309760824 8.0464256777565784e-05 8.097366799524866e-05 0.0027191471551001696 0.0014863919429754949 0.00016632793055962504 0.0006702570777493888 0.00044770106821915656 -0.0009895453214525216 -0.00047611595523534871 0.00022104204992454048 -0.00010414318333976622 0.0019239776779963556 0.00015069372597759884 0.0021302517336285252 0.00049491161036445441 -0.000153719412761145 0.0008402279444756763 -0.00019018897925416196 0.0003929205649988132 0.00028740236833112078 -0.0014038946214461013 -0.00033145900437535445 -7.8756106457281551e-05 -0.00010447546499812925 -0.0013920240441007083 -0.00041686735284672142 4.8678012358271616e-05 -0.000421471480072628 -0.00010777574113965295 2.0890410327057256e-05 0.0013660269086055148 0.00064196738908720908 0.0018789487033620178 0.00042006438116079742 0.0010363270940545661 -0.00077664277516305454 -0.00051948838362246466 0.00099928165567894525 -0.00018097864160788383 0.0010805331325206102 0.0025396344438055672 0.00064182641033446147 -5.976912400594366e-05 -0.00024552217854383529 -0.0016439090134832551 2.8683874677244245e-05 0.0013546369517602307 4.9952516632512689e-06 -0.00032354720179186684 -0.00072039760619423598
leaf_weight=3245 68 90 77 422 321 71 183 548 2598 72 103 1546 148 7501 2314 71 84 96 51 82 61 105 628 5001 51 1104 54 462 1041 53 1570 140 1307 68 181 4526 625 79 848 1812 1281 1446 1630 89 56 50 120 51 64 306 70 303 109 115 67 19250 1341 97 12903 121 30847 769 85
leaf_count=3245 68 90 77 422 321 71 183 548 2598 72 103 1546 148 7501 2314 71 84 96 51 82 61 105 628 5001 51 1104 54 462 1041 53 1570 140 1307 68 181 4526 625 79 848 1812 1281 1446 1630 89 56 50 120 51 64 306 70 303 109 115 67 19250 1341 97 12903 121 30847 769 85
internal_value=-2.74505e-06 -0.000463761 -1.6095e-05 -9.4531e-07 -1.13961e-05 0.000246718 0.000324106 0.00046239 8.07261e-05 0.000135236 0.000726229 -2.91289e-05 0.00123038 0.000103223 -1.44015e-05 0.000123435 6.88485e-05 0.000787166 -0.000325331 -0.000558115 -0.000168004 8.40915e-06 -1.95823e-05 -8.5996e-06 0.000154053 0.00041621 0.000785836 0.000640449 -6.79634e-05 -0.00010727 -7.26473e-05 0.000258516 6.27844e-05 -0.000147167 -0.000628777 -0.00013587 -0.000302187 -0.000341715 -0.000501382 -0.000106392 -0.000145135 -0.000255234 0.000139549 0.00077541 -1.78948e-05 7.0395e-06 0.0004567 0.00125711 0.000488949 0.000185826 -0.000234838 0.000428035 0.000154579 0.00208675 -5.17999e-05 -4.47964e-05 -7.93276e-05 -0.000340927 6.92365e-06 0.000892948 -1.02327e-05 -0.000257311 2.37264e-05
internal_weight=110577 429 361 110148 97653 1123 1052 869 12495 8351 428 4144 251 7923 96530 3496 3425 180 271 220 143 177 93034 75823 4098 1900 567 513 17211 13233 2198 1333 3978 10919 249 10670 1605 1552 927 9065 7253 2727 2937 229 71725 37224 1376 347 181 1029 376 653 412 166 131 34501 20688 1438 13813 241 35848 825 12988
internal_count=110577 429 361 110148 97653 1123 1052 869 12495 8351 428 4144 251 7923 96530 3496 3425 180 271 220 143 177 93034 75823 4098 1900 567 513 17211 13233 2198 1333 3978 10919 249 10670 1605 1552 927 9065 7253 2727 2937 229 71725 37224 1376 347 181 1029 376 653 412 166 131 34501 20688 1438 13813 241 35848 825 12988
is_linear=0
shrinkage=0.05


Tree=15
num_leaves=64
num_cat=0
split_feature=7 7 4 2 3 6 0 7 6 2 7 2 6 6 3 4 0 1 2 4 2 4 6 2 4 0 4 0 7 3 0 4 2 3 6 2 4 2 2 2 3 0 1 7 4 4 6 6 2 1 7 4 6 3 4 4 4 4 7 7 0 4 7
split_gain=0.0719075 0.0583628 0.129364 0.0361231 0.0846663 0.0310007 0.0492829 0.036112 0.0614989 0.0362164 0.0305298 0.0305241 0.0305149 0.0353763 0.0325182 0.0376867 0.0289553 0.0277946 0.046496 0.0235041 0.0266816 0.023321 0.0226906 0.0215904 0.0244167 0.020872 0.0208531 0.0190512 0.0245837 0.0186548 0.0314045 0.0182823 0.0242294 0.0310047 0.0174081 0.0172676 0.0182769 0.0263038 0.0275279 0.0292373 0.0234307 0.0575903 0.0190139 0.0163925 0.0162996 0.0160818 0.0168615 0.0158284 0.0187415 0.0178225 0.0155028 0.0151297 0.015024 0.0149631 0.0147027 0.016283 0.0146597 0.0142499 0.0140549 0.0224022 0.0247246 0.0167424 0.0163908
threshold=-1.5305771231651304 1.571128845214844 -0.42881309986114496 -0.12486536800861357 -0.12358620017766951 -1.1429437994956968 0.0044883054215461024 2.471494317054749 0.065994657576084151 -0.076868239790201173 3.8050054311752324 -0.11376593634486197 -1.3749197721481321 1.0332247018814089 0.24038003385066989 0.74169823527336132 -0.12205538526177405 -0.12169037014245986 -0.12118837237358092 -0.39377057552337641 -0.1044349893927574 4.9991202354431161 -0.52221408486366261 -0.0076037244871258727 -0.35596986114978785 -0.12353710457682608 -0.36616587638854975 1.0000000180025095e-35 1.7869226932525637 0.098609298467636122 0.040879132226109512 1.1490262150764468 -0.10706015303730963 -0.11352589726448058 1.7349529266357424 -0.12190692871809004 -0.29672868549823755 -0.084339346736669527 -0.097052343189716325 -0.11183398216962813 -0.041355401277542107 -0.06601278111338614 -0.021728848107159134 -2.4916595220565791 -0.33063778281211847 -0.36286304891109461 -0.51445409655570973 -0.90183764696121205 -0.10035255551338194 -0.11621978133916853 0.36369158327579504 0.85142681002616893 -0.70382371544837941 -0.1021532043814659 -0.099611651152372346 -0.25172714889049524 -0.41151627898216242 -0.41880814731121058 -1.4704527854919431 -0.92478072643280018 -0.06393056362867354 -0.36286304891109461 -1.1977172493934629
decision_type=2 2 2 2 2 2 2 2 2 2 2 2 2 2 2 2 2 2 2 2 2 2 2 2 2 2 2 2 2 2 2 2 2 2 2 2 2 2 2 2 2 2 2 2 2 2 2 2 2 2 2 2 2 2 2 2 2 2 2 2 2 2 2
left_child=3 23 -3 -1 22 6 10 16 11 -10 51 25 31 14 15 35 52 -18 -19 20 -20 -17 -5 58 26 -9 34 -22 -29 30 44 32 33 -6 -25 -14 37 38 39 -37 41 -38 -42 -39 -26 -13 54 48 49 -21 -28 -4 -7 -41 55 -47 -16 -36 -2 60 61 62 -60
right_child=1 2 5 4 12 7 -8 8 9 -11 -12 45 13 -15 56 21 17 18 19 47 27 -23 -24 24 29 -27 50 28 -30 -31 -32 -33 -34 -35 57 36 40 43 -40 53 42 -43 -44 -45 -46 46 -48 -49 -50 -51 -52 -53 -54 -55 -56 -57 -58 -59 59 -61 -62 -63 -64
leaf_value=0.00087185387858067101 0.00030254474849330918 -0.0020786199074733767 -0.00019354822901389697 -0.00092584472354296805 0.00017147504553295656 -6.5882441053708384e-05 0.001159809186777937 0.0011408205635419463 -0.00020688084737278254 0.00086681530258213779 -0.0010895606989557247 0.00047813346657474341 0.00056359566539948547 0.00037579966746441627 -0.00053556670509584739 -0.00078471533625062864 -0.00089483441349685845 0.0015471733026580685 0.001500868168088845 -0.0006589642978464586 -0.00010233622561744678 0.00033442993293612984 -0.0022501287364646932 5.7661797657104893e-05 -0.00078365885278048079 8.4781061141576069e-05 0.00030549339695927963 -1.306756109798975e-05 0.00108050864571666 -0.00082704994520172478 0.00088106070834328423 0.001095368356700934 0.00043071201400277277 -0.0013838344521988032 0.00017394639103903461 0.0010239438669470307 -0.00031597419952226791 -0.00081500156723439898 0.0011987736722221599 -0.00089773910456440525 -0.0016728866386297597 0.00090303257445786865 -0.00032590070779271491 -6.5608493670959349e-05 0.00010555522315739159 0.0014337550277501109 0.00066728464687021069 7.4790025780793238e-05 -0.00077747222415160567 0.00046563701794136587 0.0013497711329434354 0.00067476023978088053 0.00068714656586653139 0.00023302978835999964 0.0019354857682054372 0.00045702037569914387 -0.0015620461129759807 0.00079478481743471626 -0.00021149086955632595 -1.668764887862947e-06 -0.00037091581014958851 -9.16159185413488e-05 0.00042408224934515715
leaf_weight=75 364 62 482 90 83 82 68 58 379 98 91 143 78 222 77 406 68 55 50 55 175 52 52 10944 114 227 115 91 117 124 63 52 211 51 267 54 1424 86 79 62 52 103 53 454 93 123 150 1845 126 94 51 55 340 54 75 67 65 141 148 83349 747 4730 318
leaf_count=75 364 62 482 90 83 82 68 58 379 98 91 143 78 222 77 406 68 55 50 55 175 52 52 10944 114 227 115 91 117 124 63 52 211 51 267 54 1424 86 79 62 52 103 53 454 93 123 150 1845 126 94 51 55 340 54 75 67 65 141 148 83349 747 4730 318
internal_value=1.91999e-06 9.65879e-06 0.000173417 -0.000207958 -0.000229159 0.000201121 -0.00010891 0.000249976 0.000468894 1.50627e-05 -0.000247912 0.000725367 -0.000183188 -0.000232717 -0.000276416 -0.00024071 0.000156578 9.57736e-05 0.000121935 9.06374e-05 0.000425878 -0.000657199 -0.00142314 1.31188e-06 6.45529e-05 0.000302932 7.78028e-05 0.000281996 0.000604296 -0.000322005 -8.78623e-05 0.000230678 9.75591e-05 -0.000426337 6.96367e-05 -0.000164146 -0.000187815 9.77327e-06 0.000433912 7.35438e-05 -0.000283288 -0.000233212 -0.00100247 -0.000186242 -0.00038557 0.000940199 0.00109788 2.19976e-05 -0.000331179 4.88901e-05 0.000632487 -0.000103526 0.000541014 -0.000373854 0.0013382 0.00109352 -0.00101307 0.00038992 -7.09116e-06 -8.35677e-06 -0.000102138 -6.34337e-05 0.000222206
internal_weight=110679 106744 5176 3935 3860 5114 696 4418 1320 477 628 843 3718 3321 3099 2957 3098 2676 2608 2553 433 458 142 101568 11912 285 11518 383 208 394 270 397 345 134 11352 2499 2421 789 249 170 1632 1527 105 540 207 558 415 2120 275 149 166 537 422 116 265 190 142 408 89656 89292 5943 5196 466
internal_count=110679 106744 5176 3935 3860 5114 696 4418 1320 477 628 843 3718 3321 3099 2957 3098 2676 2608 2553 433 458 142 101568 11912 285 11518 383 208 394 270 397 345 134 11352 2499 2421 789 249 170 1632 1527 105 540 207 558 415 2120 275 149 166 537 422 116 265 190 142 408 89656 89292 5943 5196 466
is_linear=0
shrinkage=0.05


Tree=16
num_leaves=64
num_cat=0
