tree
version=v4
num_class=1
num_tree_per_iteration=1
label_index=0
max_feature_idx=8
objective=regression
feature_names=Column_0 Column_1 Column_2 Column_3 Column_4 Column_5 Column_6 Column_7 Column_8
feature_infos=[-0.12652987241744995:5] [-0.12667277455329895:5] [-0.12648162245750427:5] [-0.12657180428504944:5] [-0.43320596218109131:5] [-4.0397491455078125:5] [-1.9943192005157471:5] [-5:5] [-0.11389906704425812:5]
tree_sizes=6173 6154

Tree=0
num_leaves=64
num_cat=0
split_feature=7 4 8 3 4 8 7 6 4 0 0 8 0 8 3 4 8 3 0 8 8 6 0 8 6 4 6 8 3 4 8 3 1 8 7 3 1 8 8 3 0 8 8 1 4 4 3 3 3 0 8 0 4 7 3 3 0 3 8 1 8 6 6
split_gain=0.263038 0.12856 0.110488 0.168775 0.141547 0.100572 0.0967032 0.0802151 0.0763745 0.072645 0.0862131 0.0836595 0.0729361 0.0685836 0.119659 0.0681099 0.100195 0.0755488 0.0626837 0.154471 0.0622916 0.0609288 0.0564331 0.0789381 0.0548307 0.0516911 0.0487167 0.0484653 0.0689863 0.0477302 0.0659861 0.132786 0.0660156 0.0598374 0.0543152 0.0461565 0.0459143 0.0807737 0.0523439 0.045314 0.0445206 0.0818508 0.080789 0.0800584 0.0443939 0.0486104 0.0437093 0.0509554 0.042046 0.0486694 0.0927544 0.0538977 0.0493294 0.0704807 0.0991327 0.0418204 0.0408702 0.045086 0.0419546 0.0445536 0.040664 0.0355734 0.061846
threshold=0.90961077809333812 -0.43199849128723139 -0.084041286259889589 -0.10938983783125876 0.31026446819305425 0.045720368623733527 -0.5674421191215514 -1.020634591579437 -0.33736996352672571 0.22213118523359301 -0.069183889776468263 0.19949131458997729 0.022132698446512226 -0.11101743951439856 -0.12496346980333327 0.94325274229049694 -0.089290287345647798 -0.11937063932418822 -0.091707315295934663 -0.015103717334568499 0.51321038603782665 -1.3239478468894956 -0.12336736172437666 -0.10806185007095336 -0.10128452628850936 -0.35970723628997797 0.90079772472381603 -0.10847900807857512 -0.12158307060599326 -0.025619852356612679 -0.10868287459015845 -0.12066178768873213 -0.12403687834739684 -0.10155009850859641 0.23273852467536929 0.077197380363941207 -0.12228015810251235 -0.097414638847112642 -0.10859151929616927 -0.12442101165652274 -0.10947703197598456 -0.097414638847112642 -0.052361140027642243 -0.094923105090856538 0.11088788136839868 0.22052270919084552 -0.12176179885864256 -0.12353337183594702 -0.081309512257575975 -0.067793719470500932 -0.021161809563636776 -0.076084766536951051 -0.36550371348857874 -2.7871246337890621 1.0000000180025095e-35 -0.087578073143959032 -0.10448835417628287 -0.070653364062309251 -0.094796348363161073 -0.10690379887819289 0.51321038603782665 0.28266815841197973 0.66943952441215526
decision_type=2 2 2 2 2 2 2 2 2 2 2 2 2 2 2 2 2 2 2 2 2 2 2 2 2 2 2 2 2 2 2 2 2 2 2 2 2 2 2 2 2 2 2 2 2 2 2 2 2 2 2 2 2 2 2 2 2 2 2 2 2 2 2
left_child=2 -2 6 25 18 7 15 -3 40 10 -7 12 -12 39 -15 17 21 27 19 26 -11 -17 23 -23 -24 -4 44 -1 46 30 34 32 -32 -34 -8 -13 38 -38 -16 -10 41 -9 -42 -44 -5 -46 47 -29 55 50 -50 -52 -51 54 -54 -20 58 -58 -33 -60 -37 -27 -63
right_child=1 5 3 4 -6 9 29 8 13 20 11 35 -14 14 36 16 -18 -19 48 -21 -22 22 24 -25 -26 61 -28 28 -30 -31 31 56 33 -35 -36 60 37 -39 -40 -41 42 -43 43 -45 45 -47 -48 -49 49 52 51 -53 53 -55 -56 -57 57 -59 59 -61 -62 62 -64
leaf_value=0.00052975504752946964 -0.0017236736090934614 0.00018124139050741857 0.00268076266254601 0.0005382094353144879 -0.00052798147622425714 -0.00084913783704449798 0.00022320240022841262 0.00034387779832615944 0.00055232149614286132 -0.00025758019906249011 0.0014714783770202054 0.002556699585975558 0.00050548293234557067 0.0026573229424035182 0.00067028231852366569 0.0010030918288233312 -0.0017847305940781346 0.00038099765384023233 0.00044644896586248516 0.0031216118528469474 0.00091911463958366821 0.00032440495816784301 -0.00023074001039987096 0.0019553084422655014 0.00042481122731207919 0.00079910414833735534 0.0010258925762193557 0.0027082554930522662 0.00064327117686722524 0.0003483753159196825 0.0026113817065532546 0.00029834582208453379 0.00064610094443978781 0.002137664111922866 1.30178310663474e-05 0.0009727796209600823 0.00041708623261753591 0.00079333831655185308 0.0013675969009655981 -0.00024109291025056778 5.3250735989916276e-05 0.001459058773894969 0.0022000262357591994 0.00049689443430458937 -0.00082008301204041368 0.0009688116522640559 0.0028084852001767704 0.00099267510736523795 0.00050949087087345259 0.00042350323161178871 0.00046882173098992182 0.0019675364449626646 0.0027453615232105755 0.00020065442082157963 -0.00019053067203772046 3.1734629485635768e-05 0.00015946434353286248 0.00044096523936729191 0.00042503490811373322 0.0010836919023657042 0.0024877197373772957 0.0030821356904241768 0.00088347012205232031
leaf_weight=2577 60 1468 65 3080 402 51 9304 485 404 199 357 144 431 77 597 233 62 8265 1000 59 256 779 1033 81 461 245 495 50 782 14056 50 10282 863 72 4591 160 2501 3320 491 323 1576 248 73 1025 123 54 51 297 2377 15653 89 184 64 4265 51 1548 9917 1660 988 346 61 55 76
leaf_count=2577 60 1468 65 3080 402 51 9304 485 404 199 357 144 431 77 597 233 62 8265 1000 59 256 779 1033 81 461 245 495 50 782 14056 50 10282 863 72 4591 160 2501 3320 491 323 1576 248 73 1025 123 54 51 297 2377 15653 89 184 64 4265 51 1548 9917 1660 988 346 61 55 76
internal_value=0.000366908 0.000566996 0.000337298 0.000417208 0.000402649 0.000576788 0.000301547 0.000528532 0.000574392 0.00094262 0.00114587 0.00123509 0.000943976 0.000661472 0.000709566 0.000414944 0.000185482 0.000465515 0.000415561 0.000604542 0.000404244 0.000233511 0.000157098 0.000479686 -2.85509e-05 0.001387 0.000564236 0.00065139 0.000916662 0.000269632 0.000240563 0.000290468 0.000858761 0.000762735 0.000153736 0.00186026 0.00068753 0.000631719 0.000985606 0.000199471 0.000377223 0.000722165 0.000282568 0.000611696 0.000493891 -0.000273971 0.00145177 0.00124591 0.000387007 0.000408642 0.000609972 0.00148112 0.000381999 0.000233693 0.00144983 0.000194465 0.000266313 0.000199832 0.000332579 0.000596284 0.00139863 0.00115778 0.00182019
internal_weight=110992 14307 96685 29885 29444 14247 66800 12588 11120 1659 1204 1153 788 7713 6986 14671 2649 12022 29042 3811 455 2587 2354 860 1494 441 3752 3757 1180 52129 38073 24178 985 935 13895 365 6909 5821 1088 727 3407 733 2674 1098 3257 177 398 347 25231 22683 2650 273 20033 4380 115 2548 23193 11577 11616 1334 221 376 131
internal_count=110992 14307 96685 29885 29444 14247 66800 12588 11120 1659 1204 1153 788 7713 6986 14671 2649 12022 29042 3811 455 2587 2354 860 1494 441 3752 3757 1180 52129 38073 24178 985 935 13895 365 6909 5821 1088 727 3407 733 2674 1098 3257 177 398 347 25231 22683 2650 273 20033 4380 115 2548 23193 11577 11616 1334 221 376 131
is_linear=0
shrinkage=1


Tree=1
num_leaves=64
num_cat=0
split_feature=7 5 4 5 7 5 7 8 2 4 7 6 6 8 7 5 8 8 4 8 2 8 2 4 2 4 8 8 8 0 0 6 7 5 7 8 6 7 7 6 5 6 6 4 0 6 5 7 8 2 4 2 8 6 0 4 5 7 5 6 6 0 2
split_gain=0.237437 0.274123 0.253171 0.15481 0.115824 0.11028 0.161327 0.115412 0.108675 0.125335 0.105833 0.0850537 0.0715042 0.0678707 0.0701488 0.0549638 0.0503895 0.0487972 0.0448589 0.0486045 0.0932161 0.0446338 0.0514561 0.0476467 0.0450157 0.0429525 0.0637221 0.0529578 0.0522762 0.0694175 0.0427206 0.050391 0.0548202 0.0540468 0.0475374 0.0443019 0.0421667 0.0399924 0.0395304 0.036925 0.0364968 0.036957 0.0355746 0.0777175 0.0457252 0.0435364 0.0460319 0.0385971 0.0344138 0.0334042 0.033382 0.0395903 0.0339278 0.0331575 0.0351517 0.0338028 0.0330824 0.0353566 0.0332969 0.0327896 0.0418362 0.0324199 0.0398938
threshold=0.90961077809333812 4.0817654132843026 -0.39217200875282282 -0.55967631936073292 1.6172708272933962 -0.67843756079673756 -0.32911442220211024 -0.085602398961782442 -0.10639366880059241 0.12331780791282655 -0.63621294498443592 -1.0987826585769651 1.3767935633659365 0.061486162245273597 1.9398794770240786 2.1226782798767094 -0.10212400183081626 0.019739193841814998 -0.070220764726400361 -0.10847900807857512 -0.12060646712779997 -0.069891013205051408 -0.11305753514170645 -0.19919860363006589 -0.11135794594883917 -0.34311755001544947 -0.02427717391401529 -0.055397050455212586 -0.11101743951439856 -0.12448274344205855 -0.12214718759059905 0.039908608421683318 2.5112670660018925 0.90065911412239086 2.0403380393981938 -0.10627654194831847 0.44847790896892553 0.23273852467536929 1.6853776574134829 -0.84027481079101551 2.1226782798767094 -0.6137007176876067 -1.0069617629051206 0.77847078442573558 -0.11619382351636885 0.11360832676291467 -1.0613952279090879 -0.75875163078308094 -0.093793511390686021 -0.091678246855735765 -0.37700755894184107 -0.10702258348464964 -0.10053447633981703 -0.62953883409500111 -0.12381601706147193 0.22052270919084552 2.2914671897888188 1.4528790116310122 2.5079567432403569 -0.31171250343322748 -1.1325449943542478 -0.11363158002495764 -0.11830734461545943
decision_type=2 2 2 2 2 2 2 2 2 2 2 2 2 2 2 2 2 2 2 2 2 2 2 2 2 2 2 2 2 2 2 2 2 2 2 2 2 2 2 2 2 2 2 2 2 2 2 2 2 2 2 2 2 2 2 2 2 2 2 2 2 2 2
left_child=5 3 -3 -2 15 6 12 10 21 49 50 -6 42 30 -15 25 -4 -11 19 37 -21 22 -9 -23 -24 27 28 -5 -27 -30 35 32 33 -32 -35 -13 -37 -12 -33 -36 -16 -42 44 -44 -1 47 -47 -45 -34 -10 51 52 -7 -8 55 -55 -17 58 -58 60 -18 62 -22
right_child=1 2 16 4 11 7 53 8 9 17 18 13 -14 14 40 56 59 -19 -20 20 61 23 24 -25 -26 26 -28 -29 29 -31 31 38 48 34 39 36 -38 -39 -40 -41 41 -43 43 45 -46 46 -48 -49 -50 -51 -52 -53 -54 54 -56 -57 57 -59 -60 -61 -62 -63 -64
leaf_value=0.00033073838985559195 0.0010682693453574724 -0.0043159281849511899 -0.0017477550225042872 -0.00021023700003614893 -0.00017798528201054111 0.0005246671255528262 7.3582027210016929e-05 0.0015520761132296337 0.00020982842039220302 -0.00066316012969708878 -0.00015729711734670858 0.00055700744945040375 0.0017109379070931144 0.00017226889871050266 0.0010223011328223226 -0.0011646622693000784 -0.00068758655942297974 -0.00227194974793057 -3.8761505782271463e-05 0.00046624264857187802 -0.00027407594336751809 0.0025912956906189531 -0.00095398879292098659 0.00053454872563873468 0.0004737397888833505 -0.00023239236832118499 0.0010049187838716029 0.00019328296006419031 0.0020719495019875466 0.00021560704299478209 0.0012364304090191707 0.00097562799018365172 0.00016406764207877806 0.00045525597396437064 -0.00094673252468055577 0.0023703935899232562 0.00053072637793692679 -0.00034293357566431241 -3.4728701804776758e-05 8.0649667004470773e-05 0.0010319455826430823 0.0027816460115565479 8.9460148134081672e-06 -0.00063631661906213234 6.3161685462804397e-06 0.0016282570884448852 -0.00036996717636401835 7.6998787943837276e-05 0.0011864109116309588 1.8065219722845852e-05 8.814433774645964e-05 0.00018161995484816096 0.0021606530881642053 0.00046992984870237049 0.00041562347437429712 0.0017423201871804173 0.00026988279714714738 0.00068188917560850731 -0.0011347067808327709 -0.001452903292710499 0.00058681025552833764 -0.00014877292374288915 8.7067636437283339e-05
leaf_weight=1715 534 51 75 1733 552 69 666 93 2571 261 8640 440 61 175 246 123 133 57 14558 709 989 57 64 56 367 686 240 1530 50 4125 144 106 107 752 119 75 54 4370 1016 322 53 75 9865 944 2959 51 64 237 361 19405 5076 216 59 109 2624 101 70 82 104 51 123 16313 3359
leaf_count=1715 534 51 75 1733 552 69 666 93 2571 261 8640 440 61 175 246 123 133 57 14558 709 989 57 64 56 367 686 240 1530 50 4125 144 106 107 752 119 75 54 4370 1016 322 53 75 9865 944 2959 51 64 237 361 19405 5076 216 59 109 2624 101 70 82 104 51 123 16313 3359
internal_value=5.45439e-06 0.000195556 -0.00104189 0.000234249 0.000200785 -2.26777e-05 8.39156e-05 -4.94285e-05 4.46415e-05 2.6227e-05 -8.91121e-05 0.00040394 1.62427e-05 0.000483377 0.000999923 9.39338e-05 -0.000594654 -0.000957746 -0.00011233 -0.000143481 -9.70866e-05 0.000688067 0.000491852 0.00158565 0.000260016 0.000120641 0.00021125 -2.10278e-05 0.000171866 0.00023833 0.000401998 0.000324729 0.000488224 0.000324762 0.000213777 0.000798211 0.00161031 -0.000219673 6.15077e-05 -0.000198095 0.0013857 0.00207078 9.60674e-06 -3.88918e-05 0.0001254 -0.000402754 0.000522599 -0.000493226 0.000953518 4.05084e-05 0.00012051 0.000596456 0.00128966 0.000391174 0.000465757 0.00108725 -0.000494221 -0.000168816 -0.000571329 -0.000308192 -7.53779e-05 -0.000116439 4.87746e-06
internal_weight=110992 14307 433 13874 13340 96685 19396 77289 22931 22294 54358 4597 15896 4045 549 8743 382 318 48938 34380 21370 637 524 113 431 8364 5101 3263 4861 4175 3496 2927 1805 1337 1193 569 129 13010 1122 441 374 128 15835 11161 4674 1296 115 1181 468 21976 5420 344 128 3500 2834 210 379 256 174 307 256 20661 4348
internal_count=110992 14307 433 13874 13340 96685 19396 77289 22931 22294 54358 4597 15896 4045 549 8743 382 318 48938 34380 21370 637 524 113 431 8364 5101 3263 4861 4175 3496 2927 1805 1337 1193 569 129 13010 1122 441 374 128 15835 11161 4674 1296 115 1181 468 21976 5420 344 128 3500 2834 210 379 256 174 307 256 20661 4348
is_linear=0
shrinkage=0.05


end of trees

feature_importances:
Column_8=30
Column_4=17
Column_6=17
Column_7=15
Column_0=14
Column_3=13
Column_5=9
Column_2=7
Column_1=4

parameters:
[boosting: gbdt]
[objective: regression]
[metric: l2]
[tree_learner: serial]
[device_type: cpu]
[data_sample_strategy: bagging]
[data: ]
[valid: ]
[num_iterations: 1200]
[learning_rate: 0.05]
[num_leaves: 64]
[num_threads: 0]
[seed: 0]
[deterministic: 0]
[force_col_wise: 0]
[force_row_wise: 0]
[histogram_pool_size: -1]
[max_depth: -1]
[min_data_in_leaf: 50]
[min_sum_hessian_in_leaf: 0.001]
[bagging_fraction: 0.8]
[pos_bagging_fraction: 1]
[neg_bagging_fraction: 1]
[bagging_freq: 5]
[bagging_seed: 3]
[bagging_by_query: 0]
[feature_fraction: 0.8]
[feature_fraction_bynode: 1]
[feature_fraction_seed: 2]
[extra_trees: 0]
[extra_seed: 6]
[early_stopping_round: 0]
[early_stopping_min_delta: 0]
[first_metric_only: 0]
[max_delta_step: 0]
[lambda_l1: 0]
[lambda_l2: 1]
[linear_lambda: 0]
[min_gain_to_split: 0]
[drop_rate: 0.1]
[max_drop: 50]
[skip_drop: 0.5]
[xgboost_dart_mode: 0]
[uniform_drop: 0]
[drop_seed: 4]
[top_rate: 0.2]
[other_rate: 0.1]
[min_data_per_group: 100]
[max_cat_threshold: 32]
[cat_l2: 10]
[cat_smooth: 10]
[max_cat_to_onehot: 4]
[top_k: 20]
[monotone_constraints: ]
[monotone_constraints_method: basic]
[monotone_penalty: 0]
[feature_contri: ]
[forcedsplits_filename: ]
[refit_decay_rate: 0.9]
[cegb_tradeoff: 1]
[cegb_penalty_split: 0]
[cegb_penalty_feature_lazy: ]
[cegb_penalty_feature_coupled: ]
[path_smooth: 0]
[interaction_constraints: ]
[verbosity: -1]
[saved_feature_importance_type: 0]
[use_quantized_grad: 0]
[num_grad_quant_bins: 4]
[quant_train_renew_leaf: 0]
[stochastic_rounding: 1]
[linear_tree: 0]
[max_bin: 255]
[max_bin_by_feature: ]
[min_data_in_bin: 3]
[bin_construct_sample_cnt: 200000]
[data_random_seed: 1]
[is_enable_sparse: 1]
[enable_bundle: 1]
[use_missing: 1]
[zero_as_missing: 0]
[feature_pre_filter: 1]
[pre_partition: 0]
[two_round: 0]
[header: 0]
[label_column: ]
[weight_column: ]
[group_column: ]
[ignore_column: ]
[categorical_feature: ]
[forcedbins_filename: ]
[precise_float_parser: 0]
[parser_config_file: ]
[objective_seed: 5]
[num_class: 1]
[is_unbalance: 0]
[scale_pos_weight: 1]
[sigmoid: 1]
[boost_from_average: 1]
[reg_sqrt: 0]
[alpha: 0.9]
[fair_c: 1]
[poisson_max_delta_step: 0.7]
[tweedie_variance_power: 1.5]
[lambdarank_truncation_level: 30]
[lambdarank_norm: 1]
[label_gain: ]
[lambdarank_position_bias_regularization: 0]
[eval_at: ]
[multi_error_top_k: 1]
[auc_mu_weights: ]
[num_machines: 1]
[local_listen_port: 12400]
[time_out: 120]
[machine_list_filename: ]
[machines: ]
[gpu_platform_id: -1]
[gpu_device_id: -1]
[gpu_use_dp: 0]
[num_gpu: 1]

end of parameters

pandas_categorical:null
