tree
version=v4
num_class=1
num_tree_per_iteration=1
label_index=0
max_feature_idx=8
objective=regression
feature_names=Column_0 Column_1 Column_2 Column_3 Column_4 Column_5 Column_6 Column_7 Column_8
feature_infos=[-0.1265796422958374:5] [-0.1267392635345459:5] [-0.1265302449464798:5] [-0.12663103640079498:5] [-0.43320596218109131:5] [-4.2229385375976562:5] [-1.9943192005157471:5] [-5:5] [-0.11399253457784653:5]
tree_sizes=5990 6121

Tree=0
num_leaves=64
num_cat=0
split_feature=8 4 7 7 3 7 7 6 1 8 3 4 7 8 0 6 4 4 4 0 8 1 4 8 4 1 7 7 7 7 1 6 0 8 4 4 8 3 3 8 4 7 4 8 1 4 3 6 0 0 3 6 7 7 1 4 4 3 6 8 3 6 8
split_gain=0.45555 0.24554 0.203968 0.192769 0.145503 0.124866 0.0907632 0.121077 0.0868956 0.149385 0.253727 0.153872 0.106743 0.0844809 0.17104 0.0738798 0.0684874 0.0752386 0.0650806 0.0625607 0.108685 0.107475 0.0948338 0.0792201 0.0614135 0.0980822 0.0606272 0.0600197 0.054799 0.0683695 0.0514525 0.0516241 0.0507601 0.0493993 0.0487853 0.0486625 0.135176 0.0448386 0.0444734 0.0648432 0.0444352 0.0442004 0.0535419 0.0429326 0.0425575 0.057521 0.0561458 0.0480737 0.0459964 0.0418009 0.0547188 0.041263 0.0408752 0.0401855 0.0566167 0.0399986 0.0380407 0.0468299 0.0375235 0.0374772 0.0440218 0.0372007 0.0369198
threshold=-0.097465686500072465 1.4326587915420534 4.1857063770294198 -2.8679194450378414 -0.11892022565007208 4.1857063770294198 1.4670500159263613 -1.2579795718193052 -0.119811974465847 -0.10867692157626151 -0.12376625463366507 0.30295628309249883 -1.1454924941062925 -0.089950438588857637 -0.11718744412064551 -0.057328676804900162 -0.39444380998611445 0.1506796479225159 2.2710632085800175 -0.10170534998178481 -0.057997712865471833 -0.057738354429602616 0.045977076515555389 0.022510816343128685 0.35858556628227239 -0.11971922963857649 -3.743864774703979 0.28529985249042517 -2.1960626840591426 0.37803749740123754 -0.11677191406488417 -0.43783344328403467 -0.12410014867782591 -0.10577481985092162 0.26939375698566442 -0.099556058645248399 -0.069917846471071229 -0.11158969998359679 -0.043955169618129723 0.11779524758458139 2.8806343078613286 -0.0072104858700186006 -0.33573479950428003 0.068831633776426329 -0.10041433572769164 -0.27995835244655604 -0.098104380071163164 -0.42349016666412348 -0.099183589220046983 -0.11855245381593703 -0.11877154186367987 0.42879542708396917 0.68871626257896434 -2.4627283811569209 -0.11592124402523039 0.65061077475547802 0.053890824317932136 -0.10798741132020949 2.2921266555786137 -0.10725104808807372 -0.12300975620746611 1.1811012029647829 -0.048564720898866647
decision_type=2 2 2 2 2 2 2 2 2 2 2 2 2 2 2 2 2 2 2 2 2 2 2 2 2 2 2 2 2 2 2 2 2 2 2 2 2 2 2 2 2 2 2 2 2 2 2 2 2 2 2 2 2 2 2 2 2 2 2 2 2 2 2
left_child=3 2 4 26 24 8 19 -8 9 12 11 32 -5 30 -15 -9 -4 43 61 35 44 22 41 27 25 51 -1 -24 -20 59 31 -3 52 -13 58 36 -6 -16 39 -23 -33 -22 -43 -18 47 46 -46 -21 -47 50 -10 -2 -11 56 -55 -28 -37 -58 -17 -30 -61 -12 -38
right_child=1 13 16 5 6 -7 7 15 49 10 18 33 -14 14 37 34 17 -19 28 20 21 38 23 -25 -26 -27 55 -29 29 -31 -32 40 -34 -35 -36 53 62 -39 -40 -41 -42 42 -44 -45 45 48 -48 -49 -50 -51 -52 -53 -54 54 -56 -57 57 -59 -60 60 -62 -63 -64
leaf_value=0.0068380833705379319 0.004955520875449369 0.0062115929700836351 0.0044024135693904107 0.0049622442109921987 0.0048393225060284545 0.0063580442424347357 0.0037925874391601545 0.0048213217197618508 0.0043753007998609469 0.0067488842192712471 0.0047155062261692825 0.0048916105128388905 0.0045023911677973139 0.0015448174152081252 0.0048782399486031955 0.0052838218882407615 0.0062840800175530424 0.0048853648883942259 0.0056083422853110548 0.003656091350288381 0.0049160613073730057 0.0045242467652593897 0.004830206969464932 0.0029054016687231404 0.004822009050620633 0.0076060734993467424 0.0041617274945183148 0.0033429080590398194 0.0042552667112746188 0.0048327760908120822 0.0035106844388167247 0.0052181614834234443 0.0058853686808575667 0.0064691567950608646 0.0042385337850856025 0.0063264760881761341 0.0059075838633944333 0.0032884462843104255 0.0047246292338742335 0.0027358430814550779 0.0032380115041583226 0.0049589047454159261 0.0055296222448543092 0.0078809369723797755 0.0049123399479383302 0.0042528860948120549 0.0045064784373335361 0.0044600503652856343 0.004829940012805691 0.0044843496394833806 0.0037854357497917176 0.0065164733342537393 0.0086912295293391506 0.003990629887269715 0.00468457601585902 0.0056635724351140632 0.0054186597081024735 0.0040545901089743949 0.006522394041558419 0.0043906086437943258 0.0026537703138168143 0.0051796934380084897 0.0048322340187808921
leaf_weight=89 123 50 58 1330 5552 92 210 2064 3339 64 5055 251 24340 109 86 1557 149 72 58 243 2386 2013 445 78 137 78 57 79 118 158 114 60 65 61 108 58 403 90 17345 51 52 800 848 61 934 384 9618 784 3356 24373 445 64 53 341 2090 191 172 98 63 50 137 471 100
leaf_count=89 123 50 58 1330 5552 92 210 2064 3339 64 5055 251 24340 109 86 1557 149 72 58 243 2386 2013 445 78 137 78 57 79 118 158 114 60 65 61 108 58 403 90 17345 51 52 800 848 61 934 384 9618 784 3356 24373 445 64 53 341 2090 191 172 98 63 50 137 471 100
internal_value=0.0046276 0.00473403 0.00474507 0.00453397 0.00473716 0.00452731 0.00472985 0.00495863 0.00452449 0.00458058 0.00479388 0.00588222 0.00452623 0.00369441 0.00309206 0.0050234 0.00596399 0.00628483 0.00470477 0.00471084 0.00468388 0.00475019 0.00496646 0.00438139 0.0056836 0.00612661 0.00572473 0.00460396 0.00417109 0.00398932 0.00431971 0.00489238 0.00703378 0.00520494 0.00526453 0.00483124 0.00491054 0.0040623 0.00469852 0.00447916 0.00429464 0.00505381 0.00525294 0.00676115 0.00457979 0.00460214 0.00454243 0.00426906 0.00477061 0.00446033 0.00430573 0.00549695 0.00765573 0.00465718 0.00458701 0.0053179 0.0051758 0.00492326 0.00533313 0.00355315 0.00311443 0.00475516 0.00569463
internal_weight=114280 53483 52922 60797 52582 60460 52180 4002 60368 32211 6541 494 25670 561 285 3792 340 282 6047 48178 39364 24045 4636 602 402 265 337 524 521 463 276 162 182 312 1728 8814 6055 176 19409 2064 112 4034 1648 210 15319 14292 10552 1027 3740 28157 3784 187 117 2759 2431 248 328 270 1620 305 187 5526 503
internal_count=114280 53483 52922 60797 52582 60460 52180 4002 60368 32211 6541 494 25670 561 285 3792 340 282 6047 48178 39364 24045 4636 602 402 265 337 524 521 463 276 162 182 312 1728 8814 6055 176 19409 2064 112 4034 1648 210 15319 14292 10552 1027 3740 28157 3784 187 117 2759 2431 248 328 270 1620 305 187 5526 503
is_linear=0
shrinkage=1


Tree=1
num_leaves=64
num_cat=0
split_feature=8 5 4 7 2 7 5 8 7 6 5 2 8 7 5 6 7 0 2 8 4 0 0 8 7 2 5 4 0 8 0 4 8 7 5 7 5 8 5 8 8 5 6 7 4 8 8 2 5 8 7 4 4 8 5 4 0 7 4 4 7 5 4
split_gain=0.411114 0.305073 0.221782 0.184308 0.135287 0.112601 0.0993654 0.103551 0.1053 0.097836 0.0871645 0.0840652 0.0839844 0.0837879 0.126655 0.14594 0.0813995 0.0775179 0.0765592 0.173459 0.0748207 0.0707928 0.0635487 0.0724955 0.062647 0.107315 0.0566286 0.0766896 0.0563614 0.10249 0.0978778 0.108638 0.0878223 0.0646642 0.0592185 0.0561032 0.0553453 0.0523162 0.0563078 0.0520046 0.0517634 0.0514152 0.04959 0.0489626 0.048297 0.131165 0.0587503 0.0543358 0.0473834 0.0508482 0.044725 0.0423457 0.0421459 0.0418721 0.0415225 0.0408144 0.0877544 0.0462531 0.0397053 0.0389262 0.0386864 0.0480028 0.0419288
threshold=-0.097465686500072465 -3.9553766250610347 1.4326587915420534 4.1857063770294198 -0.11908362805843352 4.1857063770294198 -3.5521087646484371 -0.081509653478860841 0.11407754197716714 -1.1102757453918455 -0.64041575789451588 -0.11834992468357085 -0.092156130820512758 1.5139445066452029 1.2355425953865053 -1.2579795718193052 0.6624741554260255 -0.12325527891516684 -0.12325264513492583 -0.10847285389900206 4.9998755455017099 -0.1244119070470333 0.0049794197548180827 0.068831633776426329 -1.5588647127151487 -0.12283867597579955 1.1713162064552309 -0.29780530929565424 -0.10170534998178481 -0.057997712865471833 -0.06126833334565162 0.053890824317932136 0.022510816343128685 0.28529985249042517 1.8863427042961123 2.3617817163467412 0.088491387665271773 -0.11111210659146308 0.31363296508789068 -0.10673676431179045 -0.11130951344966887 -0.79905927181243885 0.7499428689479829 -0.41296111047267908 -0.16045015305280683 -0.069917846471071229 -0.048564720898866647 -0.11571992188692092 1.6488460302352907 -0.023429622873663899 0.92871421575546276 0.92415112257003795 0.062060978263616569 -0.10547738149762152 -0.12966203689575193 0.37874317169189459 -0.11956732720136641 0.14188519865274432 2.8806343078613286 -0.20670893043279645 -0.34911429882049555 -1.6902184486389158 2.0479370355606084
decision_type=2 2 2 2 2 2 2 2 2 2 2 2 2 2 2 2 2 2 2 2 2 2 2 2 2 2 2 2 2 2 2 2 2 2 2 2 2 2 2 2 2 2 2 2 2 2 2 2 2 2 2 2 2 2 2 2 2 2 2 2 2 2 2
left_child=1 9 3 4 55 10 -4 11 -9 -1 17 12 -8 28 -15 -16 24 60 19 37 -19 -21 23 52 25 -12 -20 -28 44 34 31 36 33 -33 41 42 54 40 -39 -22 51 43 -17 -30 45 -6 -47 -46 -37 -50 -36 -18 -5 -29 -31 56 -2 -57 -26 -45 61 -3 -63
right_child=2 5 6 22 13 -7 7 8 -10 -11 16 -13 -14 14 15 35 18 20 26 21 39 -23 -24 -25 58 -27 27 53 29 30 -32 32 -34 -35 50 48 -38 38 -40 -41 -42 -43 -44 59 47 46 -48 -49 49 -51 -52 -53 -54 -55 -56 57 -58 -59 -60 -61 -62 62 -64
leaf_value=0.0010573896078858525 0.00091007397348555385 0.00063226636781326794 0.00082466085911398087 0.0016079752324134986 0.00021066836494841655 0.0016446224113268169 -0.00060557920743636959 -0.0035169253524658509 -0.00058183399243996693 0.0041079653715846605 0.0016869973685010337 -9.1634815187055876e-05 -0.0030768159924385451 0.00068870249356746491 -0.0012501888799560739 -6.2723119420551073e-05 -0.00015666356414470429 -2.3838070516740058e-05 2.3550720371056717e-05 0.0029690904783268202 -0.00015628993278369308 0.0010113889067433774 -0.00035133644716832071 0.0032153637741295692 -0.00015245964113003946 -0.00013822302937379163 -0.00094589318073924969 -0.00038587219081897243 6.4244117701485755e-05 0.00037765424430385303 7.2379066132077807e-05 0.0001699975543292284 -0.0019648013521717596 -0.0014335706027702906 -4.2175941653401848e-05 -0.00041596581112683282 0.0006975752347218319 0.0011590883219578247 0.00017872379951851063 -0.0022739299039895989 -0.0012119258418100257 -7.9416764540603366e-05 0.0014996541215366035 0.00038089240725164503 -0.00046109389771224312 0.0013806161953168188 -3.9354968651858387e-05 0.00012330824988242381 0.00031658743084389085 0.001171590100771549 -0.0018224762372172822 0.00052529497289079217 0.00015011429560319006 9.915967502620185e-05 -0.00023512492918131164 0.0012525859073775792 0.0031645846846393919 -0.00065664581470339315 -0.00050504073450772841 0.001478658980046194 0.00063238767111778145 0.00016991409416738378 -0.0004746114470989444
leaf_weight=54 195 435 73 165 5132 92 82 77 51 52 124 219 59 1459 185 1216 963 7644 4675 60 54 199 51 53 39927 226 365 918 2165 1928 20057 417 69 73 62 113 1323 199 549 62 93 12609 52 355 461 363 91 2859 407 304 81 297 71 862 322 63 55 62 814 104 581 1236 316
leaf_count=54 195 435 73 165 5132 92 82 77 51 52 124 219 59 1459 185 1216 963 7644 4675 60 54 199 51 53 39927 226 365 918 2165 1928 20057 417 69 73 62 113 1323 199 549 62 93 12609 52 355 461 363 91 2859 407 304 81 297 71 862 322 63 55 62 814 104 581 1236 316
internal_value=-2.2322e-07 -8.91699e-05 0.000100887 0.000111377 0.000103861 -9.38712e-05 -0.000887157 -0.00114439 -0.00236105 0.0025783 -9.65376e-05 -0.000706459 -0.00165403 9.7053e-05 0.000325181 9.20523e-05 -0.000123718 3.57589e-05 1.08905e-05 0.00025629 -4.3048e-05 0.00147459 0.00127007 0.00155642 -0.00015379 0.00051139 -7.4053e-05 -0.000286691 7.94632e-05 5.38801e-05 0.000118039 0.000339603 -0.000308145 -7.13345e-05 -4.70531e-05 0.00021129 0.000441001 0.000105475 0.000440742 -0.00129789 -8.00641e-05 -3.75106e-05 2.4804e-06 0.000163813 0.000193098 0.00028285 0.00109654 4.20464e-05 0.000532221 0.00068329 -0.00105625 4.3729e-06 0.00117187 -0.000151062 0.000289893 0.0010489 0.0014167 0.000307911 -0.000159516 0.000632298 0.000273822 0.000168712 3.84623e-05
internal_weight=114280 60797 53483 52922 52582 60691 561 488 128 106 60599 360 141 52207 3736 2277 50271 10328 9180 2360 7760 259 340 289 41091 350 6820 2145 48471 39565 24189 4132 559 490 15376 2092 3573 2101 748 116 1353 15233 1268 2624 8906 5586 454 3320 824 711 143 1260 236 1780 2250 375 250 125 40741 459 2568 1987 1552
internal_count=114280 60797 53483 52922 52582 60691 561 488 128 106 60599 360 141 52207 3736 2277 50271 10328 9180 2360 7760 259 340 289 41091 350 6820 2145 48471 39565 24189 4132 559 490 15376 2092 3573 2101 748 116 1353 15233 1268 2624 8906 5586 454 3320 824 711 143 1260 236 1780 2250 375 250 125 40741 459 2568 1987 1552
is_linear=0
shrinkage=0.05


end of trees

feature_importances:
Column_4=25
Column_8=25
Column_7=24
Column_5=12
Column_0=11
Column_6=10
Column_3=8
Column_1=6
Column_2=5

parameters:
[boosting: gbdt]
[objective: regression]
[metric: l2]
[tree_learner: serial]
[device_type: cpu]
[data_sample_strategy: bagging]
[data: ]
[valid: ]
[num_iterations: 1200]
[learning_rate: 0.05]
[num_leaves: 64]
[num_threads: 0]
[seed: 0]
[deterministic: 0]
[force_col_wise: 0]
[force_row_wise: 0]
[histogram_pool_size: -1]
[max_depth: -1]
[min_data_in_leaf: 50]
[min_sum_hessian_in_leaf: 0.001]
[bagging_fraction: 0.8]
[pos_bagging_fraction: 1]
[neg_bagging_fraction: 1]
[bagging_freq: 5]
[bagging_seed: 3]
[bagging_by_query: 0]
[feature_fraction: 0.8]
[feature_fraction_bynode: 1]
[feature_fraction_seed: 2]
[extra_trees: 0]
[extra_seed: 6]
[early_stopping_round: 0]
[early_stopping_min_delta: 0]
[first_metric_only: 0]
[max_delta_step: 0]
[lambda_l1: 0]
[lambda_l2: 1]
[linear_lambda: 0]
[min_gain_to_split: 0]
[drop_rate: 0.1]
[max_drop: 50]
[skip_drop: 0.5]
[xgboost_dart_mode: 0]
[uniform_drop: 0]
[drop_seed: 4]
[top_rate: 0.2]
[other_rate: 0.1]
[min_data_per_group: 100]
[max_cat_threshold: 32]
[cat_l2: 10]
[cat_smooth: 10]
[max_cat_to_onehot: 4]
[top_k: 20]
[monotone_constraints: ]
[monotone_constraints_method: basic]
[monotone_penalty: 0]
[feature_contri: ]
[forcedsplits_filename: ]
[refit_decay_rate: 0.9]
[cegb_tradeoff: 1]
[cegb_penalty_split: 0]
[cegb_penalty_feature_lazy: ]
[cegb_penalty_feature_coupled: ]
[path_smooth: 0]
[interaction_constraints: ]
[verbosity: -1]
[saved_feature_importance_type: 0]
[use_quantized_grad: 0]
[num_grad_quant_bins: 4]
[quant_train_renew_leaf: 0]
[stochastic_rounding: 1]
[linear_tree: 0]
[max_bin: 255]
[max_bin_by_feature: ]
[min_data_in_bin: 3]
[bin_construct_sample_cnt: 200000]
[data_random_seed: 1]
[is_enable_sparse: 1]
[enable_bundle: 1]
[use_missing: 1]
[zero_as_missing: 0]
[feature_pre_filter: 1]
[pre_partition: 0]
[two_round: 0]
[header: 0]
[label_column: ]
[weight_column: ]
[group_column: ]
[ignore_column: ]
[categorical_feature: ]
[forcedbins_filename: ]
[precise_float_parser: 0]
[parser_config_file: ]
[objective_seed: 5]
[num_class: 1]
[is_unbalance: 0]
[scale_pos_weight: 1]
[sigmoid: 1]
[boost_from_average: 1]
[reg_sqrt: 0]
[alpha: 0.9]
[fair_c: 1]
[poisson_max_delta_step: 0.7]
[tweedie_variance_power: 1.5]
[lambdarank_truncation_level: 30]
[lambdarank_norm: 1]
[label_gain: ]
[lambdarank_position_bias_regularization: 0]
[eval_at: ]
[multi_error_top_k: 1]
[auc_mu_weights: ]
[num_machines: 1]
[local_listen_port: 12400]
[time_out: 120]
[machine_list_filename: ]
[machines: ]
[gpu_platform_id: -1]
[gpu_device_id: -1]
[gpu_use_dp: 0]
[num_gpu: 1]

end of parameters

pandas_categorical:null
