tree
version=v4
num_class=1
num_tree_per_iteration=1
label_index=0
max_feature_idx=8
objective=regression
feature_names=Column_0 Column_1 Column_2 Column_3 Column_4 Column_5 Column_6 Column_7 Column_8
feature_infos=[-0.1265796422958374:5] [-0.1267392635345459:5] [-0.1265302449464798:5] [-0.12663103640079498:5] [-0.43320596218109131:5] [-4.2229385375976562:5] [-1.9943192005157471:5] [-5:5] [-0.11399253457784653:5]
tree_sizes=5985 6152 6144 6131 6150 6191 6125 6177 6166 6157

Tree=0
num_leaves=64
num_cat=0
split_feature=8 4 7 7 3 4 3 8 0 4 0 8 0 8 4 7 6 1 7 1 7 4 8 7 8 8 0 3 8 8 0 8 7 6 4 3 7 7 8 8 1 8 4 7 6 4 0 8 4 4 7 8 8 6 4 4 4 6 8 3 8 8 8
split_gain=0.438811 0.28381 0.248443 0.168404 0.130776 0.172237 0.129741 0.111212 0.156961 0.0986457 0.123944 0.0961642 0.10439 0.0903799 0.136367 0.0843155 0.0841785 0.0752994 0.0743776 0.0823531 0.0783024 0.07478 0.0725428 0.071678 0.0713642 0.0649031 0.135275 0.0641176 0.063002 0.0616451 0.0607431 0.168018 0.057758 0.0577508 0.0559121 0.0554247 0.0817225 0.0527492 0.0808158 0.0514107 0.0635016 0.0501573 0.049876 0.0480961 0.047518 0.0471698 0.0466455 0.122515 0.0780413 0.0627208 0.0491872 0.0444675 0.043792 0.042964 0.0423059 0.0534137 0.0422499 0.0415985 0.0414571 0.0523852 0.0566335 0.0443555 0.0407806
threshold=-0.096261240541934953 2.6318111419677739 4.141848325729371 -3.7846535444259639 -0.10340028628706931 0.12333940714597703 -0.11611635610461234 -0.055176090449094765 -0.062137203291058533 0.98912695050239574 -0.11908086016774176 -0.043119026347994797 -0.078014526516199098 -0.071858551353216157 -0.13654239475727079 4.141848325729371 -0.81542903184890736 -0.099553834646940217 -1.5860708951950071 -0.12288774922490119 0.7306375801563264 2.9763362407684331 -0.10494171828031539 -1.1899832487106321 -0.069944668561220155 -0.014258232433348892 -0.092175655066966997 -0.11764459311962126 -0.089444193989038454 -0.053697334602475159 -0.12484381720423697 -0.10939334705471991 -0.90572950243949879 -0.53909119963645924 -0.39847479760646815 -0.089667543768882738 -0.56611317396163929 -2.3519468307495113 -0.077908601611852632 0.039590589702129371 -0.057482732459902756 -0.086920540779829011 -0.38209123909473414 2.1522281169891362 -1.1987068057060239 -0.39847479760646815 -0.12379100546240805 -0.10911494493484496 1.2156433463096621 0.45737865567207342 -1.140403628349304 -0.11196865141391753 0.28271971642971044 0.56571242213249218 -0.39460456371307367 0.14500424265861514 1.4089863896369936 0.052266152575612075 -0.11103063821792601 -0.12337080016732214 -0.10820202156901358 -0.10325293987989424 -0.086369179189205156
decision_type=2 2 2 2 2 2 2 2 2 2 2 2 2 2 2 2 2 2 2 2 2 2 2 2 2 2 2 2 2 2 2 2 2 2 2 2 2 2 2 2 2 2 2 2 2 2 2 2 2 2 2 2 2 2 2 2 2 2 2 2 2 2 2
left_child=3 2 4 -1 9 7 57 34 25 10 -2 17 35 -12 29 18 -11 24 19 22 21 46 -5 52 -7 43 -27 28 -18 42 31 -22 39 -32 -6 36 -13 -29 41 40 -14 56 -15 -9 -4 -35 47 50 -49 -48 -20 -52 -10 -28 -46 -56 -39 -3 -47 60 -60 -61 -36
right_child=1 6 44 15 5 11 -8 8 23 16 13 12 32 14 -16 -17 27 -19 20 -21 30 -23 -24 -25 -26 26 53 37 -30 -31 33 -33 -34 45 62 -37 -38 38 -40 -41 -42 -43 -44 -45 54 58 49 48 -50 -51 51 -53 -54 -55 55 -57 -58 -59 59 61 -62 -63 -64
leaf_value=0.0068457057484129658 0.006277412416475385 0.0015143693120686511 0.0076695084118990437 0.0052951240120867075 0.0046358175186409232 0.0047288967650355486 0.0045504290239766262 0.0051918405673186084 0.0048063627844686183 0.0059461996950109708 0.0050392995621313602 0.0030129304229599809 0.0068910990218241635 0.0078164509077929614 0.0049066016298789095 0.0062127873212217818 0.0042140649745524214 0.0050486087471744443 0.0054137744951881922 0.0047963242670591901 0.0050567916301128167 0.0043036508044194616 0.0071049164522168414 0.0049526004789515639 0.002989401625845765 0.0074422319839024297 0.005239471027469164 0.0059027598460955162 0.0017816068163395262 0.0051653452323715196 0.0045826430097485509 0.0079229476056439339 0.0037986228606541736 0.0039071519169947919 0.0047201261952211724 0.0024855059517572102 0.0055133999773235272 0.003011801458748917 0.0024547650235467234 0.0042149118348379453 0.0045910543023228419 0.005890075190259577 0.00617854547008952 0.0042738945890797809 0.0046929841792008068 0.0045302694215529071 0.0046917007249564664 0.006350350879884733 0.0044553462072620545 0.0045023175873147893 0.004670766487484242 0.0049620217796245885 0.0043822953916555375 0.0060832628467111551 0.0067730014538754839 0.0051336541795025227 0.004932681618001462 0.0033638199322792977 0.0050889631651444243 0.0047736430679018987 0.006139987870852414 0.0051045587024379207 0.004911211562734834
leaf_weight=92 233 85 51 614 3920 140 102 2636 2262 72 6339 91 56 54 441 93 57 567 280 1529 499 1282 60 18110 101 91 688 53 50 134 2051 56 199 118 4067 140 50 50 52 118 63 57 343 150 50 626 37307 200 74 4952 5546 1715 832 193 168 71 65 51 454 2665 178 1632 8902
leaf_count=92 233 85 51 614 3920 140 102 2636 2262 72 6339 91 56 54 441 93 57 567 280 1529 499 1282 60 18110 101 91 688 53 50 134 2051 56 199 118 4067 140 50 50 52 118 63 57 343 150 50 626 37307 200 74 4952 5546 1715 832 193 168 71 65 51 454 2665 178 1632 8902
internal_value=0.00480939 0.00491658 0.00492453 0.0047196 0.0049156 0.00488133 0.00319754 0.00490036 0.0049674 0.00510134 0.00514451 0.00435956 0.00393849 0.00510821 0.00555695 0.00471641 0.00438787 0.00473383 0.00471414 0.00499938 0.0047036 0.00468059 0.00545938 0.0049146 0.00399535 0.00526518 0.00561685 0.00409351 0.00305981 0.00609588 0.00484629 0.00535105 0.0044244 0.00480996 0.00480127 0.00318863 0.00389827 0.0044977 0.00416191 0.00495192 0.00568168 0.00468871 0.00640831 0.00514224 0.00626968 0.00489217 0.00469025 0.00480247 0.0058391 0.0046695 0.00476468 0.00473957 0.00469222 0.00542554 0.00601367 0.00628934 0.00408914 0.00219223 0.00491325 0.00496194 0.0053866 0.00489936 0.00485129
internal_weight=113977 51954 51716 62023 51376 43376 238 41851 24962 8000 7544 1525 717 7311 972 61931 456 808 61838 2203 59635 51356 674 21204 241 3758 972 384 107 531 8279 555 436 7724 16889 281 141 277 224 237 119 172 397 2786 340 5673 50074 7815 274 42259 7541 7261 3094 881 289 239 115 136 5555 4929 632 4297 12969
internal_count=113977 51954 51716 62023 51376 43376 238 41851 24962 8000 7544 1525 717 7311 972 61931 456 808 61838 2203 59635 51356 674 21204 241 3758 972 384 107 531 8279 555 436 7724 16889 281 141 277 224 237 119 172 397 2786 340 5673 50074 7815 274 42259 7541 7261 3094 881 289 239 115 136 5555 4929 632 4297 12969
is_linear=0
shrinkage=1


Tree=1
num_leaves=64
num_cat=0
split_feature=8 5 4 7 2 0 4 6 8 0 4 5 8 2 5 0 7 0 8 4 6 4 2 5 2 5 2 7 7 5 7 7 2 8 0 4 5 4 6 7 0 7 0 4 8 4 0 5 6 8 0 0 8 7 8 5 7 8 0 2 8 2 8
split_gain=0.395994 0.271287 0.256469 0.224475 0.116037 0.109573 0.142356 0.106636 0.100972 0.150125 0.0914416 0.121609 0.0880279 0.0987058 0.08059 0.108913 0.10121 0.0781468 0.0733718 0.128658 0.0708864 0.06985 0.0692068 0.0676412 0.0707591 0.0889642 0.0669458 0.0661201 0.0641093 0.0757602 0.0613654 0.0583358 0.0567114 0.056428 0.110717 0.0555454 0.05463 0.103391 0.0630082 0.0612527 0.0514312 0.0610009 0.0506082 0.0495794 0.0492132 0.0474648 0.0694945 0.0561404 0.0453267 0.0634121 0.0463947 0.0452503 0.0724168 0.0445431 0.0442609 0.0435631 0.0431462 0.0793867 0.0424734 0.0590721 0.0411325 0.0408446 0.0448859
threshold=-0.096261240541934953 -3.9562571048736568 2.6318111419677739 4.141848325729371 -0.11640353873372077 -0.10308603942394255 0.12333940714597703 -1.0574834942817686 -0.058074042201042168 -0.062137203291058533 0.98912695050239574 -3.9562571048736568 -0.043119026347994797 -0.077979434281587587 -0.64226076006889332 -0.12332134321331976 0.65840169787406932 -0.11908086016774176 -0.071858551353216157 -0.22449869662523267 -0.81542903184890736 0.16618963330984118 -0.090647555887699113 -3.1171038150787349 -0.056064223870635026 0.77777090668678295 -0.11800648644566535 -0.51199674606323231 4.141848325729371 4.472569704055787 -1.1899832487106321 -0.8195810317993163 -0.12050544470548628 -0.014258232433348892 -0.092175655066966997 2.6318111419677739 0.32986670732498174 -0.35282295942306513 0.92647829651832592 1.4828259348869326 -0.1240190491080284 -1.5860708951950071 -0.099341303110122667 -0.04088927619159221 0.012628284748643638 -0.37012761831283564 -0.019530032761394974 1.4253025054931643 -0.951259285211563 -0.10266743227839469 -0.11574210599064826 0.0050402730703353891 0.075379166752100005 -0.18000789731740949 -0.089444193989038454 0.88013809919357311 -2.3519468307495113 -0.077908601611852632 -0.091390576213598237 -0.075225375592708574 -0.086920540779829011 -0.10972031950950621 -0.10207055509090422
decision_type=2 2 2 2 2 2 2 2 2 2 2 2 2 2 2 2 2 2 2 2 2 2 2 2 2 2 2 2 2 2 2 2 2 2 2 2 2 2 2 2 2 2 2 2 2 2 2 2 2 2 2 2 2 2 2 2 2 2 2 2 2 2 2
left_child=1 7 3 5 -4 10 8 -1 45 33 11 -2 42 22 15 53 31 -13 -19 -20 -12 32 27 -15 44 -26 54 -14 29 36 -11 40 -17 43 -35 -33 37 -18 -38 -39 41 -16 55 -10 -25 47 -47 -7 49 -23 -50 52 -5 -3 -22 -8 -28 60 -45 -60 -58 62 -42
right_child=2 14 4 51 -6 6 12 -9 9 30 20 17 13 23 16 21 28 18 19 -21 26 48 -24 24 25 -27 56 -29 -30 -31 -32 35 -34 34 -36 -37 38 39 -40 -41 61 -43 -44 58 -46 46 -48 -49 50 -51 -52 -53 -54 -55 -56 -57 57 -59 59 -61 -62 -63 -64
leaf_value=0.00081647036755795501 0.0025054915819407234 0.00022814226933467639 -0.0025245839618604862 0.0012518578175721425 -0.00030373924229050355 -0.00010565908441387297 -0.00029455128106574933 0.0038281071512630722 0.00038152428168437808 -0.00011978114707347215 0.00098434831493068495 0.0011939936607999252 -0.0015474641237549647 0.0013325880579049107 0.0020894807405420581 0.00035747570338264618 -0.00065377859861462937 0.00019301018176509833 0.001312638196594301 0.00016377244883092581 -0.00075983530889392242 0.00017168527827991485 -0.0023198300859647745 0.001141937777874773 -0.0016794891418116589 0.00041223793994049629 0.00096511891101148321 0.00070086593495587157 0.0013301816735928629 -0.0018922857886186997 0.00012025161462381732 -0.00016386392392536047 -3.8554471177783399e-05 0.0024291064566671012 0.0005768747502372533 -0.00056860344552455983 -7.9543718902708529e-05 0.00028626514857395393 0.00055727277075966772 0.001226287652165271 5.3269259531748761e-05 0.00033570095512851401 0.00021583490539556953 0.00047107564019604597 -0.00079160388016004759 6.1517733061667223e-05 -0.0015086825273127188 -0.0011842849574712432 -0.00049921891453549047 -0.00088214187145945432 0.00017142979540592791 3.6107364252934027e-05 0.0033431000907120168 0.00082268226148344648 -0.0028333208206401885 -0.0019236873848504335 -0.00060494436274435251 -0.0022514106326905841 -0.001185215749000287 0.00056921789749311217 0.0010190073432850427 0.00070630186990860641 -0.00049836730730380685
leaf_weight=61 61 2100 132 237 106 6311 184 57 2849 3111 74 227 91 52 59 1166 273 6514 424 572 54 918 142 79 175 71 54 50 92 51 18448 38429 4010 88 881 866 6789 1570 411 194 1528 289 541 131 55 9388 70 122 1653 168 305 53 50 370 50 52 118 54 158 68 57 179 485
leaf_count=61 61 2100 132 237 106 6311 184 57 2849 3111 74 227 91 52 59 1166 273 6514 424 572 54 918 142 79 175 71 54 50 92 51 18448 38429 4010 88 881 866 6789 1570 411 194 1528 289 541 131 55 9388 70 122 1653 168 305 53 50 370 50 52 118 54 158 68 57 179 485
internal_value=-8.56128e-06 -9.38586e-05 9.3267e-05 0.000100817 -0.00154088 9.23286e-05 6.03673e-05 0.00229119 7.75716e-05 0.000138765 0.000259158 0.000299621 -0.000419343 -0.000819294 -9.84417e-05 2.6426e-05 -0.000124505 0.000281908 0.000254184 0.000653674 -0.000424451 -6.10658e-05 -0.00154351 -0.000342394 -0.000574498 -0.00107655 -0.000695676 -0.000750863 2.3933e-05 1.08525e-05 8.56105e-05 -0.000157787 5.07113e-05 0.000413158 0.000747416 -0.000172798 2.1564e-05 0.000250105 -4.31198e-05 0.000390283 7.4419e-05 0.000638172 -5.07261e-05 0.000311928 0.000348335 -2.15274e-05 4.97382e-05 -0.000126296 -0.000251085 8.00073e-06 -0.000394717 0.00137944 0.00162653 0.0003175 -0.00177419 -0.000660116 -0.000294479 -0.000594407 -0.000242992 -0.000657151 -7.32156e-05 -1.53322e-05 -7.98202e-05
internal_weight=113977 62023 51954 51716 238 51376 43117 118 41625 25734 8259 7798 1492 715 61905 10690 51215 7737 7510 996 461 8220 283 432 380 246 387 141 9380 9288 21559 41835 5176 4175 969 39295 9237 2037 7200 1764 2540 348 777 3206 134 15891 9458 6433 3044 1086 1958 340 287 2470 104 236 283 229 357 226 175 2192 2013
internal_count=113977 62023 51954 51716 238 51376 43117 118 41625 25734 8259 7798 1492 715 61905 10690 51215 7737 7510 996 461 8220 283 432 380 246 387 141 9380 9288 21559 41835 5176 4175 969 39295 9237 2037 7200 1764 2540 348 777 3206 134 15891 9458 6433 3044 1086 1958 340 287 2470 104 236 283 229 357 226 175 2192 2013
is_linear=0
shrinkage=0.05


Tree=2
num_leaves=64
num_cat=0
split_feature=8 7 4 7 2 7 7 4 8 8 2 8 2 8 4 8 3 8 0 8 6 6 6 4 7 6 3 8 4 4 6 0 4 8 0 8 7 8 8 4 6 3 2 3 3 2 4 4 4 2 3 8 8 6 3 4 8 3 8 6 4 8 6
split_gain=0.35762 0.188342 0.183905 0.132647 0.117172 0.11378 0.0923704 0.0912987 0.106264 0.0874597 0.0922652 0.0939119 0.0762846 0.0949294 0.0677871 0.0690919 0.067363 0.107156 0.0952866 0.0636141 0.0608968 0.0598965 0.0572476 0.0571656 0.0566918 0.0634754 0.0721096 0.139268 0.0585816 0.0536548 0.0529881 0.0522993 0.0566087 0.0565619 0.0510901 0.0498823 0.0573146 0.0494933 0.0477215 0.0465509 0.0427594 0.045526 0.0418262 0.0733287 0.057243 0.0413144 0.0410803 0.0620241 0.040098 0.0399634 0.0392553 0.0380761 0.0380127 0.037436 0.0366574 0.0364072 0.0362166 0.058889 0.0704576 0.0354905 0.0352359 0.0508189 0.0351728
threshold=-0.10013426840305327 4.141848325729371 1.4089863896369936 -3.2335282564163204 -0.11904621869325636 -1.5860708951950071 4.141848325729371 0.12333940714597703 -0.03133725002408027 -0.089444193989038454 -0.11640353873372077 -0.075504019856452928 -0.10873800143599509 -0.086369179189205156 -0.35978269577026362 -0.088514026254415498 -0.060836294665932648 -0.014258232433348892 -0.092175655066966997 0.0042021479457616815 -0.97846916317939747 1.2347438335418703 -0.40758714079856867 -0.37509015202522272 0.7306375801563264 -1.0235666036605833 -0.1249687261879444 -0.11030126735568045 4.9998755455017099 -0.076756972819566713 -1.1987068057060239 -0.1228521093726158 4.1045529842376718 -0.10510069131851195 -0.11220281198620795 -0.055176090449094765 -1.140403628349304 0.28271971642971044 -0.058074042201042168 -0.40120072662830347 -1.074975252151489 -0.12379509955644606 -0.076739352196454988 -0.090584728866815553 -0.0127065097913146 -0.12337341904640196 -0.39460456371307367 0.14500424265861514 -0.33246316015720362 -0.11374571174383162 -0.096455086022615419 -0.079367455095052705 -0.098362080752849565 0.38654397428035742 -0.12141748517751692 0.10357161983847619 -0.11116116121411322 -0.12337080016732214 -0.10820202156901358 0.56571242213249218 0.53751036524772655 0.075379166752100005 -0.17141243070363996
decision_type=2 2 2 2 2 2 2 2 2 2 2 2 2 2 2 2 2 2 2 2 2 2 2 2 2 2 2 2 2 2 2 2 2 2 2 2 2 2 2 2 2 2 2 2 2 2 2 2 2 2 2 2 2 2 2 2 2 2 2 2 2 2 2
left_child=5 2 4 22 52 21 24 12 -9 -5 -11 -12 14 -14 15 -6 17 29 19 -19 -10 31 -4 -17 28 -26 27 -27 34 38 -3 33 49 40 -7 -18 37 -37 48 -28 45 -42 43 -22 60 -1 -32 -48 50 -33 -15 -16 54 -54 -2 -31 -41 58 -58 -20 61 -44 -39
right_child=1 30 3 9 7 6 -8 8 20 10 11 -13 13 16 51 23 35 18 59 -21 42 -23 -24 -25 25 26 39 -29 -30 55 46 32 -34 -35 -36 36 -38 62 -40 56 41 -43 44 -45 -46 -47 47 -49 -50 -51 -52 -53 53 -55 -56 -57 57 -59 -60 -61 -62 -63 -64
leaf_value=0.00056847031243870518 0.0013846404539295831 0.0026122066890820863 -0.00014131742400304694 -0.00055174236789117437 0.0004518011645623151 -0.00010595474104312161 0.0016532156841414102 -4.9151412323730752e-05 0.00074968508965635703 -0.0030117917704206615 0.00020140408681222253 -0.0023917480556678678 -6.3429387722953128e-05 0.00027093607920981205 0.00014744078757936073 0.00093288891815572538 -0.00012498298943191554 0.0031881704690654186 0.00035488411120677201 0.000770082689804148 -0.00036487464192759946 0.0019395551597177849 0.0019638284090823226 0.0028449417617957811 -0.00052585577656258928 0.00029220690144956656 -0.001261657526598535 0.0026913255024750547 -0.00067634825969685431 -0.00019256176608541329 -0.00034663108391004452 5.6461979737500757e-05 -0.0011440201198686401 0.0018912185479054381 -0.00024969410332248784 1.0781059590075147e-05 0.00012191560815716101 -0.00068437894110846896 0.0003631146105566147 -0.00028582473091503716 0.00055471644200295043 -0.00049553820919204879 -8.7925994990197692e-05 -0.0023558829493812426 -0.0018269119370655205 0.0021590754236584827 0.0017346886203912703 8.8832860130296895e-05 0.00023652309725925386 0.0014181219553089856 -8.0141072437926822e-05 0.00066533402927179295 0.00067793915216942963 0.0016463463472837559 -0.00011395020254176894 0.0009183645596364771 0.00020026960687298913 3.8078622190243453e-06 0.0012937696674271137 0.0010872781372225566 0.00077667850866360358 -0.0018103181128147604 -3.4540489896376068e-05
leaf_weight=148 51 56 76 411 561 38708 73 3061 58 90 78 62 10218 1097 3433 117 3228 58 762 52 79 52 55 59 501 411 70 70 493 1357 51 988 94 72 7357 2441 17663 527 3001 807 257 171 150 112 75 56 175 85 4289 56 2896 395 320 146 189 77 595 4517 195 211 61 59 344
leaf_count=148 51 56 76 411 561 38708 73 3061 58 90 78 62 10218 1097 3433 117 3228 58 762 52 79 52 55 59 501 411 70 70 493 1357 51 988 94 72 7357 2441 17663 527 3001 807 257 171 150 112 75 56 175 85 4289 56 2896 395 320 146 189 77 595 4517 195 211 61 59 344
internal_value=-8.13007e-06 7.84423e-05 7.12768e-05 -0.000694783 8.16375e-05 -9.87362e-05 -0.000112148 7.36231e-05 -0.000168015 -0.000990904 -0.00176988 -0.00095581 9.03574e-05 7.18598e-05 0.000285693 0.000724512 0.000108236 0.000196392 0.000673613 0.00206231 -0.000779429 0.000282059 0.000750704 0.00158631 -0.000114577 1.63406e-05 5.71696e-05 0.00064621 -0.000134727 0.000155701 0.00120602 0.00023424 2.45759e-05 0.000572642 -0.000128916 5.79659e-05 8.61259e-05 -0.000104721 0.000192314 1.12562e-05 0.000419674 0.000134928 -0.000945981 -0.00153857 -0.000614414 0.00101351 0.000945256 0.00119902 0.000130388 0.000130788 1.63543e-05 0.00020104 0.000721333 0.000984221 0.000208924 -0.000132311 2.60339e-05 7.3501e-05 0.000471479 0.000514661 -0.00027211 -0.000580457 -0.00042806
internal_weight=113977 58286 57919 772 57147 55691 53797 56441 3655 641 230 140 52786 48221 4565 737 38003 13800 1083 110 594 1894 131 176 53724 7166 6665 481 46558 12717 367 1842 1138 704 46065 24203 20975 3312 11283 6184 632 428 536 191 345 204 311 260 8282 1044 3993 3828 706 466 240 1434 6114 5307 790 973 270 209 871
internal_count=113977 58286 57919 772 57147 55691 53797 56441 3655 641 230 140 52786 48221 4565 737 38003 13800 1083 110 594 1894 131 176 53724 7166 6665 481 46558 12717 367 1842 1138 704 46065 24203 20975 3312 11283 6184 632 428 536 191 345 204 311 260 8282 1044 3993 3828 706 466 240 1434 6114 5307 790 973 270 209 871
is_linear=0
shrinkage=0.05


Tree=3
num_leaves=64
num_cat=0
split_feature=8 5 7 6 5 2 7 3 8 8 7 3 7 5 5 6 7 3 2 5 7 8 2 1 7 3 2 8 7 6 8 7 8 1 1 6 8 2 8 1 5 7 1 5 6 7 6 7 6 5 7 5 3 5 6 5 7 2 7 5 2 5 7
split_gain=0.324552 0.239945 0.182947 0.0961496 0.0709174 0.0922389 0.084395 0.0604819 0.0811181 0.0612277 0.0519009 0.0695656 0.0509804 0.0680265 0.0480956 0.0559615 0.0524414 0.0552976 0.0464279 0.044727 0.0429956 0.0428989 0.113674 0.0445395 0.0416247 0.048148 0.0454296 0.132434 0.0651892 0.0405305 0.0384313 0.0381545 0.0351067 0.0350144 0.0347545 0.0641894 0.0342343 0.102025 0.110824 0.0823675 0.0684095 0.0440157 0.0403035 0.0340223 0.0335053 0.033501 0.0326308 0.0610774 0.0468051 0.0453159 0.0375843 0.0356819 0.0350339 0.0325429 0.0309226 0.0304324 0.0294346 0.0288549 0.0287687 0.0363169 0.0284215 0.0445978 0.0516189
threshold=-0.096261240541934953 -3.9562571048736568 4.141848325729371 -1.0574834942817686 -0.64226076006889332 -0.12322416156530379 0.65840169787406932 -0.10340028628706931 -0.023489665240049359 -0.086369179189205156 -1.7438325881958006 -0.12362405657768248 4.141848325729371 4.472569704055787 0.32986670732498174 0.92647829651832592 0.79612219333648693 -0.1220537982881069 -0.10549605265259741 1.7162866592407229 -0.3579860776662826 -0.071858551353216157 -0.11659508943557738 -0.10574914515018462 -1.5860708951950071 -0.10114525631070136 1.0000000180025095e-35 0.15142864733934405 -2.9110882282257076 -1.1987068057060239 -0.11161056905984877 -0.43153591454029078 -0.067828290164470659 -0.074040830135345445 -0.0089986668899655325 -0.74784353375434864 -0.091683372855186449 -0.11829861998558043 -0.087978396564722047 -0.11929770931601523 1.9915620088577273 1.2601435184478762 -0.10542126372456549 -2.6034798622131343 0.76338276267051708 2.0223895311355595 -0.49426770210266108 1.4828259348869326 -0.08557580783963202 4.472569704055787 2.8427233695983891 -2.6034798622131343 -0.096960976719856248 -1.8220303058624265 1.3094118237495425 2.2847467660903935 1.6580883264541628 -0.12306658551096915 -2.6765792369842525 -1.4585011005401609 -0.10873800143599509 -2.0683315992355342 -2.0307710170745845
decision_type=2 2 2 2 2 2 2 2 2 2 2 2 2 2 2 2 2 2 2 2 2 2 2 2 2 2 2 2 2 2 2 2 2 2 2 2 2 2 2 2 2 2 2 2 2 2 2 2 2 2 2 2 2 2 2 2 2 2 2 2 2 2 2
left_child=1 3 7 -1 5 20 10 8 18 19 11 -6 13 14 16 -16 30 44 21 -9 53 36 -23 58 25 32 27 43 -28 -4 -8 -7 -11 -12 35 -31 39 38 -38 41 42 -2 60 -27 -18 -17 49 51 56 50 55 -48 -50 -3 -54 -26 -49 -33 -24 -60 61 62 -39
right_child=2 4 29 -5 6 31 12 9 -10 24 33 -13 -14 -15 15 45 17 -19 -20 -21 -22 22 23 -25 46 26 28 -29 -30 34 -32 57 -34 -35 -36 -37 37 40 -40 -41 -42 -43 -44 -45 -46 -47 47 48 52 -51 -52 -53 54 -55 -56 -57 -58 -59 59 -61 -62 -63 -64
leaf_value=0.00075813721217151222 0.00075189073917675655 0.00060155388024624352 0.002520769454825383 0.0036174210768939669 0.0022207041846259551 -0.00011631520645584992 -0.0010167201356945034 -8.5003206475361777e-05 0.0021510125768265461 -0.00039122903037854689 -0.00015271502762785171 0.00015212316534281387 0.0011866938121872204 -0.0017931987699389886 -7.4680925683982561e-05 0.00035300453497796115 0.0011277788623933617 0.00013897972620904847 0.00044697623076909781 -0.0011630871356346131 0.00067564559477375499 -0.001690849602995773 0.0018298850066882249 -0.00047618070028978697 2.3015661819178517e-05 0.00031886317586407771 -0.0012862147419594678 0.0019457212648646149 -0.0001610064648706803 -0.00033432848979898089 3.6828716750251531e-05 -0.0009132190157288278 -0.0019999055488404099 0.0003412456409942979 -0.00020199428079239643 0.0016511242278803757 7.1850634727476008e-05 0.00043180592034022005 -0.0021668819799759167 0.00014307682438737145 -0.00086096915843377267 0.002431641841078845 -0.0012664542578232395 -0.00011694615010483079 0.00035602290867490209 0.0017126694863971075 0.001298914336028599 0.00069898419726541769 0.0013041871049180402 -0.001360215139090239 0.00081408577827510081 9.7800210818587514e-05 0.00036534302619900246 8.1458090521508412e-05 0.0011591028622455245 -0.00048964207449444077 -0.00016906877519312668 0.00016538577199663721 -0.00035600691626314074 0.00082430731435576574 -6.0569517762206538e-05 0.00017598166814926985 0.0022454088369972614
leaf_weight=61 154 371 51 57 50 6111 100 5284 52 96 41223 201 92 51 6789 360 321 759 1431 97 567 55 59 78 8256 612 148 90 949 51 605 63 52 361 50 195 110 128 110 2242 190 52 51 1661 252 51 61 127 154 59 145 23951 783 1573 145 299 411 2005 74 516 1137 1732 56
leaf_count=61 154 371 51 57 50 6111 100 5284 52 96 41223 201 92 51 6789 360 321 759 1431 97 567 55 59 78 8256 612 148 90 949 51 605 63 52 361 50 195 110 128 110 2242 190 52 51 1661 252 51 61 127 154 59 145 23951 783 1573 145 299 411 2005 74 516 1137 1732 56
internal_value=-7.71482e-06 -8.49354e-05 8.44715e-05 0.00215811 -8.92458e-05 2.78888e-05 -0.000113695 7.67653e-05 0.000201052 5.31902e-05 -0.000144087 0.000571368 2.18526e-05 1.0188e-05 2.0338e-05 -4.03541e-05 0.000234776 0.000419237 0.000188387 -0.00010465 0.000292898 0.00013346 0.000481422 0.000647859 7.55439e-05 -8.60036e-05 -4.8091e-05 7.53635e-05 -0.000313845 0.00122705 -0.000113839 -5.34964e-05 -0.000966069 -0.000148419 0.000996409 0.00123982 8.77464e-05 -1.22645e-05 -0.00105226 0.000231254 5.74928e-05 0.0011856 0.000113972 4.83125e-07 0.000789579 0.00052547 9.2494e-05 0.000120964 0.000418026 9.17709e-06 1.8619e-05 0.000100905 0.000607393 0.000180973 0.000490482 5.04298e-06 3.676e-05 0.000132101 0.000783476 0.000675916 0.000137439 0.000254913 0.000992926
internal_weight=113977 62023 51954 118 61905 10690 51215 51607 8227 43380 41835 251 9380 9288 9237 7200 2037 1332 8175 5381 2511 6744 782 727 37999 3608 3460 2363 1097 347 705 8179 148 41584 296 246 5962 3514 220 2448 3294 206 3104 2273 573 411 34391 25632 1620 8759 8700 24012 1082 1944 928 8555 538 2068 649 590 3053 1916 184
internal_count=113977 62023 51954 118 61905 10690 51215 51607 8227 43380 41835 251 9380 9288 9237 7200 2037 1332 8175 5381 2511 6744 782 727 37999 3608 3460 2363 1097 347 705 8179 148 41584 296 246 5962 3514 220 2448 3294 206 3104 2273 573 411 34391 25632 1620 8759 8700 24012 1082 1944 928 8555 538 2068 649 590 3053 1916 184
is_linear=0
shrinkage=0.05


Tree=4
num_leaves=64
num_cat=0
split_feature=8 7 0 7 7 5 3 5 7 5 7 1 5 2 5 7 7 5 1 7 2 8 8 5 0 8 8 3 2 7 5 7 5 5 5 5 8 1 3 2 2 1 3 7 5 7 7 8 0 0 7 2 7 2 8 8 8 7 5 7 5 0 5
split_gain=0.293791 0.152425 0.10916 0.0954158 0.0773256 0.0685702 0.118808 0.0643283 0.0573104 0.115554 0.0543956 0.0487839 0.0537685 0.0524618 0.0486908 0.0691657 0.0596173 0.0731274 0.0463798 0.0449066 0.139969 0.160634 0.0728415 0.0460043 0.0448223 0.0446864 0.0413534 0.0945234 0.0492857 0.0390179 0.0389876 0.0374088 0.0468966 0.043691 0.0407861 0.0402268 0.0372667 0.0512291 0.0595747 0.0484142 0.0478955 0.044889 0.0385263 0.0364643 0.0361442 0.0358629 0.0356813 0.0353572 0.0351925 0.0339765 0.033817 0.0381233 0.0319687 0.0318846 0.0597635 0.0317066 0.0341477 0.0324515 0.0596073 0.0311694 0.0308082 0.0301564 0.0301146
threshold=-0.10013426840305327 4.141848325729371 -0.12258677184581755 -1.5860708951950071 4.141848325729371 -3.9562571048736568 -0.10491850972175597 -3.9562571048736568 1.4828259348869326 1.0065404176712038 -3.7846535444259639 -0.12288774922490119 -0.6560508906841277 -0.11374571174383162 -0.62857401371002186 -0.43153591454029078 0.7306375801563264 0.32986670732498174 -0.12192284688353537 -1.3093744516372678 -0.11640353873372077 -0.085832450538873659 0.25005250424146658 1.9915620088577273 -0.12327332794666289 -0.11109627410769461 -0.086369179189205156 -0.10183261707425116 -0.10148376971483229 1.044734060764313 -3.6042827367782588 -0.45169229805469507 0.065588839352130904 0.7943072021007539 0.13040741533041003 -1.4585011005401609 -0.058074042201042168 -0.057482732459902756 -0.082753736525773988 -0.022619200870394703 0.023406123742461208 -0.043317809700965874 -0.040321165695786469 -3.7846535444259639 1.7923509478569033 -2.9110882282257076 -1.1168613433837888 -0.10266743227839469 -0.1173061579465866 -0.12137181684374808 0.55895355343818676 -0.025644294917583462 -3.7846535444259639 -0.12486975267529486 -0.110381331294775 -0.068883404135704027 -0.095952466130256639 0.64493098855018627 2.2847467660903935 -0.20221696048974988 -0.66894760727882374 -0.10875446721911429 4.472569704055787
decision_type=2 2 2 2 2 2 2 2 2 2 2 2 2 2 2 2 2 2 2 2 2 2 2 2 2 2 2 2 2 2 2 2 2 2 2 2 2 2 2 2 2 2 2 2 2 2 2 2 2 2 2 2 2 2 2 2 2 2 2 2 2 2 2
left_child=3 2 -2 7 14 6 52 -1 19 -10 -8 12 -9 47 15 -5 -16 18 25 20 21 48 30 26 -17 29 28 31 -21 -18 43 33 -33 35 -34 -28 39 38 59 -29 -41 -39 -43 -22 -3 -45 -37 -13 -7 -20 -44 -52 -4 54 -19 56 -25 58 -57 -38 -30 -58 -11
right_child=1 44 5 4 -6 8 10 11 9 62 -12 13 -14 -15 16 24 17 53 49 23 22 -23 -24 55 -26 -27 27 36 60 -31 -32 32 34 -35 -36 46 37 41 -40 40 -42 42 50 45 -46 -47 -48 -49 -50 -51 51 -53 -54 -55 -56 57 61 -59 -60 -61 -62 -63 -64
leaf_value=0.0015955194564222165 0.0021448675052693398 0.0020445988659048456 0.0029424447639030404 -8.8985565326473381e-05 0.0015134843557953483 -0.00032481611769271567 -0.001037809245584261 0.00032572725405251345 0.00060872241805288378 8.879796336175705e-05 0.00064936101143117219 7.4678721240500014e-05 0.0014999186766369097 0.0014373762878434112 -0.00014824868423885538 0.00057036182825301025 -0.00039795223885126296 0.0001171816375843253 -0.0012040447095333709 7.9366397126091532e-05 0.0016960646437693206 -0.0034621604441781532 -0.00046883783541333394 0.00035778189707985695 9.6923986142069906e-05 0.00086496184743658795 -0.00011570869859868802 2.3402770411352068e-05 0.00016373791426570319 0.001158888902972211 1.5545025957087226e-05 -1.0050045260047331e-05 0.0018733268728660817 -0.00048126629756196692 0.00043978314427011074 5.6442060084951797e-05 -0.000329685940922636 -0.00016944862637544058 0.00042488303001154965 -0.00059344949077966606 0.00068129186213756099 0.00070499346378613277 0.00012985919349263301 -0.00042675928007667428 0.00082472560738647022 0.00096378608746424126 0.0011917895771357894 -0.00060184084538062409 -0.0015869644264677081 0.00013741863089046584 -0.0006094276627492208 -6.4071009255514988e-07 0.0012374347793714456 -0.00010313753948170662 0.0019093088197728828 -0.00069432875954366312 -0.0019740889624561973 -0.00044328323646693934 0.0014292317940676703 0.00020768353200507547 -0.00015660028973403493 -0.00065802489793963682 -0.00063126710175110225
leaf_weight=85 62 77 55 5542 73 281 71 545 1391 2542 141 837 118 59 38667 690 157 337 50 7796 62 55 789 50 1810 510 92 8566 876 53 5648 761 52 68 811 82 464 1666 2426 559 84 261 12061 88 290 96 446 250 68 633 285 2550 59 5222 53 56 65 217 78 642 5211 133 153
leaf_count=85 62 77 55 5542 73 281 71 545 1391 2542 141 837 118 59 38667 690 157 337 50 7796 62 55 789 50 1810 510 92 8566 876 53 5648 761 52 68 811 82 464 1666 2426 559 84 261 12061 88 290 96 446 250 68 633 285 2550 59 5222 53 56 65 217 78 642 5211 133 153
internal_value=-7.32095e-06 7.11462e-05 6.47e-05 -8.94442e-05 -0.000101726 6.24339e-05 0.000784434 0.000259268 5.83291e-05 0.000238791 8.20986e-05 0.000195635 0.000536653 -1.95179e-06 -0.000103949 9.49924e-06 -0.00012392 1.01823e-05 0.000332918 4.45281e-05 -7.26848e-05 -0.000975258 -1.79848e-05 6.24483e-05 0.000227769 0.00061262 6.81504e-05 9.95183e-05 -3.87372e-06 -1.40499e-06 4.24379e-05 0.00040734 0.000276143 0.000716178 0.000528229 0.000848074 7.54326e-05 0.00011319 0.00028628 -8.02718e-06 -0.000426121 7.68348e-05 0.000103915 0.000657319 0.00108553 0.000300031 0.00101591 -8.13247e-05 -0.000574568 3.75981e-05 9.33363e-05 -6.20348e-05 0.00207846 -7.05465e-05 0.000364987 -0.000372536 -0.00080409 -6.62022e-05 0.000543204 -1.78532e-05 -0.00011048 -0.00109782 4.76996e-05
internal_weight=113977 58286 57919 55691 53797 57857 326 1894 57531 4086 212 1809 663 1146 53724 8042 45682 7015 1403 53445 7087 404 6683 46358 2500 720 45759 31876 13883 210 5894 2312 1624 688 863 620 29564 20355 3532 9209 643 16823 15157 246 367 184 528 1087 349 683 14896 2835 114 5612 390 599 248 351 134 1106 6087 198 2695
internal_count=113977 58286 57919 55691 53797 57857 326 1894 57531 4086 212 1809 663 1146 53724 8042 45682 7015 1403 53445 7087 404 6683 46358 2500 720 45759 31876 13883 210 5894 2312 1624 688 863 620 29564 20355 3532 9209 643 16823 15157 246 367 184 528 1087 349 683 14896 2835 114 5612 390 599 248 351 134 1106 6087 198 2695
is_linear=0
shrinkage=0.05


Tree=5
num_leaves=64
num_cat=0
split_feature=8 5 1 6 5 2 1 3 8 3 8 6 1 8 5 0 8 0 3 2 5 8 1 2 5 5 0 8 5 2 3 6 2 8 0 3 2 6 2 6 8 5 0 2 3 1 2 8 0 1 6 8 2 3 2 5 6 8 6 6 5 8 1
split_gain=0.258998 0.216566 0.0909674 0.0596829 0.0569016 0.0454161 0.0428434 0.0464855 0.228562 0.157442 0.124208 0.059807 0.0559108 0.043788 0.08437 0.0805236 0.0426197 0.0409702 0.0614588 0.0435767 0.0361844 0.0345509 0.079214 0.0609876 0.0489353 0.0481265 0.0657113 0.0778266 0.0613705 0.0480465 0.0919745 0.0478522 0.0471147 0.0463454 0.0436466 0.0420843 0.0651865 0.0357807 0.0352117 0.124826 0.111597 0.048925 0.0447935 0.0621438 0.0699825 0.0391963 0.0657972 0.0566927 0.0629523 0.0585145 0.0346548 0.0368527 0.0323267 0.0316855 0.0314322 0.0322258 0.0329593 0.0395482 0.0311854 0.0308516 0.0306156 0.0304661 0.0315556
threshold=-0.096261240541934953 -3.9562571048736568 -0.12171093001961707 -0.9933030605316161 -1.8969219326972959 -0.12111389264464377 -0.074040830135345445 -0.12068712338805197 -0.10788450390100478 -0.12357011437416075 -0.10397208109498023 0.96853032708168041 -0.12490012124180792 -0.11075356230139731 -0.83432719111442555 -0.12484381720423697 -0.11014555767178534 -0.11919776350259779 -0.12030836567282675 -0.12111389264464377 -0.83432719111442555 -0.058074042201042168 -0.057482732459902756 -0.10182857140898703 -2.165935635566711 0.073103215545415892 -0.094711519777774797 -0.026119954884052273 1.9915620088577273 -0.099737059324979768 -0.098304055631160722 -1.0079869627952573 -0.081533435732126222 -0.040940424427390092 -0.10811310634016989 -0.019468556158244606 0.023406123742461208 -0.30272789299488062 -0.11568953841924666 -1.0235666036605833 -0.08148681744933127 -0.53603294491767872 -0.11477040871977805 -0.11433411017060278 -0.11422336846590041 -0.11666470021009444 -0.11695486307144164 -0.088979091495275484 -0.11881686374545096 -0.11929770931601523 1.3489359021186831 -0.094529747962951646 -0.12369250506162642 -0.11735683307051657 -0.051616378128528588 2.8210313320159917 -0.020882344804704186 0.075379166752100005 0.21949844807386401 -1.3852494955062864 0.13040741533041003 -0.11312680318951605 -0.1210670731961727
decision_type=2 2 2 2 2 2 2 2 2 2 2 2 2 2 2 2 2 2 2 2 2 2 2 2 2 2 2 2 2 2 2 2 2 2 2 2 2 2 2 2 2 2 2 2 2 2 2 2 2 2 2 2 2 2 2 2 2 2 2 2 2 2 2
left_child=1 3 -2 -1 17 -4 7 8 13 10 12 -11 -10 14 -6 16 -15 18 19 -3 -17 23 25 38 -25 -23 27 34 32 31 -31 -26 33 -28 -27 59 -37 -30 39 -7 45 -42 -40 -44 -45 46 47 49 -49 -41 51 -33 -16 -43 -24 -56 57 -57 -18 -32 -34 -54 -63
right_child=2 4 5 -5 6 21 -8 -9 9 11 -12 -13 -14 15 52 20 58 -19 -20 -21 -22 22 54 24 29 26 28 -29 37 30 35 50 60 -35 -36 36 -38 -39 42 40 41 53 43 44 -46 -47 -48 48 -50 -51 -52 -53 61 -55 55 56 -58 -59 -60 -61 -62 62 -64
leaf_value=0.0010798109420305253 0.0018782283187660218 0.00037260498520770363 -0.001404133573455243 0.0033673543584026287 0.00025612643770380584 0.0022281477089833332 0.00045816215720235814 -0.00011674393141242005 0.0024512078834460212 0.00013748344758305998 0.0034152071991947631 0.00080207991362015298 0.000668220390847686 1.2194771319627762e-05 -8.7451230068973475e-05 -0.00030772705337924573 0.0021329808540075995 -0.00012866530572774371 0.0012638847585458783 -0.00081489373830778689 4.0104827674071852e-05 0.00015792405401275313 -0.00016863335806329674 0.00057244980176116478 0.00095949915607702245 -0.00072762812168209584 0.00051465623390657721 0.0022147687727645427 -0.00074885811257402902 0.00047899360475655645 -0.00092577477113556369 0.00035834005864942696 0.0016733728554695956 -0.00039665834371442984 0.00083292091418519327 -0.00068784941101833236 0.00078042681639393181 0.00032485745000975354 0.00082812098779567545 0.0010091151739304355 -0.002698117076805881 -0.0016527747415238992 -0.00078102944780873847 0.0019160681777003479 0.00017225657430767094 -0.00061368379155846055 0.0017207214330893852 -0.0020179362240241973 3.2984525359307349e-05 -0.00015122812847071003 0.00066109785875596578 -0.00049453544140920242 0.00016723908680113119 6.0130812267263266e-05 8.8652043054796129e-05 -0.00028005006523536784 -0.00041292708467095037 0.0012494588692768529 0.00060027999027979448 -6.6402762790750901e-06 0.00053378030118193007 -0.00027397162746604399 0.00029232423559646497
leaf_weight=68 70 692 50 50 1334 53 376 32746 50 2660 56 387 332 74 8070 862 80 488 180 86 5595 3340 1184 346 72 50 267 97 192 940 91 140 61 290 380 475 89 129 262 174 52 55 169 57 7353 209 61 63 90 286 79 1267 454 52 19695 55 61 177 58 11961 1310 7132 254
leaf_count=68 70 692 50 50 1334 53 376 32746 50 2660 56 387 332 74 8070 862 80 488 180 86 5595 3340 1184 346 72 50 267 97 192 940 91 140 61 290 380 475 89 129 262 174 52 55 169 57 7353 209 61 63 90 286 79 1267 454 52 19695 55 61 177 58 11961 1310 7132 254
internal_value=7.16764e-06 -6.17084e-05 8.97111e-05 0.00206926 -6.57997e-05 8.72548e-05 -7.32072e-05 -7.65367e-05 -2.84786e-05 0.000349755 0.00123507 0.000222129 0.000907386 -8.36135e-05 -0.000125688 2.51815e-05 0.000981702 0.000244067 0.000433871 0.000240461 -6.37068e-06 8.87247e-05 0.000127378 4.54857e-05 -1.46188e-05 0.000285866 0.00043969 0.00094182 0.000321661 -2.80953e-05 2.13564e-06 -0.000290965 0.000428219 4.03231e-05 0.000650195 -3.34295e-05 -0.000455182 -0.000317696 0.000149461 -0.00011605 -0.000237307 -0.0014523 0.00018655 0.000164265 0.000185927 -1.71295e-05 0.00016849 1.14761e-05 -0.000819132 0.000288921 -0.000352157 -0.000409478 -0.000157716 -0.000827486 8.15841e-05 9.64135e-05 0.000616052 0.000887214 0.00149776 -1.36565e-05 0.000585667 -0.000230022 -0.00025446
internal_weight=113888 62084 51804 118 61966 51734 60520 60144 27398 3485 438 3047 382 23913 17244 6669 212 1446 958 778 6457 51684 27288 24396 15460 6116 2776 527 2249 15114 13556 1558 1928 557 430 12616 564 321 8936 1095 1042 159 7841 7579 7410 883 674 613 153 460 1486 1407 15910 107 21172 19988 293 232 138 12052 1371 7840 7386
internal_count=113888 62084 51804 118 61966 51734 60520 60144 27398 3485 438 3047 382 23913 17244 6669 212 1446 958 778 6457 51684 27288 24396 15460 6116 2776 527 2249 15114 13556 1558 1928 557 430 12616 564 321 8936 1095 1042 159 7841 7579 7410 883 674 613 153 460 1486 1407 15910 107 21172 19988 293 232 138 12052 1371 7840 7386
is_linear=0
shrinkage=0.05


Tree=6
num_leaves=64
num_cat=0
split_feature=7 5 6 0 4 5 6 7 5 7 7 6 2 6 2 4 6 4 7 6 7 2 7 1 7 5 4 5 4 0 4 2 7 7 1 7 2 5 7 0 4 7 4 5 5 5 5 2 0 2 5 0 6 1 7 4 5 4 7 0 6 6 6
split_gain=0.240787 0.167938 0.151888 0.15135 0.135782 0.108621 0.119694 0.105698 0.0796999 0.092813 0.0735423 0.0981918 0.0929368 0.0727491 0.0748878 0.12637 0.0697177 0.0667139 0.061749 0.0603021 0.0954459 0.0602399 0.0591784 0.059371 0.0536363 0.0631205 0.0535677 0.053397 0.0672002 0.0482293 0.0457548 0.0667534 0.229054 0.0992295 0.0527489 0.0453577 0.0592131 0.043921 0.042264 0.040683 0.0406489 0.0414749 0.0393803 0.0384055 0.0376683 0.0484582 0.0359114 0.0358013 0.0342122 0.0335435 0.0333468 0.0329445 0.032504 0.0320667 0.0315493 0.0349418 0.0314347 0.0295258 0.0302197 0.0294511 0.0291419 0.0278312 0.0271256
threshold=1.4828259348869326 -3.9562571048736568 0.56571242213249218 -0.11850032955408095 0.41567113995552069 1.0065404176712038 -1.0400199890136717 -3.2335282564163204 -0.68223094940185536 -0.3488695621490478 4.141848325729371 -1.1987068057060239 -0.065992228686809526 -1.0400199890136717 -0.12327212840318678 4.9998755455017099 -0.86640629172325123 -0.093233447521924959 -1.2785682678222654 -0.34423857927322382 -2.9110882282257076 -0.088669527322053895 -1.1899832487106321 -0.03206954896450042 -0.88732561469078053 0.016049829311668876 -0.19509941339492795 1.473049581050873 -0.30786606669425959 -0.10113257169723509 1.4089863896369936 -0.12177537754178046 -2.1303451061248775 -1.4132063388824461 -0.12047690153121947 0.41336326301097875 -0.12566924840211866 0.74868053197860729 -0.34019370377063746 -0.12219100445508956 -0.4021048098802566 1.8150500655174258 0.30313548445701605 4.472569704055787 1.9915620088577273 1.7162866592407229 1.081973731517792 -0.12337341904640196 -0.12484381720423697 -0.12254728376865386 -1.0777595043182371 -0.1173061579465866 2.2731118202209477 -0.1060645282268524 2.3099446296691899 -0.32538004219532007 -0.71011635661125172 -0.42378683388233179 2.5373322963714604 -0.11381123214960097 -0.10715883597731589 -1.3360763192176817 -0.071249954402446733
decision_type=2 2 2 2 2 2 2 2 2 2 2 2 2 2 2 2 2 2 2 2 2 2 2 2 2 2 2 2 2 2 2 2 2 2 2 2 2 2 2 2 2 2 2 2 2 2 2 2 2 2 2 2 2 2 2 2 2 2 2 2 2 2 2
left_child=1 3 5 16 8 6 -2 17 9 19 11 43 29 46 18 30 -1 -5 56 -3 -21 24 53 -24 26 -26 -10 -27 -29 -12 44 32 -32 50 -35 -20 -37 54 -11 49 -39 -42 61 -7 45 -16 -6 -38 -13 -17 -33 -52 -43 -22 -4 -56 -15 -50 -59 -57 -55 -23 -8
right_child=2 4 37 7 13 10 62 -9 21 38 12 48 -14 14 15 39 -18 -19 35 20 22 42 23 -25 25 27 -28 28 -30 -31 31 33 -34 34 -36 36 47 40 -40 -41 41 52 -44 -45 -46 -47 -48 -49 57 -51 51 -53 -54 60 55 59 -58 58 -60 -61 -62 -63 -64
leaf_value=0.001409577246837167 0.0026208076516299377 -1.5937373317406759e-05 0.0007183011141804526 0.00091524702718331517 0.0002209814661672415 -0.00057091857307282163 0.0007966454416773992 0.0013562052416142922 0.00042059555603830959 0.0015267467393035381 0.00070579554645788724 0.0012469650602020745 0.0023159781492061238 0.00019233920348847087 -0.00018193487819172314 -0.0013514337996389993 0.003825082469896034 -0.0012661802064870315 -0.00020817917453556058 0.0013350654476292972 0.00028709996668549459 -0.0010245328522311562 0.00019677521755289708 0.00087338022264314317 -0.00012590536664663958 5.2863467517539851e-06 -2.6849584770031067e-05 -0.001009995656284965 -0.00013355410279752855 -0.0010578769224914998 0.0030070003933764787 -0.0010231546140121166 -0.00034893165419462818 -0.0012226494191163949 -0.00021337931809063557 -0.00083204529360915739 0.00021278708750198215 -1.8960093924154839e-05 0.00030262438157380097 -0.0020214141978340972 0.00047986552718181264 0.0013548882205392594 -0.0012883460841046392 -0.0020160435711626301 0.00080727068670584194 -0.0017165350825962379 -0.00089439422062193789 0.0013943607719699251 -0.0011093168254208067 -2.7671938313906604e-05 -0.0014515083038677853 -0.0031070500582035705 0.0026375367869472793 -0.00052340206036804071 0.00096404991300704965 0.00023348872177046039 0.0010177967074966102 -6.0338451649364471e-06 0.00035769881023346294 -0.0014620345215427314 2.4432327005673539e-06 5.3646093212162944e-05 0.0002783025930087129
leaf_weight=73 69 10518 572 52 1438 291 419 140 1191 71 161 61 76 352 4941 123 52 103 3159 182 457 59 1361 425 20297 26530 1524 279 1001 50 53 157 870 165 591 131 916 65 3585 116 113 284 54 54 94 51 75 68 52 78 80 51 61 443 51 50 171 2393 749 51 648 24904 637
leaf_count=73 69 10518 572 52 1438 291 419 140 1191 71 161 61 76 352 4941 123 52 103 3159 182 457 59 1361 425 20297 26530 1524 279 1001 50 53 157 870 165 591 131 916 65 3585 116 113 284 54 54 94 51 75 68 52 78 80 51 61 443 51 50 171 2393 749 51 648 24904 637
internal_value=6.8193e-06 -1.07141e-05 0.000308275 0.000985958 -1.46278e-05 0.000185334 0.000617766 0.000365035 6.89295e-06 0.000102457 6.00499e-05 -1.45612e-06 0.00082888 -0.000161753 -0.000202413 -0.00030248 0.00243681 -0.000533171 -4.86417e-05 4.39919e-05 0.000223222 -1.53991e-05 0.000162145 0.00035818 -4.66637e-05 -5.88674e-05 0.000169516 -9.93736e-06 -0.00032523 0.000284845 -0.000258479 -0.000463221 -0.000153183 -0.000736916 -0.000434981 -0.000111424 0.00016264 0.000801861 0.000326808 -0.00127758 0.001151 0.00131672 4.81144e-05 -0.000802285 -0.00017922 -0.000197954 0.000165138 0.000295773 8.36447e-05 -0.000840415 -0.00152525 -0.00211469 0.00158864 -6.41143e-05 0.000548413 -9.14201e-05 0.000463658 6.10439e-05 8.07601e-05 -0.000628607 -0.00021136 5.10569e-05 0.00048453
internal_weight=113888 107629 6259 420 107209 5012 1125 295 93529 17690 3887 3600 287 13680 12167 7370 125 155 4797 14034 3516 75839 3334 1786 50822 48107 2715 27810 1280 211 7053 1967 923 1044 756 4274 1115 1247 3656 317 523 458 25017 345 5086 4992 1513 984 3255 201 288 131 345 1548 724 152 523 3194 3142 101 1091 24963 1056
internal_count=113888 107629 6259 420 107209 5012 1125 295 93529 17690 3887 3600 287 13680 12167 7370 125 155 4797 14034 3516 75839 3334 1786 50822 48107 2715 27810 1280 211 7053 1967 923 1044 756 4274 1115 1247 3656 317 523 458 25017 345 5086 4992 1513 984 3255 201 288 131 345 1548 724 152 523 3194 3142 101 1091 24963 1056
is_linear=0
shrinkage=0.05


Tree=7
num_leaves=64
num_cat=0
split_feature=8 4 5 7 6 2 4 7 8 2 6 5 5 4 6 5 8 3 5 8 6 6 4 4 6 8 7 4 8 7 3 5 3 2 5 2 2 8 5 7 4 8 2 8 7 5 7 3 4 8 6 7 4 6 4 3 5 5 8 8 2 2 3
split_gain=0.218954 0.222346 0.17689 0.162618 0.102763 0.0885978 0.110911 0.0839634 0.0738121 0.0952523 0.0826259 0.0735114 0.067916 0.0651056 0.0537917 0.0530933 0.0528425 0.0526645 0.051568 0.0515631 0.0505094 0.0502483 0.0500311 0.0636004 0.0876542 0.0688115 0.0926582 0.0509041 0.0707245 0.0904503 0.0816477 0.0552099 0.0550895 0.0554422 0.0523393 0.0957601 0.0827096 0.0508047 0.0501307 0.0937936 0.0496724 0.0489836 0.0481628 0.0607164 0.0471221 0.0509332 0.0514952 0.0453822 0.0562788 0.0536312 0.0549521 0.0441463 0.0899776 0.0429223 0.0386669 0.0384962 0.0378316 0.0397785 0.0544009 0.0387814 0.04154 0.0377227 0.0471494
threshold=-0.096261240541934953 0.98912695050239574 -3.9562571048736568 4.141848325729371 -1.1109461784362791 -0.10873800143599509 -0.35978269577026362 1.4828259348869326 -0.092148322612047182 -0.11551885306835173 0.12038269639015199 1.1365525126457217 -2.4393801689147945 -0.29948577284812922 -0.97846916317939747 -0.64226076006889332 -0.084035549312829957 -0.11561059579253195 1.3791379928588869 0.075379166752100005 -0.9933030605316161 -0.41454727947711939 0.87564858794212352 0.16618963330984118 0.84958699345588695 -0.026119954884052273 -1.0922034382820127 -0.32720443606376642 -0.058074042201042168 -1.3406146168708799 -0.096455086022615419 1.6435219049453738 -0.098304055631160722 -0.099737059324979768 -2.6034798622131343 1.0000000180025095e-35 -0.10362445190548895 0.20379010587930682 -0.57075783610343922 1.0714556574821474 2.9763362407684331 0.092314764857292189 -0.077979434281587587 0.039590589702129371 -0.53341224789619435 -1.8969219326972959 -2.6765792369842525 -0.099027499556541429 0.53751036524772655 -0.076323196291923509 -0.24613653123378751 0.97058910131454479 0.39554964005947119 -0.5089205503463744 -0.37012761831283564 -0.12241972610354422 4.472569704055787 0.028001458384096626 0.13823890686035159 0.15142864733934405 0.023406123742461208 -0.089678987860679613 -0.067348133772611604
decision_type=2 2 2 2 2 2 2 2 2 2 2 2 2 2 2 2 2 2 2 2 2 2 2 2 2 2 2 2 2 2 2 2 2 2 2 2 2 2 2 2 2 2 2 2 2 2 2 2 2 2 2 2 2 2 2 2 2 2 2 2 2 2 2
left_child=2 3 20 5 -3 6 17 15 -6 10 16 -9 -8 -13 -15 44 -10 -2 -11 -5 -1 -21 23 27 25 47 42 28 31 -30 -31 32 33 -7 35 36 -29 56 39 53 -17 -38 -27 -44 45 -4 -47 49 -49 50 -25 -14 -53 -32 -33 -42 57 58 -36 -59 -61 -40 -63
right_child=1 4 7 19 8 22 12 11 9 18 -12 13 51 14 -16 40 -18 -19 -20 21 -22 -23 -24 24 -26 26 -28 34 29 30 38 54 -34 -35 37 -37 41 -39 61 -41 55 -43 43 -45 -46 46 -48 48 -50 -51 -52 52 -54 -55 -56 -57 -58 59 -60 60 -62 62 -64
leaf_value=0.00095954850936929388 0.0025977454940598992 0.0012052345322445036 0.00023223578734293858 0.00077401555126522593 -8.418652903980961e-05 5.0281607630366611e-05 0.0011622963353604728 0.00065974018922407068 -0.0018575969476025936 -0.00097772338412188578 -0.00079792675640239581 -0.0011300760839553319 6.1959116642427184e-05 -0.00051205796390831895 0.00029739096050459038 -8.5555987583059347e-05 -0.0038869879668345674 0.00087619133340037503 0.0005496334761682846 0.0032766880956021887 0.003062912251905301 0.0010486311667288343 0.0015007665393717558 -0.0005201236056798491 0.0013655058084623306 -0.0013815343913368204 -0.0016945790107236369 -0.0008829385705111135 -0.00024560768424046887 0.0013259321490948705 5.2887464035775419e-05 -0.001688477592975941 -0.00011363438761560215 0.00068117388362828467 9.3868548778649601e-05 -0.00095485245953474583 0.00087354579205172237 -0.00045200900843383974 -0.00084641211460036907 0.0018365039247025079 -0.00029299340414673145 0.0025156038929708305 0.0014320749910171693 -0.00066664110690388564 0.00018599170538374218 -0.0014533029706425235 -8.8987063656347114e-05 -6.0556262451427759e-05 0.0012181323437727299 -0.00098155415456573146 0.00084822712538356194 0.00069541535293365735 -0.00082442344452740741 0.00041821074887655931 -0.00027849602006506505 -0.0010894995160439674 -0.0011063032583721604 0.00022476820584118931 -0.00085827235755049538 0.0020302780363107881 0.0001308176694014533 0.00049244873749653762 6.6288861018144111e-05
leaf_weight=68 50 62 1379 202 203 2063 182 718 77 252 90 109 2366 255 1035 48095 59 369 70 50 50 53 60 193 79 54 189 62 1746 141 1488 85 7803 418 7713 86 450 362 108 95 975 50 67 69 3323 69 5829 423 107 254 117 709 112 1749 113 179 59 6677 152 61 54 682 13069
leaf_count=68 50 62 1379 202 203 2063 182 718 77 252 90 109 2366 255 1035 48095 59 369 70 50 50 53 60 193 79 54 189 62 1746 141 1488 85 7803 418 7713 86 450 362 108 95 975 50 67 69 3323 69 5829 423 107 254 117 709 112 1749 113 179 59 6677 152 61 54 682 13069
internal_value=6.48177e-06 8.23763e-05 -5.68463e-05 9.54623e-05 -0.000737478 8.85227e-05 0.000321092 -6.05439e-05 -0.000899252 -0.00120048 -0.00198556 0.000248846 0.000225502 3.76442e-05 0.000137111 -7.14917e-05 -0.00275994 0.00108732 -0.000645016 0.00124465 0.00186905 0.00215132 6.97314e-05 6.78662e-05 -0.000246764 -0.000334101 -0.000913785 7.86542e-05 3.99865e-05 9.73116e-05 0.000131869 -6.43487e-05 -4.83821e-05 0.000156806 0.00015133 0.000591013 0.000828845 0.000132396 0.000121999 0.000296106 -9.33395e-05 0.00104245 -0.000132294 0.000370191 3.00157e-05 -4.12257e-05 -0.000105192 -0.000132627 0.000199402 -0.000444442 -2.61472e-06 0.000171657 0.00048733 0.000250345 -0.000889234 -0.000417378 0.000146802 0.000151921 7.53606e-05 0.000240553 0.00114717 8.01211e-05 8.74591e-05
internal_weight=113888 51804 62084 50991 813 50686 3788 61966 751 548 226 2117 3369 1399 1290 59849 136 419 322 305 118 103 46898 46838 1552 1473 379 45286 29560 19078 17332 10482 10284 2481 15726 648 562 15078 17191 3332 49249 500 190 136 10600 7277 5898 1094 530 564 310 3187 821 3237 198 1154 14716 14657 7865 6792 115 13859 13751
internal_count=113888 51804 62084 50991 813 50686 3788 61966 751 548 226 2117 3369 1399 1290 59849 136 419 322 305 118 103 46898 46838 1552 1473 379 45286 29560 19078 17332 10482 10284 2481 15726 648 562 15078 17191 3332 49249 500 190 136 10600 7277 5898 1094 530 564 310 3187 821 3237 198 1154 14716 14657 7865 6792 115 13859 13751
is_linear=0
shrinkage=0.05


Tree=8
num_leaves=64
num_cat=0
split_feature=8 4 5 1 3 8 4 2 0 5 8 3 8 4 3 0 4 8 8 4 8 2 5 0 2 4 5 4 0 8 1 8 2 8 5 3 1 5 2 3 4 5 1 2 2 8 4 5 2 0 8 4 8 0 4 5 2 5 2 0 8 5 8
split_gain=0.199301 0.176637 0.161469 0.11304 0.0739298 0.092376 0.0590756 0.0575309 0.0583843 0.0572685 0.0568013 0.191829 0.168886 0.108405 0.12579 0.068715 0.112995 0.0655154 0.0528936 0.050287 0.0729973 0.0602466 0.0679145 0.0649102 0.0704726 0.0595388 0.0554156 0.0539354 0.0494221 0.0492838 0.0488039 0.0477837 0.0470609 0.0466019 0.0531098 0.0561417 0.0440493 0.0542515 0.0571379 0.0578699 0.0431359 0.0430644 0.0422085 0.0420344 0.0517335 0.0528124 0.0504745 0.041816 0.0393529 0.0390815 0.0401877 0.0444309 0.0389297 0.0432896 0.0742749 0.0649535 0.0501583 0.039804 0.041858 0.0392593 0.0481793 0.0359069 0.0350501
threshold=-0.086369179189205156 1.4089863896369936 -3.9562571048736568 -0.11963477730751036 -0.095327336341142641 -0.023489665240049359 -0.20537564158439633 -0.11678882688283919 -0.11144647002220152 -0.7693379521369933 -0.1106152795255184 -0.12357011437416075 -0.10478184372186659 0.53751036524772655 -0.12503571063280103 -0.12064191326498984 0.20424522459506991 -0.10766350105404852 -0.10731469467282294 -0.04088927619159221 -0.043119026347994797 -0.06215377710759639 -3.1171038150787349 -0.054585194215178483 -0.046183871105313294 0.3205434530973435 1.3406869173049929 -0.25373810529708857 -0.11280537024140357 0.35990341007709509 -0.12231366336345671 -0.079367455095052705 -0.012706892564892767 -0.071858551353216157 1.9915620088577273 -0.10621869564056395 -0.091636974364519105 -0.75491687655448902 -0.059648226946592324 -0.043170014396309846 -0.33072541654109949 2.8210313320159917 -0.05327541567385196 -0.099341519176959978 -0.10182857140898703 -0.052098393440246575 0.30313548445701605 -1.598626375198364 -0.040583956986665719 -0.10456306859850882 -0.072767976671457277 0.35606357455253607 -0.099909681826829896 -0.10651466995477675 0.28628073632717138 1.7162866592407229 -0.10842546448111533 0.47152271866798406 -0.11847712844610213 -0.1181945540010929 -0.096873302012681947 0.10928390920162202 -0.058074042201042168
decision_type=2 2 2 2 2 2 2 2 2 2 2 2 2 2 2 2 2 2 2 2 2 2 2 2 2 2 2 2 2 2 2 2 2 2 2 2 2 2 2 2 2 2 2 2 2 2 2 2 2 2 2 2 2 2 2 2 2 2 2 2 2 2 2
left_child=2 4 3 -1 5 6 28 31 47 -4 -11 12 13 14 -12 16 17 -13 -16 27 25 26 -23 -24 -25 42 -22 41 40 36 -19 -8 -26 -30 35 -35 -29 38 -38 -40 -2 62 -21 44 49 -46 -45 -9 -41 -10 -51 -52 -17 54 59 -55 57 58 -56 60 -54 -7 -6
right_child=1 -3 9 -5 19 61 7 8 43 10 11 15 -14 -15 18 52 -18 30 -20 20 21 22 23 24 32 -27 -28 29 33 -31 -32 -33 -34 34 -36 -37 37 -39 39 48 -42 -43 -44 46 45 -47 -48 -49 -50 50 51 -53 53 55 56 -57 -58 -59 -60 -61 -62 -63 -64
leaf_value=0.0026696498256667412 0.0021977108719049773 -0.0012316121802083218 6.0003229782728125e-05 4.0415794717626198e-05 -4.6618479923893412e-05 0.00063763859052414775 -0.00015115762480359148 0.0018996758029736099 -0.00013942369932488222 -0.00013735415245165095 0.0030881002395679908 0.00013009501804638781 0.0028164550764486194 -3.1511311721040375e-05 0.00045319896336941954 -0.00012384639477706986 -0.00014910317394245352 0.0011308776817922296 0.0016938155079460557 0.0001130922329125442 -0.00050322061644927148 0.0014793478299935277 0.00091332539509008737 -0.0015554083068548752 0.00028963024468778759 0.0011003904019404823 -0.0016510535594672108 -0.00025189881859586348 0.0001968540232494398 -0.0009976603779367182 0.00039346433781416916 -0.0021781986611256123 -0.00090112045986643361 0.0014094477646840672 -0.00061121467865578945 0.00049769478102691959 0.0009154938401832657 0.00019410602040255013 -0.00047234475252349212 0.0017928206376126854 0.00043329407906984109 0.00068570956157394658 -0.0013531570152787577 0.00063304661348703218 -0.00080557460255077271 0.0007861400607087817 -0.000693263006829765 0.00045357958656375494 0.00037992142189280679 0.00084741889800134815 -0.00046648860941965475 0.00094004076514623061 0.00017862528444557275 -6.5706970447570919e-05 -0.0016938549969191818 -0.0010166349601643996 0.0011651039798582334 -5.0837528933407694e-05 -0.00048593780398622556 0.00014388352365597975 0.0014032397566565112 0.0021215304001548931 8.6625640174495898e-05
leaf_weight=92 66 249 10566 73 6422 79 68 61 968 19193 55 2521 74 776 622 21630 2732 300 99 663 526 64 102 113 235 149 131 369 2362 77 890 50 127 214 84 798 651 2773 193 56 73 273 52 435 363 60 85 264 372 253 182 80 184 7482 90 183 53 406 346 3837 142 86 21314
leaf_count=92 66 249 10566 73 6422 79 68 61 968 19193 55 2521 74 776 622 21630 2732 300 99 663 526 64 102 113 235 149 131 369 2362 77 890 50 127 214 84 798 651 2773 193 56 73 273 52 435 363 60 85 264 372 253 182 80 184 7482 90 183 53 406 346 3837 142 86 21314
internal_value=6.16163e-06 9.34474e-05 -4.39596e-05 0.00151366 0.000101467 0.000254416 0.000224479 5.52238e-05 0.000101748 -4.75411e-05 -6.59839e-05 -3.36914e-05 0.000498714 0.000386461 0.000803936 -5.49231e-05 9.49056e-05 0.000274534 0.000625657 7.22009e-05 -0.000161248 -0.000398163 -5.30796e-05 -0.00022532 -0.000471234 0.000194722 -0.00073425 8.77351e-05 0.000359425 0.000248575 0.00058016 -0.00102116 -0.000129451 0.00032203 0.000591373 0.000691697 0.000270536 0.000318245 0.000588506 0.000244802 0.00128079 6.19379e-05 4.71497e-06 1.73184e-05 -9.14294e-05 -0.000578478 0.000415331 0.000729995 0.000568535 4.77889e-05 0.000399264 -3.50727e-05 -8.30258e-05 -1.36238e-05 9.99007e-05 -8.85398e-05 -0.000313099 -0.000407416 -0.000738584 0.000188745 0.000714706 0.00141918 5.57737e-05
internal_weight=113888 41542 72346 165 41293 6631 6466 2869 2751 72181 61615 42422 1626 1552 776 40796 6443 3711 721 34662 2162 1298 641 577 475 864 657 32500 3597 4491 1190 118 362 3458 1096 1012 4414 4045 1272 621 139 28009 715 2426 1906 423 520 325 428 1483 515 262 34353 12723 5058 7665 895 842 436 4163 326 165 27736
internal_count=113888 41542 72346 165 41293 6631 6466 2869 2751 72181 61615 42422 1626 1552 776 40796 6443 3711 721 34662 2162 1298 641 577 475 864 657 32500 3597 4491 1190 118 362 3458 1096 1012 4414 4045 1272 621 139 28009 715 2426 1906 423 520 325 428 1483 515 262 34353 12723 5058 7665 895 842 436 4163 326 165 27736
is_linear=0
shrinkage=0.05


Tree=9
num_leaves=64
num_cat=0
split_feature=7 8 4 7 3 7 4 0 8 1 4 7 4 7 8 7 8 0 0 8 4 0 1 3 2 7 8 3 4 8 2 0 4 7 8 7 7 0 8 0 2 4 7 7 0 4 8 2 7 1 4 7 0 8 7 0 8 8 4 7 4 7 7
split_gain=0.193482 0.147191 0.193859 0.178923 0.181608 0.0998704 0.0750192 0.0731969 0.0565234 0.0489443 0.0654764 0.0542787 0.0541073 0.0749184 0.106565 0.0438284 0.0637763 0.0422855 0.0416573 0.0645854 0.0417782 0.0408337 0.0394969 0.0384406 0.054068 0.0476919 0.0382317 0.155183 0.168966 0.133042 0.133325 0.0694806 0.0668027 0.0815399 0.0586657 0.0374724 0.0466432 0.109783 0.0366538 0.0795866 0.0693737 0.0782463 0.0779797 0.0362298 0.0396464 0.038824 0.0450835 0.0382452 0.100323 0.0823144 0.0378148 0.0348861 0.0332676 0.0695151 0.0353785 0.0331944 0.0328067 0.0327999 0.0341153 0.0320095 0.0329489 0.0731326 0.0408108
threshold=1.4828259348869326 -0.086369179189205156 1.4089863896369936 -3.7846535444259639 -0.12164237722754477 4.141848325729371 2.9763362407684331 -0.12236785516142844 0.075379166752100005 -0.10831414908170699 -0.35577587783336634 -0.0072392378933727733 0.15515998005867007 -0.52234008908271778 -0.069944668561220155 -1.0922034382820127 -0.11109627410769461 -0.12484381720423697 -0.06081136874854564 -0.052098393440246575 -0.0076142011675983659 0.031645525246858604 -0.12264955416321753 -0.11735683307051657 -0.1074836105108261 -2.3519468307495113 -0.1106152795255184 -0.1207851618528366 0.73739197850227367 -0.10766350105404852 -0.12409324571490286 -0.1249168999493122 -0.04088927619159221 0.68498516082763683 -0.10207055509090422 1.0189421176910403 -0.36661970615386957 -0.1160716377198696 0.039590589702129371 -0.049991812556982033 -0.092947889119386659 0.62836068868637096 -0.8534702956676482 -1.1899832487106321 0.023504770360887054 -0.42826874554157252 -0.047044388949871056 1.0000000180025095e-35 -2.9110882282257076 -0.037642464041709893 -0.16736667603254315 -1.1168613433837888 -0.12327332794666289 -0.10777562856674193 -1.3406146168708799 -0.09694113582372664 -0.10613166168332099 -0.10462062060832976 -0.39161179959774012 0.48199759423732763 -0.25373810529708857 -0.56611317396163929 -1.3406146168708799
decision_type=2 2 2 2 2 2 2 2 2 2 2 2 2 2 2 2 2 2 2 2 2 2 2 2 2 2 2 2 2 2 2 2 2 2 2 2 2 2 2 2 2 2 2 2 2 2 2 2 2 2 2 2 2 2 2 2 2 2 2 2 2 2 2
left_child=1 3 9 4 -1 17 15 22 55 10 11 -3 18 38 -15 16 -5 -2 19 -11 59 -10 52 -4 25 -25 -17 28 29 31 -31 -28 33 34 -32 36 37 -12 40 -40 42 -42 -14 47 -45 -46 -47 48 49 -20 -49 -18 53 -8 -55 -7 -54 58 -29 60 62 -62 -21
right_child=5 2 23 6 -6 8 7 -9 21 12 35 -13 13 14 -16 26 51 -19 43 20 -22 -23 -24 24 -26 -27 27 57 -30 30 32 -33 -34 -35 -36 -37 -38 -39 39 -41 41 -43 -44 44 45 46 -48 50 -50 -51 -52 -53 56 54 -56 -57 -58 -59 -60 -61 61 -63 -64
leaf_value=0.0036397158020973265 0.00106188846138176 0.0025493240051666184 -0.0026638474498017163 0.00063678610109369751 2.0244699663709146e-05 0.00093142807897716269 -0.00027568777349160398 -0.00095885568031673924 0.0029640564021908428 8.6584567957026946e-05 -0.0015924017014504787 0.00051308579124252748 -0.00051796022345817225 0.00056649823032785208 -0.0013374795376434384 -0.0001181012932712221 7.7250795995627926e-06 0.0001999040487789732 -8.3945457800673174e-06 -0.00041077661083144105 -0.00018787891264314166 0.00096145565050891513 0.0008431621718644986 0.00069013819414137222 -0.0023564942181110386 -0.0014630603602306699 0.0019646755332909174 -0.00036839422326300116 -0.00027897738525698768 0.0032201198312507662 0.0010847566911000234 0.00014145615844664318 0.0002732056824073902 7.7423771255693988e-05 0.0026666255550534357 0.0013193596839336317 -0.00028075584362248767 0.0007394731248885299 -0.0023320588611086888 0.00021866407181520329 0.00027569908154625658 0.0021514987761988512 0.0014663155867481238 -9.3620223445333936e-06 -7.1274398975776701e-05 0.00094264462050988292 0.00016140954963522587 -0.00021498521261031634 -6.0124372811539556e-05 0.0024688598609601872 -0.0013265634220442737 0.0006654752364002413 -0.0004550154948619507 0.0019769226252370014 0.00024031191328833593 -0.00032528157030218142 -0.0017225993685177387 -3.5197262906761223e-05 -0.00010797511934993823 0.00070296096217043022 0.00087283310427974938 -5.0310175439694528e-05 0.00029146318579464594
leaf_weight=65 145 60 50 478 73 264 1047 406 54 9421 56 72 428 99 279 19469 5035 5681 60 260 328 50 84 51 52 50 52 1390 1512 51 461 3758 655 188 67 76 344 443 50 76 307 67 55 9434 1900 188 8159 1783 1150 75 79 209 231 51 68 65 65 21001 13141 694 592 336 998
leaf_count=65 145 60 50 478 73 264 1047 406 54 9421 56 72 428 99 279 19469 5035 5681 60 260 328 50 84 51 52 50 52 1390 1512 51 461 3758 655 188 67 76 344 443 50 76 307 67 55 9434 1900 188 8159 1783 1150 75 79 209 231 51 68 65 65 21001 13141 694 592 336 998
internal_value=5.86172e-06 -9.85527e-06 6.91775e-05 -5.31142e-05 0.00173899 0.000276087 -5.67018e-05 -0.000362202 0.00100787 7.74564e-05 0.000413739 0.00145086 6.7846e-05 -0.000241422 -0.00083864 -4.78576e-05 8.4514e-05 0.000221536 7.97236e-05 0.000152584 0.00034632 0.00201959 -0.000204994 -0.00146804 -0.00106249 -0.000379695 -6.01259e-05 -3.34248e-05 0.000186443 0.000320973 0.000733514 0.000166849 0.000638735 0.000972275 0.00129015 0.000263358 0.000166704 0.000475118 -1.11503e-05 -0.00080392 0.000106207 0.000616579 -0.000289445 3.94103e-05 6.4599e-05 0.000132686 0.000179116 -0.000118088 9.16937e-05 0.00137589 -0.000262833 3.40616e-05 -0.000265751 -0.000145278 0.000994846 0.000682909 -0.000738233 -7.51599e-05 -0.00013291 0.000407203 0.000313029 0.000538897 0.000146115
internal_weight=113888 107629 38072 69557 138 6259 69419 1952 433 37869 1051 132 36818 1361 378 67467 5722 5826 35457 12629 3208 104 1546 203 153 101 61745 42276 6744 5232 1422 3810 1371 716 528 919 843 499 983 126 857 374 483 22828 19681 10247 8347 3147 1285 135 1862 5244 1462 1166 119 329 296 35532 14531 2880 2186 928 1258
internal_count=113888 107629 38072 69557 138 6259 69419 1952 433 37869 1051 132 36818 1361 378 67467 5722 5826 35457 12629 3208 104 1546 203 153 101 61745 42276 6744 5232 1422 3810 1371 716 528 919 843 499 983 126 857 374 483 22828 19681 10247 8347 3147 1285 135 1862 5244 1462 1166 119 329 296 35532 14531 2880 2186 928 1258
is_linear=0
shrinkage=0.05


end of trees

feature_importances:
Column_8=122
Column_7=101
Column_5=82
Column_4=78
Column_2=68
Column_0=54
Column_6=53
Column_3=43
Column_1=29

parameters:
[boosting: gbdt]
[objective: regression]
[metric: l2]
[tree_learner: serial]
[device_type: cpu]
[data_sample_strategy: bagging]
[data: ]
[valid: ]
[num_iterations: 1200]
[learning_rate: 0.05]
[num_leaves: 64]
[num_threads: 0]
[seed: 0]
[deterministic: 0]
[force_col_wise: 0]
[force_row_wise: 0]
[histogram_pool_size: -1]
[max_depth: -1]
[min_data_in_leaf: 50]
[min_sum_hessian_in_leaf: 0.001]
[bagging_fraction: 0.8]
[pos_bagging_fraction: 1]
[neg_bagging_fraction: 1]
[bagging_freq: 5]
[bagging_seed: 3]
[bagging_by_query: 0]
[feature_fraction: 0.8]
[feature_fraction_bynode: 1]
[feature_fraction_seed: 2]
[extra_trees: 0]
[extra_seed: 6]
[early_stopping_round: 0]
[early_stopping_min_delta: 0]
[first_metric_only: 0]
[max_delta_step: 0]
[lambda_l1: 0]
[lambda_l2: 1]
[linear_lambda: 0]
[min_gain_to_split: 0]
[drop_rate: 0.1]
[max_drop: 50]
[skip_drop: 0.5]
[xgboost_dart_mode: 0]
[uniform_drop: 0]
[drop_seed: 4]
[top_rate: 0.2]
[other_rate: 0.1]
[min_data_per_group: 100]
[max_cat_threshold: 32]
[cat_l2: 10]
[cat_smooth: 10]
[max_cat_to_onehot: 4]
[top_k: 20]
[monotone_constraints: ]
[monotone_constraints_method: basic]
[monotone_penalty: 0]
[feature_contri: ]
[forcedsplits_filename: ]
[refit_decay_rate: 0.9]
[cegb_tradeoff: 1]
[cegb_penalty_split: 0]
[cegb_penalty_feature_lazy: ]
[cegb_penalty_feature_coupled: ]
[path_smooth: 0]
[interaction_constraints: ]
[verbosity: -1]
[saved_feature_importance_type: 0]
[use_quantized_grad: 0]
[num_grad_quant_bins: 4]
[quant_train_renew_leaf: 0]
[stochastic_rounding: 1]
[linear_tree: 0]
[max_bin: 255]
[max_bin_by_feature: ]
[min_data_in_bin: 3]
[bin_construct_sample_cnt: 200000]
[data_random_seed: 1]
[is_enable_sparse: 1]
[enable_bundle: 1]
[use_missing: 1]
[zero_as_missing: 0]
[feature_pre_filter: 1]
[pre_partition: 0]
[two_round: 0]
[header: 0]
[label_column: ]
[weight_column: ]
[group_column: ]
[ignore_column: ]
[categorical_feature: ]
[forcedbins_filename: ]
[precise_float_parser: 0]
[parser_config_file: ]
[objective_seed: 5]
[num_class: 1]
[is_unbalance: 0]
[scale_pos_weight: 1]
[sigmoid: 1]
[boost_from_average: 1]
[reg_sqrt: 0]
[alpha: 0.9]
[fair_c: 1]
[poisson_max_delta_step: 0.7]
[tweedie_variance_power: 1.5]
[lambdarank_truncation_level: 30]
[lambdarank_norm: 1]
[label_gain: ]
[lambdarank_position_bias_regularization: 0]
[eval_at: ]
[multi_error_top_k: 1]
[auc_mu_weights: ]
[num_machines: 1]
[local_listen_port: 12400]
[time_out: 120]
[machine_list_filename: ]
[machines: ]
[gpu_platform_id: -1]
[gpu_device_id: -1]
[gpu_use_dp: 0]
[num_gpu: 1]

end of parameters

pandas_categorical:null
